{
  "data": [
    {
      "algorithm": "python-sgd-neural-network",
      "algorithmSpec": {
        "code": "sgdNeuralNetwork",
        "parameters": [
          {
            "code": "hidden_layer_sizes",
            "value": "60,30"
          },
          {
            "code": "activation",
            "value": "tanh"
          }
        ]
      },
      "data": {
        "action": [
          {
            "let": {
              "x": {
                "a.flatten": [
                  {
                    "new": [
                      {
                        "u.arr": [
                          {
                            "/": [
                              {
                                "-": [
                                  {
                                    "cast.double": [
                                      {
                                        "attr": "input",
                                        "path": [
                                          {
                                            "string": "lefthippocampus"
                                          }
                                        ]
                                      }
                                    ]
                                  },
                                  2.91276
                                ]
                              },
                              0.25938
                            ]
                          }
                        ]
                      }
                    ],
                    "type": {
                      "items": {
                        "items": "double",
                        "type": "array"
                      },
                      "type": "array"
                    }
                  }
                ]
              }
            }
          },
          {
            "let": {
              "activations": {
                "model.neural.simpleLayers": [
                  "x",
                  {
                    "cell": "neuralnet"
                  },
                  {
                    "do": [
                      {
                        "m.link.relu": [
                          "x"
                        ]
                      }
                    ],
                    "params": [
                      {
                        "x": "double"
                      }
                    ],
                    "ret": "double"
                  }
                ]
              }
            }
          },
          {
            "cell": "classes",
            "path": [
              {
                "a.argmax": [
                  "activations"
                ]
              }
            ]
          }
        ],
        "cells": {
          "classes": {
            "init": [
              "AD",
              "CN",
              "Other"
            ],
            "rollback": false,
            "shared": false,
            "type": {
              "items": "string",
              "type": "array"
            }
          },
          "neuralnet": {
            "init": [
              {
                "bias": [
                  0.30196,
                  0.2746,
                  0.13829,
                  -0.06685,
                  0.1315,
                  0.12668,
                  -0.07525,
                  -0.27811,
                  -0.28764,
                  -0.26256,
                  -0.09287,
                  -0.31496,
                  -0.10497,
                  0.01896,
                  -0.09583,
                  -0.11133,
                  0.20636,
                  0.27975,
                  -0.08233,
                  0.19784,
                  0.28013,
                  -0.17432,
                  0.04056,
                  -0.09232,
                  0.10137,
                  -0.21508,
                  -0.26293,
                  -0.18991,
                  -0.2672,
                  0.23883,
                  0.18222,
                  -0.23827,
                  -0.05842,
                  -0.19054,
                  -0.13125,
                  -0.14791,
                  0.04463,
                  0.24609,
                  0.02808,
                  0.15504,
                  -0.23235,
                  0.16481,
                  0.12073,
                  0.25692,
                  -0.26858,
                  -0.23605,
                  0.27669,
                  0.17425,
                  0.15485,
                  0.0082,
                  -0.07379,
                  -0.10883,
                  -0.28093,
                  0.28754,
                  -0.1064,
                  -0.26845,
                  0.28475,
                  -0.11505,
                  0.20303,
                  0.11101
                ],
                "weights": [
                  [
                    0.22838
                  ],
                  [
                    0.10374
                  ],
                  [
                    -0.13672
                  ],
                  [
                    -0.27282
                  ],
                  [
                    -0.27573
                  ],
                  [
                    -0.05569
                  ],
                  [
                    0.15168
                  ],
                  [
                    0.23597
                  ],
                  [
                    -0.2085
                  ],
                  [
                    0.29184
                  ],
                  [
                    0.06441
                  ],
                  [
                    0.24932
                  ],
                  [
                    0.00413
                  ],
                  [
                    -0.29361
                  ],
                  [
                    0.17763
                  ],
                  [
                    0.0453
                  ],
                  [
                    -0.24741
                  ],
                  [
                    0.20319
                  ],
                  [
                    0.1403
                  ],
                  [
                    -0.06
                  ],
                  [
                    0.10825
                  ],
                  [
                    0.09573
                  ],
                  [
                    -0.27747
                  ],
                  [
                    0.00762
                  ],
                  [
                    -0.13838
                  ],
                  [
                    -0.03003
                  ],
                  [
                    -0.17555
                  ],
                  [
                    -0.12142
                  ],
                  [
                    -0.01806
                  ],
                  [
                    0.28999
                  ],
                  [
                    -0.00711
                  ],
                  [
                    0.06957
                  ],
                  [
                    -0.24273
                  ],
                  [
                    -0.13355
                  ],
                  [
                    0.18309
                  ],
                  [
                    -0.15558
                  ],
                  [
                    -0.02346
                  ],
                  [
                    0.22016
                  ],
                  [
                    0.09726
                  ],
                  [
                    0.01753
                  ],
                  [
                    -0.07465
                  ],
                  [
                    0.30953
                  ],
                  [
                    0.07787
                  ],
                  [
                    -0.2148
                  ],
                  [
                    0.28727
                  ],
                  [
                    -0.09135
                  ],
                  [
                    0.00126
                  ],
                  [
                    -0.32097
                  ],
                  [
                    -0.06068
                  ],
                  [
                    -0.02957
                  ],
                  [
                    0.04135
                  ],
                  [
                    0.15073
                  ],
                  [
                    0.14905
                  ],
                  [
                    0.17862
                  ],
                  [
                    -0.23618
                  ],
                  [
                    -0.03713
                  ],
                  [
                    -0.15443
                  ],
                  [
                    -0.31493
                  ],
                  [
                    0.28156
                  ],
                  [
                    -0.19892
                  ]
                ]
              },
              {
                "bias": [
                  0.00538,
                  0.18616,
                  -0.10865,
                  0.10026,
                  -0.19266,
                  -0.04806,
                  -0.01484,
                  -0.22049,
                  -0.02743,
                  -0.01025,
                  -0.20548,
                  -0.20949,
                  0.21245,
                  0.04641,
                  0.10577,
                  -0.15038,
                  0.25079,
                  -0.03613,
                  0.09823,
                  0.09857,
                  -0.05377,
                  -0.21554,
                  -0.09695,
                  0.05743,
                  -0.00154,
                  -0.1888,
                  -0.25017,
                  -0.09507,
                  -0.01232,
                  0.07649
                ],
                "weights": [
                  [
                    -0.13947,
                    0.20616,
                    0.12327,
                    0.20565,
                    -0.1646,
                    -0.18849,
                    0.23005,
                    -0.17726,
                    -0.02991,
                    0.15883,
                    -0.14829,
                    0.04448,
                    -0.07093,
                    0.16181,
                    -0.24562,
                    -0.14434,
                    -0.12582,
                    -0.13567,
                    0.21607,
                    0.19995,
                    -0.0869,
                    -0.25142,
                    0.0706,
                    0.02673,
                    -0.13114,
                    0.13847,
                    -0.03241,
                    -0.16081,
                    -0.1829,
                    0.1374,
                    -0.06354,
                    0.02384,
                    -0.05703,
                    -0.23185,
                    -0.1211,
                    0.05157,
                    0.19989,
                    0.01198,
                    0.23833,
                    0.12989,
                    -0.16641,
                    0.1796,
                    -0.05097,
                    -0.24038,
                    0.13653,
                    -0.16553,
                    0.18997,
                    -0.15978,
                    -0.23197,
                    0.06165,
                    0.22096,
                    -0.16138,
                    0.07336,
                    0.09448,
                    0.19209,
                    -0.08254,
                    0.09492,
                    -0.14948,
                    0.08679,
                    -0.22283
                  ],
                  [
                    -0.11962,
                    -0.23328,
                    -0.2379,
                    -0.20809,
                    0.18991,
                    0.2069,
                    0.02327,
                    -0.07948,
                    0.10075,
                    0.24598,
                    -0.19585,
                    -0.05244,
                    -0.03881,
                    0.20328,
                    0.19526,
                    -0.09699,
                    -0.03423,
                    0.0902,
                    0.11107,
                    0.07372,
                    -0.23826,
                    0.04687,
                    -0.22559,
                    -0.25341,
                    -0.24786,
                    -0.02747,
                    -0.051,
                    0.18666,
                    -0.26134,
                    -0.25111,
                    -0.12043,
                    0.15011,
                    -0.15934,
                    0.18412,
                    0.02769,
                    -0.26197,
                    -0.18585,
                    0.18592,
                    0.20705,
                    0.16999,
                    0.23619,
                    -0.23335,
                    -0.00306,
                    -0.18105,
                    0.21836,
                    -0.19703,
                    -0.12193,
                    0.07083,
                    -0.19286,
                    0.08796,
                    0.1569,
                    -0.21636,
                    -0.14185,
                    0.12927,
                    0.16575,
                    0.24768,
                    -0.18947,
                    0.21846,
                    0.24406,
                    0.19366
                  ],
                  [
                    0.12639,
                    0.16929,
                    0.1282,
                    0.20174,
                    -0.16927,
                    -0.19744,
                    -0.0534,
                    -0.24363,
                    -0.20943,
                    -0.01521,
                    -0.02451,
                    0.17164,
                    -0.22156,
                    0.0483,
                    -0.05256,
                    0.25594,
                    -0.16517,
                    0.22764,
                    0.19359,
                    -0.1925,
                    -0.04165,
                    0.03794,
                    0.0454,
                    0.12111,
                    -0.23179,
                    0.08388,
                    -0.11535,
                    -0.15421,
                    -0.04924,
                    0.06277,
                    0.09331,
                    -0.00639,
                    0.15249,
                    0.06681,
                    -0.18183,
                    -0.00741,
                    -0.18318,
                    0.2379,
                    -0.18115,
                    -0.02349,
                    -0.11787,
                    0.14598,
                    -0.21352,
                    -0.22036,
                    -0.24901,
                    -0.13786,
                    0.17922,
                    0.23022,
                    -0.13808,
                    -0.22282,
                    -0.03875,
                    0.08279,
                    0.04262,
                    0.06957,
                    0.17095,
                    -0.20085,
                    -0.04036,
                    -0.21689,
                    0.08036,
                    -0.09971
                  ],
                  [
                    0.18964,
                    -0.23589,
                    -0.22823,
                    -0.20146,
                    0.10516,
                    0.17981,
                    -0.16477,
                    0.19654,
                    -0.12516,
                    -0.10401,
                    0.1997,
                    0.12285,
                    0.17886,
                    -0.20238,
                    0.12097,
                    -0.07648,
                    -0.06058,
                    0.17269,
                    0.17861,
                    0.07612,
                    -0.24016,
                    0.15432,
                    -0.04312,
                    -0.06631,
                    -0.07606,
                    -0.2236,
                    0.1197,
                    -0.10416,
                    0.1521,
                    0.09352,
                    0.09538,
                    0.23421,
                    0.0741,
                    -0.2291,
                    -0.13386,
                    0.07853,
                    -0.25516,
                    -0.25069,
                    -0.05181,
                    0.05918,
                    -0.05833,
                    0.00129,
                    -0.23829,
                    -0.21953,
                    -0.11275,
                    0.01822,
                    0.16698,
                    0.13339,
                    0.24422,
                    -0.20682,
                    0.02649,
                    0.22468,
                    0.17979,
                    -0.20841,
                    -0.22881,
                    0.25281,
                    0.13391,
                    0.02973,
                    0.06184,
                    -0.22698
                  ],
                  [
                    0.24145,
                    0.22305,
                    0.13111,
                    0.00358,
                    0.19777,
                    -0.09054,
                    0.19963,
                    -0.23133,
                    -0.13629,
                    -0.07058,
                    -0.19583,
                    -0.21258,
                    0.01753,
                    0.15427,
                    -0.07398,
                    0.0847,
                    -0.1852,
                    0.06605,
                    0.04454,
                    0.01216,
                    -0.25257,
                    -0.02824,
                    0.1835,
                    0.15034,
                    -0.0171,
                    -0.09938,
                    0.12604,
                    0.13198,
                    -0.13825,
                    0.09618,
                    0.09258,
                    -0.17332,
                    -0.17647,
                    0.15716,
                    0.17376,
                    0.00363,
                    -0.18336,
                    -0.26103,
                    -0.12526,
                    -0.133,
                    0.07773,
                    0.04085,
                    -0.059,
                    -0.07295,
                    0.01952,
                    -0.16696,
                    -0.16156,
                    -0.08872,
                    0.23309,
                    0.05818,
                    0.02043,
                    0.14659,
                    -0.22063,
                    -0.05703,
                    -0.04801,
                    0.1,
                    0.11914,
                    0.2338,
                    0.08798,
                    0.18022
                  ],
                  [
                    -0.17121,
                    0.19705,
                    -0.02907,
                    -0.1384,
                    -0.04379,
                    0.06732,
                    0.0939,
                    -0.16381,
                    0.11613,
                    0.21234,
                    0.0542,
                    0.17907,
                    -0.21115,
                    0.24133,
                    -0.10786,
                    -0.18667,
                    0.04984,
                    0.00464,
                    0.14018,
                    -0.23325,
                    0.01157,
                    0.20597,
                    0.25359,
                    0.17773,
                    0.01945,
                    -0.22384,
                    0.17664,
                    -0.21266,
                    -0.21189,
                    -0.08097,
                    -0.06041,
                    0.1734,
                    -0.15737,
                    0.19467,
                    -0.12857,
                    -0.08846,
                    0.07691,
                    0.18542,
                    0.14769,
                    -0.19993,
                    -0.07155,
                    -0.19587,
                    0.09057,
                    -0.12056,
                    -0.19067,
                    0.1767,
                    0.06527,
                    0.21065,
                    0.2343,
                    -0.19945,
                    -0.10873,
                    0.18061,
                    -0.05181,
                    0.06664,
                    0.21889,
                    0.12272,
                    -0.0271,
                    -0.20408,
                    -0.22368,
                    -0.00431
                  ],
                  [
                    0.24385,
                    -0.07973,
                    0.20226,
                    -0.2269,
                    0.22961,
                    0.1631,
                    -0.2353,
                    -0.13422,
                    0.18277,
                    -0.00918,
                    0.20611,
                    0.08627,
                    0.00762,
                    0.16151,
                    0.18624,
                    -0.02268,
                    -0.18443,
                    -0.08353,
                    0.06482,
                    0.21542,
                    0.21326,
                    -0.17522,
                    -0.16203,
                    -0.1461,
                    -0.25527,
                    -0.08107,
                    0.05881,
                    -0.14449,
                    0.23162,
                    0.09322,
                    0.0283,
                    -0.00125,
                    0.12901,
                    0.21388,
                    0.16249,
                    -0.11522,
                    0.03441,
                    -0.23166,
                    -0.11817,
                    0.04367,
                    -0.09594,
                    0.00158,
                    -0.22049,
                    0.09621,
                    -0.15723,
                    0.05289,
                    -0.23684,
                    -0.09448,
                    0.0754,
                    0.13602,
                    -0.15279,
                    -0.21977,
                    -0.16636,
                    0.08055,
                    0.20796,
                    0.15885,
                    -0.1642,
                    -0.08476,
                    0.05856,
                    -0.15283
                  ],
                  [
                    -0.14804,
                    0.04508,
                    -0.13438,
                    0.17951,
                    -0.16569,
                    -0.19573,
                    0.02004,
                    -0.22088,
                    0.25487,
                    -0.07447,
                    0.12337,
                    0.26549,
                    0.16553,
                    -0.13413,
                    0.10128,
                    0.16019,
                    -0.10029,
                    -0.07401,
                    0.1078,
                    -0.1327,
                    -0.25979,
                    -0.04712,
                    0.06788,
                    -0.14386,
                    -0.24468,
                    0.23949,
                    0.23727,
                    0.2509,
                    -0.09074,
                    -0.09837,
                    -0.12364,
                    -0.07347,
                    -0.08375,
                    0.20624,
                    -0.0729,
                    0.25596,
                    -0.177,
                    -0.18797,
                    -0.15264,
                    -0.07337,
                    -0.07378,
                    -0.14987,
                    -0.11337,
                    0.2476,
                    0.08554,
                    -0.02348,
                    0.13826,
                    0.10267,
                    -0.22432,
                    -0.14065,
                    -0.08015,
                    0.20194,
                    -0.23001,
                    0.02169,
                    0.15658,
                    0.02298,
                    0.04104,
                    -0.01267,
                    0.13824,
                    -0.26612
                  ],
                  [
                    0.11338,
                    -0.2517,
                    -0.00441,
                    0.17995,
                    -0.23335,
                    0.09053,
                    -0.22214,
                    -0.14121,
                    -0.18663,
                    0.08782,
                    0.07995,
                    -0.03718,
                    -0.09091,
                    0.05327,
                    -0.19575,
                    -0.19284,
                    -0.05873,
                    0.00338,
                    -0.22889,
                    -0.18141,
                    -0.20576,
                    -0.01022,
                    -0.00439,
                    0.118,
                    -0.12438,
                    0.05276,
                    -0.22284,
                    -0.2143,
                    0.26311,
                    0.08487,
                    0.04943,
                    -0.10316,
                    -0.1253,
                    -0.09554,
                    -0.07159,
                    -0.23595,
                    0.24567,
                    -0.12137,
                    -0.01666,
                    0.24712,
                    0.17294,
                    -0.1045,
                    0.09403,
                    -0.00154,
                    -0.1541,
                    0.14754,
                    0.16738,
                    -0.24268,
                    0.12623,
                    0.12887,
                    0.2502,
                    -0.01437,
                    -0.07822,
                    0.0018,
                    -0.12624,
                    -0.00017,
                    -0.24019,
                    0.18983,
                    -0.11941,
                    -0.1718
                  ],
                  [
                    0.06482,
                    0.18,
                    -0.1981,
                    0.1896,
                    0.20855,
                    -0.10821,
                    0.24151,
                    -0.20173,
                    -0.05843,
                    -0.21223,
                    -0.02438,
                    -0.20884,
                    -0.22102,
                    -0.16655,
                    -0.21937,
                    -0.23572,
                    -0.1386,
                    -0.23355,
                    0.05929,
                    0.19754,
                    -0.01077,
                    0.21481,
                    0.24865,
                    -0.16804,
                    0.23168,
                    -0.01809,
                    0.01831,
                    -0.00647,
                    -0.19182,
                    -0.0135,
                    0.02981,
                    -0.01039,
                    -0.24796,
                    -0.11148,
                    -0.11781,
                    0.25302,
                    0.0703,
                    -0.04161,
                    0.009,
                    0.11941,
                    -0.19594,
                    0.12347,
                    -0.13359,
                    0.02805,
                    0.15304,
                    -0.0854,
                    -0.10742,
                    0.13568,
                    -0.18239,
                    -0.0681,
                    0.12347,
                    0.21889,
                    -0.01342,
                    0.02805,
                    0.11947,
                    0.1268,
                    -0.04206,
                    -0.06609,
                    0.02792,
                    -0.11033
                  ],
                  [
                    0.22759,
                    -0.06654,
                    0.04932,
                    -0.20312,
                    0.04305,
                    0.01756,
                    -0.14808,
                    -0.18104,
                    -0.16101,
                    -0.24202,
                    -0.03051,
                    0.22872,
                    0.11197,
                    0.03828,
                    -0.12274,
                    0.08334,
                    -0.06475,
                    -0.23328,
                    -0.26269,
                    -0.03434,
                    0.14206,
                    -0.08163,
                    0.12766,
                    0.02157,
                    0.16157,
                    -0.0141,
                    -0.19965,
                    -0.05245,
                    -0.14799,
                    -0.05346,
                    0.17231,
                    0.24687,
                    0.12836,
                    -0.05651,
                    0.22689,
                    -0.16094,
                    0.21015,
                    0.15701,
                    -0.09486,
                    0.05407,
                    -0.0316,
                    0.13701,
                    -0.06417,
                    -0.16501,
                    -0.19344,
                    -0.03228,
                    -0.15083,
                    0.05415,
                    -0.00471,
                    -0.15963,
                    0.00088,
                    0.2365,
                    0.17683,
                    -0.24011,
                    0.23687,
                    -0.15191,
                    -0.05632,
                    -0.2497,
                    -0.13662,
                    0.00571
                  ],
                  [
                    -0.17359,
                    -0.12501,
                    0.02745,
                    -0.00867,
                    0.09209,
                    -0.12049,
                    0.07591,
                    0.17336,
                    0.1226,
                    0.11751,
                    -0.2311,
                    0.02195,
                    0.25428,
                    0.10719,
                    0.17546,
                    -0.05942,
                    -0.0932,
                    -0.03183,
                    0.08417,
                    -0.0512,
                    0.13375,
                    0.03964,
                    0.15949,
                    0.15614,
                    -0.01904,
                    -0.20729,
                    0.09357,
                    -0.20372,
                    -0.02042,
                    -0.20537,
                    0.03417,
                    0.16679,
                    -0.19655,
                    -0.21893,
                    -0.00598,
                    0.12146,
                    0.2078,
                    -0.03211,
                    0.22815,
                    0.05951,
                    0.26473,
                    -0.04661,
                    0.24797,
                    0.12075,
                    0.01447,
                    0.26195,
                    -0.22645,
                    0.01902,
                    -0.22577,
                    0.02848,
                    -0.21369,
                    0.18636,
                    -0.09449,
                    -0.19926,
                    -0.04803,
                    -0.02027,
                    0.02742,
                    0.18501,
                    0.23903,
                    0.14815
                  ],
                  [
                    0.22226,
                    0.1957,
                    0.10339,
                    -0.10044,
                    -0.16141,
                    0.02546,
                    0.08363,
                    0.14669,
                    -0.13472,
                    0.00114,
                    -0.08043,
                    -0.25407,
                    -0.00932,
                    0.00675,
                    0.22707,
                    -0.19274,
                    0.17015,
                    -0.04153,
                    0.08525,
                    -0.24348,
                    0.13284,
                    -0.05304,
                    0.22663,
                    -0.0675,
                    -0.23633,
                    -0.2303,
                    0.01739,
                    -0.05334,
                    0.07158,
                    -0.14392,
                    -0.01973,
                    0.05916,
                    -0.04182,
                    -0.02865,
                    0.19766,
                    -0.09163,
                    0.15731,
                    -0.11207,
                    -0.11216,
                    0.18355,
                    0.05513,
                    0.19252,
                    0.23921,
                    -0.08413,
                    -0.25741,
                    -0.19235,
                    -0.00054,
                    -0.17304,
                    -0.23096,
                    -0.07449,
                    -0.12744,
                    0.07366,
                    -0.13379,
                    -0.12974,
                    -0.11034,
                    -0.25425,
                    -0.00628,
                    0.07571,
                    0.04072,
                    0.0957
                  ],
                  [
                    -0.0705,
                    0.163,
                    -0.25213,
                    0.06067,
                    -0.08421,
                    0.11446,
                    -0.12547,
                    -0.18026,
                    0.02886,
                    -0.18932,
                    -0.01476,
                    -0.07426,
                    0.10497,
                    0.09506,
                    -0.08462,
                    -0.00746,
                    -0.26256,
                    -0.13924,
                    0.14852,
                    0.24154,
                    0.10598,
                    -0.04352,
                    0.24429,
                    0.19071,
                    -0.16308,
                    -0.02897,
                    0.05889,
                    -0.03419,
                    -0.00345,
                    -0.14325,
                    0.16105,
                    0.14159,
                    -0.13631,
                    0.00462,
                    -0.19962,
                    0.16811,
                    -0.16119,
                    0.20165,
                    -0.15466,
                    -0.07697,
                    -0.12965,
                    -0.05592,
                    -0.20062,
                    0.09174,
                    -0.1988,
                    0.07998,
                    -0.15467,
                    -0.04103,
                    -0.25418,
                    -0.24406,
                    -0.02137,
                    0.21216,
                    -0.09016,
                    0.14091,
                    -0.07953,
                    0.01766,
                    -0.22677,
                    -0.18482,
                    0.05158,
                    0.13948
                  ],
                  [
                    0.08835,
                    0.04531,
                    -0.06199,
                    0.14567,
                    -0.23814,
                    0.03759,
                    0.1636,
                    -0.17448,
                    -0.18578,
                    -0.20329,
                    0.26137,
                    -0.00754,
                    -0.11056,
                    0.12271,
                    -0.1393,
                    0.22334,
                    -0.10098,
                    0.07409,
                    0.08414,
                    0.22984,
                    -0.02598,
                    -0.22642,
                    -0.2083,
                    -0.16706,
                    -0.02397,
                    -0.0743,
                    0.04657,
                    0.18182,
                    0.23872,
                    -0.17033,
                    0.03242,
                    0.23862,
                    -0.12666,
                    -0.07308,
                    0.01859,
                    -0.02484,
                    0.09379,
                    0.22463,
                    0.08256,
                    0.12354,
                    0.1839,
                    0.16523,
                    0.01375,
                    -0.03236,
                    -0.0734,
                    -0.08116,
                    0.15957,
                    -0.25638,
                    0.16276,
                    0.19137,
                    -0.2446,
                    0.0997,
                    -0.22742,
                    0.01469,
                    -0.04058,
                    -0.21465,
                    0.07855,
                    -0.05182,
                    0.21565,
                    0.13513
                  ],
                  [
                    0.21332,
                    0.2247,
                    -0.20429,
                    0.07535,
                    0.1129,
                    0.15646,
                    -0.26684,
                    -0.26276,
                    0.2122,
                    -0.21119,
                    -0.20719,
                    0.13774,
                    0.03978,
                    -0.15609,
                    -0.15188,
                    -0.07478,
                    -0.00943,
                    -0.01312,
                    0.02895,
                    0.1426,
                    0.16546,
                    0.1752,
                    0.0349,
                    0.16671,
                    -0.00232,
                    0.10198,
                    -0.07299,
                    -0.24704,
                    0.04638,
                    0.03537,
                    0.20748,
                    0.03748,
                    0.03517,
                    0.08442,
                    -0.02101,
                    -0.23768,
                    0.21978,
                    -0.20403,
                    0.05159,
                    -0.22921,
                    -0.0602,
                    0.12307,
                    -0.0028,
                    -0.0996,
                    0.19903,
                    -0.0346,
                    -0.18701,
                    -0.24007,
                    0.19455,
                    0.10449,
                    -0.11552,
                    -0.04378,
                    0.04286,
                    -0.1971,
                    -0.18364,
                    -0.10994,
                    0.02259,
                    0.07866,
                    -0.06492,
                    -0.08612
                  ],
                  [
                    0.01754,
                    -0.20873,
                    0.24982,
                    0.1656,
                    0.2537,
                    -0.00037,
                    -0.18364,
                    -0.15515,
                    0.12146,
                    0.07419,
                    -0.08659,
                    0.03149,
                    -0.24216,
                    -0.16745,
                    0.10301,
                    -0.19284,
                    -0.06872,
                    -0.14636,
                    0.00951,
                    -0.07254,
                    -0.00057,
                    0.12502,
                    -0.15756,
                    0.13648,
                    -0.19619,
                    -0.07321,
                    -0.20239,
                    -0.04418,
                    -0.06295,
                    0.16025,
                    0.0483,
                    0.18779,
                    0.07439,
                    -0.02075,
                    -0.06528,
                    0.01371,
                    -0.24005,
                    -0.09291,
                    0.00273,
                    -0.05868,
                    0.12161,
                    -0.13176,
                    -0.13578,
                    0.17043,
                    0.21064,
                    0.15338,
                    -0.01644,
                    0.05348,
                    -0.20485,
                    -0.12915,
                    -0.09046,
                    -0.20046,
                    -0.07598,
                    0.15193,
                    -0.21417,
                    -0.14559,
                    -0.20111,
                    0.14172,
                    0.01962,
                    0.23847
                  ],
                  [
                    -0.25266,
                    -0.20817,
                    -0.1567,
                    -0.16141,
                    0.14778,
                    0.21653,
                    0.05432,
                    0.01579,
                    0.03558,
                    0.08426,
                    -0.01613,
                    -0.1297,
                    0.05249,
                    0.16626,
                    0.1498,
                    -0.09216,
                    -0.03583,
                    -0.18863,
                    0.08517,
                    0.22161,
                    0.00106,
                    -0.14078,
                    0.02664,
                    0.17469,
                    0.14147,
                    0.19529,
                    -0.22376,
                    -0.14235,
                    -0.22222,
                    0.11524,
                    -0.14561,
                    -0.08867,
                    -0.15445,
                    -0.2186,
                    0.22218,
                    0.01248,
                    -0.22335,
                    0.24554,
                    0.08856,
                    -0.18599,
                    0.2532,
                    0.22207,
                    0.25573,
                    0.23537,
                    0.05698,
                    0.04136,
                    -0.17018,
                    0.04873,
                    -0.07779,
                    0.04208,
                    0.11174,
                    -0.26587,
                    0.11998,
                    0.20781,
                    0.12226,
                    -0.22604,
                    -0.06912,
                    0.06829,
                    0.18225,
                    -0.11961
                  ],
                  [
                    -0.2273,
                    0.12043,
                    -0.17978,
                    0.03081,
                    0.25163,
                    -0.24417,
                    -0.22777,
                    -0.16726,
                    0.18503,
                    0.12075,
                    0.13025,
                    0.19828,
                    0.02577,
                    -0.07447,
                    -0.03279,
                    0.15142,
                    -0.02354,
                    -0.07818,
                    0.05208,
                    -0.24822,
                    -0.22536,
                    0.09832,
                    -0.01334,
                    -0.06321,
                    -0.0014,
                    -0.12946,
                    0.15524,
                    0.10391,
                    -0.20685,
                    -0.21677,
                    0.24,
                    0.17122,
                    0.10419,
                    0.07071,
                    0.18036,
                    -0.01136,
                    -0.21765,
                    -0.19931,
                    -0.13885,
                    -0.18061,
                    -0.09459,
                    0.06638,
                    0.2156,
                    0.14988,
                    -0.01761,
                    -0.18179,
                    -0.00237,
                    0.07383,
                    -0.24518,
                    0.13173,
                    0.03666,
                    0.19973,
                    -0.03248,
                    0.21296,
                    0.13923,
                    0.15915,
                    -0.18994,
                    0.25979,
                    0.16057,
                    -0.21655
                  ],
                  [
                    0.09743,
                    0.19949,
                    -0.02431,
                    0.23485,
                    -0.24062,
                    0.18475,
                    -0.14828,
                    0.01709,
                    -0.07176,
                    0.07698,
                    0.15894,
                    -0.13381,
                    -0.20198,
                    0.10889,
                    0.04846,
                    0.12557,
                    -0.19115,
                    0.09004,
                    0.16939,
                    -0.22059,
                    0.10783,
                    0.1756,
                    -0.11898,
                    -0.23868,
                    -0.22567,
                    0.22635,
                    0.25196,
                    0.25002,
                    0.24026,
                    -0.04713,
                    0.09422,
                    0.18089,
                    -0.21041,
                    0.00401,
                    -0.14674,
                    0.26082,
                    -0.0802,
                    0.04836,
                    0.10679,
                    -0.22913,
                    0.13088,
                    0.18632,
                    -0.26114,
                    0.14078,
                    0.00899,
                    0.20227,
                    0.01721,
                    -0.21319,
                    0.19775,
                    0.20942,
                    -0.08651,
                    0.20174,
                    -0.07879,
                    -0.01953,
                    -0.10329,
                    -0.14438,
                    -0.17111,
                    0.22442,
                    -0.20874,
                    0.17398
                  ],
                  [
                    -0.14252,
                    -0.22622,
                    -0.1256,
                    0.06014,
                    -0.14455,
                    0.00138,
                    0.16113,
                    -0.21533,
                    -0.24188,
                    0.08629,
                    -0.15651,
                    -0.26498,
                    0.13181,
                    -0.19848,
                    -0.13233,
                    -0.08653,
                    0.13616,
                    0.03485,
                    -0.16937,
                    0.14335,
                    -0.06443,
                    -0.01852,
                    -0.23158,
                    0.17606,
                    -0.17922,
                    -0.07259,
                    0.13059,
                    0.10298,
                    0.24876,
                    0.02595,
                    0.099,
                    -0.15514,
                    -0.08485,
                    0.12875,
                    0.01598,
                    -0.19031,
                    -0.03711,
                    -0.04403,
                    0.07542,
                    0.00031,
                    -0.23021,
                    -0.09276,
                    0.06462,
                    -0.2365,
                    0.11694,
                    -0.2053,
                    0.03757,
                    -0.17357,
                    -0.14821,
                    -0.22908,
                    -0.05833,
                    -0.12829,
                    -0.00707,
                    0.06256,
                    -0.22678,
                    -0.25603,
                    0.03133,
                    0.08494,
                    -0.08474,
                    0.03541
                  ],
                  [
                    0.17133,
                    0.23425,
                    -0.04769,
                    -0.11439,
                    0.21041,
                    -0.17864,
                    0.06284,
                    -0.10234,
                    -0.17444,
                    0.03868,
                    0.08305,
                    -0.26294,
                    0.2216,
                    0.07683,
                    0.03438,
                    0.00407,
                    -0.02496,
                    -0.17706,
                    -0.21708,
                    -0.0442,
                    -0.111,
                    -0.15774,
                    0.04961,
                    0.1695,
                    0.16222,
                    0.13836,
                    -0.10274,
                    0.07023,
                    0.05836,
                    0.2357,
                    0.07965,
                    -0.07025,
                    0.04636,
                    0.01664,
                    -0.13032,
                    0.13184,
                    0.17592,
                    -0.0055,
                    -0.08293,
                    0.11594,
                    0.06229,
                    -0.07397,
                    0.04081,
                    -0.00818,
                    0.22136,
                    0.19997,
                    0.09804,
                    0.05766,
                    0.03925,
                    0.007,
                    0.21178,
                    -0.15564,
                    -0.23031,
                    -0.09523,
                    0.04675,
                    0.11732,
                    -0.03767,
                    -0.02429,
                    -0.04487,
                    0.02946
                  ],
                  [
                    -0.05629,
                    0.04993,
                    -0.18845,
                    0.24402,
                    -0.00696,
                    -0.13628,
                    -0.08236,
                    -0.14316,
                    -0.1034,
                    0.21043,
                    0.20786,
                    0.17109,
                    -0.1429,
                    -0.18931,
                    -0.02916,
                    -0.20667,
                    -0.2228,
                    -0.10015,
                    0.20631,
                    0.20595,
                    -0.09685,
                    -0.18265,
                    -0.05643,
                    -0.15712,
                    0.04795,
                    -0.1288,
                    -0.24004,
                    -0.24776,
                    -0.11035,
                    -0.21098,
                    0.21024,
                    0.09222,
                    -0.04372,
                    0.15518,
                    -0.06883,
                    -0.01149,
                    -0.19428,
                    -0.03275,
                    -0.20353,
                    0.16604,
                    -0.03183,
                    0.05796,
                    -0.09506,
                    -0.02937,
                    -0.07305,
                    0.1487,
                    0.14606,
                    -0.01938,
                    -0.09325,
                    0.13418,
                    0.00225,
                    0.17336,
                    -0.21751,
                    -0.13539,
                    0.17452,
                    0.01464,
                    0.24783,
                    -0.06492,
                    0.06069,
                    -0.13008
                  ],
                  [
                    -0.04091,
                    -0.19233,
                    -0.16709,
                    -0.22262,
                    0.12756,
                    0.05246,
                    -0.20938,
                    -0.232,
                    -0.23264,
                    0.00494,
                    -0.09694,
                    -0.20905,
                    0.21029,
                    -0.20847,
                    0.16864,
                    0.02067,
                    -0.18249,
                    0.15765,
                    0.06889,
                    0.00837,
                    0.24697,
                    0.18071,
                    0.23508,
                    -0.1295,
                    0.13691,
                    -0.08828,
                    -0.15549,
                    -0.1672,
                    -0.10369,
                    0.11276,
                    -0.18366,
                    0.19541,
                    -0.2012,
                    0.15837,
                    -0.23074,
                    0.24804,
                    -0.14097,
                    0.2126,
                    -0.21639,
                    0.25843,
                    0.04204,
                    -0.10112,
                    0.21131,
                    -0.20329,
                    0.13885,
                    0.04126,
                    -0.04378,
                    0.17797,
                    -0.10073,
                    0.11701,
                    -0.04954,
                    -0.20786,
                    0.03743,
                    0.15444,
                    -0.0942,
                    -0.07735,
                    0.22933,
                    -0.21034,
                    0.02674,
                    0.08871
                  ],
                  [
                    -0.2161,
                    -0.16497,
                    -0.19087,
                    0.09699,
                    0.13441,
                    0.21138,
                    -0.06535,
                    0.22109,
                    -0.16498,
                    -0.20588,
                    -0.18929,
                    0.02729,
                    -0.05056,
                    -0.24958,
                    0.17406,
                    0.0382,
                    0.07521,
                    0.10038,
                    0.06577,
                    -0.17464,
                    0.04791,
                    -0.10799,
                    0.21586,
                    0.04335,
                    0.21816,
                    0.16289,
                    0.16038,
                    0.23057,
                    0.25898,
                    -0.19107,
                    0.18571,
                    0.25177,
                    0.22741,
                    -0.00269,
                    0.16178,
                    -0.07663,
                    -0.03534,
                    0.02742,
                    -0.04548,
                    -0.20938,
                    -0.05195,
                    0.2033,
                    -0.03271,
                    0.24009,
                    -0.17585,
                    -0.05282,
                    -0.09898,
                    -0.00383,
                    -0.14675,
                    -0.23761,
                    0.01723,
                    -0.0237,
                    -0.12702,
                    0.13809,
                    0.02171,
                    -0.15334,
                    0.17122,
                    -0.23976,
                    -0.07583,
                    -0.02985
                  ],
                  [
                    -0.19287,
                    0.26309,
                    -0.18314,
                    -0.16103,
                    -0.04089,
                    0.03105,
                    -0.00265,
                    0.10714,
                    -0.26125,
                    -0.01891,
                    -0.11868,
                    0.10956,
                    -0.17833,
                    -0.24491,
                    0.06474,
                    -0.16175,
                    0.22597,
                    0.03776,
                    -0.13916,
                    0.16341,
                    0.04586,
                    -0.16178,
                    -0.09596,
                    0.06505,
                    0.17728,
                    -0.16353,
                    0.24476,
                    -0.11218,
                    0.00297,
                    -0.15889,
                    -0.08153,
                    -0.05956,
                    0.02326,
                    0.17653,
                    -0.21512,
                    0.21607,
                    -0.16962,
                    -0.24593,
                    -0.06979,
                    -0.03808,
                    0.12825,
                    0.02869,
                    0.11237,
                    0.20705,
                    -0.2609,
                    -0.05969,
                    -0.23493,
                    0.21483,
                    0.2151,
                    0.26317,
                    0.24227,
                    0.06957,
                    -0.14838,
                    -0.24574,
                    -0.11998,
                    -0.15048,
                    0.23795,
                    -0.07652,
                    0.23856,
                    0.14798
                  ],
                  [
                    0.10999,
                    -0.23198,
                    -0.00236,
                    0.00773,
                    0.06507,
                    -0.14634,
                    -0.11331,
                    0.04293,
                    -0.21884,
                    0.19766,
                    -0.22636,
                    -0.12924,
                    0.1918,
                    -0.02857,
                    0.16855,
                    0.191,
                    -0.02147,
                    0.00916,
                    0.16541,
                    0.01706,
                    -0.19453,
                    -0.12657,
                    -0.26138,
                    0.09248,
                    0.22658,
                    -0.16215,
                    0.26381,
                    -0.22835,
                    0.21247,
                    -0.21482,
                    0.02635,
                    0.11356,
                    -0.13527,
                    0.21581,
                    0.03303,
                    -0.02546,
                    -0.18519,
                    -0.07931,
                    -0.10098,
                    0.23461,
                    -0.18587,
                    -0.03534,
                    0.03431,
                    0.02822,
                    0.25298,
                    0.13506,
                    -0.07215,
                    -0.1705,
                    0.13468,
                    0.24069,
                    -0.07994,
                    0.14438,
                    -0.24252,
                    0.2453,
                    -0.21004,
                    -0.19421,
                    0.09549,
                    -0.06843,
                    -0.22358,
                    0.0035
                  ],
                  [
                    0.0277,
                    -0.09048,
                    -0.18079,
                    0.04297,
                    0.02715,
                    0.10957,
                    -0.114,
                    -0.1098,
                    0.17908,
                    0.08877,
                    0.10075,
                    0.22007,
                    -0.14999,
                    0.02162,
                    0.16703,
                    -0.11525,
                    -0.11288,
                    -0.06314,
                    -0.19853,
                    0.24765,
                    -0.13739,
                    -0.06986,
                    -0.09024,
                    -0.21617,
                    0.22122,
                    0.13069,
                    0.07863,
                    0.04269,
                    0.14049,
                    0.00198,
                    -0.10498,
                    0.25242,
                    0.05527,
                    -0.22276,
                    0.21233,
                    0.10671,
                    -0.09792,
                    -0.12797,
                    -0.06642,
                    -0.17136,
                    -0.23865,
                    0.01157,
                    0.0237,
                    -0.17515,
                    0.24715,
                    -0.16652,
                    -0.09918,
                    -0.25624,
                    0.07135,
                    -0.09761,
                    0.1515,
                    0.24638,
                    0.01005,
                    -0.03868,
                    -0.00216,
                    0.1639,
                    -0.003,
                    0.04211,
                    0.00437,
                    -0.11112
                  ],
                  [
                    0.13351,
                    -0.02139,
                    -0.023,
                    0.02813,
                    -0.18656,
                    -0.0068,
                    0.24702,
                    -0.21552,
                    0.17018,
                    -0.18668,
                    0.18799,
                    0.11041,
                    0.17112,
                    0.17214,
                    -0.06395,
                    -0.24339,
                    0.04546,
                    0.20212,
                    -0.09605,
                    0.02596,
                    0.23613,
                    0.17517,
                    -0.20913,
                    -0.19852,
                    -0.25749,
                    -0.01941,
                    0.24538,
                    0.11032,
                    0.07796,
                    -0.01165,
                    0.14292,
                    0.14334,
                    -0.15385,
                    0.02735,
                    0.08335,
                    -0.18229,
                    -0.00111,
                    -0.15536,
                    0.02007,
                    -0.14933,
                    -0.17935,
                    -0.11189,
                    -0.1364,
                    0.0557,
                    -0.13998,
                    0.24757,
                    -0.24423,
                    -0.26392,
                    -0.03946,
                    -0.14232,
                    0.09038,
                    0.24719,
                    0.15283,
                    -0.08992,
                    -0.01592,
                    -0.17276,
                    -0.06481,
                    -0.26585,
                    0.15084,
                    -0.00646
                  ],
                  [
                    -0.14208,
                    0.02266,
                    0.24505,
                    -0.18627,
                    0.19177,
                    -0.22584,
                    -0.22165,
                    -0.02942,
                    -0.24158,
                    -0.09638,
                    0.2022,
                    -0.04309,
                    -0.12395,
                    -0.12331,
                    0.22192,
                    0.1558,
                    -0.14227,
                    0.26574,
                    0.18599,
                    0.13652,
                    -0.22755,
                    -0.25683,
                    -0.00742,
                    -0.1708,
                    0.1423,
                    -0.1352,
                    0.14549,
                    0.01324,
                    0.06161,
                    -0.2273,
                    -0.13708,
                    0.03138,
                    0.05044,
                    0.2031,
                    -0.18649,
                    -0.24264,
                    -0.06595,
                    0.1429,
                    0.19223,
                    -0.12454,
                    -0.04739,
                    -0.20677,
                    0.08473,
                    0.04628,
                    -0.22886,
                    -0.25029,
                    -0.10562,
                    0.23719,
                    -0.15515,
                    0.24621,
                    0.10452,
                    -0.1556,
                    0.21654,
                    0.07221,
                    -0.09254,
                    0.2019,
                    -0.17989,
                    0.19057,
                    -0.04048,
                    0.17432
                  ]
                ]
              },
              {
                "bias": [
                  -0.39591,
                  0.2761,
                  0.38121
                ],
                "weights": [
                  [
                    -0.23068,
                    -0.16702,
                    -0.08795,
                    -0.35012,
                    -0.28319,
                    -0.14171,
                    -0.05172,
                    0.28351,
                    -0.34701,
                    0.42101,
                    -0.08325,
                    0.10948,
                    -0.30096,
                    0.12532,
                    -0.38263,
                    0.09161,
                    0.28269,
                    0.39376,
                    0.19726,
                    -0.22914,
                    -0.30798,
                    -0.26032,
                    0.3452,
                    0.18335,
                    -0.01393,
                    -0.09996,
                    -0.32747,
                    0.42109,
                    -0.11528,
                    0.0649
                  ],
                  [
                    -0.28441,
                    -0.01814,
                    -0.06705,
                    0.35899,
                    -0.05444,
                    -0.3803,
                    -0.10954,
                    0.30142,
                    -0.17879,
                    -0.18521,
                    0.22405,
                    0.03024,
                    -0.19335,
                    0.39058,
                    0.3532,
                    -0.35533,
                    -0.26361,
                    0.13003,
                    -0.35304,
                    0.41305,
                    -0.35226,
                    -0.18658,
                    0.0955,
                    -0.41798,
                    0.03688,
                    -0.04103,
                    0.27206,
                    -0.07142,
                    0.09145,
                    -0.24563
                  ],
                  [
                    -0.07407,
                    0.24844,
                    -0.09643,
                    -0.18535,
                    -0.15761,
                    -0.4113,
                    -0.18574,
                    0.11152,
                    -0.21183,
                    -0.17883,
                    0.39252,
                    -0.20239,
                    0.4113,
                    -0.03596,
                    0.13365,
                    0.23076,
                    0.40381,
                    0.14861,
                    0.26033,
                    -0.03292,
                    0.21789,
                    -0.06961,
                    -0.398,
                    -0.32955,
                    0.0507,
                    0.11669,
                    -0.21107,
                    -0.15594,
                    -0.35132,
                    0.35914
                  ]
                ]
              }
            ],
            "rollback": false,
            "shared": false,
            "type": {
              "items": {
                "fields": [
                  {
                    "name": "weights",
                    "type": {
                      "items": {
                        "items": "double",
                        "type": "array"
                      },
                      "type": "array"
                    }
                  },
                  {
                    "name": "bias",
                    "type": {
                      "items": "double",
                      "type": "array"
                    }
                  }
                ],
                "name": "Layer",
                "type": "record"
              },
              "type": "array"
            }
          },
          "validations": {
            "init": [
              {
                "code": "kfold",
                "data": {
                  "average": {
                    "Accuracy": 0.20198,
                    "Confusion matrix": {
                      "labels": [
                        "AD",
                        "CN",
                        "Other"
                      ],
                      "values": [
                        [
                          222.0,
                          52.0,
                          0.0
                        ],
                        [
                          173.0,
                          125.0,
                          0.0
                        ],
                        [
                          1114.0,
                          32.0,
                          0.0
                        ]
                      ]
                    },
                    "Weighted F1-score": 0.12525,
                    "Weighted false positive rate": 0.15241,
                    "Weighted precision": 0.12721,
                    "Weighted recall": 0.20198,
                    "type": "PolynomialClassificationScore"
                  },
                  "folds": {
                    "1": {
                      "Accuracy": 0.24098,
                      "Confusion matrix": {
                        "labels": [
                          "AD",
                          "CN",
                          "Other"
                        ],
                        "values": [
                          [
                            86.0,
                            52.0,
                            0.0
                          ],
                          [
                            37.0,
                            121.0,
                            0.0
                          ],
                          [
                            531.0,
                            32.0,
                            0.0
                          ]
                        ]
                      },
                      "Weighted F1-score": 0.15751,
                      "Weighted false positive rate": 0.1486,
                      "Weighted precision": 0.12969,
                      "Weighted recall": 0.24098,
                      "type": "PolynomialClassificationScore"
                    },
                    "2": {
                      "Accuracy": 0.16298,
                      "Confusion matrix": {
                        "labels": [
                          "AD",
                          "CN",
                          "Other"
                        ],
                        "values": [
                          [
                            136.0,
                            0.0,
                            0.0
                          ],
                          [
                            136.0,
                            4.0,
                            0.0
                          ],
                          [
                            583.0,
                            0.0,
                            0.0
                          ]
                        ]
                      },
                      "Weighted F1-score": 0.05251,
                      "Weighted false positive rate": 0.15745,
                      "Weighted precision": 0.18816,
                      "Weighted recall": 0.16298,
                      "type": "PolynomialClassificationScore"
                    }
                  },
                  "type": "KFoldCrossValidationScore"
                },
                "node": "local",
                "validationSpec": {
                  "code": "kfold",
                  "parameters": [
                    {
                      "code": "k",
                      "value": "2"
                    }
                  ]
                }
              }
            ],
            "type": {
              "items": "Record",
              "type": "array"
            }
          }
        },
        "fcns": {
          "C": {
            "do": [
              {
                "a.map": [
                  "categories",
                  {
                    "do": [
                      {
                        "else": [
                          0.0
                        ],
                        "if": {
                          "==": [
                            "cat",
                            "x"
                          ]
                        },
                        "then": [
                          1.0
                        ]
                      }
                    ],
                    "params": [
                      {
                        "cat": "string"
                      }
                    ],
                    "ret": "double"
                  }
                ]
              }
            ],
            "params": [
              {
                "x": "string"
              },
              {
                "categories": {
                  "items": "string",
                  "type": "array"
                }
              }
            ],
            "ret": {
              "items": "double",
              "type": "array"
            }
          },
          "arr": {
            "do": [
              {
                "new": [
                  "x"
                ],
                "type": {
                  "items": "double",
                  "type": "array"
                }
              }
            ],
            "params": [
              {
                "x": "double"
              }
            ],
            "ret": {
              "items": "double",
              "type": "array"
            }
          },
          "standardize": {
            "do": [
              {
                "/": [
                  {
                    "-": [
                      "x",
                      "mu"
                    ]
                  },
                  "sigma"
                ]
              }
            ],
            "params": [
              {
                "x": "double"
              },
              {
                "mu": "double"
              },
              {
                "sigma": "double"
              }
            ],
            "ret": "double"
          }
        },
        "input": {
          "fields": [
            {
              "name": "lefthippocampus",
              "type": "double"
            }
          ],
          "name": "Input",
          "type": "record"
        },
        "metadata": {
          "X": "{\"lefthippocampus\":{\"count\":1718.0,\"mean\":3.639566982e-16,\"std\":1.0002911632,\"min\":-6.1997481189,\"25%\":-0.1756647944,\"50%\":-0.1756647944,\"75%\":-0.1049179598,\"max\":5.934008706}}",
          "score": "0.6693830035",
          "y": "{\"count\":1718,\"unique\":3,\"top\":\"Other\",\"freq\":1146}"
        },
        "method": "map",
        "name": "neural_network",
        "output": "string"
      },
      "jobId": "*",
      "node": "local",
      "timestamp": 0.0,
      "type": "application/pfa+json"
    }
  ],
  "jobId": "*",
  "node": "local",
  "query": {
    "algorithms": [
      {
        "code": "sgdNeuralNetwork",
        "parameters": [
          {
            "code": "hidden_layer_sizes",
            "value": "60,30"
          },
          {
            "code": "activation",
            "value": "tanh"
          }
        ]
      }
    ],
    "covariables": [
      {
        "code": "lefthippocampus"
      }
    ],
    "covariablesMustExist": true,
    "filters": {
      "condition": "AND",
      "rules": [
        {
          "field": "alzheimerbroadcategory",
          "id": "alzheimerbroadcategory",
          "input": "text",
          "operator": "is_not_null",
          "type": "string",
          "value": []
        },
        {
          "field": "lefthippocampus",
          "id": "lefthippocampus",
          "input": "text",
          "operator": "is_not_null",
          "type": "string",
          "value": []
        }
      ]
    },
    "grouping": [],
    "targetTable": "cde_features_mixed",
    "testingDatasets": [],
    "trainingDatasets": [],
    "user": {
      "code": "test1"
    },
    "validationDatasets": [],
    "validations": [
      {
        "code": "kfold",
        "parameters": [
          {
            "code": "k",
            "value": "2"
          }
        ]
      }
    ],
    "variables": [
      {
        "code": "alzheimerbroadcategory"
      }
    ]
  },
  "timestamp": 0.0,
  "type": "application/vnd.hbp.mip.experiment.pfa+json"
}
