{
  "data": [
    {
      "algorithm": "python-sgd-neural-network",
      "algorithmSpec": {
        "code": "sgdNeuralNetwork",
        "parameters": [
          {
            "code": "hidden_layer_sizes",
            "value": "60,30"
          },
          {
            "code": "activation",
            "value": "tanh"
          }
        ]
      },
      "data": {
        "action": [
          {
            "let": {
              "x": {
                "a.flatten": [
                  {
                    "new": [
                      {
                        "u.arr": [
                          {
                            "/": [
                              {
                                "-": [
                                  {
                                    "cast.double": [
                                      {
                                        "attr": "input",
                                        "path": [
                                          {
                                            "string": "lefthippocampus"
                                          }
                                        ]
                                      }
                                    ]
                                  },
                                  2.91276
                                ]
                              },
                              0.25938
                            ]
                          }
                        ]
                      }
                    ],
                    "type": {
                      "items": {
                        "items": "double",
                        "type": "array"
                      },
                      "type": "array"
                    }
                  }
                ]
              }
            }
          },
          {
            "let": {
              "activations": {
                "model.neural.simpleLayers": [
                  "x",
                  {
                    "cell": "neuralnet"
                  },
                  {
                    "do": [
                      {
                        "m.link.relu": [
                          "x"
                        ]
                      }
                    ],
                    "params": [
                      {
                        "x": "double"
                      }
                    ],
                    "ret": "double"
                  }
                ]
              }
            }
          },
          {
            "cell": "classes",
            "path": [
              {
                "a.argmax": [
                  "activations"
                ]
              }
            ]
          }
        ],
        "cells": {
          "classes": {
            "init": [
              "AD",
              "CN",
              "MCI",
              "Other"
            ],
            "rollback": false,
            "shared": false,
            "type": {
              "items": "string",
              "type": "array"
            }
          },
          "neuralnet": {
            "init": [
              {
                "bias": [
                  0.15221,
                  0.13156,
                  -0.06197,
                  -0.04848,
                  -0.30447,
                  -0.23723,
                  0.25436,
                  0.07366,
                  -0.211,
                  -0.13967,
                  0.28057,
                  0.27966,
                  -0.27053,
                  -0.1185,
                  0.1163,
                  0.03879,
                  0.30883,
                  0.15293,
                  0.2123,
                  -0.16981,
                  -0.28063,
                  0.07975,
                  0.25223,
                  0.26564,
                  0.25584,
                  0.26737,
                  0.28397,
                  0.05575,
                  -0.04029,
                  -0.27361,
                  -0.024,
                  0.29075,
                  -0.08421,
                  -0.0057,
                  0.00916,
                  -0.27522,
                  0.16064,
                  0.26315,
                  0.26598,
                  -0.15629,
                  0.18904,
                  -0.20292,
                  0.11675,
                  -0.19577,
                  -0.12338,
                  -0.25975,
                  0.29484,
                  0.21766,
                  -0.05678,
                  0.08522,
                  0.17942,
                  0.29935,
                  0.23735,
                  -0.12091,
                  0.24688,
                  0.14234,
                  0.10209,
                  -0.2597,
                  0.17573,
                  -0.25394
                ],
                "weights": [
                  [
                    -0.07723
                  ],
                  [
                    0.07604
                  ],
                  [
                    -0.28248
                  ],
                  [
                    -0.189
                  ],
                  [
                    -0.06761
                  ],
                  [
                    0.13558
                  ],
                  [
                    0.16336
                  ],
                  [
                    0.25694
                  ],
                  [
                    -0.15412
                  ],
                  [
                    -0.22829
                  ],
                  [
                    0.04566
                  ],
                  [
                    0.21046
                  ],
                  [
                    -0.24608
                  ],
                  [
                    0.29024
                  ],
                  [
                    0.12559
                  ],
                  [
                    -0.21841
                  ],
                  [
                    -0.28383
                  ],
                  [
                    -0.04767
                  ],
                  [
                    -0.08003
                  ],
                  [
                    -0.0575
                  ],
                  [
                    0.18811
                  ],
                  [
                    0.12621
                  ],
                  [
                    -0.22982
                  ],
                  [
                    -0.21044
                  ],
                  [
                    0.05832
                  ],
                  [
                    -0.13187
                  ],
                  [
                    0.18849
                  ],
                  [
                    0.20313
                  ],
                  [
                    -0.0261
                  ],
                  [
                    0.06741
                  ],
                  [
                    -0.18147
                  ],
                  [
                    -0.2188
                  ],
                  [
                    -0.23835
                  ],
                  [
                    -0.12894
                  ],
                  [
                    -0.0746
                  ],
                  [
                    -0.04608
                  ],
                  [
                    0.05901
                  ],
                  [
                    0.18996
                  ],
                  [
                    -0.20631
                  ],
                  [
                    -0.25964
                  ],
                  [
                    0.04264
                  ],
                  [
                    0.06965
                  ],
                  [
                    -0.03306
                  ],
                  [
                    0.2718
                  ],
                  [
                    -0.17174
                  ],
                  [
                    -0.14866
                  ],
                  [
                    0.27821
                  ],
                  [
                    -0.25723
                  ],
                  [
                    0.18317
                  ],
                  [
                    -0.2652
                  ],
                  [
                    0.11792
                  ],
                  [
                    0.13665
                  ],
                  [
                    0.31413
                  ],
                  [
                    0.16897
                  ],
                  [
                    0.27634
                  ],
                  [
                    -0.20221
                  ],
                  [
                    -0.17358
                  ],
                  [
                    0.06427
                  ],
                  [
                    0.10969
                  ],
                  [
                    0.04945
                  ]
                ]
              },
              {
                "bias": [
                  0.04771,
                  -0.11998,
                  -0.23051,
                  0.18549,
                  0.05936,
                  0.16451,
                  -0.08502,
                  0.17104,
                  -0.14212,
                  0.09298,
                  -0.01296,
                  -0.23955,
                  -0.198,
                  0.22918,
                  0.02054,
                  0.01901,
                  0.18793,
                  0.06445,
                  -0.10962,
                  0.03435,
                  -0.17646,
                  0.01045,
                  0.24403,
                  0.11621,
                  -0.05209,
                  -0.05927,
                  0.10196,
                  -0.2214,
                  -0.21329,
                  0.15935
                ],
                "weights": [
                  [
                    -0.04959,
                    0.05868,
                    -0.19713,
                    -0.04997,
                    0.14561,
                    -0.12225,
                    0.07432,
                    0.1996,
                    0.24774,
                    -0.23353,
                    0.17479,
                    -0.24508,
                    0.25432,
                    -0.05442,
                    -0.17968,
                    -0.04046,
                    -0.24697,
                    -0.1266,
                    0.14591,
                    -0.11431,
                    -0.22329,
                    0.02066,
                    -0.17795,
                    0.08116,
                    -0.22073,
                    0.22381,
                    -0.14586,
                    0.22157,
                    -0.20877,
                    -0.06063,
                    -0.01795,
                    -0.01236,
                    -0.18722,
                    -0.21604,
                    0.19469,
                    0.05081,
                    -0.25161,
                    0.04355,
                    -0.13596,
                    -0.01677,
                    0.14318,
                    -0.17413,
                    0.23919,
                    0.25395,
                    0.20211,
                    0.25197,
                    0.01437,
                    -0.2286,
                    0.07774,
                    0.03292,
                    0.12775,
                    0.18144,
                    0.24382,
                    -0.01424,
                    -0.04882,
                    -0.16317,
                    0.13813,
                    0.02129,
                    -0.23782,
                    0.11497
                  ],
                  [
                    -0.0388,
                    0.2628,
                    -0.26034,
                    -0.17823,
                    0.10598,
                    -0.00355,
                    -0.20114,
                    -0.02825,
                    0.23816,
                    -0.24001,
                    0.24051,
                    -0.21392,
                    0.07817,
                    0.04967,
                    0.17429,
                    -0.24768,
                    -0.21509,
                    0.13935,
                    0.07728,
                    0.233,
                    0.09747,
                    -0.02379,
                    -0.0831,
                    0.02551,
                    -0.2493,
                    -0.20959,
                    0.06469,
                    -0.11939,
                    -0.25978,
                    0.21875,
                    0.23181,
                    -0.01441,
                    0.23266,
                    0.2092,
                    0.0353,
                    0.22246,
                    -0.05996,
                    0.094,
                    0.18476,
                    -0.12044,
                    0.05548,
                    -0.20871,
                    -0.23357,
                    -0.12901,
                    -0.12686,
                    0.12119,
                    0.07671,
                    0.25456,
                    -0.02533,
                    -0.05981,
                    -0.18145,
                    -0.16051,
                    0.13973,
                    -0.04531,
                    -0.09811,
                    0.23094,
                    0.07031,
                    0.24915,
                    0.09809,
                    0.18546
                  ],
                  [
                    0.01684,
                    -0.23358,
                    0.14554,
                    0.17381,
                    -0.2665,
                    0.15978,
                    0.10714,
                    0.02659,
                    -0.22814,
                    -0.0744,
                    0.10331,
                    0.13594,
                    -0.18377,
                    0.11662,
                    0.03175,
                    -0.07861,
                    0.05573,
                    0.06211,
                    -0.0475,
                    0.10098,
                    0.04085,
                    -0.12099,
                    -0.12873,
                    0.08403,
                    0.08876,
                    -0.01277,
                    -0.19505,
                    0.05462,
                    0.23307,
                    -0.09641,
                    -0.04441,
                    -0.21124,
                    0.18305,
                    -0.00904,
                    -0.14353,
                    0.13701,
                    0.24908,
                    -0.07612,
                    0.0313,
                    -0.20666,
                    0.26562,
                    0.24261,
                    -0.06402,
                    -0.25828,
                    0.2232,
                    -0.24628,
                    0.11477,
                    -0.08886,
                    -0.23787,
                    0.08871,
                    0.11301,
                    0.23301,
                    0.06516,
                    -0.10137,
                    0.02754,
                    -0.16862,
                    -0.09338,
                    0.22788,
                    -0.13684,
                    0.2261
                  ],
                  [
                    -0.09413,
                    -0.16163,
                    0.13352,
                    -0.23922,
                    0.21004,
                    -0.18719,
                    -0.20778,
                    -0.10427,
                    -0.01499,
                    -0.00503,
                    0.07529,
                    -0.04344,
                    0.00693,
                    -0.21889,
                    -0.07595,
                    -0.04999,
                    0.10265,
                    0.09872,
                    -0.19228,
                    0.00673,
                    -0.01245,
                    0.15617,
                    -0.0213,
                    0.08089,
                    0.11247,
                    0.17189,
                    0.01818,
                    0.21481,
                    -0.18389,
                    -0.12376,
                    0.17896,
                    0.21777,
                    0.08033,
                    -0.00801,
                    -0.05313,
                    -0.08205,
                    -0.24313,
                    0.17185,
                    -0.24446,
                    0.00733,
                    0.06306,
                    0.24307,
                    -0.10326,
                    -0.14925,
                    -0.07095,
                    -0.15331,
                    0.07938,
                    -0.09896,
                    -0.1125,
                    -0.2204,
                    -0.13345,
                    -0.23702,
                    -0.05017,
                    0.22552,
                    0.24027,
                    -0.08243,
                    0.12601,
                    0.14024,
                    -0.17337,
                    -0.02095
                  ],
                  [
                    -0.04345,
                    -0.18552,
                    0.23537,
                    -0.10531,
                    0.19376,
                    -0.04716,
                    0.18977,
                    -0.16351,
                    -0.01855,
                    -0.00799,
                    0.26633,
                    0.24077,
                    -0.08035,
                    0.01285,
                    -0.03334,
                    0.03255,
                    0.18207,
                    -0.14682,
                    0.13497,
                    -0.06902,
                    0.19743,
                    0.21285,
                    -0.13466,
                    0.06502,
                    0.12036,
                    0.07276,
                    -0.11186,
                    0.08013,
                    0.13814,
                    -0.19844,
                    0.18291,
                    0.1246,
                    -0.08846,
                    0.16645,
                    -0.22576,
                    0.04384,
                    -0.21875,
                    -0.08252,
                    0.18504,
                    0.05362,
                    0.05736,
                    -0.2627,
                    0.17112,
                    0.14247,
                    0.16927,
                    0.10769,
                    -0.02136,
                    0.06641,
                    -0.03453,
                    -0.24631,
                    0.26413,
                    -0.19299,
                    -0.1314,
                    -0.21367,
                    -0.20641,
                    0.06444,
                    0.06429,
                    -0.23564,
                    -0.15393,
                    0.19762
                  ],
                  [
                    0.03574,
                    0.1135,
                    -0.10991,
                    0.13548,
                    -0.2058,
                    0.22476,
                    0.10648,
                    -0.24591,
                    0.14491,
                    0.20647,
                    -0.13931,
                    0.26126,
                    -0.06549,
                    0.12369,
                    0.22328,
                    -0.24154,
                    -0.10514,
                    -0.06347,
                    0.16258,
                    0.00988,
                    -0.1473,
                    0.05146,
                    -0.21709,
                    -0.22134,
                    0.2489,
                    0.20908,
                    -0.1207,
                    -0.22111,
                    -0.26191,
                    0.04629,
                    -0.07789,
                    0.01913,
                    0.09167,
                    -0.20859,
                    0.18266,
                    -0.19821,
                    -0.19421,
                    -0.11012,
                    -0.18022,
                    -0.22774,
                    0.18093,
                    -0.22174,
                    -0.07797,
                    0.04867,
                    0.21903,
                    -0.22921,
                    0.21334,
                    0.15359,
                    -0.08514,
                    0.17752,
                    -0.23763,
                    -0.15885,
                    0.17749,
                    -0.21539,
                    0.01415,
                    -0.17211,
                    0.01709,
                    0.12695,
                    0.24607,
                    -0.08659
                  ],
                  [
                    0.21342,
                    0.13136,
                    -0.19831,
                    0.23983,
                    0.11675,
                    0.24676,
                    -0.05659,
                    -0.05424,
                    -0.19812,
                    -0.05717,
                    -0.21646,
                    0.08234,
                    0.02482,
                    -0.09529,
                    -0.04836,
                    -0.02192,
                    -0.14189,
                    -0.20273,
                    0.0301,
                    -0.07151,
                    0.14414,
                    -0.22402,
                    -0.19629,
                    -0.18866,
                    0.05965,
                    -0.01855,
                    0.23318,
                    0.06191,
                    -0.20953,
                    -0.19002,
                    -0.04288,
                    0.06458,
                    -0.09998,
                    -0.21689,
                    0.1186,
                    0.26257,
                    0.08331,
                    0.24109,
                    -0.05702,
                    0.15984,
                    0.20839,
                    0.14037,
                    -0.2543,
                    0.082,
                    0.22576,
                    -0.14745,
                    -0.09237,
                    0.21962,
                    0.22351,
                    0.23158,
                    0.15503,
                    0.12261,
                    -0.02533,
                    -0.11619,
                    -0.00642,
                    0.02312,
                    0.09208,
                    -0.1176,
                    0.13003,
                    0.15485
                  ],
                  [
                    0.17712,
                    -0.03979,
                    -0.14891,
                    -0.06071,
                    0.21836,
                    0.21707,
                    -0.18385,
                    0.03318,
                    0.21645,
                    0.12261,
                    0.09406,
                    0.22446,
                    -0.09944,
                    0.23797,
                    0.082,
                    0.00663,
                    0.2271,
                    -0.08161,
                    0.1368,
                    0.06479,
                    0.20545,
                    -0.16891,
                    -0.20031,
                    0.17577,
                    -0.05736,
                    0.24501,
                    0.06501,
                    -0.14168,
                    0.02524,
                    -0.11535,
                    -0.24072,
                    -0.13886,
                    -0.12581,
                    0.21725,
                    -0.04183,
                    0.112,
                    0.12305,
                    0.06007,
                    0.20478,
                    -0.09063,
                    -0.16857,
                    0.09431,
                    0.0598,
                    0.23192,
                    -0.11881,
                    0.02128,
                    0.0366,
                    0.24049,
                    0.24633,
                    -0.01161,
                    0.14279,
                    -0.18787,
                    0.12415,
                    -0.10323,
                    -0.03864,
                    0.03408,
                    0.00218,
                    0.24324,
                    0.15883,
                    -0.01819
                  ],
                  [
                    -0.20031,
                    -0.17007,
                    0.06013,
                    -0.22874,
                    -0.08178,
                    0.21489,
                    -0.03125,
                    -0.05385,
                    -0.10655,
                    0.1616,
                    0.20444,
                    -0.16638,
                    -0.09553,
                    -0.11092,
                    0.0893,
                    0.07063,
                    0.18352,
                    0.02154,
                    0.01934,
                    0.10234,
                    0.18445,
                    0.25113,
                    0.01207,
                    -0.12273,
                    -0.02578,
                    0.24969,
                    -0.06538,
                    0.03546,
                    -0.19631,
                    0.0764,
                    0.24494,
                    0.22458,
                    -0.2081,
                    -0.24925,
                    0.00213,
                    -0.04788,
                    0.00305,
                    0.04708,
                    -0.0623,
                    0.15017,
                    -0.01443,
                    0.0479,
                    0.10973,
                    -0.03479,
                    -0.00425,
                    0.0323,
                    -0.02488,
                    -0.11529,
                    -0.22915,
                    0.07723,
                    0.21914,
                    -0.03321,
                    0.05602,
                    0.10328,
                    0.00123,
                    -0.13178,
                    0.05249,
                    0.06275,
                    0.09524,
                    0.02513
                  ],
                  [
                    -0.19705,
                    0.10377,
                    -0.00629,
                    -0.07593,
                    0.23003,
                    -0.07556,
                    0.02153,
                    -0.22676,
                    -0.2033,
                    -0.08546,
                    0.23361,
                    -0.17046,
                    -0.22927,
                    0.05092,
                    0.0014,
                    -0.10799,
                    -0.16598,
                    -0.23594,
                    -0.13489,
                    -0.16275,
                    0.24655,
                    -0.12943,
                    -0.09569,
                    -0.13104,
                    0.15898,
                    0.00353,
                    -0.20593,
                    -0.09875,
                    0.11239,
                    0.19856,
                    0.04142,
                    0.22661,
                    0.07758,
                    0.16235,
                    -0.04859,
                    0.04108,
                    -0.24523,
                    0.05953,
                    0.19596,
                    -0.06942,
                    0.19531,
                    -0.02989,
                    -0.01109,
                    -0.1832,
                    -0.17868,
                    0.10185,
                    -0.17738,
                    0.15931,
                    0.05737,
                    -0.18358,
                    0.15286,
                    0.21724,
                    -0.08746,
                    0.21673,
                    0.05955,
                    0.08165,
                    0.16099,
                    0.03472,
                    -0.22802,
                    0.13704
                  ],
                  [
                    -0.04377,
                    -0.08162,
                    0.00934,
                    0.20545,
                    0.09414,
                    -0.18127,
                    -0.08732,
                    -0.02234,
                    -0.21404,
                    -0.04588,
                    -0.07494,
                    0.07672,
                    0.22551,
                    -0.23185,
                    0.03111,
                    0.07053,
                    -0.08188,
                    0.01157,
                    -0.03158,
                    -0.01439,
                    -0.18058,
                    -0.03505,
                    0.15917,
                    0.17894,
                    -0.00568,
                    0.24718,
                    -0.07601,
                    -0.03346,
                    -0.07111,
                    -0.04685,
                    -0.02753,
                    0.09334,
                    0.05932,
                    -0.03718,
                    0.19657,
                    0.19578,
                    -0.23543,
                    0.25259,
                    0.19206,
                    0.03813,
                    -0.06437,
                    0.04434,
                    -0.14425,
                    0.24603,
                    -0.23349,
                    -0.02493,
                    0.16732,
                    -0.07803,
                    0.03332,
                    0.25146,
                    0.26331,
                    0.12966,
                    -0.12971,
                    -0.07642,
                    -0.07129,
                    0.23314,
                    -0.163,
                    0.08669,
                    -0.19453,
                    -0.22782
                  ],
                  [
                    -0.18474,
                    0.06325,
                    -0.02697,
                    0.00153,
                    0.08964,
                    -0.12846,
                    0.05971,
                    -0.16674,
                    -0.17395,
                    -0.00142,
                    -0.02594,
                    0.21505,
                    -0.02567,
                    -0.22969,
                    -0.16391,
                    -0.18047,
                    0.18301,
                    -0.04375,
                    -0.22944,
                    -0.22382,
                    0.07584,
                    -0.14514,
                    0.04194,
                    -0.228,
                    -0.22346,
                    0.20991,
                    0.23916,
                    -0.26238,
                    -0.04632,
                    0.06652,
                    -0.16711,
                    0.04793,
                    -0.2468,
                    -0.22916,
                    -0.2095,
                    0.022,
                    -0.19044,
                    0.03671,
                    0.03323,
                    0.22832,
                    -0.05219,
                    -0.13185,
                    0.11331,
                    0.21651,
                    0.10247,
                    0.02838,
                    -0.24041,
                    -0.03613,
                    0.14238,
                    -0.21498,
                    0.10873,
                    0.10128,
                    -0.2127,
                    0.00563,
                    -0.20055,
                    0.23757,
                    -0.06669,
                    0.08604,
                    -0.04386,
                    0.06852
                  ],
                  [
                    0.05492,
                    -0.1613,
                    -0.00033,
                    0.2251,
                    0.22974,
                    0.04838,
                    -0.24107,
                    -0.16352,
                    0.10494,
                    0.13375,
                    0.2484,
                    0.10637,
                    0.08628,
                    0.02433,
                    -0.16728,
                    0.17252,
                    -0.22603,
                    0.19981,
                    0.22677,
                    0.03092,
                    -0.13842,
                    -0.22813,
                    -0.18726,
                    0.01818,
                    0.22242,
                    0.2417,
                    0.0042,
                    0.18354,
                    0.16542,
                    -0.01516,
                    -0.13005,
                    -0.22684,
                    0.08413,
                    -0.25428,
                    -0.00853,
                    -0.07146,
                    -0.11701,
                    0.04305,
                    -0.23602,
                    0.17001,
                    -0.10228,
                    -0.06497,
                    -0.04689,
                    0.09447,
                    -0.11355,
                    -0.10178,
                    0.12843,
                    -0.18692,
                    -0.0459,
                    0.17429,
                    0.20205,
                    -0.00144,
                    0.13141,
                    0.17683,
                    0.10051,
                    0.21936,
                    0.02017,
                    0.16668,
                    -0.21624,
                    0.00843
                  ],
                  [
                    -0.03003,
                    -0.11071,
                    -0.19948,
                    0.16106,
                    0.10781,
                    0.02168,
                    -0.22726,
                    -0.00274,
                    0.24277,
                    0.1584,
                    -0.09916,
                    0.17271,
                    0.14422,
                    0.19432,
                    -0.137,
                    0.01495,
                    -0.12349,
                    0.0586,
                    0.0141,
                    0.00821,
                    -0.02578,
                    -0.22813,
                    0.15954,
                    -0.14661,
                    -0.21178,
                    -0.12869,
                    0.16959,
                    0.05479,
                    -0.2611,
                    0.02925,
                    0.03052,
                    0.02378,
                    -0.07879,
                    -0.04439,
                    0.03078,
                    -0.23619,
                    0.20434,
                    0.09147,
                    0.06016,
                    0.21271,
                    0.02537,
                    -0.05373,
                    -0.18731,
                    0.15802,
                    0.01178,
                    -0.18469,
                    0.26433,
                    -0.23543,
                    -0.13732,
                    -0.15126,
                    -0.07725,
                    -0.11132,
                    -0.20014,
                    0.08431,
                    0.15809,
                    0.09181,
                    0.11767,
                    -0.09009,
                    0.05786,
                    -0.00658
                  ],
                  [
                    0.21389,
                    0.06781,
                    0.19478,
                    -0.24798,
                    0.23275,
                    -0.09959,
                    0.22568,
                    0.1371,
                    0.02663,
                    -0.14513,
                    -0.05218,
                    0.01032,
                    -0.14235,
                    -0.03356,
                    -0.16729,
                    -0.03357,
                    -0.1287,
                    0.11023,
                    -0.07129,
                    -0.1588,
                    0.03079,
                    0.16991,
                    0.17683,
                    0.22433,
                    -0.23272,
                    0.07182,
                    -0.09978,
                    -0.15741,
                    0.1524,
                    0.23436,
                    -0.17473,
                    -0.1031,
                    0.13617,
                    -0.19494,
                    0.16136,
                    0.1718,
                    0.12681,
                    0.15581,
                    0.13889,
                    0.04181,
                    -0.26432,
                    0.23235,
                    -0.01144,
                    0.24834,
                    -0.00819,
                    -0.06169,
                    -0.16468,
                    0.1582,
                    0.11553,
                    0.03577,
                    -0.16411,
                    -0.06559,
                    0.11144,
                    0.01726,
                    -0.17488,
                    -0.07875,
                    0.08716,
                    0.03446,
                    -0.0546,
                    -0.01508
                  ],
                  [
                    0.00063,
                    -0.18362,
                    0.26305,
                    0.22622,
                    0.15768,
                    -0.11698,
                    -0.14194,
                    0.18735,
                    0.22137,
                    0.06837,
                    -0.03141,
                    -0.0973,
                    -0.11217,
                    0.244,
                    0.09441,
                    -0.03339,
                    -0.10144,
                    -0.14203,
                    0.19401,
                    0.00825,
                    -0.10169,
                    -0.24392,
                    0.22421,
                    -0.13457,
                    -0.00533,
                    -0.14386,
                    -0.2247,
                    -0.21892,
                    -0.00551,
                    -0.09625,
                    -0.03147,
                    -0.00706,
                    0.12919,
                    -0.15442,
                    -0.18844,
                    -0.15526,
                    0.05696,
                    -0.14885,
                    0.17645,
                    0.02666,
                    -0.02302,
                    -0.14061,
                    0.0283,
                    0.19914,
                    -0.04296,
                    0.15995,
                    0.17922,
                    0.04039,
                    -0.1627,
                    -0.23777,
                    0.12134,
                    0.20765,
                    -0.09037,
                    -0.11794,
                    0.1469,
                    -0.11385,
                    -0.26123,
                    0.1961,
                    -0.23223,
                    -0.19067
                  ],
                  [
                    0.17627,
                    0.18199,
                    0.19037,
                    0.03183,
                    -0.20859,
                    0.18161,
                    -0.23704,
                    -0.03277,
                    -0.10309,
                    -0.21804,
                    0.16454,
                    -0.10438,
                    0.20832,
                    -0.24319,
                    -0.19562,
                    -0.05138,
                    0.0717,
                    0.05922,
                    0.18945,
                    -0.00576,
                    -0.16066,
                    -0.2331,
                    -0.09653,
                    -0.01212,
                    -0.16797,
                    0.07949,
                    0.10295,
                    -0.17435,
                    -0.25356,
                    0.06392,
                    0.04772,
                    0.01857,
                    -0.07741,
                    0.21362,
                    0.1135,
                    0.09875,
                    0.14581,
                    0.12052,
                    0.13858,
                    0.22837,
                    -0.0579,
                    -0.24237,
                    0.16783,
                    0.1459,
                    -0.23849,
                    -0.09381,
                    0.17369,
                    0.01133,
                    0.19538,
                    -0.05558,
                    -0.12697,
                    0.08903,
                    0.2429,
                    0.1906,
                    0.0894,
                    -0.07753,
                    0.18507,
                    -0.10294,
                    -0.21277,
                    -0.08377
                  ],
                  [
                    0.04903,
                    -0.1639,
                    0.11721,
                    0.14793,
                    -0.16275,
                    -0.16852,
                    -0.00199,
                    0.17892,
                    0.00469,
                    0.15356,
                    -0.23854,
                    -0.08702,
                    -0.19972,
                    0.13716,
                    0.20962,
                    -0.23234,
                    0.17015,
                    -0.02619,
                    -0.09413,
                    -0.23999,
                    -0.08837,
                    0.23584,
                    0.08136,
                    -0.25936,
                    0.11618,
                    -0.13722,
                    -0.25281,
                    -0.10562,
                    -0.22831,
                    -0.15248,
                    -0.07757,
                    -0.06112,
                    0.0547,
                    -0.1933,
                    0.05438,
                    -0.00844,
                    -0.21092,
                    -0.0468,
                    -0.18068,
                    0.10531,
                    0.22012,
                    0.0495,
                    -0.25959,
                    -0.09713,
                    0.08843,
                    -0.235,
                    -0.2225,
                    0.098,
                    -0.00826,
                    -0.20237,
                    -0.08516,
                    -0.21679,
                    0.13378,
                    0.07481,
                    -0.10135,
                    -0.18518,
                    0.1138,
                    -0.24226,
                    0.1887,
                    0.22053
                  ],
                  [
                    0.25177,
                    0.04147,
                    -0.04475,
                    0.20365,
                    0.04703,
                    0.18256,
                    0.22967,
                    -0.08118,
                    -0.11506,
                    0.13574,
                    0.23448,
                    0.00044,
                    -0.01941,
                    0.18064,
                    0.02559,
                    -0.05448,
                    -0.11107,
                    0.23081,
                    -0.12614,
                    -0.23143,
                    0.17912,
                    -0.14186,
                    0.19537,
                    -0.18867,
                    -0.16139,
                    -0.00224,
                    0.22579,
                    -0.25997,
                    -0.19472,
                    0.03777,
                    -0.16043,
                    0.11617,
                    0.18501,
                    -0.02949,
                    -0.2113,
                    0.15559,
                    0.23119,
                    0.00168,
                    -0.15328,
                    0.10036,
                    0.24024,
                    -0.17534,
                    -0.15247,
                    -0.06117,
                    -0.19184,
                    0.05393,
                    -0.2035,
                    0.21798,
                    -0.13488,
                    0.00278,
                    -0.18416,
                    -0.13738,
                    -0.12218,
                    0.17064,
                    -0.22644,
                    -0.16143,
                    -0.24139,
                    -0.17839,
                    0.09697,
                    -0.20004
                  ],
                  [
                    0.22631,
                    -0.14517,
                    -0.00456,
                    0.15796,
                    -0.13762,
                    -0.17526,
                    0.17412,
                    0.09194,
                    -0.12812,
                    0.21161,
                    0.22055,
                    -0.21028,
                    -0.12052,
                    -0.22142,
                    -0.16494,
                    0.26228,
                    0.13802,
                    -0.22363,
                    0.08711,
                    0.20652,
                    0.16941,
                    -0.12114,
                    0.26646,
                    0.05785,
                    0.065,
                    -0.16793,
                    0.01177,
                    0.20177,
                    -0.10023,
                    -0.16614,
                    0.22789,
                    -0.07411,
                    0.13592,
                    0.18842,
                    0.14293,
                    0.23733,
                    0.21725,
                    0.00757,
                    -0.01632,
                    -0.23237,
                    -0.14529,
                    0.15519,
                    0.21341,
                    -0.22013,
                    0.24601,
                    0.23904,
                    -0.16419,
                    -0.18236,
                    -0.25605,
                    0.24399,
                    -0.03921,
                    -0.02582,
                    -0.21703,
                    -0.12797,
                    -0.11155,
                    -0.06648,
                    0.17344,
                    -0.00342,
                    0.1649,
                    0.13444
                  ],
                  [
                    -0.00024,
                    -0.21792,
                    -0.06487,
                    -0.14042,
                    -0.18294,
                    0.1012,
                    -0.13092,
                    0.2045,
                    -0.02457,
                    -0.05948,
                    -0.15403,
                    0.2254,
                    0.14832,
                    0.22618,
                    -0.1846,
                    -0.02022,
                    -0.09603,
                    -0.05558,
                    0.03486,
                    -0.10765,
                    -0.13258,
                    -0.14014,
                    0.06247,
                    -0.10805,
                    0.14285,
                    -0.18414,
                    -0.15149,
                    -0.25305,
                    0.25705,
                    -0.16084,
                    -0.16319,
                    -0.22047,
                    0.01627,
                    0.1192,
                    0.04369,
                    0.01582,
                    -0.13188,
                    -0.06186,
                    0.05539,
                    -0.02641,
                    0.13745,
                    0.20736,
                    0.10567,
                    0.02375,
                    -0.09843,
                    -0.13388,
                    -0.15557,
                    -0.03989,
                    0.18645,
                    9e-05,
                    -0.19033,
                    0.00363,
                    -0.11582,
                    0.14347,
                    -0.22948,
                    -0.16071,
                    0.2096,
                    0.02261,
                    -0.09362,
                    0.17636
                  ],
                  [
                    0.0352,
                    0.10463,
                    0.101,
                    0.21443,
                    -0.1151,
                    0.08032,
                    -0.00044,
                    0.2096,
                    0.18534,
                    0.05702,
                    0.22141,
                    0.2309,
                    0.01428,
                    0.14295,
                    0.19947,
                    0.12602,
                    -0.06787,
                    0.22559,
                    0.22,
                    -0.0059,
                    -0.11396,
                    -0.09488,
                    -0.22313,
                    0.16054,
                    0.26134,
                    -0.07961,
                    -0.07266,
                    -0.00403,
                    0.07558,
                    0.23922,
                    0.16392,
                    -0.03008,
                    0.13473,
                    0.18428,
                    0.06426,
                    -0.11319,
                    -0.11395,
                    0.06484,
                    0.11494,
                    -0.15435,
                    0.22358,
                    -0.03588,
                    0.24918,
                    -0.2397,
                    0.08651,
                    0.01275,
                    -0.12432,
                    0.16431,
                    -0.05806,
                    -0.06406,
                    0.18831,
                    -0.20713,
                    0.03746,
                    -0.22316,
                    -0.00098,
                    0.04948,
                    0.2257,
                    0.14114,
                    0.25886,
                    -0.24777
                  ],
                  [
                    0.17278,
                    0.17318,
                    0.11935,
                    0.19573,
                    -0.11036,
                    0.24131,
                    -0.20488,
                    0.08461,
                    -0.12122,
                    0.01176,
                    -0.14204,
                    -0.23143,
                    -0.17978,
                    -0.00799,
                    0.00266,
                    0.00491,
                    -0.11985,
                    -0.2331,
                    -0.13157,
                    -0.24574,
                    0.1263,
                    0.17099,
                    0.01743,
                    -0.04081,
                    0.04172,
                    0.10006,
                    0.24105,
                    -0.00333,
                    -0.24588,
                    -0.05903,
                    -0.16968,
                    -0.15699,
                    0.23291,
                    0.23626,
                    0.09086,
                    0.25453,
                    0.08623,
                    0.22079,
                    -0.0892,
                    0.04212,
                    0.21459,
                    -0.0119,
                    0.23757,
                    -0.10956,
                    -0.01907,
                    -0.06267,
                    -0.2044,
                    0.19567,
                    -0.21416,
                    0.13647,
                    0.17617,
                    0.216,
                    -0.17487,
                    -0.19463,
                    -0.05226,
                    -0.2219,
                    0.15472,
                    0.06638,
                    0.00829,
                    0.26292
                  ],
                  [
                    0.00429,
                    -0.10268,
                    0.14894,
                    0.13206,
                    -0.02816,
                    0.20052,
                    -0.16871,
                    -0.17153,
                    0.00619,
                    -0.04602,
                    -0.03106,
                    -0.01448,
                    -0.22526,
                    0.2087,
                    0.08106,
                    0.18682,
                    -0.05811,
                    0.19604,
                    -0.21055,
                    -0.14666,
                    0.02717,
                    -0.00232,
                    0.13461,
                    -0.09785,
                    -0.05632,
                    0.05646,
                    0.16058,
                    -0.18802,
                    -0.20637,
                    -0.17983,
                    -0.14292,
                    0.16483,
                    0.02266,
                    0.04083,
                    0.13171,
                    -0.20393,
                    -0.08691,
                    -0.03854,
                    -0.22656,
                    0.23431,
                    -0.11499,
                    0.0093,
                    -0.00851,
                    0.13122,
                    0.08867,
                    -0.22319,
                    0.00541,
                    0.0145,
                    0.1382,
                    0.18336,
                    -0.02116,
                    -0.23568,
                    -0.0515,
                    -0.21625,
                    -0.21231,
                    -0.14126,
                    0.13983,
                    -0.17462,
                    -0.11718,
                    0.05826
                  ],
                  [
                    0.22379,
                    0.21294,
                    -0.1768,
                    -0.24466,
                    0.14238,
                    0.11843,
                    -0.01656,
                    0.17574,
                    -0.10475,
                    -0.1865,
                    -0.0838,
                    0.0985,
                    -0.17627,
                    0.16537,
                    0.08081,
                    -0.22042,
                    0.19847,
                    -0.01777,
                    0.11793,
                    0.22568,
                    -0.2426,
                    0.13697,
                    -0.05869,
                    0.21167,
                    -0.03489,
                    -0.26168,
                    0.05176,
                    -0.15501,
                    -0.05203,
                    0.06347,
                    -0.017,
                    -0.14959,
                    -0.06941,
                    -0.09464,
                    0.13232,
                    0.04184,
                    -0.20801,
                    -0.18989,
                    0.05642,
                    0.10889,
                    0.00381,
                    0.16678,
                    0.0203,
                    -0.11428,
                    -0.12003,
                    -0.11539,
                    0.18737,
                    -0.17169,
                    0.22892,
                    -0.18038,
                    -0.15499,
                    -0.04161,
                    -0.18161,
                    -0.07544,
                    0.0617,
                    0.18403,
                    0.18675,
                    -0.03291,
                    0.14452,
                    -0.24229
                  ],
                  [
                    -0.18053,
                    0.15048,
                    0.01481,
                    0.0517,
                    -0.2513,
                    -0.16028,
                    0.10118,
                    -0.12771,
                    0.00262,
                    0.2013,
                    0.14674,
                    0.19963,
                    -0.24743,
                    -0.17198,
                    -0.11731,
                    0.02628,
                    0.15069,
                    -0.02931,
                    0.05666,
                    0.18178,
                    -0.04889,
                    -0.01052,
                    0.26685,
                    0.05714,
                    0.26081,
                    0.02891,
                    -0.12821,
                    -0.17758,
                    0.00371,
                    0.07298,
                    0.11985,
                    0.21367,
                    0.16113,
                    0.14416,
                    -0.07457,
                    0.03356,
                    -0.222,
                    -0.09328,
                    0.24387,
                    0.18423,
                    -0.13642,
                    0.03928,
                    0.20445,
                    -0.17092,
                    -0.22398,
                    0.16161,
                    0.10145,
                    -0.23773,
                    -0.10983,
                    -0.20087,
                    -0.08121,
                    -0.14251,
                    0.1676,
                    0.01822,
                    -0.24171,
                    -0.10941,
                    -0.14584,
                    -0.26136,
                    -0.08127,
                    -0.08853
                  ],
                  [
                    0.04394,
                    0.20624,
                    -0.19583,
                    -0.22524,
                    0.14242,
                    0.19685,
                    0.078,
                    -0.02143,
                    -0.13261,
                    0.04703,
                    -0.16183,
                    -0.2234,
                    -0.20098,
                    -0.2011,
                    0.06391,
                    -0.24382,
                    0.22059,
                    -0.25977,
                    -0.2087,
                    -0.19223,
                    -0.08776,
                    0.23216,
                    0.00768,
                    0.20793,
                    0.10275,
                    0.22171,
                    -0.23536,
                    -0.0412,
                    -0.20896,
                    -0.19239,
                    -0.25244,
                    -0.17724,
                    -0.02493,
                    0.23211,
                    -0.00846,
                    -0.23498,
                    -0.04687,
                    0.20227,
                    0.24499,
                    0.04082,
                    0.2188,
                    0.15393,
                    0.11896,
                    0.18711,
                    -0.05656,
                    -0.04042,
                    -0.20648,
                    0.11568,
                    -0.14472,
                    0.00662,
                    0.15705,
                    0.13362,
                    -0.01684,
                    0.19044,
                    0.15922,
                    0.18063,
                    0.14784,
                    -0.16922,
                    -0.13002,
                    0.06019
                  ],
                  [
                    0.25142,
                    0.24422,
                    -0.23404,
                    -0.24055,
                    -0.1141,
                    0.1825,
                    -0.19004,
                    -0.06246,
                    0.03576,
                    -0.22396,
                    0.1589,
                    -0.00223,
                    0.23624,
                    -0.22005,
                    0.13902,
                    -0.05445,
                    -0.12353,
                    0.02191,
                    0.23627,
                    0.10704,
                    -0.11263,
                    -0.08534,
                    0.00771,
                    -0.21725,
                    -0.02925,
                    -0.23474,
                    0.23917,
                    -0.23293,
                    -0.25663,
                    -0.12807,
                    0.03362,
                    0.24599,
                    -0.22103,
                    0.11549,
                    -0.13619,
                    0.02597,
                    0.07895,
                    0.13079,
                    0.12679,
                    -0.17994,
                    0.01401,
                    0.04846,
                    0.09281,
                    -0.01684,
                    0.09007,
                    0.15494,
                    0.22784,
                    0.25856,
                    -0.13473,
                    0.25183,
                    -0.07297,
                    -0.15286,
                    -0.01039,
                    -0.1521,
                    0.17933,
                    -0.00796,
                    0.11852,
                    0.22094,
                    0.16583,
                    0.07077
                  ],
                  [
                    0.12881,
                    0.18654,
                    -0.20213,
                    0.08413,
                    -0.1202,
                    0.0279,
                    -0.0757,
                    -0.20393,
                    -0.14807,
                    0.18475,
                    -0.0064,
                    0.17387,
                    -0.22337,
                    -0.17759,
                    0.09003,
                    -0.0909,
                    0.06869,
                    0.11725,
                    -0.09435,
                    -0.09654,
                    -0.10149,
                    0.25478,
                    -0.15446,
                    -0.17919,
                    -0.2334,
                    0.22925,
                    0.15811,
                    -0.19745,
                    -0.0495,
                    0.09987,
                    -0.14313,
                    -0.04267,
                    -0.05241,
                    0.1407,
                    -0.13608,
                    -0.13566,
                    0.20467,
                    0.06886,
                    -0.10845,
                    0.24601,
                    -0.06812,
                    0.0623,
                    0.09651,
                    0.1883,
                    -0.11139,
                    -0.15717,
                    0.05666,
                    0.16677,
                    0.26266,
                    -0.09902,
                    0.06817,
                    0.25502,
                    -0.09663,
                    -0.22246,
                    -0.19317,
                    -0.0361,
                    -0.06064,
                    0.00025,
                    -0.16088,
                    0.24282
                  ],
                  [
                    -0.04821,
                    0.06993,
                    0.12566,
                    -0.20769,
                    -0.0279,
                    -0.12382,
                    -0.16266,
                    -0.11906,
                    -0.08585,
                    -0.14996,
                    0.10171,
                    0.07863,
                    -0.20563,
                    -0.11688,
                    -0.26225,
                    0.02927,
                    -0.18747,
                    -0.09016,
                    -0.19748,
                    -0.08241,
                    -0.16504,
                    -0.12697,
                    0.16425,
                    -0.24707,
                    -0.12918,
                    0.06808,
                    -0.16722,
                    -0.03239,
                    0.14059,
                    0.12818,
                    0.08906,
                    -0.26012,
                    0.12074,
                    0.06774,
                    0.05769,
                    -0.07263,
                    0.19858,
                    -0.22617,
                    -0.07435,
                    0.16082,
                    0.09212,
                    0.1053,
                    0.00315,
                    -0.10988,
                    -0.19377,
                    -0.05008,
                    -0.01451,
                    -0.03394,
                    -0.08472,
                    0.14461,
                    -0.19605,
                    -0.01766,
                    -0.13403,
                    0.00238,
                    0.12206,
                    -0.09201,
                    0.10736,
                    0.2393,
                    0.12439,
                    0.08768
                  ]
                ]
              },
              {
                "bias": [
                  -0.3034,
                  0.27666,
                  -0.29687,
                  0.18857
                ],
                "weights": [
                  [
                    -0.02581,
                    0.23566,
                    0.01934,
                    -0.08233,
                    0.14089,
                    -0.20872,
                    0.35834,
                    0.01205,
                    0.12805,
                    -0.33548,
                    -0.05958,
                    0.19324,
                    -0.35056,
                    0.29706,
                    0.19634,
                    -0.28598,
                    -0.09381,
                    -0.30015,
                    0.13047,
                    0.10743,
                    -0.16891,
                    -0.00404,
                    0.29756,
                    0.38698,
                    -0.23563,
                    -0.1126,
                    0.1989,
                    0.18713,
                    0.02031,
                    -0.06237
                  ],
                  [
                    0.14489,
                    0.28343,
                    0.13911,
                    -0.08495,
                    -0.05087,
                    -0.10762,
                    -0.13023,
                    -0.34412,
                    0.03587,
                    0.25134,
                    -0.10068,
                    -0.05974,
                    0.38428,
                    -0.40747,
                    -0.24722,
                    -0.34461,
                    -0.18527,
                    0.32662,
                    -0.13083,
                    -0.30384,
                    -0.13264,
                    0.17034,
                    0.37379,
                    -0.05414,
                    -0.21195,
                    0.13488,
                    0.3015,
                    -0.10848,
                    0.32151,
                    0.24864
                  ],
                  [
                    0.23283,
                    -0.40088,
                    -0.28886,
                    -0.26344,
                    -0.05671,
                    -0.18986,
                    0.12897,
                    -0.33705,
                    -0.21337,
                    -0.07515,
                    0.14079,
                    -0.27388,
                    0.32823,
                    -0.39187,
                    -0.02521,
                    -0.2382,
                    -0.12722,
                    0.23045,
                    0.16357,
                    -0.1082,
                    0.37334,
                    0.12191,
                    -0.06295,
                    0.30786,
                    -0.02349,
                    0.104,
                    0.11329,
                    -0.27204,
                    -0.2902,
                    -0.08988
                  ],
                  [
                    -0.22061,
                    0.19263,
                    0.01559,
                    -0.20261,
                    0.08654,
                    -0.00174,
                    -0.26375,
                    0.10412,
                    0.37806,
                    -0.21876,
                    0.26126,
                    -0.07535,
                    0.01903,
                    0.1378,
                    -0.19488,
                    -0.34981,
                    0.21698,
                    0.14964,
                    0.19044,
                    0.01919,
                    -0.20334,
                    0.34512,
                    -0.10489,
                    0.3965,
                    -0.21554,
                    0.3042,
                    -0.09393,
                    0.03852,
                    0.07824,
                    -0.33071
                  ]
                ]
              }
            ],
            "rollback": false,
            "shared": false,
            "type": {
              "items": {
                "fields": [
                  {
                    "name": "weights",
                    "type": {
                      "items": {
                        "items": "double",
                        "type": "array"
                      },
                      "type": "array"
                    }
                  },
                  {
                    "name": "bias",
                    "type": {
                      "items": "double",
                      "type": "array"
                    }
                  }
                ],
                "name": "Layer",
                "type": "record"
              },
              "type": "array"
            }
          },
          "validations": {
            "init": [
              {
                "code": "kfold",
                "data": {
                  "average": {
                    "Accuracy": 0.45693,
                    "Confusion matrix": {
                      "labels": [
                        "AD",
                        "CN",
                        "Other",
                        "MCI"
                      ],
                      "values": [
                        [
                          136.0,
                          112.0,
                          26.0,
                          0.0
                        ],
                        [
                          140.0,
                          129.0,
                          29.0,
                          0.0
                        ],
                        [
                          583.0,
                          43.0,
                          520.0,
                          0.0
                        ],
                        [
                          0.0,
                          0.0,
                          0.0,
                          0.0
                        ]
                      ]
                    },
                    "Weighted F1-score": 0.51828,
                    "Weighted false positive rate": 0.16293,
                    "Weighted precision": 0.70729,
                    "Weighted recall": 0.45693,
                    "type": "PolynomialClassificationScore"
                  },
                  "folds": {
                    "1": {
                      "Accuracy": 0.75553,
                      "Confusion matrix": {
                        "labels": [
                          "AD",
                          "CN",
                          "Other",
                          "MCI"
                        ],
                        "values": [
                          [
                            0.0,
                            112.0,
                            26.0,
                            0.0
                          ],
                          [
                            0.0,
                            129.0,
                            29.0,
                            0.0
                          ],
                          [
                            0.0,
                            43.0,
                            520.0,
                            0.0
                          ],
                          [
                            0.0,
                            0.0,
                            0.0,
                            0.0
                          ]
                        ]
                      },
                      "Weighted F1-score": 0.70634,
                      "Weighted false positive rate": 0.16245,
                      "Weighted precision": 0.67627,
                      "Weighted recall": 0.75553,
                      "type": "PolynomialClassificationScore"
                    },
                    "2": {
                      "Accuracy": 0.15832,
                      "Confusion matrix": {
                        "labels": [
                          "AD",
                          "CN",
                          "Other",
                          "MCI"
                        ],
                        "values": [
                          [
                            136.0,
                            0.0,
                            0.0,
                            0.0
                          ],
                          [
                            140.0,
                            0.0,
                            0.0,
                            0.0
                          ],
                          [
                            583.0,
                            0.0,
                            0.0,
                            0.0
                          ],
                          [
                            0.0,
                            0.0,
                            0.0,
                            0.0
                          ]
                        ]
                      },
                      "Weighted F1-score": 0.04328,
                      "Weighted false positive rate": 0.15832,
                      "Weighted precision": 0.02507,
                      "Weighted recall": 0.15832,
                      "type": "PolynomialClassificationScore"
                    }
                  },
                  "type": "KFoldCrossValidationScore"
                },
                "node": "local",
                "validationSpec": {
                  "code": "kfold",
                  "parameters": [
                    {
                      "code": "k",
                      "value": "2"
                    }
                  ]
                }
              }
            ],
            "type": {
              "items": "Record",
              "type": "array"
            }
          }
        },
        "fcns": {
          "C": {
            "do": [
              {
                "a.map": [
                  "categories",
                  {
                    "do": [
                      {
                        "else": [
                          0.0
                        ],
                        "if": {
                          "==": [
                            "cat",
                            "x"
                          ]
                        },
                        "then": [
                          1.0
                        ]
                      }
                    ],
                    "params": [
                      {
                        "cat": "string"
                      }
                    ],
                    "ret": "double"
                  }
                ]
              }
            ],
            "params": [
              {
                "x": "string"
              },
              {
                "categories": {
                  "items": "string",
                  "type": "array"
                }
              }
            ],
            "ret": {
              "items": "double",
              "type": "array"
            }
          },
          "arr": {
            "do": [
              {
                "new": [
                  "x"
                ],
                "type": {
                  "items": "double",
                  "type": "array"
                }
              }
            ],
            "params": [
              {
                "x": "double"
              }
            ],
            "ret": {
              "items": "double",
              "type": "array"
            }
          },
          "standardize": {
            "do": [
              {
                "/": [
                  {
                    "-": [
                      "x",
                      "mu"
                    ]
                  },
                  "sigma"
                ]
              }
            ],
            "params": [
              {
                "x": "double"
              },
              {
                "mu": "double"
              },
              {
                "sigma": "double"
              }
            ],
            "ret": "double"
          }
        },
        "input": {
          "fields": [
            {
              "name": "lefthippocampus",
              "type": "double"
            }
          ],
          "name": "Input",
          "type": "record"
        },
        "metadata": {
          "X": "{\"lefthippocampus\":{\"count\":1718.0,\"mean\":3.639566982e-16,\"std\":1.0002911632,\"min\":-6.1997481189,\"25%\":-0.1756647944,\"50%\":-0.1756647944,\"75%\":-0.1049179598,\"max\":5.934008706}}",
          "score": "0.7293364377",
          "y": "{\"count\":1718,\"unique\":3,\"top\":\"Other\",\"freq\":1146}"
        },
        "method": "map",
        "name": "neural_network",
        "output": "string"
      },
      "dataProvenance": [],
      "feedback": [],
      "jobId": "*",
      "node": "local",
      "query": {
        "algorithm": {
          "code": "sgdNeuralNetwork",
          "parameters": [
            {
              "code": "hidden_layer_sizes",
              "value": "60,30"
            },
            {
              "code": "activation",
              "value": "tanh"
            }
          ]
        },
        "covariables": [],
        "covariablesMustExist": false,
        "datasets": [],
        "grouping": [],
        "user": {
          "code": "system"
        },
        "variables": []
      },
      "timestamp": 0.0,
      "type": "application/pfa+json"
    }
  ],
  "dataProvenance": [
    {
      "code": "desd-synthdata"
    },
    {
      "code": "qqni-synthdata"
    }
  ],
  "feedback": [],
  "jobId": "*",
  "node": "local",
  "query": {
    "algorithms": [
      {
        "code": "sgdNeuralNetwork",
        "parameters": [
          {
            "code": "hidden_layer_sizes",
            "value": "60,30"
          },
          {
            "code": "activation",
            "value": "tanh"
          }
        ]
      }
    ],
    "covariables": [
      {
        "code": "lefthippocampus"
      }
    ],
    "covariablesMustExist": true,
    "filters": {
      "condition": "AND",
      "rules": [
        {
          "field": "alzheimerbroadcategory",
          "id": "alzheimerbroadcategory",
          "input": "text",
          "operator": "is_not_null",
          "type": "string",
          "value": []
        },
        {
          "field": "lefthippocampus",
          "id": "lefthippocampus",
          "input": "text",
          "operator": "is_not_null",
          "type": "string",
          "value": []
        }
      ]
    },
    "grouping": [],
    "targetTable": {
      "database": "features",
      "dbSchema": "public",
      "name": "mip_cde_features"
    },
    "testingDatasets": [],
    "trainingDatasets": [],
    "user": {
      "code": "test1"
    },
    "validationDatasets": [],
    "validations": [
      {
        "code": "kfold",
        "parameters": [
          {
            "code": "k",
            "value": "2"
          }
        ]
      }
    ],
    "variables": [
      {
        "code": "alzheimerbroadcategory"
      }
    ]
  },
  "timestamp": 0.0,
  "type": "application/vnd.hbp.mip.experiment.pfa+json"
}
