{
  "data": [
    {
      "algorithm": "python-sgd-neural-network",
      "algorithmSpec": {
        "code": "sgdNeuralNetwork",
        "parameters": [
          {
            "code": "hidden_layer_sizes",
            "value": "60,30"
          },
          {
            "code": "activation",
            "value": "tanh"
          }
        ]
      },
      "data": {
        "action": [
          {
            "let": {
              "x": {
                "a.flatten": [
                  {
                    "new": [
                      {
                        "u.arr": [
                          {
                            "/": [
                              {
                                "-": [
                                  {
                                    "cast.double": [
                                      {
                                        "attr": "input",
                                        "path": [
                                          {
                                            "string": "lefthippocampus"
                                          }
                                        ]
                                      }
                                    ]
                                  },
                                  2.91276
                                ]
                              },
                              0.25938
                            ]
                          }
                        ]
                      }
                    ],
                    "type": {
                      "items": {
                        "items": "double",
                        "type": "array"
                      },
                      "type": "array"
                    }
                  }
                ]
              }
            }
          },
          {
            "let": {
              "activations": {
                "model.neural.simpleLayers": [
                  "x",
                  {
                    "cell": "neuralnet"
                  },
                  {
                    "do": [
                      {
                        "m.link.relu": [
                          "x"
                        ]
                      }
                    ],
                    "params": [
                      {
                        "x": "double"
                      }
                    ],
                    "ret": "double"
                  }
                ]
              }
            }
          },
          {
            "cell": "classes",
            "path": [
              {
                "a.argmax": [
                  "activations"
                ]
              }
            ]
          }
        ],
        "cells": {
          "classes": {
            "init": [
              "AD",
              "CN",
              "Other"
            ],
            "rollback": false,
            "shared": false,
            "type": {
              "items": "string",
              "type": "array"
            }
          },
          "neuralnet": {
            "init": [
              {
                "bias": [
                  0.1336,
                  0.24344,
                  0.16278,
                  0.23202,
                  0.2123,
                  -0.16232,
                  -0.1962,
                  0.20153,
                  -0.08013,
                  0.03319,
                  -0.09435,
                  -0.21369,
                  0.04039,
                  -0.08392,
                  0.01093,
                  0.18029,
                  0.02704,
                  0.1265,
                  -0.23245,
                  0.28986,
                  -0.08659,
                  0.22086,
                  0.07096,
                  0.24983,
                  0.00236,
                  -0.31955,
                  -0.29641,
                  0.28202,
                  -0.14295,
                  -0.27826,
                  0.27817,
                  -0.14509,
                  -0.21221,
                  0.15413,
                  -0.28295,
                  -0.11935,
                  -0.23551,
                  -0.18526,
                  -0.08494,
                  -0.22932,
                  -0.04039,
                  -0.19879,
                  0.13864,
                  0.05853,
                  -0.07349,
                  -0.09449,
                  0.12922,
                  0.05154,
                  -0.25916,
                  0.10339,
                  -0.29334,
                  0.14741,
                  -0.01793,
                  -0.28122,
                  -0.13352,
                  0.27413,
                  -0.25724,
                  -0.22811,
                  0.12693,
                  0.04776
                ],
                "weights": [
                  [
                    -0.30535
                  ],
                  [
                    0.29514
                  ],
                  [
                    0.00337
                  ],
                  [
                    0.2761
                  ],
                  [
                    -0.13246
                  ],
                  [
                    -0.29907
                  ],
                  [
                    -0.00265
                  ],
                  [
                    0.12142
                  ],
                  [
                    0.14539
                  ],
                  [
                    0.0335
                  ],
                  [
                    0.02687
                  ],
                  [
                    -0.31348
                  ],
                  [
                    -0.12735
                  ],
                  [
                    0.13303
                  ],
                  [
                    0.07877
                  ],
                  [
                    -0.28926
                  ],
                  [
                    0.22961
                  ],
                  [
                    -0.31476
                  ],
                  [
                    -0.29211
                  ],
                  [
                    -0.11595
                  ],
                  [
                    0.10425
                  ],
                  [
                    -0.06113
                  ],
                  [
                    -0.13125
                  ],
                  [
                    -0.22172
                  ],
                  [
                    -0.03488
                  ],
                  [
                    0.1847
                  ],
                  [
                    -0.16369
                  ],
                  [
                    0.11157
                  ],
                  [
                    -0.28343
                  ],
                  [
                    0.2104
                  ],
                  [
                    -0.2717
                  ],
                  [
                    -0.07194
                  ],
                  [
                    0.29832
                  ],
                  [
                    -0.19159
                  ],
                  [
                    -0.03505
                  ],
                  [
                    0.17356
                  ],
                  [
                    0.16155
                  ],
                  [
                    -0.11259
                  ],
                  [
                    0.11673
                  ],
                  [
                    0.21527
                  ],
                  [
                    -0.24386
                  ],
                  [
                    0.20034
                  ],
                  [
                    -0.08536
                  ],
                  [
                    0.10161
                  ],
                  [
                    0.21391
                  ],
                  [
                    -0.1687
                  ],
                  [
                    0.21738
                  ],
                  [
                    -0.19158
                  ],
                  [
                    0.21147
                  ],
                  [
                    -0.04824
                  ],
                  [
                    0.21307
                  ],
                  [
                    -0.12574
                  ],
                  [
                    -0.02552
                  ],
                  [
                    -0.12439
                  ],
                  [
                    -0.21586
                  ],
                  [
                    -0.31098
                  ],
                  [
                    -0.2469
                  ],
                  [
                    0.00722
                  ],
                  [
                    -0.06816
                  ],
                  [
                    0.17284
                  ]
                ]
              },
              {
                "bias": [
                  -0.26292,
                  0.14866,
                  0.0455,
                  0.09665,
                  -0.07335,
                  -0.04217,
                  0.02986,
                  0.03741,
                  -0.0136,
                  0.09629,
                  0.21217,
                  -0.2435,
                  0.0544,
                  0.05379,
                  -0.19939,
                  -0.22058,
                  0.11901,
                  0.03688,
                  0.19583,
                  -0.15098,
                  0.19151,
                  0.04102,
                  -0.17198,
                  -0.14236,
                  0.07979,
                  0.11141,
                  0.24872,
                  -0.16264,
                  0.25811,
                  0.13684
                ],
                "weights": [
                  [
                    0.03888,
                    -0.00082,
                    -0.20074,
                    0.20253,
                    0.24506,
                    0.0277,
                    -0.18469,
                    -0.04603,
                    -0.10068,
                    -0.10533,
                    0.08898,
                    -0.15379,
                    0.17034,
                    -0.24426,
                    0.07292,
                    0.0694,
                    -0.00712,
                    0.01317,
                    -0.02488,
                    -0.11131,
                    0.05605,
                    0.17441,
                    -0.22556,
                    0.21969,
                    -0.16144,
                    0.05448,
                    -0.04522,
                    -0.07603,
                    0.04581,
                    0.17552,
                    -0.17957,
                    -0.09249,
                    -0.08077,
                    0.18148,
                    0.13159,
                    0.16174,
                    0.20059,
                    -0.21818,
                    0.19738,
                    -0.17211,
                    -0.01637,
                    -0.23032,
                    0.17199,
                    -0.23119,
                    0.06717,
                    -0.0824,
                    -0.0698,
                    -0.0888,
                    -0.03966,
                    0.17378,
                    -0.16545,
                    0.11191,
                    0.01414,
                    -0.06745,
                    -0.13314,
                    0.16282,
                    0.1881,
                    -0.03239,
                    -0.16747,
                    0.07851
                  ],
                  [
                    -0.21419,
                    -0.19237,
                    -0.16728,
                    -0.16205,
                    -0.06556,
                    -0.22236,
                    0.0264,
                    -0.11998,
                    -0.18738,
                    0.01849,
                    -0.12683,
                    0.1684,
                    -0.15268,
                    -0.11577,
                    -0.24877,
                    -0.09135,
                    0.16997,
                    0.04289,
                    -0.0126,
                    -0.15189,
                    0.21774,
                    -0.23332,
                    0.05678,
                    0.21833,
                    -0.24905,
                    0.22994,
                    0.04605,
                    -0.13253,
                    -0.2445,
                    0.2419,
                    -0.04909,
                    0.08398,
                    0.18597,
                    -0.14329,
                    -0.02909,
                    0.24629,
                    -0.19867,
                    0.04028,
                    -0.06968,
                    -0.00805,
                    -0.12858,
                    -0.26043,
                    0.00177,
                    0.21742,
                    0.1917,
                    0.14591,
                    0.15351,
                    -0.00261,
                    -0.08044,
                    0.1443,
                    -0.11364,
                    -0.03921,
                    0.08483,
                    0.25352,
                    -0.01655,
                    0.20108,
                    0.12653,
                    -0.06271,
                    0.26284,
                    0.08245
                  ],
                  [
                    0.1591,
                    -0.11565,
                    -0.06292,
                    -0.11618,
                    0.19822,
                    0.11153,
                    -0.25882,
                    -0.19629,
                    -0.05716,
                    0.00032,
                    -0.11504,
                    0.07627,
                    -0.07382,
                    0.0234,
                    0.23687,
                    -0.04865,
                    -0.21544,
                    0.0993,
                    -0.14853,
                    0.04119,
                    0.09688,
                    0.23496,
                    -0.01512,
                    -0.18319,
                    0.19207,
                    -0.23849,
                    0.0385,
                    0.20942,
                    -0.00962,
                    -0.09493,
                    0.25417,
                    -0.05603,
                    -0.04576,
                    -0.18761,
                    -0.00325,
                    0.0866,
                    0.2029,
                    0.16876,
                    -0.01323,
                    -0.2361,
                    -0.14423,
                    -0.08374,
                    0.08702,
                    0.1006,
                    0.02018,
                    0.02714,
                    -0.07751,
                    0.19669,
                    -0.12079,
                    -0.17094,
                    0.18826,
                    -0.23938,
                    -0.10432,
                    0.08104,
                    -0.14565,
                    0.15462,
                    0.06835,
                    0.24894,
                    -0.17826,
                    0.23191
                  ],
                  [
                    0.162,
                    0.18592,
                    0.17511,
                    0.03235,
                    0.22833,
                    0.07983,
                    -0.06335,
                    0.14091,
                    -0.20501,
                    0.06704,
                    0.11543,
                    0.15077,
                    -0.1035,
                    0.16759,
                    -0.19481,
                    0.21423,
                    -0.01308,
                    -0.01838,
                    -0.13844,
                    0.19757,
                    0.0829,
                    0.26614,
                    0.19932,
                    0.22847,
                    0.15086,
                    -0.06786,
                    0.09599,
                    0.08926,
                    0.06615,
                    0.11592,
                    -0.05983,
                    0.09278,
                    0.18733,
                    0.02913,
                    -0.24519,
                    0.08728,
                    -0.00776,
                    0.20881,
                    -0.13237,
                    -0.02126,
                    -0.07046,
                    0.15907,
                    -0.05401,
                    0.06645,
                    0.21919,
                    0.09163,
                    0.19341,
                    -0.02761,
                    0.04815,
                    -0.10357,
                    -0.1125,
                    -0.2293,
                    0.11444,
                    0.23514,
                    -0.04234,
                    -0.08822,
                    -0.2464,
                    -0.23254,
                    -0.14449,
                    -0.16675
                  ],
                  [
                    0.15945,
                    0.15854,
                    -0.22859,
                    0.08992,
                    -0.13343,
                    0.14956,
                    0.17561,
                    -0.02245,
                    0.07776,
                    0.10356,
                    0.11275,
                    -0.1302,
                    -0.02319,
                    0.13143,
                    -0.09824,
                    0.06871,
                    0.1207,
                    -0.06446,
                    0.19437,
                    -0.17893,
                    -0.16119,
                    0.11509,
                    -0.19989,
                    -0.09547,
                    0.05575,
                    -0.09351,
                    -0.20355,
                    -0.23611,
                    0.05357,
                    0.10001,
                    -0.05199,
                    -0.18624,
                    0.12741,
                    -0.1291,
                    -0.20444,
                    0.17546,
                    -0.17101,
                    0.25151,
                    -0.1723,
                    0.07392,
                    0.1552,
                    -0.16805,
                    -0.2019,
                    0.2026,
                    -0.2666,
                    0.25114,
                    0.19099,
                    0.0835,
                    0.09151,
                    0.18137,
                    -0.03001,
                    0.08385,
                    0.11918,
                    0.19073,
                    0.1875,
                    0.02297,
                    0.06588,
                    -0.0879,
                    0.24251,
                    -0.076
                  ],
                  [
                    0.07506,
                    0.21904,
                    0.06385,
                    -0.21346,
                    0.09799,
                    0.10693,
                    0.01891,
                    -0.00678,
                    -0.08893,
                    -0.00257,
                    0.07487,
                    -0.05064,
                    -0.01791,
                    -0.08956,
                    0.03247,
                    0.19408,
                    0.19181,
                    -0.14153,
                    -0.14624,
                    0.018,
                    -0.21041,
                    -0.08111,
                    0.09976,
                    0.15756,
                    0.04504,
                    0.20938,
                    -0.0515,
                    0.08099,
                    0.07948,
                    -0.1107,
                    0.06604,
                    -0.04292,
                    0.24749,
                    -0.16726,
                    -0.13035,
                    -0.09601,
                    0.21312,
                    0.22716,
                    0.1511,
                    -0.0507,
                    0.02235,
                    -0.04479,
                    0.12773,
                    0.12067,
                    0.01802,
                    0.24187,
                    -0.06379,
                    -0.14188,
                    -0.1163,
                    0.18865,
                    0.19387,
                    -0.21355,
                    -0.24137,
                    -0.2323,
                    -0.04638,
                    -0.16602,
                    0.23576,
                    0.1406,
                    0.0112,
                    0.02089
                  ],
                  [
                    0.2302,
                    -0.13796,
                    0.09657,
                    -0.0654,
                    0.14821,
                    -0.19655,
                    0.08463,
                    0.22513,
                    -0.09248,
                    -0.12496,
                    -0.19768,
                    -0.128,
                    -0.15848,
                    0.21107,
                    -0.03464,
                    -0.02728,
                    -0.06549,
                    0.07623,
                    -0.11716,
                    0.12668,
                    0.08364,
                    0.11171,
                    0.15927,
                    0.11075,
                    -0.06596,
                    0.18744,
                    -0.04734,
                    0.00588,
                    0.00102,
                    0.12385,
                    -0.07183,
                    0.14726,
                    -0.16229,
                    0.08867,
                    -0.1094,
                    -0.1526,
                    0.23322,
                    0.24513,
                    -0.00559,
                    -0.13681,
                    -0.0582,
                    0.1522,
                    -0.03491,
                    -0.0796,
                    0.23389,
                    0.23785,
                    -0.13432,
                    0.07222,
                    0.04772,
                    0.02719,
                    0.05208,
                    0.12571,
                    0.24453,
                    0.13261,
                    -0.00119,
                    0.2457,
                    -0.1478,
                    -0.17908,
                    0.19094,
                    -0.08734
                  ],
                  [
                    0.00412,
                    -0.01452,
                    0.00289,
                    0.00019,
                    0.22944,
                    0.11686,
                    -0.06755,
                    0.24804,
                    0.21794,
                    -0.10085,
                    0.08311,
                    -0.00849,
                    -0.02736,
                    0.08191,
                    -0.06529,
                    0.09024,
                    0.22325,
                    0.18497,
                    0.22651,
                    -0.064,
                    -0.17425,
                    0.05749,
                    -0.00361,
                    0.07412,
                    -0.0039,
                    0.1225,
                    0.05374,
                    0.21359,
                    0.06172,
                    -0.03383,
                    -0.0422,
                    -0.20422,
                    0.20442,
                    0.26322,
                    -0.09018,
                    0.04786,
                    0.18756,
                    0.10718,
                    -0.26259,
                    -0.24555,
                    -0.18009,
                    0.11696,
                    -0.14484,
                    0.23716,
                    -0.22632,
                    0.0508,
                    -0.04183,
                    -0.10218,
                    -0.22053,
                    0.03649,
                    -0.12314,
                    -0.03959,
                    0.17993,
                    -0.11598,
                    0.25606,
                    -0.08553,
                    0.18441,
                    -0.02273,
                    -0.04419,
                    -0.00659
                  ],
                  [
                    0.15734,
                    0.15889,
                    -0.0931,
                    -0.00702,
                    -0.15013,
                    -0.10468,
                    -0.01591,
                    -0.19268,
                    0.02801,
                    0.02298,
                    -0.06045,
                    -0.05134,
                    0.01679,
                    0.03128,
                    0.04394,
                    -0.08062,
                    -0.20364,
                    0.14431,
                    -0.00446,
                    -0.08219,
                    0.14027,
                    -0.08702,
                    -0.01556,
                    -0.03482,
                    -0.11625,
                    -0.03525,
                    0.07088,
                    -0.14661,
                    -0.08308,
                    -0.15329,
                    0.06626,
                    -0.09163,
                    -0.11838,
                    -0.23753,
                    0.08019,
                    -0.10917,
                    -0.08953,
                    -0.14426,
                    -0.1692,
                    -0.211,
                    0.0134,
                    -0.18349,
                    0.24389,
                    -0.07595,
                    -0.15428,
                    0.04923,
                    0.08629,
                    -0.05567,
                    0.01634,
                    -0.21498,
                    -0.0676,
                    0.00904,
                    -0.14042,
                    -0.07107,
                    -0.224,
                    -0.03123,
                    0.23409,
                    0.13953,
                    0.22794,
                    -0.13894
                  ],
                  [
                    -0.24163,
                    0.02743,
                    -0.07226,
                    -0.00287,
                    -0.20206,
                    0.13745,
                    -0.12337,
                    -0.13336,
                    -0.22018,
                    0.11428,
                    0.18405,
                    0.13546,
                    -0.2039,
                    -0.12215,
                    -0.19617,
                    -0.23592,
                    0.17987,
                    -0.08067,
                    0.07859,
                    0.10917,
                    0.15836,
                    -0.02064,
                    -0.0741,
                    -0.08752,
                    0.02356,
                    -0.10226,
                    -0.22761,
                    0.14274,
                    -0.13919,
                    0.206,
                    0.18864,
                    0.26045,
                    0.12818,
                    0.12054,
                    0.02522,
                    0.00097,
                    -0.17472,
                    -0.15387,
                    0.17276,
                    0.0178,
                    -0.2195,
                    -0.02171,
                    0.02061,
                    -0.0368,
                    0.1642,
                    -0.01592,
                    0.19677,
                    -0.05975,
                    -0.17201,
                    0.08608,
                    0.06064,
                    -0.02244,
                    0.14139,
                    -0.02867,
                    0.00682,
                    0.03756,
                    0.082,
                    0.00041,
                    0.02293,
                    0.0632
                  ],
                  [
                    -0.14278,
                    -0.08627,
                    -0.19984,
                    0.01631,
                    0.17926,
                    -0.24769,
                    -0.13833,
                    -0.23055,
                    0.04767,
                    0.07551,
                    0.24115,
                    0.20546,
                    -0.06753,
                    -0.20362,
                    0.04688,
                    0.20695,
                    0.18301,
                    -0.22866,
                    0.07882,
                    0.19248,
                    -0.05449,
                    0.22382,
                    0.07928,
                    0.16468,
                    -0.15056,
                    0.17913,
                    -0.04173,
                    -0.26085,
                    0.11643,
                    -0.20485,
                    -0.22714,
                    0.14821,
                    0.08845,
                    -0.0232,
                    -0.19879,
                    0.06193,
                    0.06927,
                    0.00235,
                    0.02315,
                    -0.02138,
                    -0.1221,
                    0.01056,
                    0.15774,
                    0.1618,
                    -0.03792,
                    -0.2235,
                    -0.22801,
                    0.19444,
                    0.19034,
                    0.05791,
                    0.18366,
                    -0.18675,
                    0.11266,
                    -0.08471,
                    0.04406,
                    -0.21745,
                    0.14198,
                    -0.02958,
                    0.10887,
                    -0.03741
                  ],
                  [
                    -0.22463,
                    0.14224,
                    0.21902,
                    0.24582,
                    -0.06375,
                    0.02348,
                    -0.0785,
                    0.04346,
                    0.03555,
                    0.12046,
                    0.08681,
                    -0.00039,
                    0.14624,
                    -0.10574,
                    -0.18885,
                    -0.01865,
                    0.11096,
                    0.06976,
                    0.10559,
                    0.1338,
                    0.13515,
                    0.08585,
                    0.13253,
                    -0.08174,
                    0.03028,
                    -0.06788,
                    -0.22656,
                    -0.08832,
                    0.16902,
                    0.1993,
                    0.1371,
                    0.10362,
                    0.11462,
                    -0.14121,
                    -0.23986,
                    0.01048,
                    0.16589,
                    -0.01767,
                    -0.06858,
                    0.1934,
                    0.197,
                    0.2159,
                    -0.18885,
                    -0.10882,
                    -0.07972,
                    0.15147,
                    -0.22917,
                    -0.02035,
                    0.18847,
                    0.07177,
                    -0.19119,
                    0.17007,
                    0.24966,
                    0.19445,
                    -0.10654,
                    -0.06849,
                    0.19872,
                    0.02548,
                    -0.20021,
                    0.23723
                  ],
                  [
                    -0.15792,
                    0.06907,
                    0.01668,
                    0.07505,
                    -0.12917,
                    0.13743,
                    -0.14864,
                    0.25866,
                    0.10777,
                    -0.05106,
                    0.07367,
                    -0.02191,
                    -0.19024,
                    -0.02223,
                    -0.23731,
                    0.221,
                    -0.20599,
                    0.26033,
                    -0.04571,
                    -0.00992,
                    -0.15263,
                    0.20121,
                    0.10275,
                    0.08534,
                    0.25561,
                    0.05739,
                    -0.20622,
                    -0.23105,
                    -0.14756,
                    -0.05185,
                    0.0527,
                    -0.19266,
                    0.1646,
                    -0.03848,
                    0.09811,
                    -0.20772,
                    -0.10479,
                    -0.25088,
                    -0.20127,
                    -0.11305,
                    0.12818,
                    -0.17424,
                    0.22417,
                    0.20743,
                    -0.09584,
                    -0.21241,
                    -0.0487,
                    -0.07598,
                    0.01702,
                    0.24271,
                    -0.13535,
                    -0.01234,
                    -0.04854,
                    0.13617,
                    -0.23922,
                    0.09149,
                    0.12535,
                    -0.03117,
                    -0.08422,
                    0.09061
                  ],
                  [
                    0.11136,
                    0.2441,
                    0.14961,
                    0.0794,
                    -0.11548,
                    0.12235,
                    -0.02939,
                    0.20166,
                    -0.19642,
                    -0.04329,
                    0.05176,
                    0.21235,
                    -0.05811,
                    -0.13529,
                    -0.18706,
                    0.0447,
                    -0.18715,
                    -0.0996,
                    0.07974,
                    0.15622,
                    0.25101,
                    0.12926,
                    0.05644,
                    -0.11279,
                    -0.06025,
                    -0.11106,
                    0.17435,
                    0.24204,
                    -0.00586,
                    -0.18166,
                    0.06563,
                    -0.00838,
                    -0.20948,
                    0.01277,
                    0.11158,
                    0.05487,
                    0.22814,
                    0.21507,
                    -0.0893,
                    0.08515,
                    0.18194,
                    0.23071,
                    -0.23053,
                    -0.23448,
                    -0.20868,
                    0.06245,
                    -0.14165,
                    -0.16811,
                    0.19999,
                    0.05403,
                    0.22916,
                    0.15797,
                    -0.1916,
                    0.08609,
                    0.00943,
                    -0.00528,
                    -0.04792,
                    -0.10856,
                    -0.20295,
                    -0.20415
                  ],
                  [
                    -0.16861,
                    0.18046,
                    0.13173,
                    0.16597,
                    0.22157,
                    -0.01831,
                    -0.13093,
                    -0.20657,
                    0.02123,
                    0.22158,
                    0.15294,
                    -0.19457,
                    -0.21203,
                    -0.25469,
                    0.20821,
                    0.23547,
                    0.15926,
                    -0.15343,
                    -0.23666,
                    0.04065,
                    -0.06898,
                    -0.22752,
                    -0.07259,
                    -0.0922,
                    -0.0207,
                    -0.25828,
                    -0.18164,
                    -0.03738,
                    0.11196,
                    -0.04085,
                    0.25485,
                    -0.07757,
                    0.21839,
                    -0.18572,
                    0.01801,
                    -0.26085,
                    0.23254,
                    0.25702,
                    -0.22123,
                    0.11319,
                    -0.09377,
                    0.20459,
                    0.09983,
                    0.12396,
                    -0.02594,
                    -0.22323,
                    0.21197,
                    0.01283,
                    -0.09115,
                    -0.00914,
                    -0.13483,
                    0.05383,
                    0.04619,
                    -0.21436,
                    0.0178,
                    0.0547,
                    -0.22399,
                    0.15322,
                    -0.23404,
                    -0.21735
                  ],
                  [
                    0.04725,
                    0.13709,
                    0.16728,
                    0.10371,
                    -0.06894,
                    -0.07067,
                    0.01547,
                    0.13591,
                    -0.13002,
                    0.13229,
                    -0.15114,
                    0.01372,
                    0.15545,
                    0.13841,
                    -0.17648,
                    -0.00464,
                    0.09844,
                    -0.14738,
                    -0.12031,
                    0.11371,
                    -0.06766,
                    0.21023,
                    0.1183,
                    0.19479,
                    0.1304,
                    -0.09037,
                    0.14693,
                    0.21809,
                    0.14947,
                    0.1473,
                    0.21268,
                    0.02976,
                    0.21262,
                    -0.05869,
                    -0.21329,
                    -0.05521,
                    -0.16923,
                    0.0261,
                    0.20893,
                    0.22646,
                    0.24002,
                    0.21206,
                    -0.14482,
                    0.0461,
                    0.20653,
                    0.02841,
                    -0.09163,
                    0.11352,
                    -0.05356,
                    0.21304,
                    -0.19928,
                    -0.21944,
                    0.01368,
                    0.24381,
                    -0.23077,
                    -0.23386,
                    -0.01069,
                    -0.03726,
                    0.16019,
                    0.03404
                  ],
                  [
                    -0.05536,
                    -0.23289,
                    -0.16435,
                    0.1395,
                    -0.00511,
                    -0.22699,
                    -0.21555,
                    0.20126,
                    0.2205,
                    -0.19296,
                    -0.03712,
                    -0.25756,
                    0.00556,
                    -0.23865,
                    -0.00284,
                    -0.11606,
                    0.2253,
                    0.13612,
                    -0.08791,
                    0.05557,
                    -0.24233,
                    0.07794,
                    -0.12833,
                    0.21495,
                    -0.20525,
                    -0.11393,
                    -0.00253,
                    0.13169,
                    0.09322,
                    -0.25697,
                    0.15194,
                    0.05969,
                    0.08444,
                    -0.02083,
                    0.20251,
                    -0.26318,
                    0.09283,
                    -0.14327,
                    -0.12464,
                    -0.16702,
                    0.1963,
                    0.11693,
                    0.26142,
                    0.12459,
                    0.20735,
                    -0.12895,
                    0.17439,
                    0.13721,
                    0.08991,
                    -0.11322,
                    -0.16755,
                    -0.02234,
                    -0.137,
                    0.18649,
                    -0.20673,
                    0.17944,
                    -0.03346,
                    -0.19037,
                    -0.16218,
                    0.18853
                  ],
                  [
                    -0.18372,
                    0.03086,
                    -0.25268,
                    -0.04885,
                    0.09056,
                    -0.25859,
                    -0.18368,
                    -0.20018,
                    -0.23819,
                    0.01915,
                    0.17249,
                    0.17317,
                    0.14367,
                    -0.15289,
                    0.16203,
                    0.19567,
                    -0.20694,
                    0.24241,
                    -0.20258,
                    -0.22371,
                    -0.05973,
                    0.01068,
                    0.19428,
                    0.21952,
                    0.10617,
                    0.15126,
                    0.0617,
                    0.08963,
                    0.06169,
                    -0.16892,
                    -0.22581,
                    0.19986,
                    0.13528,
                    0.16603,
                    -0.05546,
                    0.18168,
                    0.17735,
                    -0.13958,
                    -0.06533,
                    -0.20261,
                    0.13281,
                    0.20976,
                    -0.23703,
                    0.06093,
                    0.03077,
                    -0.14065,
                    0.13451,
                    0.11298,
                    -0.19197,
                    -0.22269,
                    -0.08718,
                    -0.10812,
                    -0.08976,
                    -0.24304,
                    -0.2087,
                    0.06129,
                    0.02163,
                    -0.12764,
                    -0.20574,
                    0.07956
                  ],
                  [
                    -0.05104,
                    0.24605,
                    -0.23839,
                    -0.03085,
                    0.19774,
                    -0.05762,
                    -0.07787,
                    0.11448,
                    0.10177,
                    0.00836,
                    0.03776,
                    0.04869,
                    0.21637,
                    -0.03193,
                    0.20959,
                    -0.0813,
                    -0.03932,
                    -0.08493,
                    0.06376,
                    -0.1979,
                    -0.07527,
                    0.06732,
                    0.1833,
                    -0.07534,
                    0.04975,
                    -0.05938,
                    -0.22902,
                    -0.08317,
                    0.17122,
                    -0.00376,
                    0.10402,
                    0.07278,
                    0.08226,
                    0.03547,
                    -0.01844,
                    0.10497,
                    -0.00785,
                    0.17134,
                    -0.00972,
                    -0.02262,
                    0.03481,
                    0.13128,
                    -0.14004,
                    0.24837,
                    -0.16218,
                    -0.19642,
                    -0.05564,
                    -0.19328,
                    0.05068,
                    -0.00427,
                    -0.00452,
                    0.03506,
                    0.01092,
                    -0.05576,
                    0.02849,
                    0.11543,
                    0.0296,
                    0.05892,
                    -0.18525,
                    -0.04934
                  ],
                  [
                    0.25083,
                    0.1507,
                    0.03851,
                    -0.23695,
                    -0.06556,
                    -0.05619,
                    0.13389,
                    0.19126,
                    -0.04771,
                    0.13738,
                    0.12258,
                    0.03442,
                    0.184,
                    -0.11408,
                    0.21054,
                    0.21514,
                    0.0212,
                    -0.19129,
                    -0.25246,
                    -0.04716,
                    0.1859,
                    -0.13468,
                    0.15631,
                    -0.24074,
                    0.09429,
                    0.09541,
                    -0.0961,
                    0.1539,
                    -0.00239,
                    0.04764,
                    0.25281,
                    -0.0663,
                    -0.23977,
                    0.02759,
                    -0.23838,
                    0.19037,
                    0.19465,
                    -0.22488,
                    0.14678,
                    0.23162,
                    -0.13022,
                    -0.18283,
                    -0.20775,
                    0.18337,
                    -0.18397,
                    0.15876,
                    -0.09531,
                    -0.17974,
                    0.10964,
                    -0.00842,
                    0.05432,
                    0.14594,
                    0.01213,
                    0.20614,
                    -0.08964,
                    -0.22089,
                    0.20795,
                    -0.15476,
                    0.03725,
                    0.19653
                  ],
                  [
                    -0.19043,
                    -0.14209,
                    0.1335,
                    0.04125,
                    -0.24889,
                    0.18733,
                    -0.18038,
                    0.0842,
                    0.17834,
                    -0.12208,
                    -0.13343,
                    -0.23413,
                    0.19894,
                    -0.15799,
                    0.00846,
                    -0.16305,
                    -0.1175,
                    0.22944,
                    0.02302,
                    0.16391,
                    0.1688,
                    -0.15283,
                    -0.16411,
                    -0.18053,
                    0.24698,
                    -0.18272,
                    -0.21426,
                    -0.0406,
                    0.166,
                    -0.17281,
                    0.17075,
                    0.03895,
                    -0.13463,
                    -0.10269,
                    0.04723,
                    -0.10764,
                    -0.19193,
                    0.00871,
                    0.19259,
                    -0.19151,
                    -0.21373,
                    0.2285,
                    -0.11175,
                    0.09363,
                    0.2312,
                    0.21895,
                    -0.2187,
                    0.0606,
                    -0.19888,
                    0.05904,
                    0.25604,
                    0.23882,
                    0.22844,
                    0.23282,
                    0.18095,
                    -0.13694,
                    -0.18953,
                    0.06186,
                    -0.17847,
                    -0.20223
                  ],
                  [
                    0.1305,
                    -0.07703,
                    -0.25212,
                    0.10597,
                    -0.19152,
                    0.06788,
                    -0.04399,
                    -0.01161,
                    -0.21874,
                    -0.04479,
                    -0.12778,
                    -0.22385,
                    -0.14936,
                    0.13741,
                    0.10519,
                    0.13829,
                    -0.18533,
                    0.03019,
                    -0.16572,
                    0.08306,
                    0.22817,
                    -0.20438,
                    0.21056,
                    -0.1292,
                    0.25389,
                    -0.15996,
                    -0.23471,
                    -0.20174,
                    -0.11169,
                    -0.14761,
                    0.21508,
                    0.05014,
                    0.10555,
                    0.19101,
                    -0.2042,
                    0.25198,
                    0.22808,
                    -0.19304,
                    0.02152,
                    -0.01526,
                    0.08461,
                    0.19588,
                    0.17792,
                    -0.08947,
                    0.16858,
                    0.07709,
                    -0.17894,
                    -0.01553,
                    0.14098,
                    -0.03365,
                    -0.07767,
                    -0.06901,
                    0.02681,
                    0.21694,
                    -0.20465,
                    0.04432,
                    0.18167,
                    -0.06787,
                    0.19034,
                    -0.11411
                  ],
                  [
                    0.04907,
                    0.13725,
                    0.17128,
                    -0.12738,
                    -0.192,
                    -0.06297,
                    -0.17917,
                    -0.05548,
                    0.11619,
                    0.15776,
                    -0.06676,
                    0.15387,
                    -0.20685,
                    -0.24988,
                    0.13791,
                    0.14603,
                    -0.04455,
                    -0.20643,
                    -0.0702,
                    -0.07704,
                    -0.09881,
                    0.24075,
                    0.05923,
                    0.16866,
                    0.10184,
                    0.12244,
                    -0.20259,
                    0.11466,
                    -0.20971,
                    0.05251,
                    0.0497,
                    0.19372,
                    -0.23181,
                    0.06594,
                    -0.0256,
                    0.06331,
                    -0.20032,
                    -0.02585,
                    0.10901,
                    -0.26288,
                    -0.21409,
                    -0.01265,
                    -0.19991,
                    0.1905,
                    -0.07098,
                    0.10815,
                    -0.09484,
                    0.25052,
                    0.21568,
                    0.06707,
                    0.03948,
                    0.23706,
                    -0.08577,
                    0.18417,
                    -0.11064,
                    -0.09181,
                    -0.10677,
                    0.24327,
                    -0.24483,
                    0.13679
                  ],
                  [
                    -0.19981,
                    0.1517,
                    -0.25144,
                    -0.26025,
                    -0.26095,
                    -0.01564,
                    0.18706,
                    0.0068,
                    -0.215,
                    -0.07811,
                    0.15867,
                    0.16585,
                    0.06148,
                    0.18657,
                    0.02066,
                    -0.06934,
                    -0.08358,
                    0.10317,
                    -0.03892,
                    -0.19511,
                    0.25751,
                    -0.01075,
                    -0.10505,
                    -0.20676,
                    -0.16247,
                    -0.05378,
                    -0.00533,
                    0.22,
                    -0.12814,
                    -0.21152,
                    0.24189,
                    0.13376,
                    0.19812,
                    0.15079,
                    -0.19089,
                    -0.17332,
                    0.07533,
                    0.07614,
                    -0.1019,
                    -0.14481,
                    0.00067,
                    0.23183,
                    -0.05165,
                    -0.07484,
                    -0.23945,
                    0.06021,
                    -0.20233,
                    0.22759,
                    -0.09298,
                    0.03759,
                    0.10695,
                    -0.11224,
                    0.02772,
                    -0.17962,
                    -0.06956,
                    0.06611,
                    0.20783,
                    -0.11955,
                    0.05439,
                    -0.12336
                  ],
                  [
                    0.21128,
                    -0.07381,
                    0.00949,
                    -0.05176,
                    -0.07183,
                    -0.23513,
                    0.13669,
                    -0.15418,
                    -0.21083,
                    -0.00956,
                    -0.18104,
                    0.16137,
                    0.0106,
                    -0.10912,
                    0.10192,
                    0.0345,
                    0.08927,
                    0.03639,
                    -0.089,
                    -0.00101,
                    -0.02272,
                    -0.22592,
                    -0.17371,
                    0.26273,
                    0.03669,
                    0.15868,
                    -0.22134,
                    -0.21236,
                    0.16593,
                    0.22346,
                    -0.03028,
                    -0.03448,
                    0.23492,
                    -0.09445,
                    0.22384,
                    -0.05089,
                    -0.1726,
                    -0.0822,
                    0.0716,
                    -0.09995,
                    0.1397,
                    0.24573,
                    0.17771,
                    -0.06711,
                    0.05157,
                    -0.0131,
                    -0.19341,
                    -0.04051,
                    -0.23955,
                    -0.14303,
                    -0.19249,
                    0.21206,
                    0.22624,
                    -0.18974,
                    -0.24523,
                    -0.12338,
                    -0.06921,
                    0.14622,
                    0.03305,
                    -0.05405
                  ],
                  [
                    0.22488,
                    -0.11822,
                    -0.01678,
                    -0.1972,
                    -0.03964,
                    -0.09019,
                    0.04089,
                    -0.21456,
                    0.15928,
                    -0.12989,
                    0.09178,
                    -0.0396,
                    -0.09005,
                    0.16659,
                    0.12438,
                    0.19687,
                    -0.23088,
                    -0.09524,
                    0.01436,
                    -0.20114,
                    0.23016,
                    0.1815,
                    -0.12956,
                    0.05481,
                    0.07128,
                    -0.13972,
                    0.13716,
                    -0.04595,
                    0.09208,
                    0.10994,
                    -0.02178,
                    0.16783,
                    0.17243,
                    0.17626,
                    -0.14761,
                    0.25455,
                    -0.1138,
                    -0.05287,
                    -0.24525,
                    0.2,
                    0.06084,
                    0.0963,
                    -0.14184,
                    -0.06082,
                    -0.03353,
                    -0.22019,
                    0.14843,
                    0.02752,
                    -0.08089,
                    -0.17661,
                    0.2022,
                    0.04404,
                    -0.16176,
                    -0.18559,
                    0.09367,
                    0.06098,
                    0.20767,
                    0.18348,
                    0.23767,
                    -0.00485
                  ],
                  [
                    0.16139,
                    -0.02589,
                    0.11314,
                    -0.20969,
                    -0.1465,
                    0.08213,
                    -0.12596,
                    -0.14945,
                    0.22204,
                    -0.18938,
                    -0.00518,
                    -0.26222,
                    -0.0626,
                    -0.10089,
                    0.21915,
                    0.10113,
                    -0.01211,
                    -0.07867,
                    -0.01101,
                    -0.16858,
                    -0.14415,
                    0.16551,
                    -0.16112,
                    0.09429,
                    -0.19453,
                    -0.20746,
                    -0.18713,
                    -0.13332,
                    0.19205,
                    0.01398,
                    0.12298,
                    0.14546,
                    -0.03978,
                    -0.01899,
                    -0.1254,
                    0.09374,
                    0.18891,
                    0.04933,
                    0.12436,
                    -0.067,
                    0.14321,
                    -0.07813,
                    0.24025,
                    0.24069,
                    0.01326,
                    -0.14467,
                    0.03837,
                    -0.09535,
                    -0.17543,
                    -0.06545,
                    0.18241,
                    -0.0785,
                    -0.19517,
                    -0.24831,
                    -0.12712,
                    0.20836,
                    -0.09124,
                    -0.09977,
                    -0.04468,
                    -0.05682
                  ],
                  [
                    0.11259,
                    -0.15192,
                    0.20054,
                    -0.14958,
                    -0.09972,
                    -0.11096,
                    -0.04944,
                    0.19634,
                    -0.01355,
                    -0.01577,
                    -0.03923,
                    0.16259,
                    0.01237,
                    -0.09797,
                    0.01673,
                    0.02231,
                    -0.10261,
                    0.24904,
                    -0.19188,
                    0.06874,
                    0.01824,
                    -0.14681,
                    -0.24061,
                    0.22282,
                    -0.23881,
                    -0.2421,
                    0.24622,
                    0.02968,
                    0.07065,
                    0.1028,
                    -0.06472,
                    0.05084,
                    -0.10637,
                    0.0734,
                    -0.01104,
                    0.10691,
                    0.16035,
                    0.1754,
                    -0.00152,
                    -0.02867,
                    0.22593,
                    -0.24723,
                    -0.04139,
                    -0.04085,
                    0.05908,
                    -0.18523,
                    0.09849,
                    -0.16974,
                    -0.13992,
                    -0.25565,
                    -0.02656,
                    -0.03238,
                    0.21071,
                    -0.17558,
                    0.02366,
                    -0.0241,
                    0.04948,
                    -0.22919,
                    -0.1698,
                    -0.24422
                  ],
                  [
                    0.07542,
                    -0.15051,
                    0.02322,
                    -0.14253,
                    -0.05154,
                    -0.21115,
                    0.21977,
                    0.16851,
                    -0.18349,
                    0.0624,
                    0.04427,
                    0.0514,
                    -0.11322,
                    -0.25793,
                    0.00496,
                    0.19579,
                    0.01987,
                    0.07738,
                    -0.23405,
                    0.0483,
                    -0.01821,
                    -0.1619,
                    -0.04621,
                    0.19225,
                    -0.20883,
                    -0.02832,
                    -0.02284,
                    -0.11133,
                    0.10167,
                    -0.15123,
                    -0.15774,
                    0.10101,
                    -0.25612,
                    0.13631,
                    -0.12679,
                    -0.14745,
                    -0.17593,
                    -0.05932,
                    -0.09386,
                    0.207,
                    0.20512,
                    0.07315,
                    0.1646,
                    -0.1778,
                    0.17558,
                    -0.06081,
                    0.14437,
                    -0.19471,
                    -0.15831,
                    0.20497,
                    0.10671,
                    0.26148,
                    0.22599,
                    0.19747,
                    0.13081,
                    0.08357,
                    0.07594,
                    0.07748,
                    -0.1054,
                    0.24622
                  ],
                  [
                    0.24171,
                    -0.2079,
                    -0.05392,
                    0.0841,
                    -0.24906,
                    0.22402,
                    0.24609,
                    -0.00761,
                    -0.10789,
                    0.01532,
                    -0.24748,
                    -0.18424,
                    0.182,
                    0.21024,
                    0.11629,
                    0.04875,
                    0.12797,
                    0.18513,
                    0.02057,
                    0.24822,
                    0.13637,
                    0.26258,
                    0.06702,
                    -0.0851,
                    -0.04309,
                    0.05787,
                    -0.04698,
                    0.02126,
                    -0.05761,
                    0.08373,
                    -0.23523,
                    0.00461,
                    -0.19725,
                    -0.04077,
                    -0.12257,
                    -0.2169,
                    -0.13882,
                    0.19002,
                    -0.1805,
                    -0.03493,
                    -0.09606,
                    -0.01866,
                    0.11734,
                    -0.19615,
                    -0.22333,
                    -0.02132,
                    0.10381,
                    -0.21344,
                    -0.04708,
                    0.2356,
                    -0.14737,
                    0.09405,
                    -0.04881,
                    0.04471,
                    0.00667,
                    -0.01907,
                    -0.24339,
                    0.24183,
                    0.2487,
                    -0.22485
                  ]
                ]
              },
              {
                "bias": [
                  -0.10789,
                  -0.4338,
                  0.17552
                ],
                "weights": [
                  [
                    -0.02769,
                    0.19581,
                    -0.11044,
                    -0.19699,
                    -0.00736,
                    -0.41077,
                    -0.36562,
                    -0.06392,
                    0.42637,
                    -0.02559,
                    0.08085,
                    -0.14967,
                    -0.11039,
                    0.131,
                    0.40903,
                    -0.22742,
                    0.09328,
                    -0.09728,
                    -0.15071,
                    -0.19102,
                    -0.40599,
                    0.2222,
                    0.34819,
                    0.15819,
                    0.01352,
                    -0.41615,
                    -0.18614,
                    -0.2752,
                    -0.37329,
                    0.2284
                  ],
                  [
                    0.08218,
                    -0.11852,
                    -0.14438,
                    -0.24122,
                    -0.34473,
                    0.19375,
                    0.26782,
                    -0.40223,
                    0.15889,
                    0.17773,
                    0.30671,
                    -0.06479,
                    -0.26691,
                    -0.11705,
                    -0.24853,
                    0.33055,
                    0.0921,
                    0.07955,
                    0.10238,
                    -0.10514,
                    0.41279,
                    0.17296,
                    0.31724,
                    -0.18822,
                    -0.2061,
                    0.38508,
                    0.38156,
                    0.3208,
                    0.03341,
                    0.13474
                  ],
                  [
                    -0.23912,
                    0.16979,
                    0.40649,
                    -0.12239,
                    -0.21574,
                    -0.28329,
                    0.35199,
                    -0.00936,
                    0.01503,
                    -0.03974,
                    -0.40383,
                    -0.34265,
                    0.01608,
                    -0.36373,
                    0.1404,
                    -0.10585,
                    0.29462,
                    -0.15386,
                    0.4062,
                    0.1704,
                    0.14226,
                    0.09454,
                    0.40066,
                    -0.35159,
                    -0.1352,
                    0.25297,
                    -0.07615,
                    0.16505,
                    0.34181,
                    0.35402
                  ]
                ]
              }
            ],
            "rollback": false,
            "shared": false,
            "type": {
              "items": {
                "fields": [
                  {
                    "name": "weights",
                    "type": {
                      "items": {
                        "items": "double",
                        "type": "array"
                      },
                      "type": "array"
                    }
                  },
                  {
                    "name": "bias",
                    "type": {
                      "items": "double",
                      "type": "array"
                    }
                  }
                ],
                "name": "Layer",
                "type": "record"
              },
              "type": "array"
            }
          },
          "validations": {
            "init": [
              {
                "code": "kfold",
                "data": {
                  "average": {
                    "Accuracy": 0.14726,
                    "Confusion matrix": {
                      "labels": [
                        "AD",
                        "CN",
                        "Other"
                      ],
                      "values": [
                        [
                          4.0,
                          252.0,
                          18.0
                        ],
                        [
                          3.0,
                          238.0,
                          57.0
                        ],
                        [
                          2.0,
                          1133.0,
                          11.0
                        ]
                      ]
                    },
                    "Weighted F1-score": 0.0594,
                    "Weighted false positive rate": 0.2572,
                    "Weighted precision": 0.18164,
                    "Weighted recall": 0.14726,
                    "type": "PolynomialClassificationScore"
                  },
                  "folds": {
                    "1": {
                      "Accuracy": 0.13155,
                      "Confusion matrix": {
                        "labels": [
                          "AD",
                          "CN",
                          "Other"
                        ],
                        "values": [
                          [
                            4.0,
                            116.0,
                            18.0
                          ],
                          [
                            3.0,
                            98.0,
                            57.0
                          ],
                          [
                            2.0,
                            550.0,
                            11.0
                          ]
                        ]
                      },
                      "Weighted F1-score": 0.07006,
                      "Weighted false positive rate": 0.34193,
                      "Weighted precision": 0.17883,
                      "Weighted recall": 0.13155,
                      "type": "PolynomialClassificationScore"
                    },
                    "2": {
                      "Accuracy": 0.16298,
                      "Confusion matrix": {
                        "labels": [
                          "AD",
                          "CN",
                          "Other"
                        ],
                        "values": [
                          [
                            0.0,
                            136.0,
                            0.0
                          ],
                          [
                            0.0,
                            140.0,
                            0.0
                          ],
                          [
                            0.0,
                            583.0,
                            0.0
                          ]
                        ]
                      },
                      "Weighted F1-score": 0.04568,
                      "Weighted false positive rate": 0.16298,
                      "Weighted precision": 0.02656,
                      "Weighted recall": 0.16298,
                      "type": "PolynomialClassificationScore"
                    }
                  },
                  "type": "KFoldCrossValidationScore"
                },
                "node": "local",
                "validationSpec": {
                  "code": "kfold",
                  "parameters": [
                    {
                      "code": "k",
                      "value": "2"
                    }
                  ]
                }
              }
            ],
            "type": {
              "items": "Record",
              "type": "array"
            }
          }
        },
        "fcns": {
          "C": {
            "do": [
              {
                "a.map": [
                  "categories",
                  {
                    "do": [
                      {
                        "else": [
                          0.0
                        ],
                        "if": {
                          "==": [
                            "cat",
                            "x"
                          ]
                        },
                        "then": [
                          1.0
                        ]
                      }
                    ],
                    "params": [
                      {
                        "cat": "string"
                      }
                    ],
                    "ret": "double"
                  }
                ]
              }
            ],
            "params": [
              {
                "x": "string"
              },
              {
                "categories": {
                  "items": "string",
                  "type": "array"
                }
              }
            ],
            "ret": {
              "items": "double",
              "type": "array"
            }
          },
          "arr": {
            "do": [
              {
                "new": [
                  "x"
                ],
                "type": {
                  "items": "double",
                  "type": "array"
                }
              }
            ],
            "params": [
              {
                "x": "double"
              }
            ],
            "ret": {
              "items": "double",
              "type": "array"
            }
          },
          "standardize": {
            "do": [
              {
                "/": [
                  {
                    "-": [
                      "x",
                      "mu"
                    ]
                  },
                  "sigma"
                ]
              }
            ],
            "params": [
              {
                "x": "double"
              },
              {
                "mu": "double"
              },
              {
                "sigma": "double"
              }
            ],
            "ret": "double"
          }
        },
        "input": {
          "fields": [
            {
              "name": "lefthippocampus",
              "type": "double"
            }
          ],
          "name": "Input",
          "type": "record"
        },
        "metadata": {
          "X": "{\"lefthippocampus\":{\"count\":1718.0,\"mean\":3.639566982e-16,\"std\":1.0002911632,\"min\":-6.1997481189,\"25%\":-0.1756647944,\"50%\":-0.1756647944,\"75%\":-0.1049179598,\"max\":5.934008706}}",
          "score": "0.667636787",
          "y": "{\"count\":1718,\"unique\":3,\"top\":\"Other\",\"freq\":1146}"
        },
        "method": "map",
        "name": "neural_network",
        "output": "string"
      },
      "dataProvenance": [],
      "feedback": [],
      "jobId": "*",
      "node": "local",
      "timestamp": 0.0,
      "type": "application/pfa+json"
    }
  ],
  "dataProvenance": [
    {
      "code": "desd-synthdata"
    },
    {
      "code": "qqni-synthdata"
    }
  ],
  "feedback": [],
  "jobId": "*",
  "node": "local",
  "query": {
    "algorithms": [
      {
        "code": "sgdNeuralNetwork",
        "parameters": [
          {
            "code": "hidden_layer_sizes",
            "value": "60,30"
          },
          {
            "code": "activation",
            "value": "tanh"
          }
        ]
      }
    ],
    "covariables": [
      {
        "code": "lefthippocampus"
      }
    ],
    "covariablesMustExist": true,
    "filters": {
      "condition": "AND",
      "rules": [
        {
          "field": "alzheimerbroadcategory",
          "id": "alzheimerbroadcategory",
          "input": "text",
          "operator": "is_not_null",
          "type": "string",
          "value": []
        },
        {
          "field": "lefthippocampus",
          "id": "lefthippocampus",
          "input": "text",
          "operator": "is_not_null",
          "type": "string",
          "value": []
        }
      ]
    },
    "grouping": [],
    "targetTable": "cde_features_mixed",
    "testingDatasets": [],
    "trainingDatasets": [],
    "user": {
      "code": "test1"
    },
    "validationDatasets": [],
    "validations": [
      {
        "code": "kfold",
        "parameters": [
          {
            "code": "k",
            "value": "2"
          }
        ]
      }
    ],
    "variables": [
      {
        "code": "alzheimerbroadcategory"
      }
    ]
  },
  "timestamp": 0.0,
  "type": "application/vnd.hbp.mip.experiment.pfa+json"
}
