{
  "data": [
    {
      "algorithm": "python-sgd-neural-network",
      "algorithmSpec": {
        "code": "sgdNeuralNetwork",
        "parameters": [
          {
            "code": "hidden_layer_sizes",
            "value": "60,30"
          },
          {
            "code": "activation",
            "value": "tanh"
          }
        ]
      },
      "data": {
        "action": [
          {
            "let": {
              "x": {
                "a.flatten": [
                  {
                    "new": [
                      {
                        "u.arr": [
                          {
                            "/": [
                              {
                                "-": [
                                  {
                                    "cast.double": [
                                      {
                                        "attr": "input",
                                        "path": [
                                          {
                                            "string": "lefthippocampus"
                                          }
                                        ]
                                      }
                                    ]
                                  },
                                  2.91276
                                ]
                              },
                              0.25938
                            ]
                          }
                        ]
                      }
                    ],
                    "type": {
                      "items": {
                        "items": "double",
                        "type": "array"
                      },
                      "type": "array"
                    }
                  }
                ]
              }
            }
          },
          {
            "let": {
              "activations": {
                "model.neural.simpleLayers": [
                  "x",
                  {
                    "cell": "neuralnet"
                  },
                  {
                    "do": [
                      {
                        "m.link.relu": [
                          "x"
                        ]
                      }
                    ],
                    "params": [
                      {
                        "x": "double"
                      }
                    ],
                    "ret": "double"
                  }
                ]
              }
            }
          },
          {
            "cell": "classes",
            "path": [
              {
                "a.argmax": [
                  "activations"
                ]
              }
            ]
          }
        ],
        "cells": {
          "classes": {
            "init": [
              "AD",
              "CN",
              "Other"
            ],
            "rollback": false,
            "shared": false,
            "type": {
              "items": "string",
              "type": "array"
            }
          },
          "neuralnet": {
            "init": [
              {
                "bias": [
                  -0.09357,
                  -0.17459,
                  0.00396,
                  -0.09115,
                  0.08864,
                  0.06973,
                  0.15062,
                  -0.05163,
                  -0.10946,
                  0.00627,
                  -0.09483,
                  0.01327,
                  -0.12367,
                  -0.20075,
                  0.01227,
                  0.19169,
                  0.04205,
                  -0.24983,
                  -0.0371,
                  -0.22095,
                  0.23171,
                  0.01356,
                  -0.21331,
                  0.20642,
                  0.31238,
                  0.19215,
                  -0.04875,
                  -0.3055,
                  -0.15491,
                  0.28168,
                  -0.29795,
                  -0.07962,
                  0.04255,
                  0.06939,
                  -0.0708,
                  0.30467,
                  0.26619,
                  0.09967,
                  -0.06008,
                  -0.13066,
                  -0.29274,
                  0.13072,
                  -0.1066,
                  0.17019,
                  0.05796,
                  -0.20665,
                  -0.03346,
                  -0.20375,
                  0.26893,
                  0.27816,
                  0.07727,
                  -0.23939,
                  -0.26436,
                  -0.19985,
                  0.20776,
                  0.10578,
                  -0.09748,
                  -0.27835,
                  -0.10351,
                  0.18917
                ],
                "weights": [
                  [
                    0.28936
                  ],
                  [
                    0.13016
                  ],
                  [
                    0.15293
                  ],
                  [
                    0.25078
                  ],
                  [
                    0.28479
                  ],
                  [
                    -0.25988
                  ],
                  [
                    0.20517
                  ],
                  [
                    0.28257
                  ],
                  [
                    0.18106
                  ],
                  [
                    -0.00329
                  ],
                  [
                    -0.00202
                  ],
                  [
                    -0.09585
                  ],
                  [
                    -0.25205
                  ],
                  [
                    0.30606
                  ],
                  [
                    0.08467
                  ],
                  [
                    0.21416
                  ],
                  [
                    0.15561
                  ],
                  [
                    0.07058
                  ],
                  [
                    0.14838
                  ],
                  [
                    0.16671
                  ],
                  [
                    0.01658
                  ],
                  [
                    -0.27735
                  ],
                  [
                    0.27812
                  ],
                  [
                    0.23419
                  ],
                  [
                    -0.26556
                  ],
                  [
                    0.05081
                  ],
                  [
                    -0.06778
                  ],
                  [
                    0.22909
                  ],
                  [
                    0.18406
                  ],
                  [
                    0.29977
                  ],
                  [
                    -0.0245
                  ],
                  [
                    0.09601
                  ],
                  [
                    -0.30332
                  ],
                  [
                    0.22205
                  ],
                  [
                    0.24907
                  ],
                  [
                    -0.0149
                  ],
                  [
                    -0.31963
                  ],
                  [
                    0.17867
                  ],
                  [
                    -0.11794
                  ],
                  [
                    -0.27471
                  ],
                  [
                    -0.26067
                  ],
                  [
                    -0.14292
                  ],
                  [
                    -0.19917
                  ],
                  [
                    0.11674
                  ],
                  [
                    0.26341
                  ],
                  [
                    -0.05817
                  ],
                  [
                    -0.07968
                  ],
                  [
                    0.05285
                  ],
                  [
                    -0.19984
                  ],
                  [
                    0.11825
                  ],
                  [
                    -0.11752
                  ],
                  [
                    0.19512
                  ],
                  [
                    0.24345
                  ],
                  [
                    0.18944
                  ],
                  [
                    0.19023
                  ],
                  [
                    -0.25413
                  ],
                  [
                    0.0829
                  ],
                  [
                    0.20713
                  ],
                  [
                    -0.12291
                  ],
                  [
                    -0.22056
                  ]
                ]
              },
              {
                "bias": [
                  -0.06882,
                  0.17474,
                  -0.22492,
                  -0.18326,
                  -0.08369,
                  -0.18065,
                  0.14736,
                  0.10522,
                  0.09624,
                  0.13733,
                  -0.10594,
                  0.13349,
                  -0.18455,
                  0.16952,
                  0.00952,
                  -0.24546,
                  0.09136,
                  0.13987,
                  -0.13086,
                  -0.18849,
                  -0.0401,
                  0.19108,
                  0.08136,
                  0.25719,
                  -0.04138,
                  0.03376,
                  0.18986,
                  -0.20744,
                  0.20758,
                  -0.22818
                ],
                "weights": [
                  [
                    0.02216,
                    -0.02638,
                    0.2046,
                    0.15967,
                    -0.22915,
                    -0.17151,
                    -0.04805,
                    -0.07127,
                    0.02976,
                    -0.16796,
                    0.04887,
                    0.07372,
                    -0.00843,
                    0.16471,
                    0.10378,
                    0.24754,
                    -0.22107,
                    -0.0835,
                    0.07046,
                    0.22544,
                    -0.21836,
                    -0.00422,
                    -0.01112,
                    0.1002,
                    0.18934,
                    -0.1048,
                    0.08419,
                    0.05962,
                    0.07349,
                    -0.21497,
                    -0.06254,
                    -0.01212,
                    -0.21899,
                    -0.19182,
                    0.04535,
                    -0.04414,
                    -0.17931,
                    0.21324,
                    -0.03898,
                    0.23951,
                    -0.14419,
                    -0.066,
                    -0.25536,
                    0.11131,
                    0.00775,
                    0.08646,
                    -0.02891,
                    -0.18499,
                    -0.25416,
                    -0.1178,
                    -0.24237,
                    0.10318,
                    -0.0285,
                    -0.0545,
                    -0.00689,
                    -0.09326,
                    -0.20203,
                    -0.13087,
                    -0.23624,
                    0.15273
                  ],
                  [
                    -0.21578,
                    -0.18927,
                    0.04054,
                    0.10873,
                    0.16201,
                    -0.0756,
                    -0.25138,
                    -0.06416,
                    0.05121,
                    0.10486,
                    0.11614,
                    0.11177,
                    0.1018,
                    -0.20734,
                    -0.20087,
                    -0.05669,
                    -0.19218,
                    -0.14354,
                    -0.10322,
                    0.24144,
                    -0.21636,
                    -0.15741,
                    0.20211,
                    -0.17783,
                    -0.10318,
                    -0.14123,
                    0.15605,
                    -0.15775,
                    -0.05328,
                    0.22078,
                    -0.02307,
                    -0.19256,
                    0.12872,
                    -0.23725,
                    -0.19836,
                    0.02104,
                    -0.23945,
                    0.01243,
                    0.23525,
                    0.0743,
                    0.01407,
                    0.08107,
                    0.22135,
                    -0.09785,
                    0.18644,
                    -0.11483,
                    0.16597,
                    0.04613,
                    0.07901,
                    -0.22936,
                    -0.10672,
                    0.0785,
                    0.12032,
                    0.11299,
                    -0.22181,
                    0.0166,
                    0.17824,
                    -0.18649,
                    -0.02439,
                    -0.03454
                  ],
                  [
                    0.02446,
                    0.16495,
                    -0.00545,
                    0.24866,
                    -0.06935,
                    -0.09052,
                    0.21646,
                    -0.24649,
                    0.10258,
                    -0.01431,
                    -0.24643,
                    0.03058,
                    0.00129,
                    -0.02252,
                    -0.19399,
                    0.21922,
                    -0.039,
                    0.2475,
                    -0.20726,
                    0.01064,
                    0.03163,
                    -0.14341,
                    -0.14803,
                    0.00995,
                    -0.0178,
                    0.15909,
                    0.16805,
                    -0.10662,
                    0.19607,
                    0.24964,
                    0.02676,
                    -0.13452,
                    -0.19598,
                    -0.20884,
                    -0.09272,
                    -0.18285,
                    -0.08895,
                    -0.11526,
                    -0.11551,
                    -0.13206,
                    -0.02817,
                    0.0653,
                    -0.20934,
                    -0.10005,
                    0.21642,
                    0.00126,
                    0.12088,
                    -0.19834,
                    -0.12972,
                    -0.12951,
                    -0.19145,
                    0.07693,
                    0.15016,
                    0.17057,
                    0.18054,
                    0.22981,
                    0.24877,
                    0.08824,
                    -0.18731,
                    0.15104
                  ],
                  [
                    -0.05751,
                    0.09883,
                    -0.12098,
                    -0.04483,
                    -0.21467,
                    -0.16414,
                    0.12607,
                    -0.04017,
                    -0.18032,
                    0.14717,
                    -0.24787,
                    0.04909,
                    0.01694,
                    -0.12492,
                    -0.10826,
                    -0.04755,
                    0.07534,
                    0.15006,
                    0.06334,
                    -0.18592,
                    -0.14241,
                    -0.10324,
                    0.09276,
                    0.02447,
                    -0.10924,
                    0.14726,
                    0.14713,
                    0.21404,
                    -0.05021,
                    -0.23537,
                    0.16985,
                    0.18351,
                    -0.17893,
                    0.2338,
                    -0.24965,
                    -0.15158,
                    0.16312,
                    -0.21524,
                    -0.22169,
                    0.0189,
                    0.01899,
                    0.00729,
                    -0.22536,
                    -0.2101,
                    0.04615,
                    0.06929,
                    0.0445,
                    0.0127,
                    -0.23992,
                    0.04151,
                    0.01383,
                    -0.05638,
                    0.02981,
                    -0.00452,
                    -0.09696,
                    -0.13511,
                    -0.22723,
                    -0.08379,
                    -0.10532,
                    -0.17917
                  ],
                  [
                    -0.11712,
                    -0.09125,
                    -0.23494,
                    0.23981,
                    0.05607,
                    0.19287,
                    0.08965,
                    0.03421,
                    0.17659,
                    -0.22886,
                    -0.06028,
                    -0.02206,
                    0.19339,
                    -0.25957,
                    -0.04059,
                    0.09061,
                    -0.08951,
                    -0.01472,
                    -0.21935,
                    0.16402,
                    -0.00079,
                    0.03602,
                    0.15699,
                    -0.24935,
                    0.06722,
                    -0.00406,
                    0.14353,
                    0.03298,
                    0.19116,
                    0.10813,
                    -0.06846,
                    0.07381,
                    -0.0166,
                    -0.01326,
                    0.12776,
                    0.22061,
                    0.14342,
                    0.0659,
                    -0.10141,
                    -0.17006,
                    -0.20508,
                    0.09768,
                    -0.11324,
                    -0.15245,
                    -0.07683,
                    -0.06754,
                    0.1287,
                    0.02036,
                    -0.17788,
                    -0.24876,
                    0.25722,
                    -0.08825,
                    -0.23034,
                    -0.13354,
                    -0.19024,
                    -0.14022,
                    -0.18329,
                    -0.12401,
                    -0.08992,
                    0.14814
                  ],
                  [
                    0.20452,
                    -0.04047,
                    -0.22617,
                    0.1169,
                    -0.13757,
                    -0.18291,
                    0.2622,
                    0.20672,
                    0.23647,
                    0.00562,
                    0.05073,
                    0.03953,
                    0.19146,
                    0.20758,
                    0.17889,
                    -0.00207,
                    0.23975,
                    -0.12588,
                    0.04448,
                    -0.13027,
                    -0.02756,
                    -0.20059,
                    0.05675,
                    -0.15554,
                    0.02344,
                    0.13634,
                    0.09364,
                    -0.06555,
                    0.03396,
                    -0.12834,
                    -0.08576,
                    -0.17803,
                    -0.13637,
                    0.24375,
                    0.02071,
                    0.13273,
                    -0.02648,
                    -0.03222,
                    -0.1812,
                    -0.14874,
                    0.07076,
                    0.22869,
                    -0.10851,
                    0.16681,
                    -0.0682,
                    0.16187,
                    0.15362,
                    -0.11965,
                    -0.04515,
                    0.08826,
                    0.10978,
                    -0.15033,
                    0.11369,
                    -0.16719,
                    -0.21858,
                    -0.0688,
                    0.03341,
                    -0.22913,
                    0.04375,
                    0.01811
                  ],
                  [
                    -0.03207,
                    -0.02908,
                    0.13113,
                    0.20158,
                    -0.01369,
                    0.03117,
                    0.14484,
                    0.13883,
                    -0.20976,
                    -0.17083,
                    0.02333,
                    0.1394,
                    -0.23927,
                    0.21415,
                    0.15094,
                    -0.19277,
                    0.23888,
                    0.20222,
                    -0.05487,
                    0.07896,
                    -0.08136,
                    -0.06327,
                    0.22583,
                    0.13031,
                    -0.13363,
                    0.1597,
                    -0.04919,
                    0.04781,
                    0.13981,
                    0.06855,
                    0.22808,
                    0.11641,
                    -0.19591,
                    0.17532,
                    -0.0039,
                    -0.1894,
                    0.14205,
                    -0.01872,
                    0.07247,
                    0.14123,
                    -0.25766,
                    0.22641,
                    -0.1044,
                    0.16651,
                    -0.04303,
                    -0.185,
                    -0.00258,
                    0.07157,
                    -0.17273,
                    -0.16515,
                    -0.1326,
                    -0.05779,
                    -0.18959,
                    -0.06466,
                    -0.17062,
                    0.05068,
                    -0.04195,
                    -0.10434,
                    0.05858,
                    0.10355
                  ],
                  [
                    -0.15631,
                    0.10494,
                    0.24796,
                    0.11303,
                    0.11373,
                    -0.22772,
                    -0.19342,
                    -0.16198,
                    0.2059,
                    0.15174,
                    0.01934,
                    0.24667,
                    -0.23307,
                    0.24241,
                    -0.09367,
                    0.03732,
                    0.17338,
                    0.07192,
                    0.10647,
                    0.19993,
                    -0.191,
                    -0.08125,
                    0.02316,
                    0.17944,
                    -0.15382,
                    0.17581,
                    0.13722,
                    -0.02261,
                    0.08542,
                    0.20664,
                    -0.04206,
                    -0.20264,
                    0.21041,
                    -0.24363,
                    0.10865,
                    -0.14515,
                    -0.00936,
                    0.09488,
                    0.1529,
                    0.10808,
                    0.18027,
                    -0.1415,
                    0.13239,
                    0.17189,
                    0.17702,
                    0.06336,
                    0.12584,
                    -0.11334,
                    0.12555,
                    0.20333,
                    -0.21958,
                    -0.04712,
                    -0.13008,
                    0.11929,
                    0.12053,
                    -0.125,
                    0.01085,
                    -0.10379,
                    0.07934,
                    -0.07955
                  ],
                  [
                    -0.04393,
                    0.15435,
                    0.15022,
                    -0.21121,
                    -0.05723,
                    0.12026,
                    -0.04867,
                    0.26364,
                    -0.17669,
                    0.13634,
                    0.05124,
                    -0.00726,
                    -0.14937,
                    0.22195,
                    -0.13367,
                    0.12328,
                    -0.23336,
                    0.03664,
                    -0.16889,
                    0.13337,
                    0.01593,
                    0.09397,
                    -0.23143,
                    0.22326,
                    -0.15496,
                    -0.04071,
                    0.0582,
                    0.06388,
                    -0.20805,
                    0.21833,
                    -0.14969,
                    -0.1856,
                    -0.02044,
                    0.0796,
                    -0.01075,
                    -0.10393,
                    -0.07828,
                    -0.15948,
                    -0.17536,
                    0.16915,
                    0.08909,
                    0.1377,
                    0.13599,
                    0.15117,
                    0.09131,
                    0.15965,
                    0.22998,
                    -0.18997,
                    0.06108,
                    0.09648,
                    -0.14819,
                    -0.17132,
                    0.18052,
                    -0.11874,
                    -0.1306,
                    0.24109,
                    -0.15914,
                    -0.24101,
                    -0.14952,
                    -0.0156
                  ],
                  [
                    -0.17571,
                    -0.20468,
                    -0.04013,
                    -0.17982,
                    -0.14136,
                    -0.00199,
                    0.21619,
                    0.19437,
                    -0.08028,
                    0.07333,
                    -0.20623,
                    -0.15816,
                    0.0059,
                    -0.09896,
                    -0.23758,
                    0.04811,
                    0.18249,
                    -0.13453,
                    -0.21768,
                    0.13816,
                    -0.07369,
                    0.07389,
                    0.19495,
                    -0.20192,
                    -0.09811,
                    -0.2501,
                    -0.09189,
                    -0.08495,
                    -0.10086,
                    0.05435,
                    0.00021,
                    0.17288,
                    0.07405,
                    0.00393,
                    -0.07281,
                    -0.16707,
                    0.02494,
                    -0.2288,
                    0.24675,
                    0.14142,
                    0.14477,
                    -0.23584,
                    -0.20277,
                    0.10822,
                    0.01967,
                    0.06468,
                    -0.19196,
                    0.18542,
                    -0.23308,
                    -0.02413,
                    0.21319,
                    -0.23795,
                    0.09722,
                    0.18122,
                    -0.11681,
                    0.15934,
                    -0.14611,
                    -0.04952,
                    -0.23848,
                    -0.11075
                  ],
                  [
                    -0.03478,
                    -0.11782,
                    -0.01483,
                    0.16839,
                    0.17355,
                    0.17031,
                    -0.18206,
                    -0.1486,
                    0.10086,
                    -0.11644,
                    -0.24079,
                    -0.17387,
                    0.03811,
                    0.25924,
                    -0.2296,
                    -0.16167,
                    0.14714,
                    -0.23432,
                    0.10617,
                    -0.01816,
                    0.02723,
                    -0.09398,
                    -0.06916,
                    -0.23355,
                    -0.02101,
                    0.16982,
                    0.19415,
                    -0.09161,
                    0.00181,
                    0.20995,
                    0.0075,
                    0.03939,
                    0.10885,
                    -0.03739,
                    -0.09381,
                    -0.18866,
                    -0.12966,
                    0.25226,
                    0.05902,
                    -0.22727,
                    0.00162,
                    -0.17119,
                    -0.15493,
                    0.19129,
                    0.10733,
                    0.20717,
                    0.10869,
                    -0.21613,
                    0.12507,
                    0.19756,
                    -0.15432,
                    -0.22428,
                    -0.1352,
                    0.13984,
                    -0.11699,
                    0.21596,
                    -0.03624,
                    0.14991,
                    0.01989,
                    0.181
                  ],
                  [
                    -0.18464,
                    0.15882,
                    -0.16811,
                    -0.23795,
                    0.20889,
                    0.15188,
                    0.16218,
                    -0.23869,
                    0.18402,
                    0.21724,
                    -0.13484,
                    -0.13651,
                    -0.12893,
                    -0.08086,
                    0.16954,
                    0.07048,
                    -0.06992,
                    0.10659,
                    -0.19457,
                    -0.17553,
                    -0.13601,
                    0.01732,
                    -0.09651,
                    -0.00091,
                    0.11366,
                    0.19598,
                    0.01579,
                    -0.16745,
                    -0.22797,
                    -0.10958,
                    0.09171,
                    -0.21056,
                    0.12233,
                    0.03585,
                    0.13315,
                    0.14297,
                    0.17273,
                    0.04291,
                    -0.0908,
                    0.07843,
                    0.18763,
                    0.19959,
                    0.05789,
                    0.11333,
                    0.19636,
                    0.11598,
                    0.12555,
                    0.18122,
                    0.0695,
                    -0.20219,
                    -0.23866,
                    -0.15164,
                    0.05361,
                    -0.09966,
                    0.04584,
                    0.24095,
                    0.06918,
                    -0.0449,
                    -0.25994,
                    -0.18426
                  ],
                  [
                    -0.26153,
                    -0.03405,
                    -0.18378,
                    0.01956,
                    0.1731,
                    0.14127,
                    0.19536,
                    0.13688,
                    -0.10134,
                    0.06476,
                    -0.24484,
                    -0.09889,
                    0.18874,
                    -0.0914,
                    -0.06548,
                    -0.10325,
                    -0.13137,
                    -0.20757,
                    -0.0295,
                    0.03242,
                    0.02011,
                    -0.11926,
                    0.03787,
                    -0.04636,
                    0.15758,
                    0.20566,
                    -0.24129,
                    -0.21403,
                    0.21855,
                    -0.20319,
                    -0.25115,
                    -0.00858,
                    -0.23324,
                    0.02087,
                    -0.12724,
                    0.07682,
                    -0.14446,
                    -0.15174,
                    0.15077,
                    0.10922,
                    0.19559,
                    0.12108,
                    -0.24559,
                    0.11743,
                    0.15691,
                    0.0845,
                    0.0306,
                    0.20529,
                    0.09204,
                    0.20934,
                    0.09177,
                    0.19509,
                    -0.00886,
                    0.04576,
                    -0.17798,
                    0.19743,
                    -0.10333,
                    -0.06597,
                    -0.18438,
                    -0.087
                  ],
                  [
                    -0.06933,
                    -0.21362,
                    -0.0198,
                    -0.25231,
                    0.01487,
                    -0.19594,
                    0.25717,
                    0.18806,
                    0.21622,
                    -0.00242,
                    0.24459,
                    -0.19077,
                    -0.19105,
                    -0.24425,
                    -0.10336,
                    0.17208,
                    0.12798,
                    -0.01238,
                    0.07656,
                    0.06461,
                    0.07462,
                    -0.15714,
                    0.03874,
                    -0.16097,
                    0.26638,
                    -0.18173,
                    0.20791,
                    0.0271,
                    0.06491,
                    0.15365,
                    0.17237,
                    0.12266,
                    -0.01045,
                    -0.03103,
                    -0.20383,
                    0.08948,
                    -0.03422,
                    -0.06483,
                    0.2527,
                    -0.06059,
                    0.11105,
                    0.21763,
                    -0.05768,
                    0.15153,
                    -0.19966,
                    -0.18088,
                    0.10669,
                    -0.02584,
                    0.20256,
                    0.19955,
                    0.08171,
                    0.13675,
                    -0.19961,
                    -0.20255,
                    -0.1572,
                    0.19144,
                    0.11905,
                    -0.06699,
                    0.18996,
                    0.17771
                  ],
                  [
                    0.11227,
                    0.07333,
                    -0.23914,
                    -0.08993,
                    0.12621,
                    -0.16921,
                    0.07882,
                    -0.2547,
                    0.20878,
                    0.04491,
                    -0.25159,
                    0.12229,
                    -0.23483,
                    -0.20085,
                    -0.04797,
                    0.13089,
                    -0.18376,
                    0.05471,
                    0.05992,
                    -0.22258,
                    -0.11517,
                    -0.00171,
                    -0.06211,
                    0.05157,
                    -0.14067,
                    -0.0929,
                    0.18623,
                    -0.18315,
                    -0.18778,
                    -0.10101,
                    0.03011,
                    -0.25344,
                    -0.10307,
                    -0.14316,
                    -0.0272,
                    -0.1965,
                    0.22763,
                    -0.06099,
                    -0.04082,
                    -0.11724,
                    -0.02523,
                    0.19561,
                    -0.18872,
                    0.02113,
                    0.05292,
                    0.18019,
                    -0.20911,
                    0.04139,
                    -0.14176,
                    0.2378,
                    -0.05877,
                    -0.19296,
                    -0.06635,
                    0.01496,
                    0.03609,
                    0.09194,
                    -0.07714,
                    0.20109,
                    0.07606,
                    -0.06427
                  ],
                  [
                    -0.18795,
                    -0.21402,
                    -0.22832,
                    0.11604,
                    -0.17532,
                    0.21613,
                    -0.0725,
                    0.18953,
                    -0.20768,
                    0.09194,
                    0.09318,
                    -0.03537,
                    -0.23401,
                    -0.06725,
                    -0.23314,
                    0.08903,
                    0.20491,
                    0.20044,
                    -0.17895,
                    0.09533,
                    -0.07132,
                    0.10276,
                    0.05115,
                    0.00077,
                    -0.1747,
                    -0.01096,
                    0.00504,
                    -0.22011,
                    -0.07663,
                    -0.14186,
                    0.21219,
                    -0.03603,
                    -0.23825,
                    -0.25935,
                    0.0742,
                    0.21592,
                    -0.05527,
                    -0.07105,
                    0.15567,
                    -0.0052,
                    -0.2548,
                    -0.02359,
                    -0.18938,
                    0.20694,
                    0.18151,
                    -0.06729,
                    0.13762,
                    -0.22551,
                    0.17879,
                    0.20562,
                    -0.16776,
                    0.00045,
                    -0.01849,
                    -0.04285,
                    0.04837,
                    -0.00323,
                    0.21991,
                    0.04145,
                    -0.11073,
                    -0.03975
                  ],
                  [
                    -0.09467,
                    -0.07516,
                    -0.10946,
                    0.21054,
                    0.14605,
                    0.18735,
                    -0.15459,
                    -0.20183,
                    -0.00958,
                    0.02708,
                    0.24622,
                    -0.24217,
                    -0.04479,
                    -0.17413,
                    0.05272,
                    -0.16233,
                    -0.1725,
                    -0.15485,
                    -0.13495,
                    -0.22805,
                    -0.10112,
                    -0.17179,
                    -0.02868,
                    -0.10865,
                    0.07866,
                    0.04849,
                    -0.0621,
                    0.11878,
                    0.23284,
                    0.12326,
                    -0.1027,
                    0.06643,
                    -0.2257,
                    -0.08831,
                    0.1187,
                    -0.09905,
                    0.0886,
                    -0.12268,
                    0.14372,
                    0.25304,
                    0.16708,
                    0.17868,
                    0.17121,
                    0.02978,
                    0.07977,
                    0.06325,
                    -0.22647,
                    -0.0168,
                    -0.19305,
                    -0.10319,
                    0.06287,
                    -0.1765,
                    -0.01147,
                    0.11345,
                    0.07137,
                    0.06237,
                    -0.17726,
                    0.07629,
                    0.2121,
                    0.10506
                  ],
                  [
                    0.12739,
                    0.23594,
                    -0.10471,
                    -0.19293,
                    0.04639,
                    0.09011,
                    -0.08788,
                    0.05876,
                    0.24457,
                    -0.14785,
                    0.0338,
                    0.24024,
                    -0.09507,
                    -0.25445,
                    0.11056,
                    -0.06777,
                    -0.24158,
                    -0.15444,
                    -0.07738,
                    -0.16732,
                    0.1329,
                    -0.13867,
                    0.139,
                    -0.13393,
                    0.09556,
                    0.03349,
                    0.26304,
                    -0.15595,
                    -0.21927,
                    -0.121,
                    -0.11437,
                    -0.18891,
                    -0.00223,
                    0.03876,
                    0.1395,
                    0.15052,
                    0.12548,
                    -0.04664,
                    -0.1411,
                    0.21982,
                    0.16224,
                    0.19811,
                    -0.22672,
                    -0.23983,
                    -0.14603,
                    0.18495,
                    -0.11772,
                    -0.01577,
                    0.1479,
                    0.18337,
                    0.10262,
                    0.21149,
                    -0.06418,
                    0.17007,
                    -0.18863,
                    -0.22658,
                    -0.23576,
                    -0.03779,
                    0.02663,
                    -0.15535
                  ],
                  [
                    0.05812,
                    -0.1725,
                    -0.11382,
                    0.00917,
                    0.01805,
                    0.25086,
                    0.05217,
                    0.17007,
                    0.1811,
                    -0.21624,
                    0.06235,
                    -0.12224,
                    -0.05248,
                    -0.06677,
                    0.0827,
                    0.02655,
                    -0.20829,
                    0.14787,
                    0.02113,
                    0.24052,
                    0.25946,
                    0.15153,
                    -0.0953,
                    -0.22466,
                    0.24659,
                    0.21438,
                    -0.04257,
                    -0.0769,
                    -0.10662,
                    -0.05021,
                    -0.10527,
                    0.04199,
                    0.07476,
                    -0.25706,
                    0.21078,
                    -0.22465,
                    0.14774,
                    -0.22564,
                    -0.06707,
                    0.03907,
                    0.13684,
                    0.13918,
                    0.19113,
                    -0.00162,
                    -0.13482,
                    -0.01533,
                    -0.12645,
                    0.14368,
                    -0.07004,
                    0.08105,
                    -0.21026,
                    -0.18504,
                    0.04777,
                    -0.22714,
                    0.07609,
                    -0.19321,
                    0.0371,
                    0.04118,
                    -0.05049,
                    0.16435
                  ],
                  [
                    -0.07208,
                    0.23372,
                    -0.19057,
                    -0.12198,
                    -0.18106,
                    -0.05434,
                    -0.0126,
                    0.0926,
                    -0.18898,
                    0.24979,
                    0.19984,
                    0.07796,
                    -0.00497,
                    0.25731,
                    -0.0844,
                    -0.18487,
                    -0.0436,
                    0.19777,
                    0.07215,
                    -0.08966,
                    0.17038,
                    0.12181,
                    -0.07162,
                    -0.12779,
                    -0.00517,
                    -0.10751,
                    0.21665,
                    -0.00727,
                    0.05263,
                    -0.03049,
                    0.18823,
                    -0.17906,
                    0.11613,
                    -0.24184,
                    -0.09018,
                    -0.23667,
                    -0.04491,
                    0.14518,
                    0.20768,
                    0.20553,
                    0.06324,
                    -0.0082,
                    0.1592,
                    -0.25973,
                    0.10498,
                    0.07147,
                    0.00802,
                    -0.15626,
                    0.16196,
                    -0.14761,
                    -0.08603,
                    0.19423,
                    0.07314,
                    0.15581,
                    -0.12543,
                    -0.19463,
                    0.08658,
                    -0.14774,
                    -0.17434,
                    -0.0983
                  ],
                  [
                    0.15143,
                    0.26479,
                    -0.07726,
                    -0.16968,
                    0.08645,
                    0.12051,
                    0.22939,
                    0.19046,
                    -0.18116,
                    0.11211,
                    0.13179,
                    0.16745,
                    0.07443,
                    0.18705,
                    0.25753,
                    -0.02529,
                    0.20472,
                    -0.15414,
                    0.15188,
                    0.24248,
                    -0.19826,
                    -0.12681,
                    -0.0325,
                    0.17408,
                    -0.12292,
                    0.12095,
                    0.18021,
                    -0.10553,
                    -0.17633,
                    -0.11207,
                    -0.24329,
                    0.13026,
                    -0.18748,
                    0.22125,
                    0.08007,
                    0.11457,
                    0.24879,
                    0.02581,
                    0.21291,
                    0.04767,
                    0.06999,
                    0.17567,
                    -0.16427,
                    0.22997,
                    0.01881,
                    -0.19449,
                    -0.12409,
                    0.21902,
                    -0.26102,
                    0.21358,
                    0.21748,
                    -0.02422,
                    -0.09336,
                    0.20801,
                    0.11029,
                    -0.02799,
                    -0.07063,
                    -0.15241,
                    -0.19392,
                    0.16013
                  ],
                  [
                    -0.1452,
                    0.09547,
                    0.18475,
                    -0.09513,
                    0.06499,
                    0.18095,
                    0.10182,
                    0.11576,
                    -0.25559,
                    0.2151,
                    -0.19379,
                    -0.21762,
                    -0.03022,
                    0.16861,
                    -0.15729,
                    0.05526,
                    0.16751,
                    0.23089,
                    0.14886,
                    0.10457,
                    -0.02676,
                    -0.12844,
                    0.12357,
                    0.01157,
                    -0.14669,
                    0.2439,
                    -0.12559,
                    0.19325,
                    0.24867,
                    0.04224,
                    -0.16947,
                    0.0363,
                    0.22374,
                    -0.23133,
                    -0.18406,
                    -0.16198,
                    0.24786,
                    -0.05994,
                    0.11812,
                    -0.11107,
                    0.04064,
                    0.24354,
                    -0.13773,
                    -0.01217,
                    0.0753,
                    -0.16893,
                    -0.01156,
                    0.12155,
                    -0.0456,
                    0.23638,
                    0.08607,
                    -0.212,
                    0.11543,
                    -0.06354,
                    0.22512,
                    0.08126,
                    0.12014,
                    -0.18812,
                    -0.18155,
                    -0.20517
                  ],
                  [
                    -0.02935,
                    0.21704,
                    0.20753,
                    -0.04869,
                    0.04977,
                    0.05083,
                    0.21899,
                    0.0376,
                    -0.05776,
                    -0.02791,
                    -0.11569,
                    -0.1125,
                    -0.06199,
                    0.04813,
                    -0.0894,
                    -0.01583,
                    0.17148,
                    -0.05499,
                    -0.18468,
                    0.05241,
                    -0.20841,
                    0.05032,
                    -0.20868,
                    -0.16661,
                    0.06512,
                    0.0431,
                    0.01964,
                    0.26114,
                    0.16685,
                    0.07317,
                    -0.12558,
                    -0.05934,
                    -0.08838,
                    0.07873,
                    -0.12105,
                    0.17606,
                    0.19218,
                    -0.15029,
                    0.19072,
                    -0.06521,
                    0.24593,
                    0.05786,
                    -0.2304,
                    0.14359,
                    -0.12894,
                    -0.19439,
                    -0.19277,
                    0.05212,
                    -0.18542,
                    -0.08178,
                    -0.02062,
                    -0.17126,
                    -0.05996,
                    -0.00728,
                    -0.05744,
                    0.17828,
                    0.16546,
                    -0.17863,
                    0.12359,
                    -0.123
                  ],
                  [
                    -0.02098,
                    -0.19132,
                    -0.19723,
                    -0.02362,
                    0.15508,
                    -0.0437,
                    -0.10477,
                    0.04107,
                    -0.08838,
                    -0.20364,
                    -0.11197,
                    0.17085,
                    -0.05253,
                    -0.1526,
                    0.24697,
                    -0.19802,
                    -0.17542,
                    0.01927,
                    -0.20578,
                    -0.13145,
                    -0.07428,
                    -0.13301,
                    0.08636,
                    0.21455,
                    0.13131,
                    -0.0965,
                    -0.0162,
                    0.01566,
                    -0.25272,
                    0.08324,
                    0.13709,
                    -0.05233,
                    -0.18461,
                    -0.10219,
                    -0.10851,
                    0.24094,
                    0.18706,
                    0.01586,
                    -0.02516,
                    -0.02177,
                    -0.18946,
                    -0.08029,
                    0.15403,
                    0.19625,
                    -0.09373,
                    -0.00883,
                    0.0674,
                    0.23406,
                    0.10976,
                    0.01958,
                    0.01909,
                    -0.05541,
                    -0.08398,
                    0.21286,
                    0.1041,
                    -0.11723,
                    0.18569,
                    0.13967,
                    0.08839,
                    -0.01279
                  ],
                  [
                    -0.12739,
                    0.24976,
                    0.03084,
                    0.12474,
                    0.02135,
                    -0.20714,
                    0.04306,
                    -0.21917,
                    0.05035,
                    -0.23268,
                    0.12515,
                    0.20876,
                    -0.10916,
                    0.02328,
                    0.2621,
                    0.22018,
                    -0.23583,
                    -0.02568,
                    0.12772,
                    -0.23675,
                    0.24765,
                    -0.14131,
                    -0.12376,
                    0.00074,
                    0.19141,
                    -0.07165,
                    -0.05864,
                    0.19474,
                    0.06206,
                    0.0842,
                    -0.00501,
                    -0.22031,
                    0.06224,
                    -0.0004,
                    0.05864,
                    -0.04193,
                    0.00242,
                    0.14703,
                    0.01456,
                    -0.01823,
                    0.03808,
                    -0.16354,
                    0.23216,
                    -0.1377,
                    -0.23229,
                    0.06759,
                    0.02081,
                    0.22963,
                    -0.15212,
                    -0.06147,
                    0.07677,
                    -0.14214,
                    0.13892,
                    -0.00413,
                    -0.15443,
                    -0.0205,
                    -0.06884,
                    0.10936,
                    0.0677,
                    0.11671
                  ],
                  [
                    0.01125,
                    -0.23594,
                    -0.16887,
                    0.01608,
                    0.09107,
                    -0.17146,
                    -0.04304,
                    -0.0272,
                    -0.16321,
                    0.12738,
                    -0.03043,
                    0.08323,
                    0.21203,
                    0.11191,
                    0.25829,
                    -0.11971,
                    0.0274,
                    0.16041,
                    -0.06184,
                    -0.04765,
                    0.06228,
                    -0.24364,
                    -0.03566,
                    0.02616,
                    0.08956,
                    -0.19648,
                    -0.02231,
                    -0.12971,
                    0.01478,
                    -0.17012,
                    -0.13605,
                    -0.14806,
                    0.0501,
                    -0.02627,
                    0.14442,
                    -0.04011,
                    0.01702,
                    0.24126,
                    0.23466,
                    0.01132,
                    0.04141,
                    0.18111,
                    -0.05498,
                    -0.19855,
                    -0.15208,
                    0.21134,
                    0.19371,
                    -0.1874,
                    -0.23993,
                    0.07806,
                    0.00898,
                    -0.05725,
                    0.03193,
                    0.06302,
                    0.11163,
                    -0.02087,
                    -0.04534,
                    0.19939,
                    -0.05282,
                    0.19512
                  ],
                  [
                    -0.24748,
                    -0.04864,
                    0.13334,
                    -0.16211,
                    -0.17676,
                    0.12725,
                    -0.03571,
                    0.14999,
                    0.03071,
                    0.08368,
                    -0.26591,
                    -0.00025,
                    -0.2083,
                    0.08272,
                    -0.24673,
                    -0.22887,
                    -0.16979,
                    0.14256,
                    -0.24609,
                    -0.11831,
                    0.13624,
                    -0.18041,
                    0.07624,
                    -0.08444,
                    -0.13491,
                    0.24031,
                    0.11639,
                    -0.17933,
                    -0.20861,
                    -0.24919,
                    0.19891,
                    0.11371,
                    0.14186,
                    0.17254,
                    0.1131,
                    -0.09223,
                    0.01893,
                    -0.19157,
                    -0.10068,
                    -0.21893,
                    -0.20389,
                    -0.11821,
                    0.05497,
                    -0.1777,
                    0.17515,
                    -0.14156,
                    -0.0197,
                    -0.26238,
                    -0.14941,
                    -0.24152,
                    -0.17105,
                    0.10088,
                    -0.15569,
                    0.14773,
                    0.12085,
                    0.08377,
                    -0.21071,
                    -0.14962,
                    -0.24737,
                    0.04036
                  ],
                  [
                    -0.18401,
                    -0.00997,
                    0.2382,
                    0.04624,
                    -0.0022,
                    0.26252,
                    -0.15316,
                    -0.13144,
                    -0.11423,
                    0.04793,
                    0.04425,
                    0.24067,
                    0.10563,
                    -0.11649,
                    -0.15295,
                    0.15483,
                    -0.01642,
                    -0.25963,
                    -0.04601,
                    0.07825,
                    -0.16901,
                    0.05477,
                    -0.22688,
                    -0.22894,
                    0.15454,
                    -0.18922,
                    -0.25445,
                    -0.21008,
                    0.15306,
                    0.14785,
                    0.19846,
                    0.13862,
                    0.17944,
                    0.25451,
                    -0.22777,
                    0.23856,
                    -0.18657,
                    0.14226,
                    0.00849,
                    -0.05566,
                    0.0645,
                    -0.00807,
                    0.13585,
                    0.24076,
                    -0.13916,
                    -0.22697,
                    -0.24714,
                    -0.10163,
                    0.24462,
                    -0.17304,
                    0.05748,
                    -0.19308,
                    0.0298,
                    -0.05841,
                    0.24475,
                    -0.24601,
                    -0.02017,
                    -0.18363,
                    0.1891,
                    0.14916
                  ],
                  [
                    -0.19378,
                    0.14693,
                    -0.10439,
                    0.12383,
                    -0.07426,
                    -0.06405,
                    -0.09744,
                    -0.25017,
                    0.06167,
                    -0.11885,
                    0.17024,
                    0.12482,
                    -0.24294,
                    -0.01558,
                    -0.0194,
                    0.12874,
                    0.01458,
                    -0.15652,
                    -0.23934,
                    0.03783,
                    -0.01975,
                    0.08854,
                    -0.03479,
                    -0.19428,
                    -0.03477,
                    0.10863,
                    -0.12302,
                    0.10157,
                    0.13976,
                    0.17079,
                    -0.21945,
                    0.07203,
                    0.16148,
                    -0.26368,
                    0.02812,
                    0.1934,
                    0.18572,
                    0.14645,
                    0.18029,
                    0.13656,
                    0.10166,
                    -0.09727,
                    0.02617,
                    0.23865,
                    0.16959,
                    0.05338,
                    -0.15812,
                    0.09765,
                    0.18177,
                    0.04318,
                    -0.154,
                    0.24255,
                    0.19327,
                    -0.25688,
                    0.11327,
                    0.12329,
                    0.17638,
                    0.0785,
                    0.14759,
                    0.01212
                  ],
                  [
                    -0.07013,
                    -0.04319,
                    0.00854,
                    0.04912,
                    -0.15735,
                    0.00296,
                    -0.0977,
                    0.18476,
                    -0.208,
                    0.12913,
                    0.05259,
                    -0.1211,
                    0.23158,
                    -0.13013,
                    -0.00523,
                    0.12448,
                    0.00847,
                    -0.24012,
                    -0.1766,
                    0.26419,
                    0.09106,
                    -0.23316,
                    0.17197,
                    0.01346,
                    0.07057,
                    0.12865,
                    0.05907,
                    -0.08612,
                    0.0808,
                    0.04824,
                    -0.10786,
                    -0.10469,
                    -0.19182,
                    0.03668,
                    -0.20497,
                    0.05642,
                    -0.26196,
                    -0.02952,
                    -0.11461,
                    0.13347,
                    -0.14862,
                    -0.08892,
                    0.06263,
                    -0.18489,
                    -0.06419,
                    -0.09678,
                    -0.20806,
                    -0.17337,
                    0.13901,
                    -0.22462,
                    0.0509,
                    -0.05315,
                    0.03758,
                    -0.03987,
                    -0.02598,
                    -0.266,
                    -0.01631,
                    0.02606,
                    -0.16888,
                    -0.06894
                  ]
                ]
              },
              {
                "bias": [
                  -0.25354,
                  -0.14848,
                  0.07972
                ],
                "weights": [
                  [
                    0.05926,
                    0.04958,
                    -0.17245,
                    0.31941,
                    0.11384,
                    -0.24105,
                    -0.36261,
                    0.1082,
                    -0.4131,
                    -0.10044,
                    0.03385,
                    -0.23594,
                    0.3509,
                    -0.25643,
                    -0.04124,
                    0.40055,
                    0.10659,
                    -0.07648,
                    -0.18615,
                    -0.07103,
                    0.00302,
                    0.06851,
                    0.10493,
                    -0.30645,
                    0.0922,
                    -0.37068,
                    -0.31041,
                    -0.13045,
                    -0.29329,
                    -0.06785
                  ],
                  [
                    0.42757,
                    0.39373,
                    -0.0793,
                    -0.04021,
                    0.1023,
                    0.07824,
                    -0.26363,
                    0.36216,
                    0.40464,
                    -0.1735,
                    0.40217,
                    0.24946,
                    -0.3132,
                    -0.43014,
                    -0.29836,
                    -0.15072,
                    0.08405,
                    -0.27862,
                    -0.37662,
                    -0.18587,
                    -0.08759,
                    -0.34982,
                    0.16322,
                    -0.07668,
                    0.33037,
                    0.28592,
                    -0.12946,
                    0.12561,
                    -0.31938,
                    0.10533
                  ],
                  [
                    0.40843,
                    -0.05488,
                    -0.3324,
                    0.23029,
                    0.32036,
                    0.37806,
                    0.25203,
                    0.28114,
                    -0.07727,
                    -0.18667,
                    -0.16917,
                    0.246,
                    0.21568,
                    0.35293,
                    0.08027,
                    0.32452,
                    -0.00858,
                    -0.12025,
                    0.19176,
                    -0.40622,
                    -0.26233,
                    -0.304,
                    -0.05414,
                    0.30652,
                    0.33401,
                    -0.22734,
                    0.42362,
                    0.32047,
                    -0.27421,
                    -0.3559
                  ]
                ]
              }
            ],
            "rollback": false,
            "shared": false,
            "type": {
              "items": {
                "fields": [
                  {
                    "name": "weights",
                    "type": {
                      "items": {
                        "items": "double",
                        "type": "array"
                      },
                      "type": "array"
                    }
                  },
                  {
                    "name": "bias",
                    "type": {
                      "items": "double",
                      "type": "array"
                    }
                  }
                ],
                "name": "Layer",
                "type": "record"
              },
              "type": "array"
            }
          },
          "validations": {
            "init": [
              {
                "code": "kfold",
                "data": {
                  "average": {
                    "Accuracy": 0.40745,
                    "Confusion matrix": {
                      "labels": [
                        "AD",
                        "CN",
                        "Other"
                      ],
                      "values": [
                        [
                          0.0,
                          136.0,
                          138.0
                        ],
                        [
                          0.0,
                          137.0,
                          161.0
                        ],
                        [
                          0.0,
                          583.0,
                          563.0
                        ]
                      ]
                    },
                    "Weighted F1-score": 0.41524,
                    "Weighted false positive rate": 0.43652,
                    "Weighted precision": 0.46344,
                    "Weighted recall": 0.40745,
                    "type": "PolynomialClassificationScore"
                  },
                  "folds": {
                    "1": {
                      "Accuracy": 0.65541,
                      "Confusion matrix": {
                        "labels": [
                          "AD",
                          "CN",
                          "Other"
                        ],
                        "values": [
                          [
                            0.0,
                            0.0,
                            138.0
                          ],
                          [
                            0.0,
                            0.0,
                            158.0
                          ],
                          [
                            0.0,
                            0.0,
                            563.0
                          ]
                        ]
                      },
                      "Weighted F1-score": 0.51898,
                      "Weighted false positive rate": 0.65541,
                      "Weighted precision": 0.42957,
                      "Weighted recall": 0.65541,
                      "type": "PolynomialClassificationScore"
                    },
                    "2": {
                      "Accuracy": 0.15949,
                      "Confusion matrix": {
                        "labels": [
                          "AD",
                          "CN",
                          "Other"
                        ],
                        "values": [
                          [
                            0.0,
                            136.0,
                            0.0
                          ],
                          [
                            0.0,
                            137.0,
                            3.0
                          ],
                          [
                            0.0,
                            583.0,
                            0.0
                          ]
                        ]
                      },
                      "Weighted F1-score": 0.04484,
                      "Weighted false positive rate": 0.17036,
                      "Weighted precision": 0.02608,
                      "Weighted recall": 0.15949,
                      "type": "PolynomialClassificationScore"
                    }
                  },
                  "type": "KFoldCrossValidationScore"
                },
                "node": "local",
                "validationSpec": {
                  "code": "kfold",
                  "parameters": [
                    {
                      "code": "k",
                      "value": "2"
                    }
                  ]
                }
              }
            ],
            "type": {
              "items": "Record",
              "type": "array"
            }
          }
        },
        "fcns": {
          "C": {
            "do": [
              {
                "a.map": [
                  "categories",
                  {
                    "do": [
                      {
                        "else": [
                          0.0
                        ],
                        "if": {
                          "==": [
                            "cat",
                            "x"
                          ]
                        },
                        "then": [
                          1.0
                        ]
                      }
                    ],
                    "params": [
                      {
                        "cat": "string"
                      }
                    ],
                    "ret": "double"
                  }
                ]
              }
            ],
            "params": [
              {
                "x": "string"
              },
              {
                "categories": {
                  "items": "string",
                  "type": "array"
                }
              }
            ],
            "ret": {
              "items": "double",
              "type": "array"
            }
          },
          "arr": {
            "do": [
              {
                "new": [
                  "x"
                ],
                "type": {
                  "items": "double",
                  "type": "array"
                }
              }
            ],
            "params": [
              {
                "x": "double"
              }
            ],
            "ret": {
              "items": "double",
              "type": "array"
            }
          },
          "standardize": {
            "do": [
              {
                "/": [
                  {
                    "-": [
                      "x",
                      "mu"
                    ]
                  },
                  "sigma"
                ]
              }
            ],
            "params": [
              {
                "x": "double"
              },
              {
                "mu": "double"
              },
              {
                "sigma": "double"
              }
            ],
            "ret": "double"
          }
        },
        "input": {
          "fields": [
            {
              "name": "lefthippocampus",
              "type": "double"
            }
          ],
          "name": "Input",
          "type": "record"
        },
        "metadata": {
          "X": "{\"lefthippocampus\":{\"count\":1718.0,\"mean\":3.639566982e-16,\"std\":1.0002911632,\"min\":-6.1997481189,\"25%\":-0.1756647944,\"50%\":-0.1756647944,\"75%\":-0.1049179598,\"max\":5.934008706}}",
          "score": "0.67112922",
          "y": "{\"count\":1718,\"unique\":3,\"top\":\"Other\",\"freq\":1146}"
        },
        "method": "map",
        "name": "neural_network",
        "output": "string"
      },
      "datasets": [],
      "feedback": [],
      "jobId": "*",
      "node": "local",
      "timestamp": 0.0,
      "type": "application/pfa+json"
    }
  ],
  "datasets": [],
  "feedback": [],
  "jobId": "*",
  "node": "local",
  "query": {
    "algorithms": [
      {
        "code": "sgdNeuralNetwork",
        "parameters": [
          {
            "code": "hidden_layer_sizes",
            "value": "60,30"
          },
          {
            "code": "activation",
            "value": "tanh"
          }
        ]
      }
    ],
    "covariables": [
      {
        "code": "lefthippocampus"
      }
    ],
    "covariablesMustExist": true,
    "filters": {
      "condition": "AND",
      "rules": [
        {
          "field": "alzheimerbroadcategory",
          "id": "alzheimerbroadcategory",
          "input": "text",
          "operator": "is_not_null",
          "type": "string",
          "value": []
        },
        {
          "field": "lefthippocampus",
          "id": "lefthippocampus",
          "input": "text",
          "operator": "is_not_null",
          "type": "string",
          "value": []
        }
      ]
    },
    "grouping": [],
    "targetTable": "cde_features_mixed",
    "testingDatasets": [],
    "trainingDatasets": [],
    "user": {
      "code": "test1"
    },
    "validationDatasets": [],
    "validations": [
      {
        "code": "kfold",
        "parameters": [
          {
            "code": "k",
            "value": "2"
          }
        ]
      }
    ],
    "variables": [
      {
        "code": "alzheimerbroadcategory"
      }
    ]
  },
  "timestamp": 0.0,
  "type": "application/vnd.hbp.mip.experiment.pfa+json"
}
