{
  "data": [
    {
      "algorithm": "python-sgd-neural-network",
      "algorithmSpec": {
        "code": "sgdNeuralNetwork",
        "parameters": [
          {
            "code": "hidden_layer_sizes",
            "value": "60,30"
          },
          {
            "code": "activation",
            "value": "tanh"
          }
        ]
      },
      "data": {
        "action": [
          {
            "let": {
              "x": {
                "a.flatten": [
                  {
                    "new": [
                      {
                        "u.arr": [
                          {
                            "/": [
                              {
                                "-": [
                                  {
                                    "cast.double": [
                                      {
                                        "attr": "input",
                                        "path": [
                                          {
                                            "string": "lefthippocampus"
                                          }
                                        ]
                                      }
                                    ]
                                  },
                                  0.0
                                ]
                              },
                              1.0
                            ]
                          }
                        ]
                      }
                    ],
                    "type": {
                      "items": {
                        "items": "double",
                        "type": "array"
                      },
                      "type": "array"
                    }
                  }
                ]
              }
            }
          },
          {
            "let": {
              "activations": {
                "model.neural.simpleLayers": [
                  "x",
                  {
                    "cell": "neuralnet"
                  },
                  {
                    "do": [
                      {
                        "m.link.relu": [
                          "x"
                        ]
                      }
                    ],
                    "params": [
                      {
                        "x": "double"
                      }
                    ],
                    "ret": "double"
                  }
                ]
              }
            }
          },
          {
            "cell": "classes",
            "path": [
              {
                "a.argmax": [
                  "activations"
                ]
              }
            ]
          }
        ],
        "cells": {
          "classes": {
            "init": [
              "AD",
              "CN",
              "Other"
            ],
            "rollback": false,
            "shared": false,
            "type": {
              "items": "string",
              "type": "array"
            }
          },
          "neuralnet": {
            "init": [
              {
                "bias": [
                  0.16384,
                  0.07292,
                  0.1405,
                  -0.2991,
                  0.11872,
                  0.1524,
                  -0.21058,
                  -0.1208,
                  -0.16268,
                  0.30087,
                  0.00353,
                  0.19033,
                  0.20213,
                  0.04635,
                  -0.02597,
                  -0.02491,
                  -0.11294,
                  -0.27046,
                  -0.29534,
                  0.17487,
                  -0.18839,
                  0.31582,
                  0.3178,
                  -0.03286,
                  -0.03989,
                  0.27828,
                  -0.07503,
                  0.06227,
                  0.24731,
                  0.18648,
                  -0.09556,
                  0.04814,
                  -0.27517,
                  0.15677,
                  0.20426,
                  -0.2516,
                  0.30348,
                  0.1718,
                  0.23008,
                  0.27681,
                  0.02287,
                  0.20194,
                  -0.05247,
                  0.13693,
                  -0.23104,
                  0.24934,
                  0.24034,
                  -0.20443,
                  -0.12425,
                  0.07266,
                  -0.16926,
                  0.19138,
                  -0.03856,
                  -0.07649,
                  -0.07743,
                  0.12606,
                  0.25114,
                  -0.21022,
                  -0.25453,
                  0.19249
                ],
                "weights": [
                  [
                    0.00099
                  ],
                  [
                    0.12891
                  ],
                  [
                    -0.21028
                  ],
                  [
                    -0.31732
                  ],
                  [
                    0.14381
                  ],
                  [
                    0.04305
                  ],
                  [
                    -0.14675
                  ],
                  [
                    -0.18804
                  ],
                  [
                    0.09244
                  ],
                  [
                    -0.26904
                  ],
                  [
                    -0.02782
                  ],
                  [
                    0.06033
                  ],
                  [
                    -0.20914
                  ],
                  [
                    -0.10539
                  ],
                  [
                    -0.02425
                  ],
                  [
                    -0.03073
                  ],
                  [
                    0.13267
                  ],
                  [
                    -0.16335
                  ],
                  [
                    0.06346
                  ],
                  [
                    0.06259
                  ],
                  [
                    0.05112
                  ],
                  [
                    0.2206
                  ],
                  [
                    0.20568
                  ],
                  [
                    0.20636
                  ],
                  [
                    0.01652
                  ],
                  [
                    -0.14604
                  ],
                  [
                    0.04985
                  ],
                  [
                    0.0847
                  ],
                  [
                    -0.18158
                  ],
                  [
                    0.23242
                  ],
                  [
                    0.03078
                  ],
                  [
                    0.14473
                  ],
                  [
                    0.20383
                  ],
                  [
                    -0.25987
                  ],
                  [
                    0.10734
                  ],
                  [
                    -0.17422
                  ],
                  [
                    -0.04384
                  ],
                  [
                    0.01527
                  ],
                  [
                    0.09347
                  ],
                  [
                    -0.18049
                  ],
                  [
                    -0.14313
                  ],
                  [
                    0.05343
                  ],
                  [
                    -0.03227
                  ],
                  [
                    -0.10663
                  ],
                  [
                    0.28387
                  ],
                  [
                    -0.28489
                  ],
                  [
                    0.13227
                  ],
                  [
                    -0.06686
                  ],
                  [
                    0.09465
                  ],
                  [
                    0.11848
                  ],
                  [
                    0.11881
                  ],
                  [
                    -0.02845
                  ],
                  [
                    0.07072
                  ],
                  [
                    0.14168
                  ],
                  [
                    0.16999
                  ],
                  [
                    0.20039
                  ],
                  [
                    -0.08589
                  ],
                  [
                    -0.17061
                  ],
                  [
                    0.12197
                  ],
                  [
                    -0.03328
                  ]
                ]
              },
              {
                "bias": [
                  0.20655,
                  0.22822,
                  -0.05158,
                  0.01874,
                  0.03728,
                  0.13661,
                  0.24099,
                  0.07813,
                  -0.07574,
                  0.11452,
                  -0.03306,
                  0.07271,
                  -0.13971,
                  -0.0592,
                  -0.16334,
                  0.07747,
                  -0.21146,
                  -0.23957,
                  0.07824,
                  0.05655,
                  -0.147,
                  -0.22235,
                  0.23296,
                  -0.05215,
                  -0.03391,
                  0.11832,
                  0.03797,
                  0.00251,
                  -0.07089,
                  -0.08304
                ],
                "weights": [
                  [
                    0.022,
                    0.12898,
                    -0.23996,
                    -0.17541,
                    -0.24598,
                    0.20188,
                    0.07442,
                    -0.24026,
                    0.01566,
                    -0.02013,
                    -0.09995,
                    0.09969,
                    -0.19859,
                    0.23494,
                    0.16041,
                    0.15826,
                    0.04051,
                    0.22314,
                    0.06137,
                    -0.24512,
                    -0.08667,
                    0.05474,
                    -0.23945,
                    0.02783,
                    -0.15993,
                    0.03684,
                    0.14118,
                    0.15016,
                    0.22495,
                    0.15386,
                    0.25447,
                    -0.20966,
                    0.0726,
                    -0.05243,
                    0.11432,
                    0.12912,
                    0.1119,
                    -0.20047,
                    -0.12041,
                    0.14575,
                    0.01098,
                    -0.19294,
                    -0.17922,
                    0.09325,
                    0.24014,
                    -0.02655,
                    -0.23928,
                    0.19296,
                    0.17609,
                    0.01569,
                    -0.23848,
                    -0.15392,
                    0.20756,
                    0.0037,
                    -0.15965,
                    -0.06416,
                    -0.08556,
                    -0.09576,
                    0.1579,
                    0.02602
                  ],
                  [
                    -0.15017,
                    0.17174,
                    0.07719,
                    0.01368,
                    -0.05748,
                    0.1351,
                    0.16797,
                    0.0127,
                    0.16184,
                    -0.16682,
                    -0.06098,
                    -0.07938,
                    -0.0259,
                    -0.05048,
                    0.24627,
                    0.24928,
                    -0.02262,
                    -0.1544,
                    -0.15945,
                    -0.16268,
                    -0.01883,
                    0.05197,
                    -0.17495,
                    -0.06375,
                    0.23294,
                    -0.07814,
                    0.00421,
                    0.04798,
                    0.02354,
                    -0.03196,
                    -0.06461,
                    0.19286,
                    -0.209,
                    0.08213,
                    0.21483,
                    0.13722,
                    -0.15172,
                    0.16436,
                    -0.04513,
                    -0.16581,
                    0.1716,
                    0.14225,
                    -0.10404,
                    -0.101,
                    -0.23208,
                    -0.14279,
                    0.21284,
                    0.11211,
                    0.04714,
                    0.14242,
                    0.03062,
                    -0.20691,
                    0.12735,
                    -0.03763,
                    -0.2642,
                    0.11277,
                    0.03028,
                    -0.08842,
                    0.19381,
                    0.19554
                  ],
                  [
                    -0.07799,
                    0.15314,
                    0.02822,
                    0.17426,
                    0.0186,
                    -0.11195,
                    0.07226,
                    -0.17847,
                    -0.12527,
                    0.04624,
                    -0.22207,
                    -0.23894,
                    0.01184,
                    0.08231,
                    0.01207,
                    -0.12294,
                    0.12155,
                    0.22426,
                    0.01898,
                    -0.07733,
                    -0.05588,
                    0.09591,
                    -0.16623,
                    -0.09736,
                    -0.10213,
                    0.19891,
                    0.23593,
                    -0.19447,
                    0.03508,
                    0.24661,
                    0.18598,
                    0.20001,
                    -0.07847,
                    -0.20147,
                    -0.0172,
                    -0.23458,
                    0.06638,
                    0.17243,
                    -0.24693,
                    -0.0041,
                    -0.23465,
                    -0.07589,
                    -0.23815,
                    0.20936,
                    0.11704,
                    -0.15876,
                    -0.03939,
                    -0.08255,
                    0.17161,
                    0.25265,
                    -0.02494,
                    -0.09892,
                    -0.01603,
                    0.24482,
                    -0.05817,
                    -0.12128,
                    0.02982,
                    -0.17069,
                    0.06866,
                    -0.02825
                  ],
                  [
                    0.2555,
                    0.1262,
                    -0.06127,
                    -0.15096,
                    -0.21933,
                    -0.17509,
                    0.20083,
                    -0.13453,
                    0.22268,
                    0.1744,
                    -0.24478,
                    0.03438,
                    -0.07003,
                    -0.09519,
                    0.24263,
                    -0.01886,
                    -0.13931,
                    0.03521,
                    0.21397,
                    0.11186,
                    0.17535,
                    0.07636,
                    0.02846,
                    0.043,
                    -0.23885,
                    0.21021,
                    -0.20549,
                    -0.24914,
                    -0.00353,
                    -0.06577,
                    -0.20919,
                    -0.03022,
                    0.00855,
                    0.07245,
                    0.11938,
                    0.05168,
                    -0.20526,
                    -0.09816,
                    -0.04901,
                    -0.11494,
                    0.04747,
                    -0.10485,
                    -0.05323,
                    -0.25125,
                    0.03921,
                    0.20253,
                    -0.03723,
                    0.08394,
                    0.05004,
                    -0.20252,
                    -0.24282,
                    0.00765,
                    -0.21987,
                    -0.01923,
                    0.05931,
                    0.05236,
                    -0.01804,
                    0.04814,
                    0.2527,
                    0.22427
                  ],
                  [
                    -0.00431,
                    -0.16304,
                    0.24634,
                    -0.00998,
                    0.25099,
                    -0.02417,
                    0.23022,
                    0.06784,
                    -0.24002,
                    -0.26065,
                    -0.18904,
                    -0.06226,
                    -0.13145,
                    -0.09791,
                    0.03674,
                    -0.12975,
                    0.05708,
                    0.14311,
                    -0.21965,
                    -0.00124,
                    -0.24768,
                    0.16484,
                    0.25423,
                    0.22296,
                    -0.08912,
                    0.00995,
                    -0.10037,
                    -0.16433,
                    0.19699,
                    -0.23748,
                    0.2278,
                    -0.0937,
                    0.16743,
                    -0.14219,
                    -0.13999,
                    -0.19501,
                    0.15891,
                    0.19804,
                    0.16192,
                    -0.0304,
                    -0.21345,
                    0.01744,
                    0.18579,
                    -0.26076,
                    -0.17016,
                    0.1041,
                    0.04501,
                    0.00956,
                    0.05109,
                    0.11013,
                    -0.06636,
                    0.07931,
                    0.17454,
                    0.12376,
                    -0.05815,
                    -0.10123,
                    0.09447,
                    0.16752,
                    -0.09456,
                    -0.16633
                  ],
                  [
                    -0.13823,
                    0.09995,
                    0.24513,
                    -0.24868,
                    -0.01645,
                    0.13677,
                    -0.1592,
                    -0.10413,
                    -0.04292,
                    -0.12683,
                    0.00491,
                    -0.19309,
                    0.26091,
                    -0.02383,
                    -0.16218,
                    0.16303,
                    0.222,
                    -0.14775,
                    -0.05159,
                    -0.02677,
                    0.15574,
                    -0.10141,
                    0.06788,
                    0.03423,
                    -0.24529,
                    -0.17891,
                    -0.22156,
                    0.02274,
                    -0.06699,
                    0.16074,
                    -0.20895,
                    -0.20387,
                    0.10322,
                    -0.18592,
                    -0.15988,
                    0.13844,
                    -0.07349,
                    0.01749,
                    -0.21427,
                    0.02817,
                    0.01731,
                    -0.11216,
                    -0.09503,
                    -0.0993,
                    0.08806,
                    0.26451,
                    0.03228,
                    0.17179,
                    0.03706,
                    -0.02308,
                    0.25052,
                    -0.18768,
                    -0.00891,
                    -0.19921,
                    -0.02183,
                    -0.25762,
                    -0.21876,
                    -0.05267,
                    0.188,
                    -0.15501
                  ],
                  [
                    -0.19101,
                    -0.04714,
                    -0.0019,
                    -0.14056,
                    0.01889,
                    0.07757,
                    -0.1457,
                    0.23945,
                    -0.04753,
                    0.04142,
                    -0.10107,
                    0.171,
                    -0.11503,
                    -0.11388,
                    -0.20272,
                    -0.02807,
                    -0.05868,
                    -0.02631,
                    -0.12947,
                    0.07155,
                    0.09038,
                    0.17676,
                    -0.16494,
                    0.2588,
                    -0.15567,
                    0.21565,
                    0.11448,
                    0.23768,
                    -0.04376,
                    0.16807,
                    -0.00545,
                    -0.086,
                    0.23448,
                    0.06329,
                    -0.0467,
                    0.12315,
                    0.20786,
                    0.06531,
                    -0.12245,
                    -0.24539,
                    -0.01587,
                    0.21142,
                    -0.13117,
                    0.24846,
                    0.10047,
                    0.2028,
                    0.11257,
                    -0.0494,
                    0.04893,
                    -0.22353,
                    0.22278,
                    -0.19867,
                    0.24536,
                    -0.05867,
                    -0.22173,
                    0.16611,
                    -0.19094,
                    0.17608,
                    -0.16479,
                    0.10902
                  ],
                  [
                    0.10464,
                    0.07078,
                    -0.07795,
                    -0.19408,
                    -0.12507,
                    0.01583,
                    0.1588,
                    -0.2347,
                    -0.15484,
                    0.1301,
                    -0.18245,
                    -0.12055,
                    -0.11924,
                    0.13205,
                    0.05123,
                    -0.10922,
                    0.0966,
                    -0.03645,
                    -0.14056,
                    -0.0613,
                    -0.06862,
                    -0.02689,
                    -0.22788,
                    0.10454,
                    0.16582,
                    0.1143,
                    0.00753,
                    0.08254,
                    0.00587,
                    0.16355,
                    0.15837,
                    0.24318,
                    -0.16419,
                    -0.15018,
                    0.23978,
                    -0.0725,
                    0.09475,
                    -0.01935,
                    -0.00464,
                    0.131,
                    -0.16969,
                    -0.08986,
                    0.14737,
                    0.22467,
                    -0.08606,
                    -0.11984,
                    0.18309,
                    -0.03869,
                    -0.03784,
                    0.25798,
                    0.16175,
                    0.214,
                    0.08936,
                    0.13765,
                    0.12264,
                    0.25473,
                    0.07013,
                    -0.10033,
                    0.02039,
                    0.05878
                  ],
                  [
                    -0.20836,
                    -0.20801,
                    0.04501,
                    0.02474,
                    0.14483,
                    -0.09964,
                    -0.22395,
                    0.0982,
                    -0.13392,
                    -0.00975,
                    -0.15949,
                    0.24872,
                    -0.1509,
                    0.06658,
                    0.08267,
                    0.15003,
                    -0.12792,
                    -0.19285,
                    -0.20947,
                    -0.24065,
                    0.01464,
                    -0.22324,
                    -0.08112,
                    -0.18639,
                    -0.0223,
                    -0.07665,
                    0.2403,
                    0.12463,
                    -0.24497,
                    -0.16228,
                    -0.0807,
                    0.14708,
                    0.01236,
                    -0.17683,
                    -0.05547,
                    0.18202,
                    0.24209,
                    0.24435,
                    0.14079,
                    -0.16365,
                    -0.10408,
                    -0.20518,
                    0.09697,
                    0.15907,
                    -0.07635,
                    -0.19276,
                    0.18288,
                    -0.14494,
                    -0.09828,
                    0.13673,
                    -0.09561,
                    -0.08892,
                    -0.17718,
                    -0.16065,
                    0.02238,
                    -0.06742,
                    -0.01925,
                    0.09624,
                    -0.0873,
                    -0.21207
                  ],
                  [
                    -0.0439,
                    0.04099,
                    -0.1048,
                    -0.0346,
                    0.21954,
                    0.06511,
                    -0.2284,
                    -0.24959,
                    0.26193,
                    0.24864,
                    -0.10092,
                    0.1922,
                    -0.16062,
                    0.17855,
                    -0.07396,
                    0.08566,
                    -0.19791,
                    -0.1184,
                    -0.21767,
                    -0.14271,
                    -0.2596,
                    0.06791,
                    0.25587,
                    0.11278,
                    -0.23305,
                    0.19404,
                    0.0092,
                    -0.17996,
                    -0.07656,
                    -0.10039,
                    0.0319,
                    -0.16525,
                    0.24192,
                    0.14814,
                    0.02839,
                    -0.10077,
                    0.02977,
                    0.16072,
                    0.02877,
                    -0.08956,
                    -0.06869,
                    0.16309,
                    -0.00678,
                    0.24497,
                    0.19583,
                    0.01764,
                    0.01177,
                    -0.01618,
                    0.13629,
                    -0.22014,
                    -0.01643,
                    0.09208,
                    -0.19024,
                    0.09771,
                    -0.22669,
                    0.18291,
                    0.10648,
                    -0.15895,
                    -0.06626,
                    0.17748
                  ],
                  [
                    0.13597,
                    0.18039,
                    0.0228,
                    0.18287,
                    -0.2172,
                    0.07813,
                    0.02155,
                    0.0687,
                    0.24613,
                    -0.20362,
                    0.097,
                    -0.07465,
                    -0.00959,
                    0.08904,
                    0.15694,
                    0.23383,
                    -0.03695,
                    -0.20576,
                    0.0727,
                    -0.07856,
                    0.13958,
                    -0.19504,
                    0.20275,
                    -0.16435,
                    -0.24078,
                    0.14437,
                    0.11688,
                    0.19285,
                    0.17477,
                    -0.00842,
                    -0.11059,
                    0.21569,
                    0.06525,
                    0.21285,
                    0.2327,
                    -0.25479,
                    0.10858,
                    -0.11192,
                    -0.02547,
                    -0.2101,
                    -0.01735,
                    0.25625,
                    -0.09015,
                    -0.09747,
                    0.068,
                    -0.07854,
                    -0.23481,
                    -0.13342,
                    0.21067,
                    -0.16306,
                    -0.05146,
                    0.19147,
                    -0.06583,
                    -0.16223,
                    -0.16904,
                    -0.20841,
                    -0.16631,
                    -0.13381,
                    0.24391,
                    0.13019
                  ],
                  [
                    -0.12224,
                    0.19878,
                    -0.21786,
                    -0.20134,
                    -0.00064,
                    0.12776,
                    0.22948,
                    0.21564,
                    0.21582,
                    -0.11333,
                    0.10101,
                    -0.06258,
                    0.02499,
                    0.00983,
                    -0.09122,
                    0.14604,
                    0.1283,
                    -0.21459,
                    0.00924,
                    0.0869,
                    -0.01733,
                    -0.07874,
                    0.14891,
                    0.13825,
                    -0.14025,
                    0.19535,
                    -0.0295,
                    -0.18533,
                    0.13084,
                    -0.0634,
                    0.13785,
                    -0.14489,
                    0.07464,
                    -0.079,
                    0.1998,
                    -0.07546,
                    0.20034,
                    0.1653,
                    -0.04205,
                    -0.23376,
                    0.12699,
                    -0.19566,
                    -0.11319,
                    -0.16708,
                    -0.1793,
                    -0.05381,
                    0.19393,
                    -0.20648,
                    -0.21051,
                    -0.06148,
                    0.07705,
                    -0.06311,
                    -0.14211,
                    0.15642,
                    0.05221,
                    0.15512,
                    -0.14094,
                    -0.14695,
                    -0.10234,
                    0.20038
                  ],
                  [
                    0.06736,
                    0.24933,
                    -0.0824,
                    -0.19428,
                    0.08793,
                    -0.03468,
                    0.10073,
                    -0.25093,
                    -0.17952,
                    0.13319,
                    0.00015,
                    0.14132,
                    0.08449,
                    0.07066,
                    -0.24926,
                    0.19992,
                    -0.14008,
                    0.25528,
                    -0.03551,
                    0.23413,
                    0.24013,
                    -0.06757,
                    0.09057,
                    -0.03408,
                    0.12881,
                    -0.03346,
                    0.00705,
                    0.20595,
                    -0.19852,
                    -0.24983,
                    0.07753,
                    0.01143,
                    -0.2345,
                    -0.05634,
                    0.20125,
                    0.20556,
                    0.19532,
                    0.21527,
                    -0.15685,
                    -0.08897,
                    0.04988,
                    -0.0829,
                    0.11103,
                    -0.17566,
                    0.14493,
                    -0.23481,
                    -0.05767,
                    -0.00736,
                    0.01205,
                    -0.07041,
                    -0.01982,
                    -0.22461,
                    0.18523,
                    0.03046,
                    -0.10165,
                    -0.16325,
                    -0.20232,
                    0.23448,
                    -0.22861,
                    0.17942
                  ],
                  [
                    0.16178,
                    0.05538,
                    0.14824,
                    0.14176,
                    -0.20837,
                    -0.14511,
                    0.25584,
                    0.26591,
                    -0.05114,
                    0.0534,
                    0.19297,
                    -0.09752,
                    0.02515,
                    0.23712,
                    0.25729,
                    0.10626,
                    -0.24498,
                    -0.06235,
                    -0.17873,
                    -0.1538,
                    0.16233,
                    -0.15342,
                    -0.182,
                    -0.24217,
                    0.18174,
                    0.1422,
                    -0.06364,
                    0.21262,
                    -0.00501,
                    0.00972,
                    -0.24838,
                    -0.0538,
                    0.1176,
                    0.09986,
                    0.00111,
                    -0.04514,
                    0.14711,
                    0.05174,
                    0.04764,
                    0.00696,
                    0.26273,
                    -0.14752,
                    0.12397,
                    0.15955,
                    -0.20566,
                    0.03147,
                    -0.15194,
                    -0.24959,
                    -0.03593,
                    -0.03126,
                    -0.13042,
                    0.06604,
                    -0.04035,
                    0.10302,
                    -0.08107,
                    0.23628,
                    -0.18514,
                    0.02431,
                    0.12928,
                    0.03675
                  ],
                  [
                    -0.03391,
                    0.10527,
                    0.01377,
                    0.2091,
                    -0.14184,
                    0.20125,
                    -0.06712,
                    0.15912,
                    -0.10882,
                    -0.15955,
                    -0.02933,
                    -0.10739,
                    0.10127,
                    -0.16436,
                    -0.01836,
                    0.01625,
                    0.21704,
                    -0.14297,
                    0.10731,
                    0.18213,
                    -0.01955,
                    0.14052,
                    0.00408,
                    -0.23173,
                    0.02809,
                    -0.24384,
                    0.09716,
                    0.02942,
                    0.14582,
                    0.15806,
                    -0.14395,
                    0.16902,
                    -0.03129,
                    0.06985,
                    -0.11875,
                    0.05275,
                    -0.20216,
                    0.20838,
                    -0.06305,
                    0.11192,
                    0.05462,
                    -0.16605,
                    -0.14468,
                    -0.14871,
                    -0.06263,
                    0.18326,
                    0.09917,
                    0.19029,
                    -0.18402,
                    0.13986,
                    0.14237,
                    0.25961,
                    -0.07385,
                    -0.0502,
                    0.21363,
                    0.0435,
                    -0.00122,
                    0.09949,
                    0.11921,
                    -0.15195
                  ],
                  [
                    0.09451,
                    0.17637,
                    0.00725,
                    -0.19826,
                    -0.05448,
                    -0.05031,
                    0.20871,
                    0.03262,
                    -0.125,
                    -0.10119,
                    0.01516,
                    -0.06487,
                    0.12305,
                    0.24777,
                    0.15313,
                    -0.24847,
                    -0.22286,
                    -0.06807,
                    0.24568,
                    -0.09349,
                    0.03696,
                    0.07892,
                    -0.14231,
                    0.14774,
                    -0.19141,
                    0.10772,
                    0.07628,
                    0.20277,
                    0.17814,
                    0.19733,
                    -0.12193,
                    -0.04189,
                    -0.13895,
                    -0.21124,
                    -0.23418,
                    0.16844,
                    0.15685,
                    0.09266,
                    0.15239,
                    -0.18162,
                    0.02722,
                    0.12105,
                    -0.10804,
                    -0.15933,
                    0.08765,
                    -0.20766,
                    -0.16717,
                    0.16803,
                    -0.07909,
                    0.02864,
                    0.23982,
                    0.00708,
                    0.04897,
                    -0.00296,
                    -0.20325,
                    0.13002,
                    -0.15511,
                    0.19439,
                    -0.09562,
                    -0.20533
                  ],
                  [
                    0.05565,
                    -0.09654,
                    -0.15025,
                    -0.15723,
                    -0.08383,
                    0.06964,
                    0.08026,
                    -0.07819,
                    -0.22714,
                    0.04923,
                    -0.23181,
                    0.08016,
                    -0.08254,
                    0.12758,
                    -0.16919,
                    0.17172,
                    -0.21642,
                    0.15838,
                    -0.01696,
                    0.18046,
                    0.1054,
                    0.14769,
                    0.13662,
                    -0.16042,
                    -0.00592,
                    -0.02667,
                    -0.03625,
                    0.13462,
                    0.15088,
                    0.1739,
                    0.11283,
                    -0.10029,
                    0.21251,
                    -0.01385,
                    -0.24963,
                    -0.09573,
                    0.19565,
                    -0.03729,
                    0.02091,
                    0.19994,
                    0.15741,
                    0.00883,
                    0.00393,
                    -0.00175,
                    0.06316,
                    0.1037,
                    0.18731,
                    -0.00881,
                    0.00137,
                    -0.20847,
                    -0.1165,
                    -0.00413,
                    0.16696,
                    -0.04742,
                    -0.08759,
                    0.05646,
                    -0.12884,
                    -0.07239,
                    0.21062,
                    -0.05428
                  ],
                  [
                    -0.15389,
                    0.09194,
                    -0.2394,
                    -0.1674,
                    0.01511,
                    -0.03615,
                    0.08373,
                    -0.1456,
                    0.21601,
                    0.1653,
                    -0.0916,
                    -0.16039,
                    -0.19547,
                    0.06359,
                    -0.14122,
                    0.09502,
                    0.24645,
                    -0.21017,
                    0.0876,
                    -0.0328,
                    -0.15377,
                    0.23222,
                    -0.06576,
                    0.26226,
                    -0.17827,
                    -0.10457,
                    0.18367,
                    -0.23846,
                    0.24433,
                    0.24835,
                    0.17088,
                    0.1919,
                    0.01374,
                    0.21864,
                    0.19401,
                    0.21975,
                    -0.23273,
                    0.09801,
                    -0.1978,
                    0.07616,
                    -0.0708,
                    0.00353,
                    0.23677,
                    -0.263,
                    -0.22406,
                    0.10708,
                    -0.10269,
                    0.14429,
                    0.2174,
                    -0.01163,
                    0.04737,
                    -0.09034,
                    0.26258,
                    -0.0783,
                    -0.15074,
                    0.06495,
                    0.15061,
                    0.00077,
                    -0.10049,
                    -0.02635
                  ],
                  [
                    -0.11427,
                    0.04427,
                    0.10843,
                    -0.09434,
                    -0.18647,
                    -0.09358,
                    -0.07348,
                    -0.0286,
                    -0.12772,
                    -0.04988,
                    -0.24589,
                    0.02598,
                    0.24154,
                    0.21019,
                    -0.04593,
                    0.1004,
                    -0.2501,
                    0.1018,
                    -0.05886,
                    0.00732,
                    -0.02085,
                    0.07304,
                    -0.18905,
                    -0.03572,
                    -0.07069,
                    -0.13803,
                    -0.0335,
                    -0.16628,
                    0.09973,
                    -0.14114,
                    -0.10411,
                    -0.14968,
                    -0.17123,
                    -0.07254,
                    0.22538,
                    -0.18084,
                    0.03665,
                    0.06122,
                    -0.09783,
                    -0.26188,
                    -0.1442,
                    -0.01168,
                    -0.06558,
                    -0.2105,
                    -0.12775,
                    0.17312,
                    -0.07889,
                    0.23554,
                    0.18529,
                    0.16999,
                    -0.20588,
                    0.11415,
                    -0.00273,
                    0.11472,
                    0.16927,
                    -0.08942,
                    0.12146,
                    -0.07204,
                    -0.00718,
                    -0.01017
                  ],
                  [
                    -0.23726,
                    -0.09028,
                    0.11379,
                    0.22684,
                    0.18609,
                    -0.23118,
                    0.15089,
                    0.08701,
                    -0.22207,
                    0.11472,
                    -0.16233,
                    -0.14637,
                    -0.03505,
                    0.22337,
                    0.21352,
                    0.17459,
                    -0.05514,
                    0.2119,
                    0.19074,
                    -0.06689,
                    0.20492,
                    0.11575,
                    -0.25052,
                    -0.03141,
                    -0.14508,
                    -0.08851,
                    -0.15341,
                    -0.24985,
                    0.21313,
                    -0.2246,
                    0.03864,
                    0.01103,
                    -0.22972,
                    0.2474,
                    0.16153,
                    0.03413,
                    -0.19737,
                    -0.16449,
                    -0.23298,
                    0.18824,
                    0.19796,
                    0.22329,
                    0.11435,
                    -0.08395,
                    0.24392,
                    -0.13153,
                    -0.25163,
                    -0.06522,
                    0.09958,
                    0.07776,
                    -0.04704,
                    -0.20689,
                    0.14758,
                    -0.23849,
                    -0.24107,
                    -0.00884,
                    -0.06565,
                    -0.15915,
                    -0.02912,
                    0.05923
                  ],
                  [
                    -0.07303,
                    0.01641,
                    0.21638,
                    -0.07489,
                    0.0096,
                    -0.19423,
                    0.13851,
                    0.00088,
                    0.00538,
                    0.07121,
                    0.0468,
                    0.1504,
                    0.25878,
                    -0.03052,
                    0.06511,
                    0.26306,
                    0.2279,
                    -0.24544,
                    -0.15728,
                    -0.07457,
                    0.09604,
                    -0.20184,
                    0.12064,
                    0.12159,
                    -0.26361,
                    -0.24934,
                    0.1429,
                    -0.08031,
                    0.22581,
                    -0.21681,
                    -0.2239,
                    -0.20178,
                    -0.13032,
                    -0.20942,
                    0.13912,
                    0.01458,
                    -0.05709,
                    -0.20219,
                    -0.1598,
                    0.20134,
                    -0.03663,
                    -0.12503,
                    -0.13041,
                    0.25935,
                    -0.14236,
                    0.19088,
                    0.07058,
                    0.0883,
                    0.06911,
                    0.18346,
                    0.20757,
                    0.20242,
                    -0.25679,
                    0.21121,
                    0.20081,
                    -0.17108,
                    0.17694,
                    -0.17794,
                    -0.07528,
                    -0.26412
                  ],
                  [
                    -0.04715,
                    -0.099,
                    -0.1597,
                    0.10805,
                    0.11048,
                    -0.17367,
                    0.12143,
                    -0.12838,
                    0.03565,
                    0.02795,
                    0.07209,
                    0.24513,
                    0.0979,
                    0.03479,
                    -0.22965,
                    0.25988,
                    -0.21992,
                    0.01768,
                    0.0062,
                    0.23089,
                    -0.09137,
                    -0.09822,
                    -0.23044,
                    0.1017,
                    -0.11841,
                    0.16009,
                    0.13294,
                    0.24251,
                    0.0501,
                    -0.07749,
                    0.21616,
                    -0.08393,
                    0.00972,
                    0.10622,
                    0.08544,
                    -0.25018,
                    -0.05426,
                    -0.02093,
                    0.04266,
                    0.06284,
                    0.11098,
                    -0.09189,
                    0.12268,
                    -0.14546,
                    0.10277,
                    0.15001,
                    -0.06655,
                    -0.02657,
                    0.12983,
                    0.10535,
                    0.00872,
                    0.09447,
                    0.00693,
                    0.00884,
                    0.16652,
                    0.10297,
                    -0.18504,
                    -0.16859,
                    0.09191,
                    -0.16171
                  ],
                  [
                    -0.03651,
                    0.03601,
                    -0.08466,
                    0.25838,
                    0.20515,
                    -0.15159,
                    -0.14402,
                    -0.14128,
                    0.06299,
                    -0.22146,
                    0.00111,
                    0.15204,
                    -0.04712,
                    -0.19919,
                    0.23584,
                    -0.08381,
                    0.23818,
                    -0.19666,
                    -0.13047,
                    0.17726,
                    0.24692,
                    0.00423,
                    0.11111,
                    -0.03548,
                    -0.15651,
                    0.15804,
                    -0.18492,
                    0.22412,
                    -0.01451,
                    -0.22618,
                    0.02096,
                    -0.12224,
                    0.22606,
                    0.15739,
                    -0.00902,
                    0.09925,
                    -0.0732,
                    0.02558,
                    0.13657,
                    -0.12731,
                    -0.15651,
                    -0.15077,
                    0.11031,
                    -0.16572,
                    0.05739,
                    0.08943,
                    0.09302,
                    0.00328,
                    -0.03858,
                    -0.08,
                    0.23058,
                    0.23867,
                    -0.14774,
                    -0.03737,
                    0.01755,
                    -0.06022,
                    0.0246,
                    -0.0468,
                    -0.26402,
                    0.05671
                  ],
                  [
                    -0.04622,
                    0.06747,
                    -0.16537,
                    -0.04555,
                    0.10619,
                    0.21027,
                    0.12188,
                    0.21188,
                    -0.23206,
                    -0.04062,
                    0.18277,
                    0.10452,
                    -0.13506,
                    0.21248,
                    -0.16371,
                    0.04072,
                    0.0457,
                    0.10744,
                    -0.09695,
                    0.04193,
                    0.16255,
                    -0.18466,
                    0.10471,
                    -0.03659,
                    -0.11723,
                    -0.16759,
                    -0.12816,
                    0.09478,
                    -0.1601,
                    0.11733,
                    -0.1302,
                    -0.20144,
                    0.00182,
                    0.02517,
                    0.17785,
                    -0.168,
                    0.1981,
                    0.23392,
                    0.22278,
                    0.23903,
                    -0.19762,
                    0.18062,
                    0.11231,
                    -0.11586,
                    -0.07294,
                    0.1918,
                    -0.24623,
                    -0.08137,
                    -0.11945,
                    0.25357,
                    -0.09474,
                    -0.19678,
                    0.0497,
                    0.23265,
                    -0.07957,
                    -0.03121,
                    -0.0589,
                    0.00987,
                    0.00089,
                    0.19093
                  ],
                  [
                    -0.16319,
                    -0.07976,
                    -0.01008,
                    -0.23431,
                    -0.10836,
                    -0.19704,
                    0.0414,
                    -0.19518,
                    -0.08096,
                    0.15349,
                    0.0095,
                    -0.09575,
                    -0.00277,
                    -0.026,
                    -0.12383,
                    0.0049,
                    -0.03092,
                    -0.22547,
                    -0.1101,
                    0.06817,
                    0.2235,
                    0.01617,
                    0.13305,
                    -0.12636,
                    -0.18003,
                    -0.16138,
                    -0.22242,
                    -0.14876,
                    0.06312,
                    -0.17415,
                    0.16859,
                    0.12348,
                    -0.23311,
                    0.23147,
                    0.14966,
                    -0.16405,
                    0.13942,
                    -0.09832,
                    0.02252,
                    0.16419,
                    -0.17654,
                    -0.24156,
                    0.14777,
                    0.24162,
                    -0.15235,
                    -0.23739,
                    0.21376,
                    0.19464,
                    0.0479,
                    0.20784,
                    0.21068,
                    0.20283,
                    0.09589,
                    -0.06892,
                    0.23681,
                    -0.06306,
                    0.15992,
                    -0.06567,
                    0.10515,
                    0.07551
                  ],
                  [
                    0.21176,
                    0.19682,
                    -0.22776,
                    -0.06025,
                    -0.21576,
                    0.13005,
                    0.00109,
                    0.24971,
                    0.03565,
                    -0.17715,
                    -0.09268,
                    -0.22318,
                    -0.14067,
                    0.19878,
                    -0.02312,
                    -0.12203,
                    0.21642,
                    -0.01096,
                    0.16752,
                    -0.16445,
                    -0.26184,
                    0.18399,
                    0.10606,
                    -0.08287,
                    -0.18167,
                    0.15652,
                    -0.23652,
                    -0.08578,
                    0.02103,
                    -0.1668,
                    -0.24536,
                    -0.19065,
                    -0.05034,
                    0.18128,
                    0.03481,
                    -0.04788,
                    -0.01854,
                    0.09024,
                    -0.10459,
                    -0.21623,
                    0.12035,
                    0.24427,
                    0.00473,
                    -0.0524,
                    0.14586,
                    0.1856,
                    -0.04037,
                    0.13968,
                    0.25834,
                    0.20192,
                    -0.24647,
                    -0.18441,
                    -0.10409,
                    -0.18015,
                    -0.21603,
                    0.08817,
                    0.08128,
                    -0.07793,
                    -0.06604,
                    0.11519
                  ],
                  [
                    0.24479,
                    -0.07213,
                    0.01154,
                    0.03908,
                    0.22965,
                    -0.16792,
                    0.1432,
                    -0.09965,
                    0.09493,
                    0.25026,
                    -0.01316,
                    -0.21959,
                    -0.01759,
                    -0.21991,
                    0.25941,
                    -0.06921,
                    -0.10877,
                    -0.23202,
                    -0.21712,
                    0.22278,
                    0.10209,
                    0.02734,
                    -0.22041,
                    -0.04035,
                    -0.04113,
                    0.14958,
                    0.05624,
                    0.15856,
                    -0.00422,
                    -0.15462,
                    0.00848,
                    -0.03353,
                    0.18727,
                    -0.00156,
                    -0.25843,
                    0.23521,
                    0.02753,
                    0.10418,
                    0.06187,
                    -0.24115,
                    -0.14268,
                    -0.03786,
                    0.19189,
                    -0.18939,
                    0.24266,
                    -0.1368,
                    -0.05669,
                    0.0644,
                    -0.01558,
                    -0.03236,
                    0.04744,
                    0.03112,
                    -0.15598,
                    -0.18075,
                    0.01644,
                    -0.06591,
                    0.09866,
                    0.03988,
                    0.0419,
                    -0.0524
                  ],
                  [
                    0.18381,
                    -0.18206,
                    0.21971,
                    0.03435,
                    0.05608,
                    0.01872,
                    0.08847,
                    -0.13416,
                    -0.12475,
                    0.17781,
                    -0.22727,
                    0.10849,
                    0.2571,
                    -0.08705,
                    0.04281,
                    0.07401,
                    -0.21399,
                    -0.0023,
                    0.1483,
                    -0.01587,
                    -0.19946,
                    0.14185,
                    -0.13894,
                    -0.09051,
                    -0.17404,
                    0.11068,
                    -0.16669,
                    0.01879,
                    -0.18004,
                    0.04075,
                    0.23315,
                    0.0045,
                    0.07517,
                    0.02719,
                    -0.14306,
                    0.19223,
                    -0.18236,
                    -0.07697,
                    -0.03227,
                    0.10882,
                    -0.22648,
                    0.17777,
                    -0.12074,
                    0.24842,
                    -0.21627,
                    0.18869,
                    -0.10846,
                    -0.23336,
                    0.1811,
                    0.22027,
                    -0.13898,
                    0.0774,
                    -0.26358,
                    -0.22455,
                    0.0965,
                    0.08232,
                    -0.22476,
                    0.00399,
                    -0.1001,
                    -0.11086
                  ],
                  [
                    0.0333,
                    0.1293,
                    -0.11789,
                    -0.00219,
                    0.02666,
                    0.25179,
                    0.09457,
                    0.01785,
                    0.09054,
                    0.10087,
                    0.16643,
                    -0.1594,
                    -0.22963,
                    0.04371,
                    -0.22753,
                    -0.07092,
                    0.02756,
                    -0.03445,
                    -0.0954,
                    -0.23127,
                    0.06578,
                    -0.01912,
                    0.01378,
                    0.11949,
                    0.03871,
                    0.06855,
                    0.06676,
                    -0.07577,
                    -0.14409,
                    -0.04129,
                    -0.03907,
                    -0.03223,
                    -0.23013,
                    -0.0438,
                    0.2351,
                    0.17431,
                    0.08231,
                    0.24958,
                    0.13901,
                    0.0997,
                    -0.04711,
                    0.09067,
                    0.19638,
                    -0.20976,
                    -0.02423,
                    0.20284,
                    0.23967,
                    -0.05943,
                    0.11565,
                    0.10254,
                    0.05535,
                    0.01832,
                    0.00586,
                    -0.0976,
                    0.02762,
                    -0.03318,
                    -0.08756,
                    -0.05706,
                    0.18662,
                    0.07942
                  ],
                  [
                    0.21736,
                    -0.24795,
                    0.24487,
                    -0.21185,
                    -0.20743,
                    -0.21648,
                    -0.22884,
                    -0.03749,
                    0.14447,
                    0.09313,
                    0.14907,
                    -0.16354,
                    -0.01939,
                    0.10213,
                    0.09769,
                    -0.04589,
                    0.23946,
                    -0.05757,
                    -0.15936,
                    -0.2329,
                    0.18974,
                    -0.099,
                    -0.22135,
                    0.13461,
                    0.13288,
                    -0.14145,
                    -0.21092,
                    -0.04059,
                    -0.21968,
                    -0.23805,
                    -0.12346,
                    -0.00375,
                    -0.05271,
                    0.21159,
                    -0.17242,
                    0.26043,
                    0.14408,
                    -0.17651,
                    -0.06503,
                    -0.07179,
                    -0.19963,
                    0.21581,
                    0.11926,
                    0.10446,
                    -0.11026,
                    -0.07203,
                    0.06967,
                    -0.00235,
                    -0.04124,
                    -0.16802,
                    0.24514,
                    0.24469,
                    -0.08887,
                    -0.21762,
                    0.04405,
                    -0.13328,
                    0.01623,
                    0.00757,
                    -0.02352,
                    0.07779
                  ]
                ]
              },
              {
                "bias": [
                  0.25177,
                  -0.01677,
                  0.0089
                ],
                "weights": [
                  [
                    0.03418,
                    0.09896,
                    -0.08293,
                    0.18485,
                    -0.28159,
                    0.28589,
                    0.23104,
                    -0.20692,
                    0.24891,
                    -0.03372,
                    -0.0861,
                    0.12575,
                    -0.26076,
                    -0.26094,
                    -0.1396,
                    0.0769,
                    0.11469,
                    -0.34231,
                    -0.41367,
                    0.35517,
                    0.20927,
                    0.36092,
                    0.23876,
                    -0.05916,
                    -0.41026,
                    -0.4108,
                    -0.03842,
                    -0.21603,
                    -0.27567,
                    0.42843
                  ],
                  [
                    0.00548,
                    0.20837,
                    0.11612,
                    -0.1136,
                    0.01285,
                    0.03136,
                    0.25316,
                    0.14069,
                    0.28089,
                    -0.00855,
                    0.06183,
                    -0.34107,
                    -0.05905,
                    0.24849,
                    -0.13225,
                    -0.33202,
                    -0.35666,
                    -0.19697,
                    -0.24304,
                    0.20875,
                    0.06127,
                    0.2076,
                    0.00935,
                    -0.01897,
                    0.30177,
                    -0.29892,
                    0.13859,
                    -0.10893,
                    -0.09013,
                    -0.38172
                  ],
                  [
                    -0.13251,
                    0.07925,
                    0.37614,
                    0.10582,
                    -0.13285,
                    0.03022,
                    0.34831,
                    0.23345,
                    0.14671,
                    0.2764,
                    0.02058,
                    0.15438,
                    -0.38418,
                    -0.22898,
                    0.23477,
                    -0.34036,
                    0.01581,
                    -0.09424,
                    -0.11048,
                    -0.17185,
                    -0.30679,
                    -0.02749,
                    -0.20341,
                    0.02814,
                    0.29333,
                    0.26108,
                    0.01515,
                    -0.40936,
                    0.03379,
                    -0.10166
                  ]
                ]
              }
            ],
            "rollback": false,
            "shared": false,
            "type": {
              "items": {
                "fields": [
                  {
                    "name": "weights",
                    "type": {
                      "items": {
                        "items": "double",
                        "type": "array"
                      },
                      "type": "array"
                    }
                  },
                  {
                    "name": "bias",
                    "type": {
                      "items": "double",
                      "type": "array"
                    }
                  }
                ],
                "name": "Layer",
                "type": "record"
              },
              "type": "array"
            }
          },
          "validations": {
            "init": [
              {
                "code": "kfold",
                "data": {
                  "average": {
                    "Accuracy": 0.17346,
                    "Confusion matrix": {
                      "labels": [
                        "AD",
                        "CN",
                        "Other"
                      ],
                      "values": [
                        [
                          0.0,
                          274.0,
                          0.0
                        ],
                        [
                          0.0,
                          298.0,
                          0.0
                        ],
                        [
                          859.0,
                          287.0,
                          0.0
                        ]
                      ]
                    },
                    "Weighted F1-score": 0.08935,
                    "Weighted false positive rate": 0.1634,
                    "Weighted precision": 0.06018,
                    "Weighted recall": 0.17346,
                    "type": "PolynomialClassificationScore"
                  },
                  "folds": {
                    "0": {
                      "Accuracy": 0.34692,
                      "Confusion matrix": {
                        "labels": [
                          "AD",
                          "CN",
                          "Other"
                        ],
                        "values": [
                          [
                            0.0,
                            274.0,
                            0.0
                          ],
                          [
                            0.0,
                            298.0,
                            0.0
                          ],
                          [
                            0.0,
                            287.0,
                            0.0
                          ]
                        ]
                      },
                      "Weighted F1-score": 0.1787,
                      "Weighted false positive rate": 0.34692,
                      "Weighted precision": 0.12035,
                      "Weighted recall": 0.34692,
                      "type": "PolynomialClassificationScore"
                    },
                    "1": {
                      "Accuracy": 0.0,
                      "Confusion matrix": {
                        "labels": [
                          "AD",
                          "CN",
                          "Other"
                        ],
                        "values": [
                          [
                            0.0,
                            0.0,
                            0.0
                          ],
                          [
                            0.0,
                            0.0,
                            0.0
                          ],
                          [
                            0.0,
                            0.0,
                            0.0
                          ]
                        ]
                      },
                      "Weighted F1-score": 0.0,
                      "Weighted false positive rate": null,
                      "Weighted precision": 0.0,
                      "Weighted recall": 0.0,
                      "type": "PolynomialClassificationScore"
                    }
                  },
                  "type": "KFoldCrossValidationScore"
                },
                "node": "local",
                "validationSpec": {
                  "code": "kfold",
                  "parameters": [
                    {
                      "code": "k",
                      "value": "2"
                    }
                  ]
                }
              }
            ],
            "type": {
              "items": "Record",
              "type": "array"
            }
          }
        },
        "fcns": {
          "C": {
            "do": [
              {
                "a.map": [
                  "categories",
                  {
                    "do": [
                      {
                        "else": [
                          0.0
                        ],
                        "if": {
                          "==": [
                            "cat",
                            "x"
                          ]
                        },
                        "then": [
                          1.0
                        ]
                      }
                    ],
                    "params": [
                      {
                        "cat": "string"
                      }
                    ],
                    "ret": "double"
                  }
                ]
              }
            ],
            "params": [
              {
                "x": "string"
              },
              {
                "categories": {
                  "items": "string",
                  "type": "array"
                }
              }
            ],
            "ret": {
              "items": "double",
              "type": "array"
            }
          },
          "arr": {
            "do": [
              {
                "new": [
                  "x"
                ],
                "type": {
                  "items": "double",
                  "type": "array"
                }
              }
            ],
            "params": [
              {
                "x": "double"
              }
            ],
            "ret": {
              "items": "double",
              "type": "array"
            }
          },
          "standardize": {
            "do": [
              {
                "/": [
                  {
                    "-": [
                      "x",
                      "mu"
                    ]
                  },
                  "sigma"
                ]
              }
            ],
            "params": [
              {
                "x": "double"
              },
              {
                "mu": "double"
              },
              {
                "sigma": "double"
              }
            ],
            "ret": "double"
          }
        },
        "input": {
          "fields": [
            {
              "name": "lefthippocampus",
              "type": "double"
            }
          ],
          "name": "Input",
          "type": "record"
        },
        "metadata": {
          "X": "{\"lefthippocampus\":{\"count\":1718.0,\"mean\":2.9127631548,\"std\":0.259451083,\"min\":1.3047,\"25%\":2.8672,\"50%\":2.8672,\"75%\":2.88555,\"max\":4.4519}}",
          "score": "0.6670547148",
          "y": "{\"count\":1718,\"unique\":3,\"top\":\"Other\",\"freq\":1146}"
        },
        "method": "map",
        "name": "neural_network",
        "output": "string"
      },
      "jobId": "*",
      "node": "local",
      "timestamp": 0.0,
      "type": "application/pfa+json"
    }
  ],
  "jobId": "*",
  "node": "local",
  "query": {
    "algorithms": [
      {
        "code": "sgdNeuralNetwork",
        "parameters": [
          {
            "code": "hidden_layer_sizes",
            "value": "60,30"
          },
          {
            "code": "activation",
            "value": "tanh"
          }
        ]
      }
    ],
    "covariables": [
      {
        "code": "lefthippocampus"
      }
    ],
    "grouping": [],
    "targetTable": "cde_features_mixed",
    "testingDatasets": [],
    "trainingDatasets": [],
    "user": {
      "code": "test1"
    },
    "validationDatasets": [],
    "validations": [
      {
        "code": "kfold",
        "parameters": [
          {
            "code": "k",
            "value": "2"
          }
        ]
      }
    ],
    "variables": [
      {
        "code": "alzheimerbroadcategory"
      }
    ]
  },
  "timestamp": 0.0,
  "type": "application/vnd.hbp.mip.experiment.pfa+json"
}
