{
  "data": [
    {
      "algorithm": "python-sgd-neural-network",
      "data": {
        "action": [
          {
            "let": {
              "x": {
                "a.flatten": [
                  {
                    "new": [
                      {
                        "u.arr": [
                          {
                            "/": [
                              {
                                "-": [
                                  {
                                    "cast.double": [
                                      {
                                        "attr": "input",
                                        "path": [
                                          {
                                            "string": "lefthippocampus"
                                          }
                                        ]
                                      }
                                    ]
                                  },
                                  0.0
                                ]
                              },
                              1.0
                            ]
                          }
                        ]
                      }
                    ],
                    "type": {
                      "items": {
                        "items": "double",
                        "type": "array"
                      },
                      "type": "array"
                    }
                  }
                ]
              }
            }
          },
          {
            "let": {
              "activations": {
                "model.neural.simpleLayers": [
                  "x",
                  {
                    "cell": "neuralnet"
                  },
                  {
                    "do": [
                      {
                        "m.link.relu": [
                          "x"
                        ]
                      }
                    ],
                    "params": [
                      {
                        "x": "double"
                      }
                    ],
                    "ret": "double"
                  }
                ]
              }
            }
          },
          {
            "cell": "classes",
            "path": [
              {
                "a.argmax": [
                  "activations"
                ]
              }
            ]
          }
        ],
        "cells": {
          "classes": {
            "init": [
              "AD",
              "CN",
              "Other"
            ],
            "rollback": false,
            "shared": false,
            "type": {
              "items": "string",
              "type": "array"
            }
          },
          "neuralnet": {
            "init": [
              {
                "bias": [
                  0.18214,
                  0.25115,
                  0.11341,
                  -0.251,
                  -0.08017,
                  0.13881,
                  0.08382,
                  0.27318,
                  0.02567,
                  -0.2226,
                  0.092,
                  0.29244,
                  0.16226,
                  -0.15984,
                  -0.09645,
                  0.11236,
                  -0.27526,
                  0.20185,
                  0.26669,
                  -0.25399,
                  -0.01014,
                  0.22892,
                  -0.27313,
                  -0.04502,
                  0.07009,
                  -0.32047,
                  0.09879,
                  -0.2078,
                  -0.15528,
                  -0.3021,
                  0.2308,
                  0.03785,
                  0.05145,
                  -0.29932,
                  -0.1923,
                  -0.11318,
                  0.18583,
                  0.24938,
                  0.17956,
                  -0.2747,
                  -0.14637,
                  0.07025,
                  -0.02486,
                  -0.22863,
                  -0.30337,
                  -0.29142,
                  -0.25111,
                  0.07738,
                  -0.12399,
                  0.2601,
                  -0.11616,
                  0.17976,
                  -0.15548,
                  -0.1296,
                  0.19052,
                  -0.10217,
                  -0.22154,
                  -0.18919,
                  -0.21359,
                  -0.20904
                ],
                "weights": [
                  [
                    -0.26236
                  ],
                  [
                    -0.00524
                  ],
                  [
                    0.15348
                  ],
                  [
                    0.03758
                  ],
                  [
                    0.24857
                  ],
                  [
                    -0.19099
                  ],
                  [
                    -0.0619
                  ],
                  [
                    -0.26243
                  ],
                  [
                    -0.24397
                  ],
                  [
                    -0.22032
                  ],
                  [
                    0.10783
                  ],
                  [
                    -0.09633
                  ],
                  [
                    -0.22631
                  ],
                  [
                    0.24009
                  ],
                  [
                    -0.23176
                  ],
                  [
                    0.20563
                  ],
                  [
                    0.10982
                  ],
                  [
                    0.23692
                  ],
                  [
                    0.1664
                  ],
                  [
                    -0.1042
                  ],
                  [
                    0.27324
                  ],
                  [
                    0.10057
                  ],
                  [
                    0.06649
                  ],
                  [
                    -0.25377
                  ],
                  [
                    0.16641
                  ],
                  [
                    -0.06476
                  ],
                  [
                    -0.21174
                  ],
                  [
                    -0.01689
                  ],
                  [
                    -0.02431
                  ],
                  [
                    0.30046
                  ],
                  [
                    -0.05686
                  ],
                  [
                    -0.25293
                  ],
                  [
                    -0.14429
                  ],
                  [
                    0.08297
                  ],
                  [
                    -0.07001
                  ],
                  [
                    0.22435
                  ],
                  [
                    -0.11746
                  ],
                  [
                    -0.29046
                  ],
                  [
                    -0.2426
                  ],
                  [
                    0.24556
                  ],
                  [
                    0.03411
                  ],
                  [
                    0.07009
                  ],
                  [
                    -0.17672
                  ],
                  [
                    -0.23435
                  ],
                  [
                    0.09558
                  ],
                  [
                    0.0498
                  ],
                  [
                    -0.09268
                  ],
                  [
                    0.08639
                  ],
                  [
                    0.14986
                  ],
                  [
                    0.28758
                  ],
                  [
                    0.29494
                  ],
                  [
                    0.272
                  ],
                  [
                    0.01899
                  ],
                  [
                    -0.18766
                  ],
                  [
                    0.06013
                  ],
                  [
                    -0.10058
                  ],
                  [
                    0.2542
                  ],
                  [
                    0.1308
                  ],
                  [
                    -0.0134
                  ],
                  [
                    -0.25106
                  ]
                ]
              },
              {
                "bias": [
                  -0.09973,
                  0.03212,
                  0.22812,
                  -0.22355,
                  0.20108,
                  -0.00431,
                  0.20016,
                  0.22784,
                  0.23904,
                  0.17148,
                  0.24566,
                  -0.03445,
                  -0.04689,
                  0.04522,
                  0.10239,
                  -0.04745,
                  -0.01997,
                  -0.18033,
                  0.00884,
                  0.13797,
                  -0.21818,
                  -0.02672,
                  0.17282,
                  0.16947,
                  -0.08508,
                  0.20326,
                  0.03713,
                  0.17446,
                  -0.25657,
                  0.22982
                ],
                "weights": [
                  [
                    0.17387,
                    0.11149,
                    0.06474,
                    -0.12557,
                    -0.18457,
                    0.16526,
                    0.04586,
                    0.06699,
                    -0.13981,
                    0.17098,
                    0.15854,
                    0.19142,
                    -0.09992,
                    0.23148,
                    0.01186,
                    -0.1273,
                    0.02904,
                    -0.01381,
                    -0.17831,
                    0.04477,
                    0.13416,
                    0.10027,
                    0.07338,
                    0.09373,
                    -0.10079,
                    -0.06922,
                    -0.05122,
                    -0.10527,
                    -0.01117,
                    0.19021,
                    -0.15348,
                    0.23792,
                    0.09923,
                    0.16104,
                    -0.19875,
                    -0.21722,
                    -0.06893,
                    0.11956,
                    0.17152,
                    0.01993,
                    0.19565,
                    -0.17686,
                    -0.05951,
                    0.23559,
                    0.07825,
                    0.15453,
                    -0.11996,
                    -0.11772,
                    0.21933,
                    0.19187,
                    -0.11441,
                    -0.2015,
                    -0.09092,
                    -0.23227,
                    -0.17379,
                    -0.05353,
                    -0.08689,
                    0.11594,
                    -0.0122,
                    -0.1306
                  ],
                  [
                    0.10603,
                    0.14238,
                    0.21417,
                    0.09263,
                    0.23876,
                    0.09384,
                    0.03788,
                    0.19777,
                    -0.00413,
                    -0.03394,
                    -0.01251,
                    0.16299,
                    -0.21762,
                    -0.16077,
                    -0.19258,
                    0.11965,
                    -0.24106,
                    0.26274,
                    -0.00374,
                    -0.09738,
                    -0.07882,
                    -0.1507,
                    -0.14651,
                    -0.14309,
                    0.10179,
                    0.07501,
                    0.09948,
                    -0.14369,
                    0.00834,
                    0.17389,
                    0.04526,
                    -0.11307,
                    0.04975,
                    -0.22457,
                    -0.07028,
                    -0.01096,
                    0.14062,
                    -0.02974,
                    0.05028,
                    0.02166,
                    -0.0525,
                    -0.18654,
                    -0.24089,
                    0.19717,
                    0.16252,
                    0.112,
                    -0.2603,
                    0.08225,
                    0.09187,
                    -0.05926,
                    0.14188,
                    0.08902,
                    -0.2423,
                    -0.08599,
                    0.02953,
                    -0.1655,
                    -0.10424,
                    0.05058,
                    -0.01828,
                    -0.08954
                  ],
                  [
                    0.14576,
                    0.13108,
                    0.1824,
                    -0.032,
                    0.24911,
                    -0.18586,
                    0.26163,
                    -0.16755,
                    0.21585,
                    0.11006,
                    0.01335,
                    0.03555,
                    0.09609,
                    -0.01897,
                    0.01868,
                    0.21367,
                    -0.17099,
                    0.11645,
                    0.14626,
                    -0.13892,
                    0.18285,
                    0.12946,
                    -0.22778,
                    -0.21161,
                    -0.07395,
                    -0.24824,
                    -0.08819,
                    -0.03816,
                    -0.05724,
                    0.00738,
                    -0.21944,
                    -0.16162,
                    -0.00834,
                    -0.10167,
                    -0.24913,
                    0.20962,
                    -0.21639,
                    -0.07029,
                    0.16395,
                    0.24817,
                    0.21138,
                    0.20777,
                    -0.20775,
                    -0.22663,
                    -0.03749,
                    -0.05617,
                    -0.23757,
                    -0.23853,
                    0.12741,
                    -0.04751,
                    0.04402,
                    -0.18496,
                    0.16607,
                    -0.0123,
                    -0.17292,
                    -0.17672,
                    -0.04966,
                    0.09033,
                    -0.08155,
                    0.23418
                  ],
                  [
                    -0.00458,
                    -0.13676,
                    0.12438,
                    -0.03189,
                    -0.05547,
                    0.24675,
                    -0.07339,
                    -0.22799,
                    -0.03716,
                    -0.05262,
                    -0.22803,
                    0.07094,
                    0.22153,
                    0.08687,
                    0.02244,
                    0.17089,
                    0.05455,
                    0.09778,
                    -0.02233,
                    0.19703,
                    -0.14677,
                    -0.1327,
                    0.03007,
                    0.03102,
                    0.132,
                    -0.17433,
                    -0.00771,
                    0.1489,
                    0.01341,
                    -0.20564,
                    -0.23008,
                    0.17808,
                    0.07339,
                    -0.09665,
                    0.00928,
                    -0.04255,
                    0.09509,
                    -0.25439,
                    0.14186,
                    -0.22729,
                    0.08299,
                    -0.23271,
                    0.12969,
                    0.12969,
                    0.02301,
                    -0.15183,
                    -0.03643,
                    0.22748,
                    0.08951,
                    0.01274,
                    0.11057,
                    0.12577,
                    0.08088,
                    -0.17651,
                    0.22125,
                    0.11607,
                    -0.22074,
                    0.15067,
                    -0.13652,
                    -0.22417
                  ],
                  [
                    0.21657,
                    -0.24792,
                    0.02273,
                    -0.22585,
                    0.11551,
                    0.1617,
                    -0.04803,
                    -0.063,
                    0.02594,
                    0.07343,
                    0.20157,
                    -0.01906,
                    0.171,
                    -0.2153,
                    -0.20591,
                    -0.16459,
                    -0.02464,
                    -0.01663,
                    0.08686,
                    -0.12658,
                    -0.14881,
                    0.1933,
                    -0.11046,
                    0.04491,
                    0.08447,
                    0.00711,
                    -0.03699,
                    -0.21887,
                    -0.0004,
                    0.178,
                    0.1267,
                    -0.0897,
                    -0.23751,
                    -0.20398,
                    -0.09054,
                    -0.24242,
                    0.16195,
                    0.01033,
                    0.12816,
                    0.17247,
                    0.00504,
                    -0.08162,
                    0.01587,
                    0.13568,
                    -0.15832,
                    0.05357,
                    -0.21743,
                    -0.12979,
                    0.17189,
                    0.08668,
                    -0.08318,
                    0.10898,
                    0.22257,
                    0.09545,
                    -0.07525,
                    -0.08868,
                    0.20573,
                    -0.09889,
                    0.02191,
                    0.04353
                  ],
                  [
                    0.21195,
                    -0.07366,
                    -0.14212,
                    -0.13613,
                    0.18984,
                    0.2204,
                    0.11007,
                    -0.14993,
                    -0.08265,
                    -0.13345,
                    -0.16781,
                    -0.24819,
                    0.0367,
                    -0.18674,
                    -0.13593,
                    0.06605,
                    0.08028,
                    0.13775,
                    0.12079,
                    0.16672,
                    -0.05699,
                    0.11381,
                    -0.21554,
                    -0.05103,
                    0.07433,
                    -0.05769,
                    -0.19373,
                    -0.06648,
                    -0.12606,
                    -0.16837,
                    -0.18897,
                    0.08945,
                    -0.05253,
                    0.06873,
                    0.21938,
                    0.09198,
                    0.05843,
                    -0.07907,
                    0.14881,
                    0.24267,
                    -0.09596,
                    -0.06713,
                    0.04683,
                    -0.07135,
                    0.2156,
                    -0.17977,
                    0.04559,
                    0.06648,
                    0.14774,
                    -0.08249,
                    0.08221,
                    -0.24501,
                    -0.1485,
                    -0.15513,
                    0.12143,
                    0.20643,
                    -0.22526,
                    0.12813,
                    -0.16294,
                    0.07218
                  ],
                  [
                    0.12107,
                    -0.19148,
                    0.02863,
                    0.14936,
                    -0.21579,
                    0.11345,
                    -0.17712,
                    0.05209,
                    0.12859,
                    0.0897,
                    -0.201,
                    0.09266,
                    0.16063,
                    0.0176,
                    -0.13105,
                    0.05433,
                    0.14745,
                    0.12754,
                    -0.24665,
                    -0.18044,
                    -0.06388,
                    -0.03909,
                    0.00097,
                    0.0703,
                    0.06387,
                    -0.24057,
                    -0.10716,
                    0.14489,
                    0.01612,
                    0.17503,
                    0.02094,
                    -0.14937,
                    0.03224,
                    0.23604,
                    -0.04354,
                    0.16854,
                    -0.05807,
                    0.0458,
                    -0.05561,
                    0.19972,
                    -0.06156,
                    0.04623,
                    -0.21772,
                    -0.19529,
                    -0.09865,
                    0.05962,
                    0.03711,
                    -0.1325,
                    -0.09127,
                    -0.17013,
                    0.04811,
                    -0.07187,
                    0.12847,
                    -0.17319,
                    -0.00146,
                    0.03871,
                    0.15719,
                    0.05481,
                    -0.09082,
                    -0.10701
                  ],
                  [
                    -0.15761,
                    0.22288,
                    -0.23423,
                    0.06672,
                    -0.14048,
                    0.14743,
                    0.22366,
                    0.17714,
                    -0.22299,
                    -0.03133,
                    0.23302,
                    -0.23098,
                    0.05332,
                    -0.08779,
                    0.0968,
                    0.219,
                    -0.15154,
                    -0.11703,
                    0.07155,
                    0.06193,
                    0.061,
                    0.26066,
                    -0.16391,
                    0.0317,
                    0.24235,
                    0.16864,
                    0.09194,
                    -0.13866,
                    0.02659,
                    0.01522,
                    0.00028,
                    -0.02154,
                    -0.22007,
                    0.17687,
                    -0.04796,
                    -0.15225,
                    0.16947,
                    -0.2359,
                    0.04924,
                    0.01803,
                    -0.16596,
                    0.00259,
                    0.03356,
                    0.16982,
                    0.13296,
                    0.07797,
                    0.18821,
                    -0.06293,
                    0.0819,
                    -0.15675,
                    0.09882,
                    -0.11816,
                    -0.13079,
                    -0.21302,
                    -0.20732,
                    0.23026,
                    -0.02412,
                    -0.20969,
                    0.14295,
                    0.08121
                  ],
                  [
                    0.17001,
                    0.07625,
                    -0.01234,
                    -0.00723,
                    -0.23372,
                    -0.03355,
                    0.08944,
                    -0.10888,
                    -0.15031,
                    0.10557,
                    -0.06292,
                    -0.03531,
                    0.01864,
                    0.10419,
                    0.01089,
                    0.16748,
                    -0.04737,
                    0.20875,
                    -0.02537,
                    -0.12391,
                    -0.16458,
                    -0.06482,
                    0.18659,
                    0.05063,
                    0.04424,
                    0.21989,
                    -0.20114,
                    0.20827,
                    -0.04578,
                    -0.15796,
                    -0.22955,
                    -0.01241,
                    0.04168,
                    -0.10061,
                    0.06221,
                    -0.15179,
                    0.1514,
                    0.17359,
                    0.12411,
                    -0.13911,
                    0.02224,
                    0.02015,
                    0.17911,
                    0.15308,
                    -0.22564,
                    -0.21609,
                    0.14213,
                    -0.00249,
                    -0.10666,
                    0.13079,
                    -0.21268,
                    -0.00142,
                    -0.00713,
                    -0.04639,
                    0.16618,
                    0.09046,
                    0.10825,
                    -0.05581,
                    -0.15862,
                    0.10954
                  ],
                  [
                    0.03764,
                    0.11161,
                    -0.03084,
                    0.14783,
                    -0.01079,
                    0.18338,
                    -0.0296,
                    -0.05732,
                    -0.06386,
                    -0.03525,
                    0.09798,
                    0.18478,
                    0.12973,
                    0.08602,
                    -0.05006,
                    0.23564,
                    -0.01077,
                    0.22307,
                    0.22665,
                    0.0906,
                    -0.10678,
                    -0.06064,
                    0.09054,
                    0.00278,
                    0.24269,
                    0.2517,
                    0.13641,
                    -0.10531,
                    0.20365,
                    -0.19052,
                    0.0579,
                    0.03,
                    0.12618,
                    -0.19315,
                    -0.11091,
                    -0.06285,
                    -0.17215,
                    0.02472,
                    0.00634,
                    0.18519,
                    -0.02612,
                    0.09846,
                    -0.15693,
                    0.17979,
                    0.15317,
                    0.25932,
                    -0.01428,
                    -0.10522,
                    -0.17626,
                    -0.23228,
                    0.12632,
                    0.18274,
                    -0.16487,
                    -0.14145,
                    0.2361,
                    -0.12249,
                    0.00517,
                    -0.24559,
                    0.01926,
                    -0.18168
                  ],
                  [
                    -0.24293,
                    0.20055,
                    0.0948,
                    0.18454,
                    -0.18789,
                    0.21161,
                    -0.24016,
                    -0.08345,
                    0.0242,
                    -0.02235,
                    -0.03842,
                    0.01173,
                    -0.15852,
                    0.21562,
                    -0.00374,
                    -0.07946,
                    -0.20118,
                    -0.04023,
                    0.07465,
                    -0.25067,
                    0.21543,
                    0.04383,
                    -0.20519,
                    0.1842,
                    0.04716,
                    -0.11649,
                    -0.26332,
                    0.02287,
                    -0.2351,
                    0.12089,
                    0.05954,
                    0.22829,
                    0.17938,
                    -0.20281,
                    0.04092,
                    0.04871,
                    -0.03661,
                    0.18138,
                    -0.14117,
                    -0.14855,
                    0.15062,
                    0.07128,
                    0.19363,
                    -0.17442,
                    0.22971,
                    -0.13211,
                    -0.20611,
                    0.17057,
                    0.14204,
                    0.07193,
                    0.0671,
                    -0.2196,
                    0.01264,
                    -0.17164,
                    0.24467,
                    -0.07268,
                    -0.14816,
                    -0.17725,
                    0.24007,
                    0.2395
                  ],
                  [
                    0.21018,
                    0.14785,
                    -0.21751,
                    0.23135,
                    -0.06943,
                    -0.13226,
                    -0.11765,
                    -0.18404,
                    0.10249,
                    -0.09247,
                    -0.1969,
                    -0.10609,
                    -0.18623,
                    0.16847,
                    0.06936,
                    0.06025,
                    0.21362,
                    -0.21234,
                    -0.08803,
                    -0.16238,
                    0.0165,
                    -0.1529,
                    -0.24034,
                    -0.07963,
                    0.08966,
                    -0.07141,
                    0.11575,
                    -0.21513,
                    -0.08876,
                    0.02853,
                    0.12981,
                    -0.00652,
                    -0.25056,
                    -0.12954,
                    0.0067,
                    -0.1437,
                    0.11781,
                    0.03829,
                    -0.05026,
                    0.18439,
                    -0.20197,
                    -0.11524,
                    -0.09492,
                    0.10723,
                    -0.23527,
                    -0.08398,
                    -0.19989,
                    -0.01226,
                    -0.11937,
                    0.08953,
                    -0.05764,
                    0.00714,
                    0.01578,
                    -0.16821,
                    0.11622,
                    -0.00685,
                    0.18114,
                    -0.10401,
                    0.21714,
                    0.19445
                  ],
                  [
                    0.14978,
                    -0.20202,
                    0.24484,
                    -0.0406,
                    0.17877,
                    -0.14206,
                    0.05988,
                    0.16466,
                    0.20985,
                    -0.08378,
                    0.16643,
                    -0.08332,
                    0.07064,
                    0.05449,
                    -0.03671,
                    -0.20549,
                    -0.11811,
                    -0.05077,
                    -0.24457,
                    -0.16412,
                    0.2025,
                    0.18772,
                    0.21132,
                    0.21944,
                    0.1681,
                    -0.19502,
                    -0.22943,
                    0.22516,
                    -0.14325,
                    0.00436,
                    -0.23342,
                    -0.2154,
                    0.23411,
                    0.22328,
                    0.07066,
                    -0.1665,
                    -0.1185,
                    0.04231,
                    -0.14746,
                    -0.03318,
                    -0.1889,
                    0.03093,
                    0.21515,
                    0.22348,
                    -0.24342,
                    -0.24172,
                    -0.03743,
                    -0.23923,
                    -0.05294,
                    0.07718,
                    -0.05959,
                    -0.09203,
                    0.13596,
                    -0.0554,
                    0.21545,
                    0.12469,
                    0.03632,
                    -0.00909,
                    0.20231,
                    -0.13476
                  ],
                  [
                    0.20985,
                    -0.19907,
                    -0.22757,
                    0.23686,
                    0.23842,
                    -0.19785,
                    -0.01193,
                    -0.03672,
                    -0.06205,
                    -0.05193,
                    0.21835,
                    -0.21493,
                    -0.10655,
                    -0.1641,
                    0.19464,
                    -0.00299,
                    -0.11188,
                    0.21296,
                    -0.05806,
                    -0.12815,
                    -0.186,
                    -0.24562,
                    -0.23496,
                    0.101,
                    -0.21019,
                    -0.16787,
                    0.07234,
                    0.18122,
                    -0.00244,
                    -0.03718,
                    0.15361,
                    0.24548,
                    0.0237,
                    0.09247,
                    -0.01233,
                    -0.1206,
                    -0.03986,
                    0.03122,
                    -0.19697,
                    -0.01752,
                    -0.23118,
                    0.16836,
                    0.05945,
                    0.21391,
                    0.05667,
                    0.00873,
                    0.10571,
                    -0.12385,
                    -0.1884,
                    0.15156,
                    -0.20683,
                    0.15661,
                    0.07972,
                    0.08908,
                    -0.08873,
                    -0.23344,
                    0.14639,
                    -0.07414,
                    -0.24356,
                    -0.18686
                  ],
                  [
                    0.16565,
                    0.13178,
                    0.20503,
                    -0.10715,
                    0.14227,
                    0.04774,
                    -0.24782,
                    -0.08627,
                    0.05342,
                    -0.09077,
                    0.23115,
                    -0.208,
                    -0.03333,
                    0.23885,
                    0.20092,
                    -0.20535,
                    0.17836,
                    0.09988,
                    -0.0211,
                    0.08049,
                    0.10344,
                    -0.10308,
                    -0.22466,
                    -0.2156,
                    -0.01011,
                    -0.21984,
                    0.26238,
                    -0.18746,
                    0.03048,
                    0.0069,
                    0.23377,
                    -0.05312,
                    -0.0484,
                    -0.02176,
                    0.01019,
                    -0.07596,
                    0.11245,
                    0.04407,
                    -0.07847,
                    0.06462,
                    -0.12122,
                    -0.18867,
                    -0.10993,
                    0.0114,
                    0.16265,
                    0.09827,
                    0.15983,
                    0.20558,
                    0.20078,
                    -0.19397,
                    0.13434,
                    -0.17097,
                    -0.11192,
                    -0.00392,
                    0.0559,
                    -0.09051,
                    0.06626,
                    -0.0868,
                    0.04188,
                    0.07435
                  ],
                  [
                    -0.07803,
                    -0.04788,
                    -0.12444,
                    0.06409,
                    0.09371,
                    -0.11784,
                    -0.0868,
                    -0.13983,
                    0.05809,
                    -0.05322,
                    0.13786,
                    0.23265,
                    -0.13303,
                    0.17805,
                    0.01237,
                    0.17317,
                    -0.23226,
                    0.01462,
                    -0.09146,
                    0.12689,
                    0.15636,
                    -0.1864,
                    0.13773,
                    0.22804,
                    -0.20157,
                    -0.13674,
                    0.24909,
                    0.06412,
                    0.1059,
                    0.20622,
                    -0.21355,
                    -0.0801,
                    0.18992,
                    0.06874,
                    -0.12402,
                    -0.01451,
                    -0.25428,
                    -0.00518,
                    -0.04687,
                    -0.01837,
                    0.05558,
                    -0.2495,
                    -0.23574,
                    0.03177,
                    0.07474,
                    0.18605,
                    0.22928,
                    -0.07474,
                    0.02213,
                    0.0728,
                    -0.06191,
                    0.2341,
                    0.23267,
                    -0.03886,
                    0.05248,
                    -0.00937,
                    0.08564,
                    0.08197,
                    0.05393,
                    -0.22862
                  ],
                  [
                    -0.2363,
                    0.13415,
                    -0.24051,
                    -0.02663,
                    -0.13186,
                    -0.03009,
                    -0.03478,
                    0.14448,
                    -0.19843,
                    -0.15756,
                    0.12321,
                    -0.18954,
                    -0.05285,
                    -0.24052,
                    -0.18046,
                    -0.13185,
                    -0.1791,
                    -0.10769,
                    0.24787,
                    0.25245,
                    -0.21613,
                    0.19804,
                    0.22893,
                    -0.15374,
                    0.10192,
                    -0.24165,
                    0.23731,
                    -0.1943,
                    0.1572,
                    -0.13454,
                    0.13046,
                    -0.22689,
                    0.07672,
                    0.24337,
                    -0.0201,
                    0.03445,
                    -0.10305,
                    0.19601,
                    0.13687,
                    0.10912,
                    0.1927,
                    -0.14831,
                    0.25916,
                    0.15363,
                    -0.03094,
                    0.00406,
                    -0.05563,
                    0.09967,
                    -0.04178,
                    0.11899,
                    -0.0914,
                    -0.1258,
                    0.22368,
                    -0.06905,
                    0.24323,
                    -0.17796,
                    -0.05775,
                    -0.20991,
                    -0.13288,
                    0.25315
                  ],
                  [
                    0.04468,
                    -0.02611,
                    0.16286,
                    -0.25417,
                    -0.22673,
                    -0.08661,
                    0.08821,
                    -0.02486,
                    0.05117,
                    -0.19797,
                    0.01382,
                    0.21895,
                    -0.12928,
                    0.08367,
                    0.21475,
                    0.15662,
                    -0.17744,
                    0.22592,
                    0.10833,
                    0.04816,
                    -0.01685,
                    0.16132,
                    0.0934,
                    0.01717,
                    0.2107,
                    -0.09258,
                    0.05097,
                    -0.19447,
                    0.05497,
                    0.12667,
                    0.16624,
                    -0.13354,
                    0.02152,
                    -0.02733,
                    0.00317,
                    0.21144,
                    -0.15892,
                    -0.23802,
                    0.05029,
                    0.24985,
                    -0.03633,
                    -0.20044,
                    0.04842,
                    -0.11995,
                    -0.15906,
                    -0.20427,
                    0.12875,
                    0.00282,
                    -0.00916,
                    0.18546,
                    -0.04652,
                    -0.14031,
                    0.14645,
                    -0.15672,
                    0.14869,
                    0.12127,
                    0.0322,
                    0.01279,
                    0.12518,
                    0.04751
                  ],
                  [
                    0.08635,
                    -0.042,
                    -0.00078,
                    -0.02813,
                    0.0607,
                    -0.11108,
                    -0.07176,
                    0.09525,
                    -0.14574,
                    0.18739,
                    -0.25049,
                    -0.2156,
                    0.16335,
                    -0.1434,
                    -0.18698,
                    0.22492,
                    -0.03852,
                    0.21277,
                    -0.25896,
                    -0.14287,
                    -0.05422,
                    -0.20423,
                    -0.23105,
                    0.24622,
                    -0.22428,
                    0.00912,
                    0.1225,
                    0.09077,
                    0.11757,
                    -0.1308,
                    0.0243,
                    -0.07378,
                    -0.09357,
                    -0.01353,
                    0.25908,
                    -0.21206,
                    0.05324,
                    0.18633,
                    -0.19028,
                    -0.01456,
                    0.06831,
                    -0.07879,
                    -0.22872,
                    0.02298,
                    -0.24089,
                    -0.22681,
                    -0.01704,
                    -0.21809,
                    -0.18408,
                    0.0948,
                    0.04779,
                    0.19057,
                    0.11359,
                    0.10117,
                    -0.04293,
                    0.04508,
                    0.1202,
                    0.20459,
                    -0.09315,
                    0.22854
                  ],
                  [
                    0.15792,
                    -0.00166,
                    0.06495,
                    0.14055,
                    0.24349,
                    0.00835,
                    0.23873,
                    -0.17662,
                    0.13803,
                    0.08102,
                    0.02521,
                    0.15731,
                    0.08472,
                    -0.17968,
                    -0.04274,
                    0.0701,
                    0.00022,
                    -0.13007,
                    -0.22568,
                    -0.00319,
                    0.06004,
                    -0.11004,
                    0.1611,
                    0.1737,
                    0.18895,
                    0.11393,
                    0.1283,
                    0.19262,
                    -0.10245,
                    0.16331,
                    0.14462,
                    -0.03646,
                    0.07458,
                    -0.05234,
                    -0.06496,
                    0.1097,
                    -0.00949,
                    -0.03875,
                    -0.16909,
                    0.11123,
                    0.16975,
                    -0.02205,
                    -0.07371,
                    0.11651,
                    -0.03064,
                    0.036,
                    -0.12848,
                    0.19187,
                    -0.19714,
                    -0.24066,
                    0.21543,
                    0.08558,
                    -0.20744,
                    0.17649,
                    -0.17976,
                    0.22376,
                    -0.00806,
                    -0.21598,
                    0.07024,
                    0.22807
                  ],
                  [
                    -0.07068,
                    0.17879,
                    0.2356,
                    -0.02194,
                    -0.06873,
                    0.08445,
                    0.01707,
                    0.12752,
                    0.20217,
                    -0.22192,
                    0.11316,
                    -0.07659,
                    -0.21613,
                    -0.18879,
                    0.04387,
                    0.18767,
                    -0.20215,
                    -0.16978,
                    0.09703,
                    -0.09595,
                    -0.13718,
                    -0.0054,
                    0.11024,
                    -0.08692,
                    -0.0477,
                    0.25858,
                    0.2267,
                    -0.14882,
                    0.1693,
                    -0.22457,
                    -0.21316,
                    -0.2224,
                    -0.0917,
                    -0.00012,
                    -0.15642,
                    0.14037,
                    -0.05702,
                    0.25887,
                    0.18131,
                    -0.14581,
                    -0.18197,
                    0.19994,
                    0.18456,
                    0.25721,
                    0.00607,
                    0.04056,
                    0.0859,
                    0.1713,
                    0.0556,
                    0.20041,
                    -0.04489,
                    -0.01723,
                    -0.02075,
                    -0.20859,
                    -0.22631,
                    -0.15473,
                    0.02742,
                    -0.13223,
                    -0.02347,
                    0.08277
                  ],
                  [
                    0.20749,
                    0.10657,
                    0.12989,
                    0.17427,
                    -0.26616,
                    -0.01406,
                    0.20735,
                    -0.15436,
                    0.07403,
                    -0.089,
                    0.17998,
                    -0.05165,
                    0.20835,
                    -0.11244,
                    -0.15359,
                    -0.06327,
                    0.22783,
                    0.02281,
                    -0.09201,
                    -0.00899,
                    0.0556,
                    0.07816,
                    -0.06871,
                    -0.00288,
                    0.24494,
                    -0.13134,
                    0.20967,
                    -0.23279,
                    0.07186,
                    -0.04838,
                    -0.19089,
                    -0.06945,
                    0.00519,
                    -0.17365,
                    0.20522,
                    -0.1518,
                    -0.21109,
                    -0.05877,
                    0.22518,
                    -0.06506,
                    0.17226,
                    0.05451,
                    -0.06496,
                    0.23408,
                    -0.06966,
                    0.1678,
                    0.11754,
                    -0.10022,
                    -0.05448,
                    -0.14878,
                    0.16562,
                    -0.26238,
                    -0.0968,
                    -0.1624,
                    -0.26425,
                    -0.23938,
                    0.04404,
                    0.13606,
                    -0.02667,
                    -0.14739
                  ],
                  [
                    0.0701,
                    0.06991,
                    0.25934,
                    -0.15272,
                    -0.19212,
                    0.20033,
                    -0.12461,
                    0.15506,
                    0.15243,
                    0.18162,
                    0.15997,
                    -0.2314,
                    -0.1805,
                    0.17183,
                    -0.07844,
                    -0.0224,
                    0.12514,
                    -0.13891,
                    0.14577,
                    -0.03562,
                    -0.1401,
                    0.16501,
                    0.03146,
                    -0.02626,
                    0.01639,
                    -0.03591,
                    -0.1739,
                    -0.07777,
                    -0.18353,
                    0.13286,
                    0.04895,
                    0.03803,
                    -0.05505,
                    -0.20889,
                    -0.16383,
                    0.17601,
                    -0.10692,
                    0.00303,
                    -0.12672,
                    -0.16131,
                    0.05836,
                    0.23534,
                    0.24711,
                    0.20769,
                    -0.23819,
                    -0.2159,
                    0.16689,
                    0.18446,
                    0.21148,
                    0.0667,
                    -0.02482,
                    0.25712,
                    0.20267,
                    0.03851,
                    -0.2403,
                    -0.26605,
                    0.23862,
                    -0.07923,
                    0.03703,
                    0.14848
                  ],
                  [
                    -0.14349,
                    -0.20975,
                    0.10211,
                    0.09662,
                    -0.12233,
                    -0.08542,
                    0.01859,
                    -0.02647,
                    -0.01397,
                    0.16628,
                    -0.05927,
                    -0.1364,
                    0.10956,
                    0.06652,
                    -0.15681,
                    0.14861,
                    -0.01816,
                    0.05921,
                    -0.02671,
                    0.12621,
                    0.14336,
                    0.12103,
                    0.08215,
                    -0.09789,
                    0.211,
                    0.13092,
                    0.17219,
                    -0.08918,
                    -0.082,
                    -0.02488,
                    -0.23172,
                    -0.05777,
                    0.09001,
                    0.22289,
                    -0.17041,
                    -0.23138,
                    0.15515,
                    -0.11974,
                    0.13268,
                    -0.14675,
                    -0.14571,
                    0.15919,
                    -0.20448,
                    0.15047,
                    -0.0895,
                    -0.1968,
                    0.19263,
                    0.08171,
                    0.01045,
                    -0.12758,
                    0.13397,
                    -0.15518,
                    0.23473,
                    0.23897,
                    -0.03836,
                    -0.01903,
                    -0.16939,
                    -0.23795,
                    0.19502,
                    -0.13298
                  ],
                  [
                    0.17542,
                    -0.04652,
                    -0.201,
                    0.0367,
                    0.07144,
                    0.18703,
                    0.21759,
                    -0.24338,
                    0.10535,
                    0.10479,
                    -0.07875,
                    0.06006,
                    0.12252,
                    -0.12714,
                    -0.21468,
                    -0.23552,
                    0.24741,
                    -0.14342,
                    -0.18281,
                    0.07235,
                    0.19159,
                    -0.17166,
                    -0.19007,
                    -0.07738,
                    -0.00677,
                    0.05626,
                    0.26587,
                    -0.19863,
                    0.17062,
                    -0.17776,
                    -0.03729,
                    0.23004,
                    0.19651,
                    0.08531,
                    0.18574,
                    0.02757,
                    0.25228,
                    0.00041,
                    0.07873,
                    -0.14657,
                    0.25531,
                    -0.19233,
                    0.10556,
                    -0.18791,
                    -0.03181,
                    0.08032,
                    0.1452,
                    0.24655,
                    -0.03395,
                    0.00257,
                    0.01412,
                    0.10749,
                    0.25765,
                    -0.04324,
                    -0.09544,
                    0.09878,
                    0.10926,
                    0.03307,
                    -0.11365,
                    -0.21919
                  ],
                  [
                    -0.04821,
                    -0.0173,
                    -0.08177,
                    -0.12255,
                    0.03829,
                    0.13008,
                    0.24963,
                    0.21832,
                    0.08737,
                    -0.0331,
                    -0.0227,
                    -0.07722,
                    0.09926,
                    -0.01864,
                    -0.18845,
                    -0.23488,
                    -0.16434,
                    -0.01344,
                    -0.12,
                    0.07406,
                    -0.2465,
                    0.16516,
                    -0.08424,
                    0.09382,
                    0.1589,
                    0.08775,
                    0.17518,
                    -0.24512,
                    -0.0717,
                    0.21769,
                    0.11712,
                    0.0629,
                    -0.20764,
                    0.11348,
                    0.01324,
                    -0.09995,
                    0.13969,
                    0.11608,
                    0.05027,
                    -0.0559,
                    0.17789,
                    -0.0492,
                    0.17323,
                    0.14654,
                    -0.24439,
                    -0.16038,
                    0.0002,
                    0.04541,
                    0.13161,
                    0.14631,
                    0.23927,
                    0.17917,
                    -0.05991,
                    0.2478,
                    -0.03356,
                    -0.16068,
                    0.05462,
                    0.17981,
                    -0.03141,
                    -0.15095
                  ],
                  [
                    0.19162,
                    -0.09759,
                    -0.05344,
                    -0.18342,
                    0.22075,
                    0.0496,
                    -0.01646,
                    -0.0979,
                    -0.26272,
                    0.09446,
                    0.06421,
                    0.23471,
                    -0.01342,
                    -0.11489,
                    -0.16183,
                    -0.16802,
                    -0.13648,
                    0.03754,
                    0.05648,
                    -0.07443,
                    -0.0945,
                    -0.05409,
                    -0.21741,
                    0.17916,
                    -0.18399,
                    -0.12675,
                    0.16633,
                    -0.17863,
                    0.13376,
                    0.00447,
                    -0.08327,
                    -0.24623,
                    0.14624,
                    -0.10288,
                    0.09845,
                    0.16953,
                    0.15598,
                    -0.12911,
                    -0.10247,
                    0.22468,
                    0.01427,
                    0.22679,
                    -0.21628,
                    0.20216,
                    0.04968,
                    -0.03582,
                    0.09323,
                    -0.23838,
                    -0.21301,
                    0.16639,
                    0.00263,
                    -0.23565,
                    -0.13423,
                    0.23686,
                    0.24176,
                    -0.14315,
                    0.23646,
                    -0.05499,
                    -0.08877,
                    0.09372
                  ],
                  [
                    -0.17954,
                    0.12106,
                    -0.25857,
                    0.15301,
                    0.03773,
                    -0.21708,
                    -0.01338,
                    0.21902,
                    0.25133,
                    0.21173,
                    0.14274,
                    0.15954,
                    0.01735,
                    -0.18068,
                    0.13299,
                    -0.03181,
                    -0.04227,
                    -0.00808,
                    0.09251,
                    -0.02064,
                    -0.20245,
                    0.04218,
                    -0.06937,
                    -0.16589,
                    -0.2515,
                    -0.22412,
                    0.07959,
                    0.08116,
                    -0.14084,
                    -0.12846,
                    -0.0862,
                    -0.17807,
                    -0.15698,
                    0.10882,
                    0.07562,
                    0.22857,
                    -0.19646,
                    0.04789,
                    -0.15496,
                    -0.07338,
                    -0.03495,
                    -0.12302,
                    -0.13137,
                    -0.06484,
                    0.22652,
                    0.0088,
                    0.12791,
                    -0.02199,
                    -0.15271,
                    0.04113,
                    -0.02326,
                    0.01079,
                    -0.00702,
                    -0.24462,
                    -0.11856,
                    -0.21696,
                    -0.22396,
                    0.07056,
                    0.17692,
                    -0.08154
                  ],
                  [
                    0.14369,
                    0.05196,
                    -0.22102,
                    0.23444,
                    -0.12089,
                    0.02162,
                    0.10066,
                    0.16367,
                    -0.00921,
                    0.12782,
                    0.22361,
                    0.17265,
                    -0.02908,
                    -0.07768,
                    -0.18922,
                    -0.11425,
                    0.09333,
                    -0.09341,
                    0.22083,
                    -0.00339,
                    -0.20473,
                    -0.02743,
                    -0.23118,
                    -0.00837,
                    -0.03378,
                    0.03673,
                    0.03509,
                    -0.01394,
                    0.12604,
                    -0.12806,
                    0.05981,
                    -0.07187,
                    -0.214,
                    -0.22654,
                    -0.06675,
                    -0.1523,
                    0.25615,
                    -0.03133,
                    -0.20575,
                    -0.07722,
                    -0.04342,
                    -0.23888,
                    -0.01439,
                    0.12703,
                    0.15857,
                    -0.08516,
                    -0.20665,
                    -0.24003,
                    -0.24453,
                    0.03031,
                    -0.00353,
                    -0.05008,
                    0.20181,
                    0.16534,
                    0.21285,
                    0.08134,
                    0.05874,
                    -0.08534,
                    0.22188,
                    0.26279
                  ],
                  [
                    -0.12022,
                    -0.10539,
                    -0.03743,
                    0.00728,
                    0.22895,
                    0.03703,
                    0.22139,
                    0.18727,
                    -0.07747,
                    0.22427,
                    -0.12056,
                    -0.18982,
                    -0.23285,
                    -0.08641,
                    -0.23509,
                    -0.13955,
                    0.19171,
                    0.10026,
                    0.20398,
                    0.0256,
                    0.09824,
                    -0.06051,
                    -0.14471,
                    0.01192,
                    -0.14226,
                    0.04789,
                    -0.1254,
                    -0.09772,
                    -0.2304,
                    -0.02011,
                    0.20598,
                    -0.18134,
                    -0.18114,
                    -0.05735,
                    0.24285,
                    -0.15263,
                    -0.08919,
                    -0.02226,
                    0.06957,
                    0.19089,
                    0.0148,
                    0.24707,
                    0.13308,
                    -0.24273,
                    0.16309,
                    -0.06014,
                    -0.21995,
                    0.06469,
                    0.1601,
                    -0.06282,
                    -0.16513,
                    -0.1138,
                    0.17771,
                    0.0116,
                    0.22564,
                    -0.15842,
                    0.19909,
                    0.06531,
                    -0.06767,
                    -0.05641
                  ]
                ]
              },
              {
                "bias": [
                  0.01905,
                  0.23387,
                  -0.38879
                ],
                "weights": [
                  [
                    0.3013,
                    -0.17641,
                    -0.03094,
                    -0.29754,
                    0.26555,
                    0.34185,
                    0.3143,
                    0.07074,
                    0.28824,
                    -0.07721,
                    -0.36353,
                    -0.37104,
                    -0.3253,
                    -0.06269,
                    0.39974,
                    -0.40509,
                    -0.04992,
                    0.04283,
                    0.22643,
                    0.23654,
                    0.33297,
                    0.13641,
                    -0.20849,
                    -0.39982,
                    0.37854,
                    0.13686,
                    0.09106,
                    -0.28616,
                    -0.12847,
                    0.28297
                  ],
                  [
                    0.13597,
                    0.26455,
                    -0.29292,
                    -0.25139,
                    -0.40605,
                    -0.08325,
                    -0.36977,
                    0.41407,
                    -0.0934,
                    -0.40184,
                    -0.25678,
                    0.0481,
                    -0.10222,
                    -0.38225,
                    -0.2278,
                    -0.02824,
                    -0.01712,
                    -0.23079,
                    -0.20093,
                    -0.15543,
                    -0.26739,
                    -0.21991,
                    0.27726,
                    -0.37743,
                    0.07843,
                    -0.33681,
                    -0.03561,
                    -0.28644,
                    0.40952,
                    -0.4277
                  ],
                  [
                    -0.2415,
                    0.18238,
                    -0.35235,
                    -0.09208,
                    0.29866,
                    0.31661,
                    0.36798,
                    0.26141,
                    0.32601,
                    -0.22447,
                    -0.05256,
                    -0.24957,
                    0.34217,
                    0.09543,
                    0.21537,
                    -0.09671,
                    -0.22623,
                    0.07837,
                    -0.24183,
                    -0.07467,
                    -0.18644,
                    -0.34058,
                    0.15072,
                    0.08664,
                    -0.23915,
                    -0.2821,
                    0.26265,
                    -0.29203,
                    -0.32821,
                    -0.28057
                  ]
                ]
              }
            ],
            "rollback": false,
            "shared": false,
            "type": {
              "items": {
                "fields": [
                  {
                    "name": "weights",
                    "type": {
                      "items": {
                        "items": "double",
                        "type": "array"
                      },
                      "type": "array"
                    }
                  },
                  {
                    "name": "bias",
                    "type": {
                      "items": "double",
                      "type": "array"
                    }
                  }
                ],
                "name": "Layer",
                "type": "record"
              },
              "type": "array"
            }
          },
          "validations": [
            {
              "code": "kfold",
              "data": {
                "average": {
                  "Accuracy": 0.17346,
                  "Confusion matrix": {
                    "labels": [
                      "AD",
                      "CN",
                      "Other"
                    ],
                    "values": [
                      [
                        0.0,
                        274.0,
                        0.0
                      ],
                      [
                        0.0,
                        298.0,
                        0.0
                      ],
                      [
                        859.0,
                        287.0,
                        0.0
                      ]
                    ]
                  },
                  "Weighted F1-score": 0.08935,
                  "Weighted false positive rate": 0.1634,
                  "Weighted precision": 0.06018,
                  "Weighted recall": 0.17346,
                  "type": "PolynomialClassificationScore"
                },
                "folds": {
                  "0": {
                    "Accuracy": 0.34692,
                    "Confusion matrix": {
                      "labels": [
                        "AD",
                        "CN",
                        "Other"
                      ],
                      "values": [
                        [
                          0.0,
                          274.0,
                          0.0
                        ],
                        [
                          0.0,
                          298.0,
                          0.0
                        ],
                        [
                          0.0,
                          287.0,
                          0.0
                        ]
                      ]
                    },
                    "Weighted F1-score": 0.1787,
                    "Weighted false positive rate": 0.34692,
                    "Weighted precision": 0.12035,
                    "Weighted recall": 0.34692,
                    "type": "PolynomialClassificationScore"
                  },
                  "1": {
                    "Accuracy": 0.0,
                    "Confusion matrix": {
                      "labels": [
                        "AD",
                        "CN",
                        "Other"
                      ],
                      "values": [
                        [
                          0.0,
                          0.0,
                          0.0
                        ],
                        [
                          0.0,
                          0.0,
                          0.0
                        ],
                        [
                          0.0,
                          0.0,
                          0.0
                        ]
                      ]
                    },
                    "Weighted F1-score": 0.0,
                    "Weighted false positive rate": null,
                    "Weighted precision": 0.0,
                    "Weighted recall": 0.0,
                    "type": "PolynomialClassificationScore"
                  }
                },
                "type": "KFoldCrossValidationScore"
              }
            }
          ]
        },
        "fcns": {
          "C": {
            "do": [
              {
                "a.map": [
                  "categories",
                  {
                    "do": [
                      {
                        "else": [
                          0.0
                        ],
                        "if": {
                          "==": [
                            "cat",
                            "x"
                          ]
                        },
                        "then": [
                          1.0
                        ]
                      }
                    ],
                    "params": [
                      {
                        "cat": "string"
                      }
                    ],
                    "ret": "double"
                  }
                ]
              }
            ],
            "params": [
              {
                "x": "string"
              },
              {
                "categories": {
                  "items": "string",
                  "type": "array"
                }
              }
            ],
            "ret": {
              "items": "double",
              "type": "array"
            }
          },
          "arr": {
            "do": [
              {
                "new": [
                  "x"
                ],
                "type": {
                  "items": "double",
                  "type": "array"
                }
              }
            ],
            "params": [
              {
                "x": "double"
              }
            ],
            "ret": {
              "items": "double",
              "type": "array"
            }
          },
          "standardize": {
            "do": [
              {
                "/": [
                  {
                    "-": [
                      "x",
                      "mu"
                    ]
                  },
                  "sigma"
                ]
              }
            ],
            "params": [
              {
                "x": "double"
              },
              {
                "mu": "double"
              },
              {
                "sigma": "double"
              }
            ],
            "ret": "double"
          }
        },
        "input": {
          "fields": [
            {
              "name": "lefthippocampus",
              "type": "double"
            }
          ],
          "name": "Input",
          "type": "record"
        },
        "metadata": {
          "score": "0.6670547148"
        },
        "method": "map",
        "name": "neural_network",
        "output": "string"
      },
      "jobId": "*",
      "node": "local",
      "timestamp": 0.0,
      "type": "application/pfa+json"
    }
  ],
  "jobId": "*",
  "node": "local",
  "timestamp": 0.0,
  "type": "application/vnd.hbp.mip.experiment.pfa+json"
}
