{
  "data": [
    {
      "algorithm": "python-sgd-neural-network",
      "algorithmSpec": {
        "code": "sgdNeuralNetwork",
        "parameters": [
          {
            "code": "hidden_layer_sizes",
            "value": "60,30"
          },
          {
            "code": "activation",
            "value": "tanh"
          }
        ]
      },
      "data": {
        "action": [
          {
            "let": {
              "x": {
                "a.flatten": [
                  {
                    "new": [
                      {
                        "u.arr": [
                          {
                            "/": [
                              {
                                "-": [
                                  {
                                    "cast.double": [
                                      {
                                        "attr": "input",
                                        "path": [
                                          {
                                            "string": "lefthippocampus"
                                          }
                                        ]
                                      }
                                    ]
                                  },
                                  2.91276
                                ]
                              },
                              0.25938
                            ]
                          }
                        ]
                      }
                    ],
                    "type": {
                      "items": {
                        "items": "double",
                        "type": "array"
                      },
                      "type": "array"
                    }
                  }
                ]
              }
            }
          },
          {
            "let": {
              "activations": {
                "model.neural.simpleLayers": [
                  "x",
                  {
                    "cell": "neuralnet"
                  },
                  {
                    "do": [
                      {
                        "m.link.relu": [
                          "x"
                        ]
                      }
                    ],
                    "params": [
                      {
                        "x": "double"
                      }
                    ],
                    "ret": "double"
                  }
                ]
              }
            }
          },
          {
            "cell": "classes",
            "path": [
              {
                "a.argmax": [
                  "activations"
                ]
              }
            ]
          }
        ],
        "cells": {
          "classes": {
            "init": [
              "AD",
              "CN",
              "Other"
            ],
            "rollback": false,
            "shared": false,
            "type": {
              "items": "string",
              "type": "array"
            }
          },
          "neuralnet": {
            "init": [
              {
                "bias": [
                  -0.1149,
                  -0.22225,
                  0.30143,
                  0.30917,
                  -0.253,
                  0.17696,
                  -0.1763,
                  -0.15086,
                  -0.07711,
                  -0.2421,
                  0.27079,
                  -0.26064,
                  0.0008,
                  -0.10209,
                  -0.04724,
                  -0.25558,
                  -0.31782,
                  0.01276,
                  -0.19806,
                  0.09199,
                  0.24475,
                  -0.13972,
                  0.13954,
                  -0.00149,
                  0.29199,
                  -0.03194,
                  -0.15692,
                  -0.29026,
                  0.02201,
                  -0.28847,
                  -0.04534,
                  0.17989,
                  0.04791,
                  0.08428,
                  -0.2968,
                  -0.17205,
                  0.14984,
                  -0.18986,
                  -0.01021,
                  -0.04469,
                  -0.22461,
                  -0.01477,
                  0.08853,
                  0.29332,
                  0.2654,
                  0.18688,
                  0.09386,
                  -0.21604,
                  -0.29698,
                  -0.16062,
                  0.28887,
                  -0.28718,
                  0.18106,
                  0.06161,
                  0.16528,
                  0.10356,
                  -0.12268,
                  -0.1994,
                  0.30983,
                  0.29092
                ],
                "weights": [
                  [
                    -0.02651
                  ],
                  [
                    0.15723
                  ],
                  [
                    -0.05497
                  ],
                  [
                    -0.18958
                  ],
                  [
                    -0.09299
                  ],
                  [
                    -0.17069
                  ],
                  [
                    -0.17645
                  ],
                  [
                    -0.07253
                  ],
                  [
                    0.11789
                  ],
                  [
                    0.12939
                  ],
                  [
                    -0.08949
                  ],
                  [
                    0.22036
                  ],
                  [
                    -0.19404
                  ],
                  [
                    -0.19215
                  ],
                  [
                    -0.01495
                  ],
                  [
                    0.2867
                  ],
                  [
                    -0.00985
                  ],
                  [
                    0.29582
                  ],
                  [
                    0.17035
                  ],
                  [
                    -0.2292
                  ],
                  [
                    -0.1177
                  ],
                  [
                    -0.00294
                  ],
                  [
                    0.25934
                  ],
                  [
                    -0.18759
                  ],
                  [
                    -0.30472
                  ],
                  [
                    -0.14111
                  ],
                  [
                    0.26011
                  ],
                  [
                    0.29648
                  ],
                  [
                    0.0314
                  ],
                  [
                    0.30939
                  ],
                  [
                    -0.25669
                  ],
                  [
                    0.20922
                  ],
                  [
                    0.14202
                  ],
                  [
                    0.20851
                  ],
                  [
                    -0.31414
                  ],
                  [
                    -0.2915
                  ],
                  [
                    -0.26048
                  ],
                  [
                    0.18543
                  ],
                  [
                    0.16284
                  ],
                  [
                    0.19148
                  ],
                  [
                    0.00879
                  ],
                  [
                    0.29415
                  ],
                  [
                    0.09771
                  ],
                  [
                    0.18152
                  ],
                  [
                    -0.13585
                  ],
                  [
                    -0.2695
                  ],
                  [
                    -0.05513
                  ],
                  [
                    0.25297
                  ],
                  [
                    -0.08282
                  ],
                  [
                    -0.19773
                  ],
                  [
                    0.17305
                  ],
                  [
                    0.09245
                  ],
                  [
                    -0.07375
                  ],
                  [
                    -0.07192
                  ],
                  [
                    -0.24919
                  ],
                  [
                    0.27715
                  ],
                  [
                    0.28034
                  ],
                  [
                    -0.05583
                  ],
                  [
                    0.12218
                  ],
                  [
                    -0.04371
                  ]
                ]
              },
              {
                "bias": [
                  -0.22203,
                  0.0523,
                  0.05266,
                  0.04512,
                  -0.12617,
                  0.03319,
                  -0.24877,
                  -0.14916,
                  0.22505,
                  0.20519,
                  -0.17579,
                  0.24671,
                  -0.18202,
                  0.10691,
                  0.21714,
                  -0.11251,
                  -0.11165,
                  -0.09059,
                  0.25771,
                  0.12754,
                  0.06558,
                  0.20786,
                  -0.03371,
                  -0.21761,
                  0.00418,
                  0.09662,
                  0.12371,
                  0.02182,
                  -0.12041,
                  -0.16112
                ],
                "weights": [
                  [
                    0.21283,
                    0.22259,
                    -0.19919,
                    0.06076,
                    -0.0215,
                    -0.24867,
                    -0.22579,
                    0.17697,
                    0.03158,
                    -0.21122,
                    -0.12243,
                    -0.0721,
                    -0.02433,
                    0.13727,
                    -0.08992,
                    -0.1985,
                    0.01024,
                    0.07262,
                    -0.22898,
                    -0.057,
                    0.09629,
                    0.18909,
                    0.09774,
                    0.16141,
                    0.08107,
                    0.06101,
                    0.19262,
                    0.14272,
                    0.05856,
                    -0.24043,
                    0.10107,
                    -0.00633,
                    -0.21115,
                    -0.05164,
                    0.18151,
                    -0.24611,
                    -0.014,
                    -0.13338,
                    0.06411,
                    0.05581,
                    -0.06135,
                    -0.24032,
                    -5e-05,
                    -0.06624,
                    -0.05159,
                    -0.04297,
                    0.13456,
                    -0.06519,
                    -0.10496,
                    0.19504,
                    -0.24755,
                    0.15542,
                    0.05519,
                    -0.13488,
                    -0.19614,
                    0.23029,
                    -0.01735,
                    -0.14633,
                    -0.00503,
                    -0.05791
                  ],
                  [
                    0.03913,
                    0.21497,
                    0.12314,
                    -0.18282,
                    0.06414,
                    -0.19915,
                    -0.12632,
                    -0.24829,
                    -0.07538,
                    -0.01453,
                    -0.24173,
                    -0.24505,
                    -0.21503,
                    0.2475,
                    0.20772,
                    -0.00046,
                    -0.1444,
                    -0.198,
                    -0.15128,
                    -0.11461,
                    0.0823,
                    0.09426,
                    -0.12339,
                    0.07975,
                    -0.20516,
                    0.22019,
                    -0.22697,
                    0.24904,
                    0.03492,
                    -0.11437,
                    0.04763,
                    0.16311,
                    0.16495,
                    -0.20329,
                    0.11202,
                    0.03789,
                    -0.0133,
                    0.03902,
                    0.12998,
                    -0.14085,
                    0.20557,
                    0.16354,
                    -0.01132,
                    0.11276,
                    -0.1195,
                    0.12879,
                    0.22592,
                    -0.03289,
                    -0.06758,
                    0.26484,
                    0.103,
                    -0.02997,
                    0.06089,
                    -0.187,
                    -0.22962,
                    -0.10262,
                    0.02529,
                    0.10867,
                    -0.06385,
                    0.19174
                  ],
                  [
                    0.16287,
                    -0.15785,
                    0.11058,
                    0.14118,
                    0.14034,
                    0.16201,
                    0.17146,
                    0.10944,
                    0.11875,
                    -0.16188,
                    0.14437,
                    0.05444,
                    0.06727,
                    -0.16186,
                    -0.0472,
                    0.01091,
                    0.08954,
                    0.09734,
                    -0.16338,
                    -0.23456,
                    0.21981,
                    -0.01025,
                    -0.1449,
                    0.026,
                    0.17813,
                    -0.04314,
                    -0.06952,
                    0.20448,
                    -0.21683,
                    -0.15578,
                    -0.02969,
                    0.22007,
                    -0.13231,
                    -0.24463,
                    0.08644,
                    -0.21774,
                    0.13357,
                    -0.02599,
                    0.04963,
                    -0.10414,
                    0.19363,
                    -0.2516,
                    -0.09772,
                    0.17299,
                    0.08743,
                    -0.09129,
                    -0.06954,
                    -0.16245,
                    -0.25326,
                    -0.18577,
                    -0.14257,
                    -0.03297,
                    0.17678,
                    -0.10263,
                    -0.07067,
                    -0.2207,
                    -0.18237,
                    -0.24787,
                    0.18806,
                    -0.24542
                  ],
                  [
                    -0.07926,
                    -0.1989,
                    -0.06867,
                    -0.15065,
                    0.23476,
                    0.1298,
                    0.03135,
                    0.16939,
                    -0.04383,
                    -0.1246,
                    -0.19237,
                    -0.01493,
                    0.15651,
                    -0.2578,
                    0.02763,
                    -0.03419,
                    0.07884,
                    0.1628,
                    0.24856,
                    0.11384,
                    -0.20124,
                    -0.03334,
                    -0.21372,
                    0.09256,
                    -0.18725,
                    -0.25238,
                    -0.22573,
                    0.05071,
                    0.17555,
                    0.05689,
                    0.12249,
                    -0.13473,
                    0.09066,
                    -0.00655,
                    -0.15844,
                    -0.12501,
                    0.11709,
                    0.10889,
                    0.1396,
                    -0.01055,
                    0.19322,
                    0.24937,
                    0.16391,
                    0.10929,
                    0.08357,
                    0.07246,
                    -0.18142,
                    0.23103,
                    0.10413,
                    -0.17173,
                    -0.17398,
                    0.19067,
                    -0.20866,
                    -0.18402,
                    -0.12755,
                    0.00283,
                    -0.11972,
                    -0.20541,
                    0.04614,
                    0.04768
                  ],
                  [
                    0.07447,
                    -0.18108,
                    -0.19879,
                    0.07333,
                    -0.14521,
                    0.25124,
                    -0.01589,
                    0.08774,
                    0.10292,
                    -0.12578,
                    0.087,
                    -0.24472,
                    -0.08515,
                    -0.20523,
                    0.0263,
                    -0.08261,
                    0.00569,
                    0.06946,
                    -0.09696,
                    0.15909,
                    0.02547,
                    0.08311,
                    -0.07053,
                    -0.17259,
                    -0.18669,
                    -0.17189,
                    -0.17879,
                    0.14413,
                    0.04487,
                    -0.15969,
                    0.07399,
                    0.11064,
                    0.20357,
                    -0.1725,
                    -0.03001,
                    0.03111,
                    -0.19282,
                    0.04007,
                    -0.24152,
                    0.03445,
                    0.13005,
                    -0.26295,
                    -0.09955,
                    -0.13846,
                    0.0514,
                    -0.22725,
                    -0.0215,
                    0.20862,
                    -0.02492,
                    0.2234,
                    -0.08039,
                    -0.0608,
                    -0.05167,
                    0.00579,
                    -0.12469,
                    -0.23794,
                    -0.09227,
                    -0.06342,
                    0.25196,
                    0.00353
                  ],
                  [
                    -0.06193,
                    -0.11288,
                    0.13559,
                    -0.13988,
                    0.14017,
                    -0.23074,
                    -0.00821,
                    0.23357,
                    -0.1578,
                    0.07553,
                    0.01054,
                    -0.00071,
                    -0.26033,
                    -0.1175,
                    0.08388,
                    0.0362,
                    0.00396,
                    0.21012,
                    0.10152,
                    0.02803,
                    -0.1665,
                    -0.18183,
                    -0.19376,
                    0.13888,
                    -0.21888,
                    0.22754,
                    0.26287,
                    -0.16227,
                    0.07072,
                    0.15033,
                    0.13825,
                    0.1548,
                    0.09022,
                    0.10694,
                    -0.08571,
                    -0.19234,
                    0.17517,
                    0.04416,
                    0.08563,
                    -0.2251,
                    0.07063,
                    -0.24478,
                    0.23237,
                    0.20469,
                    0.23273,
                    0.19464,
                    -0.17246,
                    -0.13443,
                    -0.24275,
                    0.13134,
                    0.03407,
                    0.2014,
                    -0.12417,
                    0.24348,
                    0.18558,
                    0.04519,
                    0.22139,
                    -0.21766,
                    -0.22715,
                    -0.17386
                  ],
                  [
                    0.01851,
                    0.12649,
                    0.23144,
                    -0.25335,
                    0.12923,
                    0.23401,
                    0.02372,
                    0.13449,
                    -0.04294,
                    0.0832,
                    0.09443,
                    -0.13305,
                    0.02926,
                    -0.09902,
                    0.26037,
                    0.03871,
                    0.04154,
                    0.15238,
                    0.08356,
                    0.00529,
                    0.12763,
                    0.16008,
                    -0.14301,
                    -0.06855,
                    -0.02032,
                    -0.13925,
                    0.24338,
                    -0.19301,
                    -0.05095,
                    -0.08118,
                    -0.08364,
                    -0.1755,
                    0.10356,
                    0.23698,
                    -0.15859,
                    -0.07908,
                    0.07594,
                    -0.19591,
                    -0.23055,
                    -0.03594,
                    0.03994,
                    -0.02281,
                    -0.17805,
                    -0.24161,
                    -0.08621,
                    0.02043,
                    0.13766,
                    0.11631,
                    0.23465,
                    -0.00347,
                    -0.22066,
                    0.2159,
                    0.02738,
                    0.0882,
                    0.02959,
                    0.08413,
                    0.17534,
                    -0.0638,
                    -0.22667,
                    0.02586
                  ],
                  [
                    0.00208,
                    0.16806,
                    -0.26054,
                    -0.15941,
                    -0.2012,
                    0.0575,
                    -0.16401,
                    -0.14807,
                    -0.17025,
                    -0.22857,
                    -0.11536,
                    -0.12934,
                    -0.10494,
                    0.15967,
                    0.13029,
                    -0.0899,
                    0.12208,
                    0.1729,
                    0.2058,
                    0.03536,
                    0.227,
                    -0.10387,
                    -0.0692,
                    -0.00248,
                    -0.0044,
                    0.03716,
                    0.13675,
                    -0.02101,
                    0.10099,
                    -0.03006,
                    -0.12667,
                    0.25189,
                    -0.15527,
                    -0.16801,
                    -0.08853,
                    -0.03871,
                    0.07193,
                    -0.14138,
                    0.25037,
                    -0.22329,
                    0.15182,
                    0.08592,
                    -0.15396,
                    0.15636,
                    0.05164,
                    0.15906,
                    0.20946,
                    0.12499,
                    -0.03203,
                    -0.07411,
                    0.05699,
                    -0.23474,
                    -0.16976,
                    -0.03412,
                    0.08455,
                    -0.2315,
                    0.09835,
                    0.22727,
                    -0.24791,
                    -0.25378
                  ],
                  [
                    0.20098,
                    0.01785,
                    0.14261,
                    -0.1205,
                    0.2385,
                    0.00106,
                    -0.20785,
                    0.19212,
                    -0.17369,
                    0.03468,
                    -0.13973,
                    -0.2426,
                    0.12032,
                    -0.11055,
                    -0.06547,
                    0.17915,
                    -0.16259,
                    0.22289,
                    -0.13923,
                    0.00097,
                    0.2274,
                    0.23165,
                    -0.23792,
                    -0.05132,
                    -0.16504,
                    -0.01946,
                    -0.08114,
                    -0.13635,
                    -0.19842,
                    0.07017,
                    -0.20275,
                    0.09321,
                    -0.11506,
                    -0.01446,
                    -0.21601,
                    0.20197,
                    0.23409,
                    -0.19262,
                    -0.16,
                    -0.23658,
                    0.23645,
                    0.25885,
                    -0.24429,
                    0.13079,
                    -0.20709,
                    0.19854,
                    0.0352,
                    -0.2499,
                    0.0966,
                    -0.03949,
                    -0.1316,
                    -0.17808,
                    0.09566,
                    -0.00188,
                    -0.00628,
                    -0.04959,
                    0.2431,
                    0.18515,
                    0.20029,
                    0.12985
                  ],
                  [
                    -0.19294,
                    0.00242,
                    0.17473,
                    0.15075,
                    0.19502,
                    -0.17242,
                    0.076,
                    0.02573,
                    0.01593,
                    -0.09971,
                    0.08193,
                    -0.00716,
                    -0.08706,
                    -0.26341,
                    0.1315,
                    -0.10283,
                    -0.13624,
                    0.22115,
                    -0.08663,
                    -0.23054,
                    -0.17474,
                    0.16985,
                    -0.04356,
                    0.04767,
                    -0.12573,
                    -0.0867,
                    0.10379,
                    -0.11907,
                    0.15791,
                    -0.1145,
                    -0.16104,
                    0.22063,
                    0.22165,
                    0.12905,
                    -0.06699,
                    0.04514,
                    -0.08682,
                    -0.09201,
                    0.1515,
                    0.21582,
                    0.25282,
                    -0.0212,
                    0.23303,
                    0.0332,
                    -0.19667,
                    -0.15334,
                    -0.05524,
                    -0.18524,
                    -0.18105,
                    -0.03257,
                    -0.23436,
                    -0.01583,
                    -0.14482,
                    0.20623,
                    0.05592,
                    0.12004,
                    0.2367,
                    0.12388,
                    0.21344,
                    0.04241
                  ],
                  [
                    -0.10379,
                    0.08161,
                    0.08086,
                    0.03325,
                    -0.24062,
                    0.08944,
                    0.12963,
                    -0.06137,
                    -0.02128,
                    0.2193,
                    0.19602,
                    -0.02113,
                    -0.16795,
                    0.15264,
                    0.00681,
                    -0.15085,
                    -0.0218,
                    -0.07138,
                    0.18401,
                    0.15588,
                    -0.14449,
                    -0.04869,
                    -0.17776,
                    0.05791,
                    0.12528,
                    -0.07284,
                    0.20426,
                    -0.13839,
                    0.2428,
                    0.222,
                    -0.01373,
                    -0.09336,
                    0.1537,
                    -0.11054,
                    0.16315,
                    0.2185,
                    -0.12731,
                    0.17775,
                    -0.10324,
                    0.24636,
                    -0.14457,
                    0.15152,
                    0.19063,
                    -0.17186,
                    -0.224,
                    -0.05929,
                    0.12591,
                    -0.11286,
                    -0.14808,
                    0.10675,
                    -0.24169,
                    0.17306,
                    -0.0196,
                    0.16548,
                    0.15752,
                    0.02799,
                    -0.07722,
                    0.11459,
                    0.08821,
                    -0.10975
                  ],
                  [
                    0.02012,
                    0.24135,
                    -0.06832,
                    0.11006,
                    -0.22399,
                    -0.10629,
                    -0.02582,
                    0.14849,
                    0.04945,
                    -0.01186,
                    0.18777,
                    0.04814,
                    -0.06826,
                    -0.25917,
                    0.24646,
                    -0.02137,
                    -0.04898,
                    0.0536,
                    -0.11753,
                    0.15211,
                    0.19543,
                    -0.20312,
                    0.03165,
                    -0.24707,
                    -0.16311,
                    0.16316,
                    -0.0781,
                    -0.01755,
                    -0.22801,
                    -0.00143,
                    0.12935,
                    -0.09372,
                    0.01387,
                    -0.20202,
                    0.09763,
                    0.02439,
                    0.22381,
                    -0.06624,
                    -0.03157,
                    0.15179,
                    0.13606,
                    0.21108,
                    -0.11387,
                    0.03239,
                    0.00642,
                    -0.12042,
                    0.2013,
                    0.02318,
                    0.06998,
                    0.07425,
                    0.25399,
                    -0.2046,
                    -0.11863,
                    0.07091,
                    0.06073,
                    0.18033,
                    -0.22441,
                    0.06437,
                    -0.09912,
                    0.01591
                  ],
                  [
                    -0.15596,
                    0.15061,
                    0.00768,
                    0.15155,
                    0.1708,
                    0.16803,
                    0.02866,
                    0.22853,
                    -0.0287,
                    -0.20931,
                    -0.10616,
                    0.22612,
                    -0.00597,
                    -0.21759,
                    0.20093,
                    0.0952,
                    -0.10098,
                    -0.24115,
                    -0.18397,
                    -0.04539,
                    0.23056,
                    -0.21682,
                    0.08885,
                    0.15326,
                    -0.11789,
                    -0.08228,
                    -0.20117,
                    0.02006,
                    -0.20621,
                    -0.20865,
                    -0.09393,
                    0.17575,
                    -0.25199,
                    0.12925,
                    0.0709,
                    0.12424,
                    0.11757,
                    0.22626,
                    -0.00331,
                    -0.00392,
                    0.00414,
                    0.24434,
                    0.16201,
                    -0.20029,
                    0.07129,
                    -0.0487,
                    -0.24652,
                    0.11823,
                    -0.07333,
                    0.13872,
                    -0.00844,
                    0.11199,
                    0.13493,
                    -0.02061,
                    0.1592,
                    0.02904,
                    -0.00089,
                    0.00985,
                    0.1719,
                    -0.00879
                  ],
                  [
                    0.05548,
                    0.10102,
                    0.24069,
                    -0.18839,
                    0.22686,
                    -0.04683,
                    0.12551,
                    0.18175,
                    -0.17503,
                    -0.12966,
                    0.04876,
                    0.13132,
                    0.17383,
                    -0.21301,
                    -0.07726,
                    0.2616,
                    0.09712,
                    -0.13454,
                    -0.1202,
                    -0.07854,
                    -0.0502,
                    -0.10138,
                    0.1619,
                    -0.15905,
                    -0.26163,
                    -0.16661,
                    0.20659,
                    0.16135,
                    0.17009,
                    0.14263,
                    0.07837,
                    0.14786,
                    0.19136,
                    0.11956,
                    0.13823,
                    -0.06019,
                    -0.17536,
                    -0.20421,
                    0.00199,
                    -0.05636,
                    -0.03274,
                    0.14476,
                    -0.26278,
                    0.07993,
                    -0.05128,
                    0.15943,
                    0.15968,
                    -0.03328,
                    -0.20995,
                    0.21697,
                    -0.04263,
                    0.2612,
                    -0.01077,
                    -0.04173,
                    -0.2357,
                    0.02053,
                    0.13352,
                    -0.13236,
                    -0.0501,
                    -0.17895
                  ],
                  [
                    -0.12254,
                    0.18938,
                    0.07519,
                    -0.21788,
                    0.06423,
                    -0.05763,
                    -0.03534,
                    0.16663,
                    0.13113,
                    0.02849,
                    0.1387,
                    0.23559,
                    -0.22623,
                    0.24592,
                    0.22888,
                    -0.16059,
                    -0.12986,
                    0.10555,
                    0.04504,
                    0.14801,
                    -0.21024,
                    0.2011,
                    0.1327,
                    -0.1202,
                    0.08616,
                    0.03148,
                    -0.19373,
                    -0.01544,
                    0.02333,
                    0.12194,
                    -0.17004,
                    -0.00043,
                    -0.04972,
                    0.2492,
                    -0.00686,
                    -0.00767,
                    -0.22879,
                    0.24417,
                    0.07975,
                    0.12348,
                    -0.09042,
                    0.09804,
                    -0.25642,
                    -0.2492,
                    -0.23603,
                    0.08775,
                    -0.21553,
                    -0.19308,
                    -0.20222,
                    0.25691,
                    0.087,
                    -0.19337,
                    -0.19123,
                    0.09831,
                    0.16934,
                    0.24102,
                    -0.05939,
                    0.05471,
                    0.12423,
                    -0.04299
                  ],
                  [
                    0.15112,
                    -0.25624,
                    -0.22398,
                    -0.08077,
                    0.09789,
                    -0.21125,
                    -0.12252,
                    0.06261,
                    -0.08765,
                    -0.15443,
                    -0.185,
                    -0.18697,
                    -0.17684,
                    -0.00905,
                    -0.18144,
                    -0.14255,
                    0.02167,
                    -0.15512,
                    0.20343,
                    0.12178,
                    0.10748,
                    0.10325,
                    0.16181,
                    -0.26209,
                    -0.12869,
                    0.01781,
                    0.02262,
                    -0.06315,
                    -0.21767,
                    -0.25879,
                    -0.20092,
                    -0.19472,
                    0.13115,
                    -0.21412,
                    -0.00295,
                    -0.01345,
                    0.07513,
                    -0.09015,
                    -0.02775,
                    -0.24442,
                    -0.03922,
                    -0.23301,
                    -0.17781,
                    0.16176,
                    0.12654,
                    -0.07058,
                    0.05431,
                    -0.04004,
                    -0.04299,
                    -0.14816,
                    0.15041,
                    0.16781,
                    0.02481,
                    -0.22281,
                    -0.15269,
                    -0.18283,
                    0.10505,
                    -0.20122,
                    0.24812,
                    -0.09804
                  ],
                  [
                    0.11247,
                    -0.04613,
                    0.19503,
                    0.01459,
                    0.21659,
                    0.11087,
                    -0.02976,
                    -0.1802,
                    0.21528,
                    0.09842,
                    -0.17931,
                    -0.22109,
                    0.07028,
                    -0.01788,
                    -0.02489,
                    0.23906,
                    -0.04615,
                    -0.13919,
                    0.23977,
                    0.07304,
                    -0.14481,
                    -0.14892,
                    -0.04539,
                    -0.04555,
                    -0.0479,
                    -0.24946,
                    -0.19946,
                    0.20653,
                    0.12326,
                    0.04181,
                    -0.00736,
                    0.03444,
                    0.10812,
                    0.1658,
                    -0.06842,
                    0.04114,
                    -0.05083,
                    -0.10647,
                    0.14732,
                    -0.04483,
                    0.11134,
                    -0.18551,
                    0.13404,
                    -0.00611,
                    -0.00034,
                    0.07476,
                    0.25518,
                    -0.0366,
                    -0.23405,
                    -0.03787,
                    0.11812,
                    -0.21798,
                    0.02217,
                    0.14451,
                    0.21155,
                    0.23544,
                    0.19975,
                    0.19081,
                    -0.16872,
                    0.15525
                  ],
                  [
                    0.10787,
                    -0.10894,
                    0.13131,
                    0.09306,
                    0.26452,
                    -0.24016,
                    -0.21679,
                    0.17442,
                    -0.04382,
                    -0.14573,
                    -0.13208,
                    -0.07573,
                    0.06593,
                    0.10202,
                    -0.09075,
                    0.06265,
                    0.25131,
                    -0.10659,
                    -0.18826,
                    -0.04375,
                    -0.14102,
                    0.15457,
                    0.2111,
                    0.16135,
                    0.19993,
                    0.19972,
                    -0.09565,
                    -0.06403,
                    -0.17979,
                    -0.00426,
                    -0.13661,
                    0.04241,
                    0.15691,
                    -0.0927,
                    0.0347,
                    0.02757,
                    0.07642,
                    -0.17289,
                    -0.19169,
                    0.12442,
                    -0.22052,
                    -0.2102,
                    0.21288,
                    -0.22744,
                    0.24397,
                    0.17119,
                    0.21057,
                    -0.24515,
                    0.12278,
                    0.23487,
                    -0.12967,
                    -0.17433,
                    0.21663,
                    -0.00532,
                    0.10881,
                    0.03669,
                    0.07173,
                    -0.19941,
                    -0.12073,
                    -0.06523
                  ],
                  [
                    0.06964,
                    -0.02458,
                    -0.04141,
                    0.18994,
                    0.02097,
                    -0.08961,
                    -0.1705,
                    0.1654,
                    -0.20988,
                    0.05461,
                    -0.23664,
                    0.13449,
                    -0.01409,
                    -0.04134,
                    -0.13819,
                    0.19723,
                    -0.10121,
                    0.22555,
                    0.13997,
                    -0.07041,
                    0.04824,
                    0.19015,
                    -0.00652,
                    -0.04608,
                    -0.0879,
                    -0.1709,
                    0.11304,
                    0.19567,
                    -0.13999,
                    0.12805,
                    0.08512,
                    0.17681,
                    -0.16075,
                    -0.19134,
                    0.20517,
                    -0.19628,
                    -0.10246,
                    -0.07924,
                    0.06182,
                    -0.08884,
                    -0.15842,
                    -0.05863,
                    -0.10677,
                    0.05174,
                    0.23486,
                    0.26219,
                    -0.07603,
                    -0.21597,
                    -0.00455,
                    -0.19541,
                    -0.13946,
                    -0.00788,
                    0.25979,
                    -0.08526,
                    -0.14779,
                    0.2058,
                    -0.07657,
                    -0.02227,
                    0.09659,
                    0.0383
                  ],
                  [
                    0.05564,
                    0.251,
                    -0.06647,
                    -0.15999,
                    -0.26455,
                    0.0355,
                    -0.19185,
                    0.15853,
                    -0.20862,
                    0.04641,
                    -0.05235,
                    0.20781,
                    -0.17823,
                    -0.1593,
                    0.22487,
                    -0.20455,
                    -0.09653,
                    0.19512,
                    0.06498,
                    0.18066,
                    0.2213,
                    0.15903,
                    -0.16348,
                    -0.20724,
                    0.1909,
                    0.01067,
                    -0.13609,
                    0.26602,
                    -0.18878,
                    -0.2102,
                    -0.00783,
                    0.21196,
                    -0.05482,
                    -0.08937,
                    0.19474,
                    0.23779,
                    -0.11054,
                    0.09907,
                    -0.08172,
                    -0.01995,
                    0.05433,
                    0.02013,
                    0.24261,
                    -0.05626,
                    0.14718,
                    0.16413,
                    0.11124,
                    0.07777,
                    -0.00771,
                    -0.23687,
                    0.18609,
                    0.05447,
                    -0.19494,
                    -0.19279,
                    0.08286,
                    -0.23783,
                    0.0421,
                    0.07063,
                    0.17519,
                    -0.22034
                  ],
                  [
                    0.08512,
                    -0.14475,
                    -0.0101,
                    0.22128,
                    0.089,
                    0.12924,
                    -0.14501,
                    -0.16973,
                    -0.12809,
                    -0.06212,
                    -0.04982,
                    0.19228,
                    -0.13792,
                    0.01739,
                    0.01868,
                    -0.18805,
                    0.03703,
                    0.22585,
                    -0.00289,
                    0.13183,
                    0.17282,
                    -0.24883,
                    0.02344,
                    0.23235,
                    -0.13389,
                    -0.01694,
                    0.13629,
                    -0.19425,
                    -0.13395,
                    -0.24736,
                    0.04266,
                    0.14685,
                    0.20096,
                    -0.2388,
                    0.095,
                    -0.03989,
                    -0.24398,
                    0.25863,
                    -0.10744,
                    -0.2121,
                    0.13206,
                    0.00843,
                    -0.1929,
                    -0.12586,
                    -0.21104,
                    -0.00253,
                    0.00371,
                    -0.17355,
                    -0.07356,
                    0.02522,
                    0.08948,
                    -0.15426,
                    0.13556,
                    -0.19902,
                    0.03177,
                    -0.0672,
                    -0.08023,
                    -0.19063,
                    0.24104,
                    0.20423
                  ],
                  [
                    0.04043,
                    -0.21089,
                    -0.22009,
                    -0.04547,
                    -0.19159,
                    0.15379,
                    0.06606,
                    -0.18941,
                    -0.07704,
                    -0.09595,
                    0.14953,
                    -0.11897,
                    0.14123,
                    0.00944,
                    -0.20001,
                    0.09083,
                    -0.07158,
                    0.00363,
                    -0.13973,
                    0.18578,
                    -0.08772,
                    0.11547,
                    0.2006,
                    0.0684,
                    -0.23443,
                    -0.13905,
                    -0.05053,
                    -0.24051,
                    0.10286,
                    0.18365,
                    -0.06437,
                    0.23681,
                    -0.06597,
                    -0.12057,
                    -0.11036,
                    0.15657,
                    0.13346,
                    -0.21623,
                    -0.14502,
                    0.21065,
                    -0.09689,
                    0.16705,
                    -0.176,
                    0.2374,
                    -0.19911,
                    -0.11313,
                    0.04957,
                    -0.19699,
                    -0.16267,
                    0.1794,
                    -0.15102,
                    0.03178,
                    0.18661,
                    0.00725,
                    -0.00895,
                    0.12934,
                    0.11315,
                    0.22263,
                    0.24482,
                    0.1605
                  ],
                  [
                    0.17935,
                    0.03865,
                    -0.13858,
                    0.06638,
                    -0.07205,
                    -0.06205,
                    0.17475,
                    0.01848,
                    0.03196,
                    0.18258,
                    0.12799,
                    0.04188,
                    0.05228,
                    -0.19788,
                    -0.23137,
                    0.19055,
                    0.22749,
                    -0.10638,
                    -0.12129,
                    0.06674,
                    0.17542,
                    0.03662,
                    0.19639,
                    -0.04804,
                    0.21709,
                    -0.11866,
                    0.03633,
                    -0.20493,
                    0.16899,
                    0.23594,
                    0.20464,
                    -0.03864,
                    0.11778,
                    -0.2337,
                    -0.01717,
                    -0.15269,
                    0.03178,
                    -0.11694,
                    -0.03098,
                    0.05929,
                    0.11808,
                    0.17283,
                    0.10857,
                    -0.0743,
                    -0.03509,
                    0.0646,
                    0.22169,
                    0.15771,
                    0.0526,
                    0.25852,
                    -0.06823,
                    0.25509,
                    0.12077,
                    0.05194,
                    0.16857,
                    0.1094,
                    0.00411,
                    0.03062,
                    -0.00224,
                    -0.09075
                  ],
                  [
                    -0.17147,
                    0.25423,
                    -0.18583,
                    -0.0982,
                    0.14144,
                    0.0068,
                    0.24729,
                    -0.23167,
                    -0.13817,
                    0.08693,
                    0.2086,
                    0.05993,
                    -0.22373,
                    -0.09601,
                    0.12291,
                    0.06845,
                    0.17729,
                    0.23458,
                    0.00319,
                    0.21273,
                    0.17161,
                    -0.18076,
                    -0.06997,
                    0.06028,
                    -0.04776,
                    -0.19528,
                    0.13794,
                    -0.14933,
                    0.08246,
                    -0.0806,
                    0.01841,
                    0.13769,
                    -0.08041,
                    -0.15645,
                    0.12573,
                    0.23608,
                    -0.22869,
                    0.07313,
                    0.16383,
                    -0.03836,
                    -0.14576,
                    -0.19075,
                    -0.24162,
                    0.01269,
                    -0.17006,
                    -0.19439,
                    -0.10961,
                    -0.05341,
                    0.06449,
                    0.2257,
                    -0.00924,
                    -0.20362,
                    -0.19662,
                    -0.22078,
                    0.24788,
                    0.10449,
                    0.12919,
                    -0.04816,
                    -0.10482,
                    0.2405
                  ],
                  [
                    0.03647,
                    -0.04557,
                    -0.18676,
                    0.21872,
                    0.23677,
                    0.21261,
                    -0.12547,
                    0.14409,
                    0.12119,
                    -0.1825,
                    0.23371,
                    -0.05537,
                    0.00182,
                    -0.10085,
                    -0.23168,
                    0.00931,
                    0.08813,
                    -0.10248,
                    0.22941,
                    0.00301,
                    0.12602,
                    0.08815,
                    -0.0425,
                    -0.0826,
                    0.23229,
                    -0.16247,
                    -0.08125,
                    0.0842,
                    0.06705,
                    -0.22606,
                    0.09074,
                    0.06327,
                    0.13071,
                    0.24154,
                    -0.1624,
                    -0.07345,
                    0.18747,
                    0.07333,
                    -0.2024,
                    0.14188,
                    0.1805,
                    -0.21933,
                    0.15411,
                    -0.16205,
                    0.1501,
                    0.01831,
                    0.07971,
                    -0.12238,
                    -0.08633,
                    0.2035,
                    -0.07966,
                    -0.17587,
                    0.21245,
                    -0.04676,
                    0.12869,
                    0.19084,
                    0.18669,
                    -0.00142,
                    0.16866,
                    -0.10161
                  ],
                  [
                    -0.11114,
                    -0.1821,
                    0.08905,
                    0.23333,
                    0.13947,
                    0.22757,
                    -0.1624,
                    -0.08417,
                    0.05168,
                    -0.01142,
                    0.19051,
                    0.13456,
                    -0.04016,
                    0.09698,
                    0.08294,
                    0.20938,
                    -0.14187,
                    0.1165,
                    0.15437,
                    -0.02619,
                    -0.04067,
                    0.12909,
                    -0.17302,
                    -0.25065,
                    0.11214,
                    -0.16118,
                    0.1839,
                    0.13694,
                    0.15948,
                    -0.15937,
                    0.1799,
                    0.04132,
                    0.1653,
                    -0.08903,
                    -0.19221,
                    0.21016,
                    0.25028,
                    -0.04469,
                    -0.13584,
                    0.17041,
                    -0.19653,
                    -0.14808,
                    0.04699,
                    -0.04847,
                    -0.0593,
                    0.05994,
                    -0.17078,
                    0.05825,
                    0.22075,
                    -0.02335,
                    0.03554,
                    0.24165,
                    0.12341,
                    0.24793,
                    -0.17686,
                    -0.24259,
                    -0.1678,
                    -0.22066,
                    -0.09585,
                    -0.18993
                  ],
                  [
                    0.15408,
                    -0.14251,
                    -0.10995,
                    0.00728,
                    0.23045,
                    -0.22442,
                    -0.14954,
                    -0.09471,
                    0.21587,
                    -0.0685,
                    0.02774,
                    0.25974,
                    -0.01091,
                    0.20033,
                    -0.03092,
                    0.20457,
                    -0.0838,
                    -0.13639,
                    -0.14369,
                    0.1215,
                    -0.18889,
                    -0.22205,
                    -0.07806,
                    0.15866,
                    -0.01089,
                    0.23578,
                    0.19386,
                    0.15131,
                    0.20423,
                    -0.0635,
                    0.22832,
                    -0.07102,
                    0.08385,
                    0.04125,
                    0.24741,
                    0.1502,
                    -0.12379,
                    0.13438,
                    -0.23918,
                    0.23946,
                    -0.13379,
                    -0.11929,
                    -0.1637,
                    -0.01384,
                    -0.09755,
                    -0.08319,
                    0.11909,
                    0.25264,
                    -0.23851,
                    0.11063,
                    -0.09951,
                    -0.13407,
                    -0.01099,
                    0.07826,
                    0.18606,
                    0.14059,
                    -0.01986,
                    0.20615,
                    -0.0092,
                    -0.25194
                  ],
                  [
                    0.0238,
                    -0.23162,
                    -0.19426,
                    0.15049,
                    -0.03841,
                    0.1615,
                    0.20269,
                    -0.09136,
                    -0.1982,
                    0.23675,
                    -0.04571,
                    -0.25578,
                    0.22455,
                    -0.24284,
                    -0.01719,
                    -0.03883,
                    -0.20676,
                    -0.11312,
                    -0.0451,
                    -0.01055,
                    0.05223,
                    -0.07625,
                    0.11689,
                    0.04948,
                    0.20272,
                    0.13143,
                    0.06416,
                    -0.26224,
                    0.07515,
                    -0.05136,
                    -0.17637,
                    0.24149,
                    0.12563,
                    0.24123,
                    -0.25806,
                    0.01396,
                    0.25607,
                    -0.23364,
                    -0.17815,
                    -0.22842,
                    0.19222,
                    0.22582,
                    0.13651,
                    0.09293,
                    0.17609,
                    -0.00431,
                    0.26447,
                    -0.09424,
                    0.05153,
                    0.07019,
                    0.05673,
                    0.18969,
                    -0.23605,
                    0.11711,
                    -0.01347,
                    0.19155,
                    0.15663,
                    -0.2295,
                    -0.10282,
                    0.11929
                  ],
                  [
                    0.14909,
                    -0.07824,
                    0.12164,
                    -0.18503,
                    -0.14917,
                    -0.11458,
                    0.22991,
                    0.10411,
                    0.16109,
                    0.05597,
                    0.11775,
                    0.02897,
                    -0.22238,
                    0.07433,
                    0.14129,
                    -0.20041,
                    -0.07716,
                    -0.15097,
                    0.13051,
                    0.1497,
                    0.08031,
                    -0.1468,
                    -0.09791,
                    -0.14788,
                    -0.06173,
                    -0.13256,
                    0.02833,
                    0.08997,
                    -0.15755,
                    -0.05226,
                    0.18621,
                    -0.2412,
                    -0.23423,
                    0.05569,
                    0.09436,
                    -0.12308,
                    -0.11649,
                    0.23278,
                    -0.24658,
                    0.08656,
                    -0.10322,
                    -0.06977,
                    0.16397,
                    -0.23019,
                    -0.12255,
                    -0.1713,
                    -0.24872,
                    0.18427,
                    -0.23526,
                    0.21181,
                    -0.00764,
                    0.20613,
                    0.03156,
                    -0.19548,
                    0.20855,
                    0.03502,
                    -0.02296,
                    -0.25216,
                    0.19503,
                    -0.14802
                  ],
                  [
                    0.24844,
                    0.20091,
                    -0.17652,
                    0.0079,
                    -0.15171,
                    0.02567,
                    -0.00289,
                    0.01682,
                    0.05216,
                    0.2482,
                    -0.10239,
                    0.00691,
                    -0.16529,
                    -0.15635,
                    0.14695,
                    -0.12741,
                    -0.03455,
                    -0.11148,
                    -0.0117,
                    -0.14515,
                    -0.18754,
                    0.04945,
                    -0.0046,
                    0.04307,
                    0.01608,
                    -0.02449,
                    0.19902,
                    0.01059,
                    -0.0089,
                    0.17447,
                    0.07419,
                    0.01859,
                    -0.0212,
                    -0.16926,
                    0.033,
                    -0.07893,
                    0.11163,
                    -0.24,
                    -0.00708,
                    0.03011,
                    0.11534,
                    -0.1472,
                    -0.113,
                    0.16021,
                    0.04672,
                    -0.03263,
                    0.08416,
                    0.07767,
                    -0.19367,
                    0.16385,
                    0.07359,
                    0.09757,
                    0.02759,
                    -0.06887,
                    -0.15418,
                    0.24738,
                    -0.07305,
                    0.15955,
                    0.05572,
                    0.13588
                  ]
                ]
              },
              {
                "bias": [
                  -0.08242,
                  -0.40638,
                  -0.02826
                ],
                "weights": [
                  [
                    -0.16833,
                    0.11067,
                    -0.26726,
                    0.10878,
                    0.13486,
                    -0.22754,
                    0.39963,
                    -0.22073,
                    0.04818,
                    -0.4277,
                    0.22024,
                    -0.3444,
                    -0.29985,
                    -0.02386,
                    -0.28961,
                    -0.17404,
                    -0.33769,
                    0.18101,
                    0.13919,
                    -0.37394,
                    0.13652,
                    -0.00117,
                    0.02614,
                    0.2027,
                    0.17421,
                    -0.32248,
                    0.20644,
                    -0.19924,
                    0.43226,
                    -0.21156
                  ],
                  [
                    -0.01506,
                    -0.00522,
                    0.00612,
                    0.13782,
                    0.06045,
                    0.34385,
                    0.41629,
                    0.3434,
                    0.27294,
                    -0.13534,
                    -0.05334,
                    -0.12702,
                    -0.29306,
                    -0.24141,
                    0.17478,
                    0.01982,
                    -0.39488,
                    -0.39734,
                    -0.10388,
                    -0.06162,
                    0.37572,
                    0.14435,
                    0.087,
                    0.28136,
                    0.35626,
                    -0.00584,
                    0.30889,
                    -0.14411,
                    -0.03261,
                    0.19873
                  ],
                  [
                    0.11108,
                    -0.24463,
                    0.3482,
                    0.00606,
                    0.2109,
                    0.03369,
                    -0.23309,
                    0.04834,
                    0.2131,
                    -0.36855,
                    0.05314,
                    -0.29577,
                    -0.23116,
                    -0.30031,
                    -0.30865,
                    0.06605,
                    -0.18893,
                    -0.27872,
                    0.2948,
                    -0.13356,
                    0.23182,
                    0.07052,
                    -0.12562,
                    0.19354,
                    -0.13934,
                    0.1417,
                    -0.21036,
                    -0.01266,
                    0.14956,
                    -0.26419
                  ]
                ]
              }
            ],
            "rollback": false,
            "shared": false,
            "type": {
              "items": {
                "fields": [
                  {
                    "name": "weights",
                    "type": {
                      "items": {
                        "items": "double",
                        "type": "array"
                      },
                      "type": "array"
                    }
                  },
                  {
                    "name": "bias",
                    "type": {
                      "items": "double",
                      "type": "array"
                    }
                  }
                ],
                "name": "Layer",
                "type": "record"
              },
              "type": "array"
            }
          },
          "validations": {
            "init": [
              {
                "code": "kfold",
                "data": {
                  "average": {
                    "Accuracy": 0.67346,
                    "Confusion matrix": {
                      "labels": [
                        "AD",
                        "CN",
                        "Other"
                      ],
                      "values": [
                        [
                          17.0,
                          0.0,
                          257.0
                        ],
                        [
                          15.0,
                          0.0,
                          283.0
                        ],
                        [
                          6.0,
                          0.0,
                          1140.0
                        ]
                      ]
                    },
                    "Weighted F1-score": 0.55556,
                    "Weighted false positive rate": 0.63206,
                    "Weighted precision": 0.52399,
                    "Weighted recall": 0.67346,
                    "type": "PolynomialClassificationScore"
                  },
                  "folds": {
                    "1": {
                      "Accuracy": 0.66473,
                      "Confusion matrix": {
                        "labels": [
                          "AD",
                          "CN",
                          "Other"
                        ],
                        "values": [
                          [
                            8.0,
                            0.0,
                            130.0
                          ],
                          [
                            0.0,
                            0.0,
                            158.0
                          ],
                          [
                            0.0,
                            0.0,
                            563.0
                          ]
                        ]
                      },
                      "Weighted F1-score": 0.53953,
                      "Weighted false positive rate": 0.6377,
                      "Weighted precision": 0.59426,
                      "Weighted recall": 0.66473,
                      "type": "PolynomialClassificationScore"
                    },
                    "2": {
                      "Accuracy": 0.68219,
                      "Confusion matrix": {
                        "labels": [
                          "AD",
                          "CN",
                          "Other"
                        ],
                        "values": [
                          [
                            9.0,
                            0.0,
                            127.0
                          ],
                          [
                            15.0,
                            0.0,
                            125.0
                          ],
                          [
                            6.0,
                            0.0,
                            577.0
                          ]
                        ]
                      },
                      "Weighted F1-score": 0.57185,
                      "Weighted false positive rate": 0.62428,
                      "Weighted precision": 0.51988,
                      "Weighted recall": 0.68219,
                      "type": "PolynomialClassificationScore"
                    }
                  },
                  "type": "KFoldCrossValidationScore"
                },
                "node": "local",
                "validationSpec": {
                  "code": "kfold",
                  "parameters": [
                    {
                      "code": "k",
                      "value": "2"
                    }
                  ]
                }
              }
            ],
            "type": {
              "items": "Record",
              "type": "array"
            }
          }
        },
        "fcns": {
          "C": {
            "do": [
              {
                "a.map": [
                  "categories",
                  {
                    "do": [
                      {
                        "else": [
                          0.0
                        ],
                        "if": {
                          "==": [
                            "cat",
                            "x"
                          ]
                        },
                        "then": [
                          1.0
                        ]
                      }
                    ],
                    "params": [
                      {
                        "cat": "string"
                      }
                    ],
                    "ret": "double"
                  }
                ]
              }
            ],
            "params": [
              {
                "x": "string"
              },
              {
                "categories": {
                  "items": "string",
                  "type": "array"
                }
              }
            ],
            "ret": {
              "items": "double",
              "type": "array"
            }
          },
          "arr": {
            "do": [
              {
                "new": [
                  "x"
                ],
                "type": {
                  "items": "double",
                  "type": "array"
                }
              }
            ],
            "params": [
              {
                "x": "double"
              }
            ],
            "ret": {
              "items": "double",
              "type": "array"
            }
          },
          "standardize": {
            "do": [
              {
                "/": [
                  {
                    "-": [
                      "x",
                      "mu"
                    ]
                  },
                  "sigma"
                ]
              }
            ],
            "params": [
              {
                "x": "double"
              },
              {
                "mu": "double"
              },
              {
                "sigma": "double"
              }
            ],
            "ret": "double"
          }
        },
        "input": {
          "fields": [
            {
              "name": "lefthippocampus",
              "type": "double"
            }
          ],
          "name": "Input",
          "type": "record"
        },
        "metadata": {
          "X": "{\"lefthippocampus\":{\"count\":1718.0,\"mean\":3.639566982e-16,\"std\":1.0002911632,\"min\":-6.1997481189,\"25%\":-0.1756647944,\"50%\":-0.1756647944,\"75%\":-0.1049179598,\"max\":5.934008706}}",
          "score": "0.6688009313",
          "y": "{\"count\":1718,\"unique\":3,\"top\":\"Other\",\"freq\":1146}"
        },
        "method": "map",
        "name": "neural_network",
        "output": "string"
      },
      "dataProvenance": [],
      "feedback": [],
      "jobId": "*",
      "node": "local",
      "query": {
        "algorithm": {
          "code": "sgdNeuralNetwork",
          "parameters": [
            {
              "code": "hidden_layer_sizes",
              "value": "60,30"
            },
            {
              "code": "activation",
              "value": "tanh"
            }
          ]
        },
        "covariables": [],
        "covariablesMustExist": false,
        "datasets": [],
        "grouping": [],
        "user": {
          "code": "system"
        },
        "variables": []
      },
      "timestamp": 0.0,
      "type": "application/pfa+json"
    }
  ],
  "dataProvenance": [
    {
      "code": "desd-synthdata"
    },
    {
      "code": "qqni-synthdata"
    }
  ],
  "feedback": [],
  "jobId": "*",
  "node": "local",
  "query": {
    "algorithms": [
      {
        "code": "sgdNeuralNetwork",
        "parameters": [
          {
            "code": "hidden_layer_sizes",
            "value": "60,30"
          },
          {
            "code": "activation",
            "value": "tanh"
          }
        ]
      }
    ],
    "covariables": [
      {
        "code": "lefthippocampus"
      }
    ],
    "covariablesMustExist": true,
    "filters": {
      "condition": "AND",
      "rules": [
        {
          "field": "alzheimerbroadcategory",
          "id": "alzheimerbroadcategory",
          "input": "text",
          "operator": "is_not_null",
          "type": "string",
          "value": []
        },
        {
          "field": "lefthippocampus",
          "id": "lefthippocampus",
          "input": "text",
          "operator": "is_not_null",
          "type": "string",
          "value": []
        }
      ]
    },
    "grouping": [],
    "targetTable": {
      "database": "features",
      "dbSchema": "public",
      "name": "mip_cde_features"
    },
    "testingDatasets": [],
    "trainingDatasets": [],
    "user": {
      "code": "test1"
    },
    "validationDatasets": [],
    "validations": [
      {
        "code": "kfold",
        "parameters": [
          {
            "code": "k",
            "value": "2"
          }
        ]
      }
    ],
    "variables": [
      {
        "code": "alzheimerbroadcategory"
      }
    ]
  },
  "timestamp": 0.0,
  "type": "application/vnd.hbp.mip.experiment.pfa+json"
}
