{
  "data": [
    {
      "algorithm": "python-sgd-neural-network",
      "data": {
        "action": [
          {
            "let": {
              "x": {
                "a.flatten": [
                  {
                    "new": [
                      {
                        "u.arr": [
                          {
                            "/": [
                              {
                                "-": [
                                  {
                                    "cast.double": [
                                      {
                                        "attr": "input",
                                        "path": [
                                          {
                                            "string": "lefthippocampus"
                                          }
                                        ]
                                      }
                                    ]
                                  },
                                  0.0
                                ]
                              },
                              1.0
                            ]
                          }
                        ]
                      }
                    ],
                    "type": {
                      "items": {
                        "items": "double",
                        "type": "array"
                      },
                      "type": "array"
                    }
                  }
                ]
              }
            }
          },
          {
            "let": {
              "activations": {
                "model.neural.simpleLayers": [
                  "x",
                  {
                    "cell": "neuralnet"
                  },
                  {
                    "do": [
                      {
                        "m.link.relu": [
                          "x"
                        ]
                      }
                    ],
                    "params": [
                      {
                        "x": "double"
                      }
                    ],
                    "ret": "double"
                  }
                ]
              }
            }
          },
          {
            "cell": "classes",
            "path": [
              {
                "a.argmax": [
                  "activations"
                ]
              }
            ]
          }
        ],
        "cells": {
          "classes": {
            "init": [
              "AD",
              "CN",
              "Other"
            ],
            "rollback": false,
            "shared": false,
            "type": {
              "items": "string",
              "type": "array"
            }
          },
          "neuralnet": {
            "init": [
              {
                "bias": [
                  0.24137,
                  -0.02444,
                  -0.04136,
                  -0.25501,
                  0.04017,
                  0.00824,
                  0.04383,
                  -0.09972,
                  0.27849,
                  0.17285,
                  0.29789,
                  0.16141,
                  -0.29119,
                  0.07247,
                  0.01625,
                  0.12434,
                  0.08891,
                  -0.02994,
                  0.31335,
                  0.14295,
                  -0.00764,
                  -0.0654,
                  -0.22288,
                  -0.1143,
                  -0.19069,
                  -0.21362,
                  -0.05105,
                  0.08127,
                  -0.19916,
                  0.15824,
                  -0.30863,
                  -0.00446,
                  -0.2396,
                  0.25736,
                  -0.32107,
                  0.21474,
                  -0.17361,
                  -0.19313,
                  -0.18338,
                  -0.16864,
                  0.17983,
                  0.01386,
                  -0.07752,
                  -0.0619,
                  -0.23659,
                  -0.24233,
                  0.12898,
                  0.21192,
                  -0.21029,
                  -0.26347,
                  -0.22965,
                  0.01168,
                  0.17333,
                  -0.2515,
                  0.01675,
                  -0.08549,
                  -0.24005,
                  -0.30543,
                  -0.17436,
                  0.15888
                ],
                "weights": [
                  [
                    0.18656
                  ],
                  [
                    -0.03846
                  ],
                  [
                    -0.09778
                  ],
                  [
                    0.29733
                  ],
                  [
                    0.20268
                  ],
                  [
                    -0.09156
                  ],
                  [
                    -0.16422
                  ],
                  [
                    0.08768
                  ],
                  [
                    0.12188
                  ],
                  [
                    -0.19895
                  ],
                  [
                    -0.12576
                  ],
                  [
                    -0.25281
                  ],
                  [
                    0.24332
                  ],
                  [
                    -0.21968
                  ],
                  [
                    -0.16463
                  ],
                  [
                    -0.03165
                  ],
                  [
                    0.06741
                  ],
                  [
                    -0.2233
                  ],
                  [
                    0.29111
                  ],
                  [
                    0.05169
                  ],
                  [
                    0.27794
                  ],
                  [
                    -0.24287
                  ],
                  [
                    0.12498
                  ],
                  [
                    -0.12935
                  ],
                  [
                    -0.13361
                  ],
                  [
                    0.02935
                  ],
                  [
                    -0.27839
                  ],
                  [
                    0.25666
                  ],
                  [
                    0.17591
                  ],
                  [
                    0.19329
                  ],
                  [
                    0.20086
                  ],
                  [
                    -0.13634
                  ],
                  [
                    -0.20421
                  ],
                  [
                    0.10342
                  ],
                  [
                    0.05224
                  ],
                  [
                    0.25493
                  ],
                  [
                    -0.01085
                  ],
                  [
                    0.19943
                  ],
                  [
                    -0.01696
                  ],
                  [
                    0.18844
                  ],
                  [
                    -0.30377
                  ],
                  [
                    -0.11512
                  ],
                  [
                    -0.1158
                  ],
                  [
                    0.18293
                  ],
                  [
                    -0.15049
                  ],
                  [
                    -0.13282
                  ],
                  [
                    -0.12379
                  ],
                  [
                    0.10004
                  ],
                  [
                    0.04777
                  ],
                  [
                    -0.31923
                  ],
                  [
                    -0.28365
                  ],
                  [
                    -0.17917
                  ],
                  [
                    0.0787
                  ],
                  [
                    0.18081
                  ],
                  [
                    0.05976
                  ],
                  [
                    -0.09541
                  ],
                  [
                    -0.1915
                  ],
                  [
                    0.05856
                  ],
                  [
                    0.19402
                  ],
                  [
                    -0.10267
                  ]
                ]
              },
              {
                "bias": [
                  0.26585,
                  -0.14218,
                  -0.06168,
                  0.02313,
                  -0.09057,
                  -0.19377,
                  -0.08789,
                  0.12224,
                  0.25117,
                  0.1056,
                  0.22016,
                  0.14894,
                  0.20755,
                  -0.05456,
                  0.23511,
                  0.0897,
                  -0.19331,
                  -0.08397,
                  0.0331,
                  0.06377,
                  0.16892,
                  0.1501,
                  -0.16323,
                  -0.23895,
                  -0.10908,
                  -0.21791,
                  -0.22673,
                  0.21305,
                  0.10891,
                  0.04865
                ],
                "weights": [
                  [
                    -0.06496,
                    0.14666,
                    -0.1292,
                    -0.07848,
                    0.06798,
                    -0.2555,
                    0.10079,
                    -0.07414,
                    -0.10918,
                    0.22196,
                    -0.05813,
                    -0.10649,
                    0.05943,
                    0.16979,
                    -0.04654,
                    -0.04711,
                    -0.06734,
                    -0.03819,
                    -0.19816,
                    0.19526,
                    0.16145,
                    -0.10102,
                    0.22928,
                    -0.11833,
                    0.1792,
                    -0.06408,
                    0.07962,
                    -0.18794,
                    0.11165,
                    -0.11675,
                    0.06881,
                    0.06838,
                    0.14394,
                    -0.24573,
                    -0.139,
                    0.13509,
                    0.07595,
                    0.06015,
                    -0.05693,
                    0.2495,
                    0.23506,
                    -0.04857,
                    0.09342,
                    -0.20133,
                    -0.22126,
                    -0.04487,
                    -0.18484,
                    -0.03502,
                    0.01664,
                    0.11561,
                    0.0677,
                    -0.23744,
                    0.08372,
                    -0.09576,
                    0.18337,
                    -0.13489,
                    0.23348,
                    -0.16022,
                    -0.15428,
                    0.1832
                  ],
                  [
                    -0.20605,
                    -0.09662,
                    0.1539,
                    0.12046,
                    0.087,
                    -0.08406,
                    0.23946,
                    -0.19954,
                    -0.01929,
                    -0.02974,
                    0.14181,
                    -0.22072,
                    -0.19174,
                    -0.01452,
                    0.11476,
                    0.13602,
                    0.1318,
                    -0.21223,
                    0.20124,
                    -0.1411,
                    -0.01938,
                    0.2116,
                    -0.05077,
                    -0.25512,
                    0.1446,
                    0.18578,
                    0.00802,
                    -0.22634,
                    -0.23193,
                    0.19897,
                    -0.10611,
                    -0.08003,
                    0.02238,
                    -0.02634,
                    -0.25006,
                    0.08951,
                    0.22737,
                    -0.18755,
                    0.13359,
                    0.12828,
                    -0.04985,
                    0.01992,
                    -0.14521,
                    0.12202,
                    0.15661,
                    -0.18667,
                    -0.19742,
                    0.01463,
                    0.13628,
                    -0.15908,
                    0.24439,
                    -0.1289,
                    -0.0581,
                    -0.08448,
                    0.18328,
                    -0.12767,
                    0.14401,
                    -0.067,
                    0.06031,
                    0.05872
                  ],
                  [
                    0.18908,
                    0.14341,
                    0.16044,
                    -0.15516,
                    -0.16921,
                    -0.10761,
                    -0.18252,
                    -0.04335,
                    0.20687,
                    -0.16361,
                    0.23729,
                    -0.10762,
                    -0.13256,
                    -0.0725,
                    0.11537,
                    0.16241,
                    -0.1399,
                    -0.13,
                    0.21409,
                    0.25507,
                    -0.04291,
                    0.13428,
                    0.17685,
                    0.21075,
                    -0.05778,
                    0.18227,
                    -0.06431,
                    0.08354,
                    0.2202,
                    -0.11892,
                    0.24487,
                    -0.24863,
                    -0.08153,
                    -0.21299,
                    -0.00578,
                    -0.14377,
                    -0.1295,
                    -0.23956,
                    -0.03565,
                    0.17295,
                    0.03711,
                    0.14122,
                    -0.16588,
                    -0.17176,
                    -0.1547,
                    0.17406,
                    -0.13582,
                    -0.01496,
                    0.2229,
                    0.20086,
                    -0.13017,
                    -0.22747,
                    -0.22265,
                    -0.19422,
                    0.20686,
                    -0.26114,
                    0.06642,
                    0.12602,
                    0.00025,
                    0.08389
                  ],
                  [
                    -0.19426,
                    0.02824,
                    0.07338,
                    -0.25628,
                    0.16594,
                    0.01248,
                    -0.23174,
                    -0.16513,
                    -0.01976,
                    0.20487,
                    -0.06052,
                    0.04959,
                    -0.22534,
                    -0.246,
                    -0.17515,
                    -0.09018,
                    -0.05327,
                    -0.00319,
                    -0.04958,
                    0.23933,
                    0.17197,
                    0.10444,
                    -0.03605,
                    0.02199,
                    0.20824,
                    0.20355,
                    0.19357,
                    -0.23124,
                    0.03107,
                    -0.03224,
                    -0.2549,
                    -0.00295,
                    0.03222,
                    0.05016,
                    0.00267,
                    -0.1852,
                    0.07109,
                    0.20102,
                    0.20095,
                    -0.1727,
                    -0.16442,
                    0.00036,
                    0.09944,
                    -0.08753,
                    -0.14478,
                    -0.14032,
                    0.04911,
                    -0.07629,
                    0.19585,
                    0.15246,
                    -0.19214,
                    0.021,
                    0.12464,
                    -0.22801,
                    -0.03035,
                    -0.04245,
                    -0.03269,
                    0.02196,
                    -0.10937,
                    -0.19634
                  ],
                  [
                    -0.22499,
                    -0.01391,
                    0.24388,
                    -0.25406,
                    0.03396,
                    -0.10441,
                    -0.1378,
                    -0.0511,
                    -0.10116,
                    -0.21886,
                    0.15978,
                    -0.06349,
                    0.18623,
                    -0.23284,
                    -0.12289,
                    -0.14889,
                    0.0689,
                    0.06369,
                    -0.07294,
                    0.15591,
                    0.03523,
                    -0.08924,
                    -0.07753,
                    -0.06487,
                    0.15186,
                    -0.15182,
                    0.03778,
                    -0.21451,
                    -0.18585,
                    -0.20055,
                    -0.21811,
                    -0.00081,
                    0.25097,
                    0.04153,
                    -0.065,
                    -0.09318,
                    0.20743,
                    0.12007,
                    -0.22692,
                    -0.10041,
                    0.24367,
                    0.23391,
                    0.15663,
                    0.16017,
                    0.03759,
                    -0.10455,
                    0.21496,
                    -0.04373,
                    0.07482,
                    0.16636,
                    -0.23611,
                    -0.05731,
                    0.06874,
                    0.2118,
                    0.07162,
                    -0.02698,
                    -0.18467,
                    -0.07564,
                    -0.02803,
                    -0.15455
                  ],
                  [
                    -0.10088,
                    0.13713,
                    0.1529,
                    -0.07971,
                    0.15095,
                    0.0535,
                    0.03754,
                    -0.13119,
                    -0.04442,
                    -0.1096,
                    -0.00893,
                    -0.21435,
                    -0.21975,
                    -0.12938,
                    -0.05272,
                    0.03748,
                    0.24464,
                    0.23732,
                    -0.14896,
                    -0.10262,
                    -0.06636,
                    0.00124,
                    -0.1468,
                    0.09157,
                    -0.24584,
                    0.1963,
                    -0.01035,
                    -0.17061,
                    0.23112,
                    -0.23163,
                    -0.16725,
                    0.0456,
                    0.02014,
                    0.05008,
                    0.11217,
                    0.17606,
                    -0.2512,
                    0.20615,
                    0.04294,
                    -0.22561,
                    0.11207,
                    -0.09179,
                    -0.23936,
                    -0.07788,
                    -0.07826,
                    -0.19792,
                    -0.15456,
                    -0.10454,
                    0.12482,
                    0.08223,
                    -0.17794,
                    0.24755,
                    -0.17836,
                    -0.14822,
                    0.00424,
                    0.08241,
                    0.01004,
                    -0.00557,
                    -0.03305,
                    0.02753
                  ],
                  [
                    -0.05383,
                    0.11408,
                    -0.10234,
                    0.09868,
                    0.13083,
                    0.17728,
                    -0.1212,
                    0.23784,
                    0.02788,
                    0.22651,
                    -0.02837,
                    0.2667,
                    -0.25917,
                    -0.02521,
                    -0.10932,
                    0.23095,
                    -0.21793,
                    0.07329,
                    0.03953,
                    -0.01765,
                    -0.19151,
                    -0.11395,
                    -0.02415,
                    0.1692,
                    -0.15807,
                    -0.19846,
                    -0.07391,
                    0.00628,
                    0.0416,
                    0.15802,
                    0.05471,
                    0.07248,
                    -0.04813,
                    -0.24423,
                    0.08293,
                    -0.11363,
                    -0.1048,
                    0.05956,
                    -0.03364,
                    0.22422,
                    -0.0943,
                    -0.21078,
                    -0.12278,
                    -0.08912,
                    0.25029,
                    0.14558,
                    0.1881,
                    0.21696,
                    -0.07274,
                    0.17049,
                    -0.2389,
                    0.07617,
                    0.05598,
                    -0.00629,
                    -0.22114,
                    0.18981,
                    0.2397,
                    -0.03591,
                    -0.08384,
                    -0.18063
                  ],
                  [
                    -0.08785,
                    0.02894,
                    0.11363,
                    0.07109,
                    -0.03929,
                    -0.09008,
                    -0.08264,
                    0.03502,
                    0.15547,
                    -0.07691,
                    -0.19128,
                    -0.10698,
                    -0.22171,
                    -0.2167,
                    -0.07186,
                    0.21759,
                    0.0897,
                    0.14419,
                    -0.22334,
                    -0.22048,
                    0.06135,
                    -0.14948,
                    -0.04482,
                    0.26438,
                    0.18712,
                    0.06188,
                    -0.21541,
                    -0.08325,
                    -0.05115,
                    0.0623,
                    -0.16256,
                    -0.07708,
                    0.22137,
                    0.00818,
                    -0.10459,
                    -0.01605,
                    0.04092,
                    -0.21621,
                    0.08462,
                    -0.25624,
                    -0.08917,
                    0.234,
                    0.23231,
                    0.09422,
                    -0.05566,
                    -0.16386,
                    -0.23867,
                    -0.11242,
                    0.25111,
                    0.17403,
                    0.1144,
                    -0.17887,
                    0.24355,
                    -0.04674,
                    0.08645,
                    -0.07385,
                    0.23463,
                    0.13407,
                    0.07733,
                    0.07964
                  ],
                  [
                    -0.21019,
                    -0.13173,
                    -0.24803,
                    0.02196,
                    -0.03743,
                    0.04559,
                    -0.19871,
                    -0.03891,
                    -0.02755,
                    -0.02598,
                    -0.20312,
                    -0.24899,
                    -0.00988,
                    0.0875,
                    0.25053,
                    0.19595,
                    -0.16896,
                    0.20627,
                    -0.22723,
                    -0.21769,
                    0.14737,
                    0.08425,
                    -0.03618,
                    0.19852,
                    0.1899,
                    0.13575,
                    -0.04469,
                    0.07847,
                    -0.01803,
                    -0.14817,
                    -0.17642,
                    0.15882,
                    -0.06704,
                    -0.19051,
                    0.17161,
                    -0.0905,
                    0.24095,
                    -0.02391,
                    -0.01799,
                    0.07419,
                    -0.18804,
                    0.18466,
                    0.22803,
                    -0.09025,
                    0.10219,
                    -0.02246,
                    0.23142,
                    0.13638,
                    0.01885,
                    -0.14265,
                    -0.25389,
                    -0.21999,
                    -0.22555,
                    0.19772,
                    0.16513,
                    0.12883,
                    -0.07065,
                    -0.08995,
                    0.09664,
                    0.20386
                  ],
                  [
                    -0.11209,
                    0.07758,
                    -0.22144,
                    -0.23315,
                    -0.12572,
                    0.03641,
                    0.22731,
                    0.02691,
                    0.18269,
                    0.01509,
                    0.07035,
                    -0.07581,
                    -0.21194,
                    -0.03821,
                    -0.06201,
                    -0.00752,
                    -0.03136,
                    0.14371,
                    -0.19867,
                    0.00235,
                    0.02522,
                    0.2229,
                    0.0408,
                    -0.18536,
                    -0.08126,
                    0.17673,
                    -0.16807,
                    0.08494,
                    -0.00196,
                    -0.18736,
                    0.16046,
                    0.1581,
                    -0.11828,
                    -0.06342,
                    -0.03584,
                    -0.12942,
                    0.18463,
                    0.16777,
                    0.11751,
                    -0.23532,
                    -0.21317,
                    -0.20131,
                    0.21273,
                    0.19481,
                    -0.18025,
                    -0.19663,
                    -0.00086,
                    0.06513,
                    -0.0418,
                    -0.12851,
                    -0.18523,
                    -0.02934,
                    -0.08481,
                    -0.15761,
                    0.22187,
                    -0.11009,
                    0.0159,
                    0.2255,
                    -0.24508,
                    0.00776
                  ],
                  [
                    -0.011,
                    -0.15244,
                    0.20633,
                    0.00645,
                    -0.01616,
                    0.18582,
                    0.1118,
                    0.02679,
                    -0.18976,
                    -0.08196,
                    0.25053,
                    -0.0326,
                    -0.16074,
                    0.15167,
                    0.25301,
                    0.15164,
                    -0.15112,
                    -0.22422,
                    0.0804,
                    0.07234,
                    -0.23965,
                    0.20383,
                    -0.23009,
                    -0.05902,
                    0.02395,
                    0.24452,
                    -0.21497,
                    -0.03523,
                    -0.02267,
                    -0.03938,
                    -0.01565,
                    0.1051,
                    0.24948,
                    0.12514,
                    0.21246,
                    -0.0597,
                    -0.10977,
                    -0.25962,
                    -0.05329,
                    0.05391,
                    0.03021,
                    -0.11368,
                    0.0409,
                    -0.05169,
                    -0.16232,
                    -0.16259,
                    0.13669,
                    -0.01743,
                    0.0332,
                    0.1219,
                    -0.05375,
                    -0.21588,
                    0.0335,
                    -0.06599,
                    -0.07964,
                    0.04621,
                    -0.17762,
                    -0.01261,
                    0.01654,
                    0.09664
                  ],
                  [
                    -0.05825,
                    0.20791,
                    -0.1038,
                    -0.11268,
                    0.23,
                    -0.18452,
                    0.09982,
                    -0.14131,
                    -0.09725,
                    -0.05112,
                    -0.21241,
                    0.15897,
                    -0.22609,
                    0.19287,
                    -0.13308,
                    0.11229,
                    -0.22459,
                    0.04141,
                    0.25408,
                    -0.14343,
                    -0.00261,
                    -0.1604,
                    -0.06774,
                    0.10471,
                    -0.06616,
                    0.09012,
                    0.08434,
                    -0.23684,
                    0.25271,
                    0.00948,
                    0.19376,
                    0.14196,
                    -0.10364,
                    -0.04406,
                    0.00248,
                    0.11221,
                    -0.16441,
                    0.09413,
                    -0.15415,
                    0.11778,
                    -0.15517,
                    -0.11241,
                    -0.00853,
                    0.17388,
                    -0.0964,
                    -0.17197,
                    0.20305,
                    0.07184,
                    -0.23474,
                    0.0344,
                    0.23753,
                    0.01235,
                    -0.03601,
                    -0.01859,
                    0.05175,
                    0.19721,
                    0.10975,
                    -0.1773,
                    0.09962,
                    0.03699
                  ],
                  [
                    0.00243,
                    -0.00538,
                    -0.1972,
                    0.07293,
                    0.07776,
                    0.08096,
                    0.23337,
                    -0.05521,
                    0.23637,
                    0.0432,
                    0.08214,
                    0.22901,
                    0.06583,
                    -0.04782,
                    0.04802,
                    -0.05914,
                    0.20865,
                    0.01357,
                    -0.09464,
                    0.24584,
                    -0.03514,
                    0.24452,
                    0.14302,
                    0.05745,
                    -0.10519,
                    0.00638,
                    0.09952,
                    0.08032,
                    -0.11921,
                    -0.19603,
                    0.20518,
                    0.14564,
                    -0.13568,
                    -0.19018,
                    -0.20632,
                    0.12869,
                    0.15806,
                    0.14791,
                    -0.26665,
                    0.10393,
                    0.23043,
                    -0.21886,
                    -0.26524,
                    -0.21843,
                    0.22511,
                    -0.0345,
                    -0.20282,
                    -0.17344,
                    0.22292,
                    0.0585,
                    -0.05323,
                    0.16569,
                    0.01266,
                    0.20916,
                    0.02946,
                    -0.01407,
                    -0.04114,
                    -0.20382,
                    -0.19846,
                    0.038
                  ],
                  [
                    -0.15221,
                    0.05106,
                    0.06849,
                    0.2318,
                    0.20563,
                    0.02382,
                    0.20418,
                    -0.12555,
                    -0.00183,
                    0.09024,
                    0.16366,
                    -0.13506,
                    -0.15657,
                    -0.10175,
                    0.05436,
                    0.20294,
                    -0.09659,
                    0.05298,
                    -0.20686,
                    -0.1842,
                    -0.09482,
                    0.01032,
                    -0.09544,
                    -0.23257,
                    -0.09878,
                    0.06733,
                    0.19947,
                    -0.00573,
                    -0.09419,
                    0.2259,
                    0.00727,
                    0.16308,
                    -0.2479,
                    0.09641,
                    0.22153,
                    -0.20409,
                    -0.15432,
                    -0.19524,
                    0.13071,
                    -0.15862,
                    0.06017,
                    0.08136,
                    -0.11824,
                    -0.17212,
                    -0.19874,
                    -0.21539,
                    -0.05225,
                    0.07016,
                    0.11238,
                    0.17854,
                    0.07121,
                    0.09039,
                    0.10587,
                    0.14162,
                    0.25137,
                    0.08443,
                    0.04321,
                    0.08793,
                    -0.21178,
                    -0.12569
                  ],
                  [
                    0.14418,
                    -0.22466,
                    0.11359,
                    -0.20529,
                    0.00846,
                    0.18717,
                    -0.25415,
                    -0.07734,
                    -0.17209,
                    0.01529,
                    0.06118,
                    -0.07175,
                    0.12735,
                    -0.08438,
                    -0.23847,
                    0.12952,
                    -0.12649,
                    0.03563,
                    -0.20257,
                    0.24372,
                    -0.01781,
                    0.16501,
                    0.06407,
                    -0.10218,
                    0.18618,
                    -0.23066,
                    0.09601,
                    -0.11747,
                    0.24614,
                    0.0115,
                    -0.05167,
                    -0.12653,
                    0.04638,
                    -0.09411,
                    -0.07406,
                    -0.05567,
                    -0.10388,
                    0.14402,
                    0.0569,
                    0.04893,
                    -0.10493,
                    -0.09834,
                    -0.10156,
                    0.22938,
                    -0.14285,
                    -0.15612,
                    -0.10787,
                    0.17335,
                    0.11798,
                    -0.11674,
                    0.06472,
                    0.24314,
                    -0.24664,
                    -0.07222,
                    -0.19662,
                    -0.1416,
                    -0.23769,
                    0.08286,
                    -0.08553,
                    0.16911
                  ],
                  [
                    0.01578,
                    -0.08622,
                    0.23566,
                    0.01662,
                    -0.24776,
                    0.06331,
                    0.16062,
                    0.1873,
                    0.14664,
                    -0.09136,
                    -0.11339,
                    0.00514,
                    -0.20418,
                    -0.15673,
                    -0.09417,
                    0.14466,
                    0.19952,
                    0.08884,
                    0.08039,
                    0.16652,
                    -0.12761,
                    0.06046,
                    0.16451,
                    -0.17557,
                    -0.17277,
                    0.11744,
                    0.22073,
                    0.11652,
                    0.02899,
                    -0.03822,
                    -0.24948,
                    0.2141,
                    0.17001,
                    -0.03229,
                    0.05719,
                    -0.08794,
                    -0.12682,
                    0.09305,
                    -0.02697,
                    -0.16745,
                    0.00773,
                    0.15777,
                    -0.04583,
                    0.02956,
                    -0.08955,
                    -0.03018,
                    -0.22727,
                    0.05063,
                    -0.15965,
                    -0.12783,
                    -0.21707,
                    -0.05743,
                    0.23854,
                    -0.0057,
                    0.10923,
                    -0.11789,
                    -0.08116,
                    0.09443,
                    0.14429,
                    0.2094
                  ],
                  [
                    -0.14319,
                    -0.05376,
                    -0.15769,
                    -0.18894,
                    0.12526,
                    0.0477,
                    0.14595,
                    0.11297,
                    -0.15982,
                    0.11619,
                    -0.03826,
                    -0.09821,
                    -0.20095,
                    0.26036,
                    0.15573,
                    -0.01083,
                    0.02862,
                    -0.01587,
                    -0.18036,
                    0.23899,
                    -0.19241,
                    -0.14499,
                    0.12375,
                    -0.21543,
                    -0.22809,
                    -0.16704,
                    0.04973,
                    0.24671,
                    -0.08982,
                    -0.15573,
                    0.03045,
                    0.02649,
                    -0.0735,
                    0.16512,
                    0.22387,
                    0.04892,
                    -0.10896,
                    -0.15098,
                    -0.06224,
                    0.19634,
                    -0.05824,
                    0.118,
                    0.13754,
                    0.1104,
                    -0.06437,
                    0.15195,
                    0.26108,
                    0.15218,
                    -0.21089,
                    -0.21923,
                    0.16276,
                    0.19029,
                    0.03561,
                    0.04944,
                    -0.23341,
                    -0.19681,
                    -0.08747,
                    0.25018,
                    -0.04792,
                    -0.21449
                  ],
                  [
                    0.03546,
                    -0.0133,
                    0.09603,
                    0.14503,
                    -0.02121,
                    -0.12839,
                    -0.04759,
                    -0.13962,
                    0.12271,
                    0.14578,
                    0.0431,
                    0.15768,
                    0.06842,
                    0.02502,
                    0.00677,
                    0.08825,
                    -0.12077,
                    -0.21746,
                    0.18048,
                    -0.16236,
                    -0.10312,
                    0.07382,
                    0.10672,
                    0.24415,
                    -0.16058,
                    -0.22059,
                    0.08908,
                    -0.18326,
                    0.12461,
                    -0.09795,
                    0.11233,
                    0.1432,
                    0.06008,
                    0.19976,
                    -0.08987,
                    -0.00584,
                    0.08081,
                    0.11285,
                    -0.02101,
                    -0.14752,
                    -0.26215,
                    -0.09333,
                    -0.13595,
                    0.10001,
                    -0.22929,
                    0.10541,
                    -0.01043,
                    -0.15784,
                    0.22074,
                    0.1272,
                    -0.21292,
                    -0.07377,
                    0.24714,
                    -0.18585,
                    0.02597,
                    0.1511,
                    0.05192,
                    0.03252,
                    0.13904,
                    -0.1973
                  ],
                  [
                    -0.19672,
                    0.10857,
                    0.0736,
                    0.20426,
                    0.11671,
                    -0.07913,
                    0.0898,
                    -0.09512,
                    0.05516,
                    0.0816,
                    0.23005,
                    -0.23586,
                    0.2323,
                    -0.09949,
                    0.04763,
                    -0.18077,
                    -0.17271,
                    -0.09735,
                    -0.1571,
                    0.14405,
                    0.06238,
                    0.16973,
                    0.09713,
                    0.06019,
                    -0.16768,
                    -0.19322,
                    -0.1232,
                    0.08472,
                    0.23842,
                    -0.10312,
                    0.18913,
                    -0.22636,
                    0.03349,
                    -0.26502,
                    0.00142,
                    0.0838,
                    -0.04391,
                    -0.07597,
                    0.11233,
                    -0.14769,
                    -0.11224,
                    -0.23194,
                    -0.00572,
                    0.14586,
                    0.26455,
                    -0.20565,
                    -0.04326,
                    0.06344,
                    -0.03241,
                    0.19171,
                    -0.04578,
                    -0.1727,
                    0.05238,
                    0.07859,
                    0.09583,
                    -0.1073,
                    -0.0916,
                    0.12373,
                    0.15673,
                    -0.09717
                  ],
                  [
                    -0.26386,
                    0.1694,
                    -0.18456,
                    -0.21582,
                    0.14966,
                    0.1373,
                    -0.1073,
                    -0.02807,
                    -0.002,
                    -0.19501,
                    0.04664,
                    -0.01422,
                    -0.22579,
                    0.18384,
                    -0.17552,
                    -0.24083,
                    0.15804,
                    -0.1713,
                    0.09012,
                    0.11227,
                    0.06805,
                    -0.05352,
                    -0.13162,
                    0.15559,
                    0.20024,
                    -0.1047,
                    0.21404,
                    0.01007,
                    -0.19321,
                    -0.23134,
                    0.16481,
                    0.03058,
                    -0.22785,
                    0.20433,
                    0.14649,
                    0.05088,
                    -0.11644,
                    -0.02827,
                    -0.23304,
                    0.20099,
                    -0.05759,
                    0.2183,
                    -0.21771,
                    0.21272,
                    -0.092,
                    0.10528,
                    -0.06482,
                    0.23901,
                    0.11845,
                    0.14689,
                    0.2482,
                    -0.22049,
                    0.23065,
                    -0.03457,
                    -0.25991,
                    -0.12232,
                    0.16122,
                    -0.2171,
                    -0.10006,
                    0.09171
                  ],
                  [
                    -0.12517,
                    -0.16765,
                    -0.23733,
                    -0.1603,
                    -0.07002,
                    -0.17719,
                    -0.24347,
                    0.19073,
                    -0.09736,
                    0.18032,
                    -0.19337,
                    -0.24161,
                    -0.22112,
                    0.157,
                    0.07592,
                    -0.14035,
                    -0.08979,
                    0.04784,
                    -0.07631,
                    -0.17045,
                    0.03673,
                    -0.06195,
                    0.14236,
                    0.05589,
                    -0.09247,
                    0.05845,
                    0.14523,
                    -0.01747,
                    -0.21657,
                    -0.02129,
                    -0.09499,
                    -0.09929,
                    -0.24176,
                    -0.12163,
                    -0.0738,
                    -0.2316,
                    -0.21211,
                    -0.10943,
                    -0.06129,
                    0.09611,
                    0.22716,
                    -0.05154,
                    0.01831,
                    0.12877,
                    0.20628,
                    -0.01001,
                    -0.02404,
                    -0.21402,
                    0.07135,
                    -0.20938,
                    -0.02514,
                    0.12193,
                    0.11667,
                    -0.14532,
                    -0.06663,
                    -0.16686,
                    0.17388,
                    -0.24764,
                    0.11403,
                    0.19572
                  ],
                  [
                    0.1037,
                    -0.16861,
                    0.13566,
                    -0.12559,
                    0.0339,
                    0.16761,
                    0.2303,
                    0.15918,
                    0.08976,
                    0.04055,
                    -0.09037,
                    0.18186,
                    0.09072,
                    0.1898,
                    0.25346,
                    -0.19936,
                    -0.1288,
                    0.23309,
                    0.1657,
                    -0.04082,
                    0.10406,
                    0.05702,
                    0.09658,
                    0.11707,
                    0.05254,
                    0.23308,
                    -0.1283,
                    -0.25116,
                    -0.22142,
                    -0.24761,
                    0.00098,
                    -0.12286,
                    0.0021,
                    -0.01793,
                    0.02988,
                    -0.1724,
                    -0.00253,
                    -0.2213,
                    -0.04837,
                    -0.15654,
                    0.23367,
                    0.23235,
                    0.03033,
                    0.1617,
                    0.04036,
                    0.18223,
                    0.16926,
                    0.0579,
                    0.03711,
                    0.17198,
                    -0.18897,
                    0.25361,
                    -0.12851,
                    0.08261,
                    -0.08952,
                    0.14106,
                    -0.22597,
                    0.19497,
                    -0.22247,
                    -0.16828
                  ],
                  [
                    0.18845,
                    0.02184,
                    0.21487,
                    -0.08985,
                    0.21212,
                    0.01403,
                    0.15327,
                    0.10133,
                    0.22898,
                    -0.10674,
                    0.15864,
                    -0.06345,
                    -0.11215,
                    0.0576,
                    -0.1565,
                    0.25535,
                    0.25053,
                    -0.00271,
                    0.26489,
                    -0.03826,
                    -0.02062,
                    -0.21561,
                    -0.12102,
                    -0.17696,
                    0.19923,
                    -0.03,
                    -0.04602,
                    0.26239,
                    0.19761,
                    0.22724,
                    0.21782,
                    -0.26067,
                    -0.16773,
                    0.12831,
                    -0.2046,
                    -0.17142,
                    0.22379,
                    0.05444,
                    -0.09418,
                    0.01662,
                    0.03943,
                    0.19524,
                    0.22087,
                    -0.01855,
                    0.13106,
                    -0.24674,
                    0.19657,
                    0.01542,
                    0.11884,
                    0.22771,
                    -0.15055,
                    -0.02102,
                    0.25802,
                    0.23856,
                    -0.14128,
                    0.21419,
                    -0.08186,
                    -0.22349,
                    -0.08741,
                    -0.05423
                  ],
                  [
                    -0.1725,
                    0.23038,
                    -0.25379,
                    0.06704,
                    0.01647,
                    -0.13105,
                    -0.01874,
                    -0.2381,
                    -0.20196,
                    0.15529,
                    -0.10113,
                    -0.06024,
                    0.16466,
                    -0.21635,
                    0.2291,
                    -0.07483,
                    -0.12466,
                    0.22582,
                    0.18155,
                    -0.17757,
                    0.17156,
                    -0.20533,
                    -0.1879,
                    0.01676,
                    0.1759,
                    0.21005,
                    -0.0538,
                    -0.0008,
                    -0.00018,
                    -0.12305,
                    -0.17289,
                    0.0469,
                    -0.19819,
                    -0.04253,
                    0.22871,
                    0.24681,
                    0.08118,
                    -0.10455,
                    0.07343,
                    0.1917,
                    -0.19385,
                    -0.09225,
                    -0.18227,
                    -0.09391,
                    -0.21787,
                    0.24404,
                    -0.03859,
                    -0.11823,
                    -0.11067,
                    -0.18197,
                    -0.23034,
                    0.15347,
                    0.01429,
                    0.14623,
                    0.05767,
                    -0.02148,
                    0.16295,
                    0.12619,
                    0.02528,
                    0.20712
                  ],
                  [
                    -0.06199,
                    0.10983,
                    0.04799,
                    -0.06114,
                    0.21374,
                    0.00346,
                    -0.11827,
                    -0.13372,
                    0.09179,
                    -0.06317,
                    -0.04766,
                    0.02262,
                    -0.09574,
                    -0.03528,
                    0.12046,
                    0.00846,
                    -0.03265,
                    -0.11787,
                    -0.13327,
                    0.19379,
                    0.06621,
                    0.19966,
                    -0.11606,
                    -0.17045,
                    -0.10399,
                    -0.1114,
                    0.14075,
                    -0.09028,
                    0.18843,
                    -0.22781,
                    -0.16823,
                    -0.21746,
                    -0.08132,
                    0.14804,
                    -0.04405,
                    0.18299,
                    -0.23536,
                    0.15372,
                    0.01313,
                    0.23377,
                    0.16925,
                    -0.02609,
                    0.07011,
                    0.16499,
                    0.14637,
                    -0.03856,
                    -0.04296,
                    0.1273,
                    0.05332,
                    -0.0304,
                    -0.04855,
                    0.01427,
                    -0.10252,
                    0.08152,
                    -0.0684,
                    0.10579,
                    -0.09523,
                    0.0949,
                    -0.02066,
                    -0.0615
                  ],
                  [
                    0.04424,
                    -0.16919,
                    -0.13522,
                    -0.13797,
                    -0.07214,
                    -0.06389,
                    -0.17365,
                    -0.09831,
                    0.07755,
                    0.1262,
                    0.06735,
                    0.05849,
                    0.22322,
                    -0.10471,
                    -0.00235,
                    0.14395,
                    0.1095,
                    -0.12604,
                    -0.10199,
                    0.20406,
                    -0.22927,
                    0.21067,
                    -0.21534,
                    0.18292,
                    -0.12866,
                    0.11921,
                    0.2002,
                    0.00024,
                    0.08826,
                    -0.19617,
                    0.22188,
                    -0.12942,
                    0.15608,
                    0.10118,
                    -0.16156,
                    -0.03331,
                    -0.15526,
                    0.00652,
                    0.04264,
                    -0.13738,
                    -0.05762,
                    0.25761,
                    0.08711,
                    0.19536,
                    0.03308,
                    0.11918,
                    -0.16453,
                    -0.15388,
                    -0.15096,
                    0.04283,
                    -0.08319,
                    0.10199,
                    0.13078,
                    -0.20664,
                    0.15142,
                    0.0305,
                    0.01798,
                    0.19035,
                    -0.02045,
                    -0.07734
                  ],
                  [
                    -0.11815,
                    -0.03779,
                    -0.13012,
                    0.24707,
                    -0.2516,
                    0.20338,
                    0.08433,
                    0.13351,
                    -0.04026,
                    0.21598,
                    0.03743,
                    -0.21118,
                    -0.13837,
                    -0.17449,
                    0.17036,
                    -0.11821,
                    0.13569,
                    -0.08791,
                    -0.17917,
                    -0.2114,
                    -0.1728,
                    0.2005,
                    -0.08615,
                    -0.15083,
                    0.17371,
                    -0.24855,
                    -0.08588,
                    0.1841,
                    -0.1729,
                    -0.0196,
                    -0.10678,
                    0.01074,
                    -0.10872,
                    -0.18021,
                    0.1609,
                    -0.00603,
                    0.07781,
                    0.11435,
                    0.06098,
                    0.15513,
                    -0.2119,
                    -0.24103,
                    -0.14492,
                    -0.00806,
                    -0.23014,
                    -0.01182,
                    0.10977,
                    -0.02803,
                    -0.05467,
                    -0.03574,
                    0.16986,
                    0.26527,
                    -0.0098,
                    -0.22164,
                    -0.08176,
                    0.07391,
                    -0.10824,
                    -0.21219,
                    0.18161,
                    -0.22422
                  ],
                  [
                    0.01606,
                    -0.02188,
                    -0.20137,
                    -0.08453,
                    0.06489,
                    -0.23409,
                    -0.03394,
                    0.0396,
                    -0.00306,
                    -0.21214,
                    0.17114,
                    0.2257,
                    -0.03356,
                    -0.17221,
                    -0.13899,
                    -0.14844,
                    -0.01498,
                    0.1775,
                    0.16916,
                    -0.11321,
                    0.18095,
                    -0.1474,
                    -0.10259,
                    -0.05011,
                    0.12268,
                    -0.00936,
                    0.04199,
                    0.14754,
                    -0.00161,
                    -0.01671,
                    0.18732,
                    -0.06187,
                    0.1858,
                    0.16727,
                    0.06581,
                    -0.16879,
                    0.1559,
                    0.19833,
                    0.09399,
                    0.20234,
                    0.19445,
                    0.18153,
                    0.226,
                    0.0026,
                    -0.20116,
                    0.16924,
                    0.18498,
                    0.05391,
                    0.14863,
                    0.0625,
                    0.02063,
                    -0.18357,
                    -0.20802,
                    -0.0965,
                    0.2337,
                    -0.25899,
                    0.2356,
                    -0.11723,
                    -0.1992,
                    -0.24966
                  ],
                  [
                    0.14959,
                    0.07678,
                    0.23211,
                    -0.22032,
                    0.24774,
                    0.21704,
                    -0.04772,
                    0.21775,
                    -0.06232,
                    -0.2531,
                    0.08905,
                    0.14993,
                    0.04875,
                    0.23615,
                    -0.20952,
                    0.22684,
                    0.12012,
                    0.09655,
                    0.17574,
                    -0.2355,
                    -0.05664,
                    -0.03903,
                    -0.18666,
                    0.13201,
                    -0.11012,
                    -0.20905,
                    0.16139,
                    -0.09662,
                    0.01185,
                    -0.12057,
                    -0.20743,
                    -0.08766,
                    0.13734,
                    0.05382,
                    -0.18448,
                    0.00856,
                    -0.13912,
                    -0.08285,
                    0.12591,
                    0.24293,
                    0.02798,
                    0.00233,
                    -0.05845,
                    0.24209,
                    -0.09536,
                    -0.00402,
                    0.21646,
                    0.15363,
                    -0.25519,
                    -0.13405,
                    0.07585,
                    0.19789,
                    0.17567,
                    -0.06223,
                    0.10785,
                    0.2199,
                    0.21724,
                    -0.25737,
                    0.18451,
                    0.22474
                  ],
                  [
                    0.21756,
                    -0.12124,
                    0.19157,
                    -0.05257,
                    0.01552,
                    0.06328,
                    -0.08018,
                    0.1578,
                    -0.21339,
                    -0.0576,
                    0.19766,
                    -0.24624,
                    -0.02176,
                    -0.21479,
                    0.12333,
                    -0.13698,
                    -0.14743,
                    0.10828,
                    0.01308,
                    0.06103,
                    -0.06234,
                    0.12089,
                    0.15012,
                    -0.09079,
                    0.22918,
                    -0.2122,
                    0.1478,
                    -0.13305,
                    -0.18024,
                    0.05574,
                    -0.08774,
                    -0.04593,
                    0.0822,
                    0.11644,
                    -0.12464,
                    0.21665,
                    0.05029,
                    -0.04726,
                    -0.20174,
                    0.01399,
                    0.05514,
                    0.01399,
                    0.15674,
                    -0.13114,
                    -0.21637,
                    0.16293,
                    0.16912,
                    0.07236,
                    0.08719,
                    0.13175,
                    -0.12349,
                    -0.0631,
                    0.22081,
                    -0.00239,
                    -0.03311,
                    0.13851,
                    -0.01336,
                    -0.23698,
                    -0.103,
                    0.19306
                  ]
                ]
              },
              {
                "bias": [
                  0.08052,
                  -0.20406,
                  -0.2269
                ],
                "weights": [
                  [
                    0.07007,
                    0.37217,
                    0.35282,
                    0.38314,
                    -0.22405,
                    0.17757,
                    0.24831,
                    -0.27768,
                    0.36704,
                    -0.37706,
                    0.25341,
                    -0.3432,
                    -0.17162,
                    -0.14763,
                    0.103,
                    0.3375,
                    -0.36245,
                    -0.14796,
                    0.12323,
                    0.17583,
                    -0.35832,
                    0.27415,
                    -0.40973,
                    0.17467,
                    0.17143,
                    -0.31438,
                    -0.41669,
                    0.10923,
                    -0.31571,
                    -0.23216
                  ],
                  [
                    0.05403,
                    -0.30715,
                    -0.29379,
                    -0.16334,
                    0.10637,
                    -0.15796,
                    0.31014,
                    -0.02461,
                    -0.38866,
                    0.28604,
                    0.35858,
                    -0.17314,
                    -0.379,
                    -0.04229,
                    -0.08077,
                    -0.16349,
                    0.28143,
                    0.15617,
                    0.38125,
                    -0.10734,
                    0.19395,
                    -0.0883,
                    0.02873,
                    -0.19991,
                    0.23488,
                    0.02365,
                    0.15158,
                    -0.39233,
                    0.12016,
                    -0.3977
                  ],
                  [
                    0.37021,
                    0.2622,
                    0.11756,
                    -0.11362,
                    -0.38043,
                    0.08381,
                    -0.3651,
                    -0.24817,
                    0.10121,
                    -0.39435,
                    0.18983,
                    0.24608,
                    0.07997,
                    0.36467,
                    0.1813,
                    0.28583,
                    -0.18319,
                    0.11248,
                    -0.19917,
                    -0.20754,
                    0.26313,
                    -0.01679,
                    0.27003,
                    0.20699,
                    -0.1451,
                    -0.24705,
                    -0.33706,
                    0.14204,
                    0.09332,
                    -0.29103
                  ]
                ]
              }
            ],
            "rollback": false,
            "shared": false,
            "type": {
              "items": {
                "fields": [
                  {
                    "name": "weights",
                    "type": {
                      "items": {
                        "items": "double",
                        "type": "array"
                      },
                      "type": "array"
                    }
                  },
                  {
                    "name": "bias",
                    "type": {
                      "items": "double",
                      "type": "array"
                    }
                  }
                ],
                "name": "Layer",
                "type": "record"
              },
              "type": "array"
            }
          },
          "validations": [
            {
              "code": "kfold",
              "data": {
                "average": {
                  "Accuracy": 0.16705,
                  "Confusion matrix": {
                    "labels": [
                      "AD",
                      "CN",
                      "Other"
                    ],
                    "values": [
                      [
                        0.0,
                        0.0,
                        274.0
                      ],
                      [
                        0.0,
                        0.0,
                        298.0
                      ],
                      [
                        0.0,
                        859.0,
                        287.0
                      ]
                    ]
                  },
                  "Weighted F1-score": 0.19097,
                  "Weighted false positive rate": 0.77198,
                  "Weighted precision": 0.22287,
                  "Weighted recall": 0.16705,
                  "type": "PolynomialClassificationScore"
                },
                "folds": {
                  "0": {
                    "Accuracy": 0.33411,
                    "Confusion matrix": {
                      "labels": [
                        "AD",
                        "CN",
                        "Other"
                      ],
                      "values": [
                        [
                          0.0,
                          0.0,
                          274.0
                        ],
                        [
                          0.0,
                          0.0,
                          298.0
                        ],
                        [
                          0.0,
                          0.0,
                          287.0
                        ]
                      ]
                    },
                    "Weighted F1-score": 0.16735,
                    "Weighted false positive rate": 0.33411,
                    "Weighted precision": 0.11163,
                    "Weighted recall": 0.33411,
                    "type": "PolynomialClassificationScore"
                  },
                  "1": {
                    "Accuracy": 0.0,
                    "Confusion matrix": {
                      "labels": [
                        "AD",
                        "CN",
                        "Other"
                      ],
                      "values": [
                        [
                          0.0,
                          0.0,
                          0.0
                        ],
                        [
                          0.0,
                          0.0,
                          0.0
                        ],
                        [
                          0.0,
                          0.0,
                          0.0
                        ]
                      ]
                    },
                    "Weighted F1-score": 0.0,
                    "Weighted false positive rate": null,
                    "Weighted precision": 0.0,
                    "Weighted recall": 0.0,
                    "type": "PolynomialClassificationScore"
                  }
                },
                "type": "KFoldCrossValidationScore"
              }
            }
          ]
        },
        "fcns": {
          "C": {
            "do": [
              {
                "a.map": [
                  "categories",
                  {
                    "do": [
                      {
                        "else": [
                          0.0
                        ],
                        "if": {
                          "==": [
                            "cat",
                            "x"
                          ]
                        },
                        "then": [
                          1.0
                        ]
                      }
                    ],
                    "params": [
                      {
                        "cat": "string"
                      }
                    ],
                    "ret": "double"
                  }
                ]
              }
            ],
            "params": [
              {
                "x": "string"
              },
              {
                "categories": {
                  "items": "string",
                  "type": "array"
                }
              }
            ],
            "ret": {
              "items": "double",
              "type": "array"
            }
          },
          "arr": {
            "do": [
              {
                "new": [
                  "x"
                ],
                "type": {
                  "items": "double",
                  "type": "array"
                }
              }
            ],
            "params": [
              {
                "x": "double"
              }
            ],
            "ret": {
              "items": "double",
              "type": "array"
            }
          },
          "standardize": {
            "do": [
              {
                "/": [
                  {
                    "-": [
                      "x",
                      "mu"
                    ]
                  },
                  "sigma"
                ]
              }
            ],
            "params": [
              {
                "x": "double"
              },
              {
                "mu": "double"
              },
              {
                "sigma": "double"
              }
            ],
            "ret": "double"
          }
        },
        "input": {
          "fields": [
            {
              "name": "lefthippocampus",
              "type": "double"
            }
          ],
          "name": "Input",
          "type": "record"
        },
        "metadata": {
          "estimator": "{\"py/object\": \"sklearn.neural_network.multilayer_perceptron.MLPClassifier\", \"py/state\": {\"_label_binarizer\": {\"py/object\": \"sklearn.preprocessing.label.LabelBinarizer\", \"py/state\": {\"_sklearn_version\": \"0.19.1\", \"classes_\": {\"py/object\": \"numpy.ndarray\", \"dtype\": \"<U5\", \"values\": [\"AD\", \"CN\", \"Other\"]}, \"neg_label\": 0, \"pos_label\": 1, \"sparse_input_\": false, \"sparse_output\": false, \"y_type_\": \"multiclass\"}}, \"_no_improvement_count\": 0, \"_optimizer\": {\"py/object\": \"sklearn.neural_network._stochastic_optimizers.AdamOptimizer\", \"beta_1\": 0.9, \"beta_2\": 0.999, \"epsilon\": 1e-08, \"learning_rate\": {\"py/object\": \"numpy.float64\", \"dtype\": \"float64\", \"value\": 0.00015455764397831934}, \"learning_rate_init\": 0.001, \"ms\": [{\"py/object\": \"numpy.ndarray\", \"values\": \"eJwB4AEf/ktQRtB6urK/vBX4bsIdgD/ctsnnXT6Cv2lDKDMlI2u/8V5pDgqzo7/tWOdbybLKP+fsWIkGgcG/LZoOM7eHwz80O02CGgOnP5bxxkqsQa8/EQg3zqQ6pD+5jwRpOTpzv7hysDlkzYS/huqw7GfUtL91QzRy7NWHv0/0XJ4HnL2/Wmzr/Gx7lb8l70aSTq+2v2KNOOqAVbW/EfHGi0aiyj/AEJxvikCuv/heo5wLda8/g7GUnoF/qr+hlsaiBjSRP4C511zWHLO//Ea0y9d1zb81iu8P4929v68fmGQ/+as/DxY6/SD3ob8YQTF1ikmwvzUJnh7jXKG/sDQ84LERtb/hlFf8PPigP/tXGJhPbJk/JuY9s9UJvT9pgrvlhmR+v7b6wXlluK+/HWNfuerdsD+GxA/j6LOWP69snEhCj7e/DmwvxIPkvb8pRZvk+zC5v8YZGC9ey7Q/q1PIirSawj8KXnKovwG5P79ppyeBRp4/WnHZMNyXuz9WcziEAabBP36mpeVhi7a/VHcatZvQnT/8UteoQIquvwL9mLIzxZu/HvqqU0dgqD+YxMLHHI6lv+xA0hgx2s+/CN9LXmPhhz8Sbv3KZv24vy8SKdEkKc4/+3LRvhS2eD+EvWXzHXjUvz+T/Fc=\", \"shape\": [1, 60], \"dtype\": \"float64\", \"byteorder\": \"<\"}, {\"py/object\": \"numpy.ndarray\", \"values\": \"eJwVm4c/1f8Xx6UoRUJW096llFHJoRKRbJUVJXvvvfe87r2uzXXtvQqRDslMKXxDKCoySiUlzZ/fP/B5f877nPN6PV+Pz+PTlUU4KmlciEXvg3jNw2lI/+pn9E1fIr7Wa6G7qEYG8ZG4/S0qRdBaPB8jWBuBhJJZuxbDu2A6637dOiYBOK6/vau/k4zVnsrZtssVcLlPhS+ZjgD1xSPOBVb1+JruhbJfdAXOrridtCSVYHnc2qnAKxTkl/so/OxOLgbuiecdXc0AqcX0rdwJ0fjodyR912IhHF83avVQpsJTMTuPyQIaji8EjKx0W4Oq+vRhVVIeKnyo/yHWV4Dd55v2rImVQt+N/n9slvHwZ8/NCXYmKow/z64xoi9Bo1cN+YaMmdh892X0+3IfrHJK/mNoEQp8OXwhDs4hIK4nq6dNcIGjTGaDPOJuSPffq7NhEIYqGzKdTE0WMPTfzhYeQSKKOOUIrtrbYMzwQznNXW5wbGDP6vR4NB5Tir3+WtIBoyZnFa9FJMEVamSScGg0XOmQiJXgiQC+KJGOzO/uwKoQ792k6QeNoTZm0ee9ULf3URD/35tg0/LWoOi/UHwkEVHnFBOAoa/emNdHh8C3bsXtBL3zGOGSmz/F4A+9B85lcisHQ/nM1fvmeRHIGPxgVj/CGoufRytW6Qdg6uTlPN+mcJhoS+8zPeoFjrfTNpYVDaBW4fRdM1MS8J30UG30I8LF3srYO47hUM26LS3MMRKH29J/vNIl4/LVxs/PczzgSr5jBat9Mc7S/nQaRAbg3ox/QSJfIuDNV26zQ++zMGpq/aoqQygafFM8oedeAEXvRpdJyVnQxsh3STWdAuf5PV88vxYNHpNd0l33koDp56J402IsPv11aO59iTecTJJfuvyOhO/3d71fuELA6wmjuXvuEEHD6dlsmNhV5DqQE2f1OBkOsb/h6XiSCif+2GTEHE1HT0HT8gUbf1Thmg4zZCZgr3g1ZjJS4OiIs3ieeBxMrRAiCmts4PeX45o7X+ZjK/+YU7hOLgrSDBpTDiXiUc9P3T7RqbCk1+9d7UOF6/+lTZIag/GDOrXnamo9+Non7X/1KgoOGO+I2k9JxnhwcS9NLwapuliPDMZ4kLW5wKP0rAqjPnL8vFxRjBLnkx/dqKKhhlHqi1JeIjYk3JH8W5GOkGTwycWVBNWfv8mvUCOw6Zi0TsJFKuywkj4zoJoNj7lva2wl5GNqFGe84rAVMG5jKnCsyEQFJ0UjFloOCp4eVb7PWAhl+blxchOR4HzJ/lN3UCZEsMm/zqkvQLe7XCGWNmm4T7qy4ISJO5Z1m7RnKlNxNs5L6X1EHo7Vd6knvk5C3dQbwzLOqTAdcoqJbZ4KAj8WtMwOhuI+TsLQ/EI9dH8eUPzWEg1PZ0R/NysScHjyyAlu/RJoCuSXEmiOh79H2NunNKoxMu2qndaxEuQ35fNv21KIb+SvPW7NIOJJP47pbYkZ+E514H63NRnuNTDHKPhEoNDqDZ2UKio8IJ83PpuYDYw2SjOarfnIqHPO3n6vFbwO8HDofZeJ2l5x+zTjclF2ZeKvlXMh5OqwBhk3RcHayd0yEr5Z8HHttnXSBRpyv9ul6Gybho0yF3p6L3vgI53Rve+XEsDwO6/UBYs4uHLich9x3Qd2cno3MG0NQdZ1C71LJYm4FfjPqIfZg6ftRWp3bR765nL3Za6443ThrQLe4/6wvBbUG99JxC6HqAM2Dd54INPZ3etsJtiURis3LhHB8yw1d9iKAM7CP0KVI0IgpfrlgQ2/SMhy4dSuaApF/4Kp6OMBbjCwYXqgPiYRhbJ2yRygi0W5GNbvWuMJIJqQd93SXg9bD8p/MvWNhjcOFofKJ2OB67icEV0ZATNKyMxCf9xw4pTTm/M7ojHSnM4k6F4yXGDmK835GA672Fhipx1ugKCpR/gBmUworDl4waEvHbi43zaKe8TADSX+sZHVeLzscjBii1EWZo6ancgR8gNGI2mWuslKZK0nZQy3hGGHgcrIA7vNe7L1OO5sUYAbdT4MPd2R+Ojm+H7B9hJwNX68futsAYz5i1tLu+WChK3Yxr+viWDROq1yWowE+7y42qSWUrBZdZnv+HoQVCwNpQmNZeKiygepBcM03DgSfNoiLgMSD1nLJTDfwCWotBgSIENQXWms6rZ06Pjgu+YkkoelCtH9/RuhWJdfuju5kozXOj/k/vDOAffyvPTWRALMzlw1fajhDK3TpsN5cxFoofPAtcg/HL0ZVcwaVt1QP779yfYnXvBjyEp666NICLV9YfPT6hb+/UDmjt1LARP63d+e5DjA1Kh6j5ODB/L1HS1yEU8AH3HOnvVrrnCkIm74KjMR1beLK545koBPco5/Erscg/KdDA8u93kjV1N7fspiEGodOUgqK/eFcCl2mV5lW+Q6eFjzln4keBg1kee2hUGLXe51h6II3DdtcfbMs0vwnX1Cr/RwKP4lHynLZg7H4nwW9cynMTCabyqg6mYPIt1vLvnwhYLXkw+SZpej8ZVu8CmNQn/cFp40Leh8FUOmGbLa5AqQOj7zN72Rii4MY3KmywRkrNFLHHuQCl13zjgqCNPA6a691Z7xMIT0B3UB2xohmiRi0j4aCw/U1D42XiHiFSYHwxjpMmDMnDhalZ8IRjF1GbeWajD+l29ES00pejqzFfruLMKnF0W0Un6S8KBU7F2l/iwc3G8/OFBOgUH9/uqlTV95vDR77097ATwS4HHubcsBOjGRiBFbKmr3VzWkpd+CpIzeaoV92WhvLb2j/Es+SmwozSbnFwFY776fNx0DegIuLE9Xc2CFIu4r3FOIonVv6p+up6HB+ak3+qleOCQcSr06kwYsj/N1JupJEOL8WeuMfThIxAmYxtJi8WdXMm+gPQUtsp63tvp6QnN5bLEgVxmyyqaljDsEYXVEppjGwUgY5d8SXC6fi+5sP6WkHoThuWNmn9JHC2GR8GaCOScXWKR3ZX5tyYTstCvz5IJY6LY1Svg7lQIrCjcm34/F4ZU8O5h9FACl+/4b2KpFwUFW9on+BSLO5hkcafqdBp9ROUmr3wyvXasst97sQ+jAMGexFQk2Vkr/i+bNwhP22/lYPgVg9UQyM49AKjonRIblrqXDlMIBwa0/kqCokr1hRNMWBOaTa50aboFHhrpZj5cWWK8UFXLsOo69p17isuhNNPjr9zX3/Q1sKIxlesl7AOCv7bc8JS+sIbI0yIMC1pxv5Iqll8APDicMfjFYoJ/5sQsdjBr48UiPmLKUB7j8nv593NYGfOW/vu14bQuR7k/3jQvowunerFnt/ZdhXiHkxWqyBHbO6VTp8hrBrYhLQnV2N/GKpo2wc+BtpDlefvUj2AHWlMXU/us9ixP52yEt6xboxNG5iA0YQUT/gRT7PmsE3Vfi/1RlsJ3r39eDY5oYrcdT4XzDBMZZyq7vC7ICuqAzu1gerijp/Thtp6eVDyPSz7yFlHNBsV3IZjQmEbY+0XYkfCJg0ZXKqeJLVHzpSd935WkwnBT0q+m5VI/31oT8lJ9GYdi+uYZ735OhTEZI5alrMYZ7W7WkN8WhofZns6KLVaDJVi77zawY6lKEe0x0aPD3VN3v5vepMHnAu/hAWjokmH9+9TqWhOePh3I+ehMOoQblNoe3UzGBdWFgPD8LKdzza18b8uDK/gdOn3pvoeUNXk/kzYTHXT2J2nY5wFPw4qRBMw0NJ/O1EscjUVbOmCLnlIl7/tr4XSIUQMe1/Xs5OsgwMzbi/y7UHQS5+Nb7rShIF6YZuHONhOcC9hbkeIZj8GGBu8PxcbDq2PDlyDwFpg4FOnwr9ETmil2cyrVl0Jp/0Y0yEQQ7ts4KyYtEIl9vgpZwUy68XiqN0T0YDoF6ux37rhUh63D9iPL5PBTfLV4aYpaF/CUyxa8E47DVYOs5ylECbiO6MM1wxMMz8Dxy9Hkgejz/q6fbS4Gz6/5qfN4k0D6TKXm1hoJT2laHyYY3IC7qzhRZnYjTgYxncztI2GKuTRi8mwVbxMdv1+oGgnrd+0E3q1Ton9Ec+X0zA4+NBrNy/03Glbf0ZPZQW/w2KhJXbJYPFW/KuyyzciEzinWY7UgS0Erpn6Q8IuAzV+o3P0sqqmwxeVWmGQK7H9Hf0DOox2OXNk5XsUTjSnSL5BZaCrDs8Kj/QS3G10wl+wsn4tDFgv9Im2YV+OkPvu7yLIa2MBGLYn0aXK7+c/nyViI8TDHqY3uRDr3fpD7yTZJQ8e/OcwdKw0H62IT0OicVeUte3XRMysL3bBROYnweGN3Ph2n9W7j0ifdq+a5M2Nt1bisW5sBVhncCVV00jL69r6PqYBSynKp7mNCciaYbWU6TdwtA4Nk+EcggQ0+Fm5DSC3eIrN8TGmqYBXSmZvfvzGdA2z3LGZWMWDgb/NzdgmuTM9Q0e87EZqOij0h85jV/EFu02ODZX42C77J3CiSF45uA+wvTpfHwIXCJv+YoDXvptjw2aonC82Yjqo87SsHXRUGjn4EGz0V2PPvZlQejDz6Hal1MhodhTWEBzGSQU5RSZWoh4Mt/BCm/MyFw+GJHwT6GbCwwZqtyuEjB9rCS47rZmXCUwct38PCmPpDTP6lsTQMOr1rZQI4M+D5/PeF8RD5mkNvqU7vDkEP1Lb8uLQ1rWtTfHO/NhQ8xxNXX51KheMjzxFqbC+hKMZbB+BWs5zPZGvVcG4XP3WjmKFTGo1qfLnNYngaVbKsS04Pa8FxNgt+h+ThmnItkMZy7AQUsyhTr/fLwMffck466c6gtH1zx8ZYR7NXliekMPwWTJVExUxLGKLvmZD31xwAPn34YEjeqi87t+ke70lWw2oGtx8pYHW/cmduiUakKtYuS7fqvjuJ/rKN5iz46kOg2q5CzqgYltWn/PfuigYuft414Xt0KF8VD/xOuv4Cd1cWPzOMuY4HA1tg7unqQu2QKWh2y0Nd43fS9pgZoWJs0yk7oYpHZfoLQJRU8UjtkkPlcEGuCZrij9xLwQ4KyQmJ4MmqM3pW/ejoY8x2VfxEYwsDS1JRY9IQA3ykmnF5SrrjoUccYuOmP+rJmYa4t3sDvpOfPbBWKphZj1zSBAlyD5H6meH8QIBDCg9dy0J3h+VIoPQW9jlbdofQS8WnHx67nQeGoX/jQ72RsLH5hc1H0CY+EHxEl/sRv7nhTvjuXMZoAAbWP5pz5E+Bg64k5H/EUlHa4ZELV1IddnFTr51Fx6CP8YvdbpyS89HP8o85ZEnyefZi+0OW16f8tCSV+8WDl6fZw6iQR2W2Ivaw/I7H+QUS6nOstfAYiHt/oaOBdq3nvqngBbNWcKBHnTAWBpzvE3P9tckT7wDWFKRq2l8pzp8uFQ1hlWdrCm0Z8zjmeu5AQh1XOQ6ZT4US4cGbZqPhvGZp/rVe/35WEoeXZReJydSCU/pU1uLoM3rKW6i/QF0OZvE+eyaZe9uqoK8imZ4NpDe+fpIPpOP08um+JOwqexQeIfgihocIzDak+vTw84dlZ03y7AIR68grHSbfRbWn0/np6Djjt6zw1GkMF+9NNqqOJxdjmYE5nExSLMtGfiub6cpGff5hp2aMI7rPaZ/Bap0PY4qrth9XNHLy+8HELuQyzTn4RyewsxZOefr/tvqWjdsXynm2OmWCdUWN7cbQcXvC4l5Ubx+E1x8M6D/e3waR38gH10lR4c89FMv57JuqnVkjMy9fDsZN9zMtWZHia2DZ2hLUJW/IZ9su8qcN3e8MmMgqqUIqXXrrWIwd3yBiYXdtZiKEF9MZbOalASlQoX5ZMRG3FSNVf+uVAD+Zld2KL4Jno6375gFI8fuMUp+kxR5h6aj9yy7AQ39bq1y23luB2dutGf+dqUOhJYLv0hQCuI1YDj1KLIN5yp52LUBXaG7060+Cej7oDZ8V6koPR282iX0SUiJ9CvSgtban4fvWoYC9POHasra6bUMKBNWh19ZY8CS43OdTF/3JHLs2R1w+4i2CpQrV8wMwf8LCORn1CBG67cfb7zYJM8HnyK8TzYjCYfVu+u6hFxWSee3N02zNxUrZTeNfBNGQdfLimKRKFHHGv9LndE9GwxJOmJBwL296pBdzx98SDbWvXd7UQIcoveMfkqWRg+OHC8eB0Kl5zTZXZb2UA8xliFm9Jidh/quqh4QoBu81J8U5daTBM+6iuecsPUkU+R6k+TIa8d4Mrot/JeGOBtEeTKQZH01jbz263wZTknRdbswrxwuurgrxhNNTZeebFb3kizo09bpd6Twa6Yf4polMRfNpq7B1OisCH20ICZnPuQvE268VvCQkQo1qw779+Ei5ltPBVbK+EyjcCQqJCBBAIfkpVK6tH04oXk2GDFcgruL3q0GIJNkgkiGcGUPC/3MrRPZ25aD349eXuJxnw8VZtQOFmntjYdiF1+HARKK1u65wjUiE2KElvdU8hutdzFyb8sYG0wntaGtL5yHRBROrX6wKcsSyWMXQvBaa7n/e9vRoPym949h9jpsKfHRrRDAdLsLxcsSyrPhN3yd0NzAv0Qbqyxj49lkK4sDqTW8VIA0Z7baWMgVToiy4VWFYiY9aO1niGV4XItyGQLMgdAakpsk1+dHfx/lgES/5oPO5JfRRmq0cChz1uTZraFai4nSU253YKen2oaV8UqYfp8+OpJ3ZXwLMbBLGd50rAzOZj9NVXafDhl+e01kYOROluL7OWzkDexNOEoJRoyCOaPjuXWoh76dt2yXBRMfSRWYZLMA1cTZTe3z1sg5/Rif7tuTxIbbnnuHVzr5nHXR8/7i9BSRej3E8Vcaj99omk2Ll8rD+S2xQSVQx0A+/BdCEDBPCwke+CN7T0vbizkxCATAPqF7QueuGL5dY3XewW6DSqKOCy4AZeeW7uHx75w60LJ2Jdmg2QV/TSc0mJTX68aOXsz2EBvbfJLnR7bqK45oMTRcWhYG13qXbe8DbEmvm4dtrHoZl74OR+7nAkKXXF6ISE4snLW67c03DCW2qZDZ4pblh8pJdDvN0OnrSo+BG6rPDFSU2x7IQAWJXrqHM19IPB5Uw/RZ1gHMmrpZxQVoerVb1f2hJ9EE0UHMuueeOUl3XHLt1QOBnfetaz0QzMSpJkd9e4gyPBkCnTLwBXjTWZW5U369I++3SPsxpmJvyhDMhmg5Cw368bvzLh5WJxetRiHGx75mvcmZ+IkRJjcuZROXhQmzWhODMAJAZbbtGz1CDfoymBAaMIvB8Abh/YEyE5r5tatUDD/clvXZvDonFflWn6SFAZHL241cuulAbTb6MeF2M+tMiV6mrdTAHauxZizCwZntX2n06OSEV5ergx0h8C7EkRGukb2dj3LmUp+R0FWZpla78qZ4EtmeM+iFng84jvvnykNJhz5by/nT4T+g/9mlTZ5HtmztCCxYRw9L/4fc4tgYLloYTDb77kwfCtwYk3xalg6XJUa0uBK3wOe3tC6Fc+bE2ZK3YYz4MCcYJ8GVsKLK4uGszlbvpyX2PE4DAVXbl2uL5xDYVh3zGOVxX1SLqzqvr6czR67vrJW/mMALzi3V7+FiX4l9aTrxofjzGSd/kDsQr4aC3r/BvFYEXd3dBeQIPxybH7qZFEeMZ/x+B7ZwaEjY0sPJ8ho8x/Y0k/b4fDVHPRvmFvKlpwvmZ268nCuzfuSP6m5oHsuiIDf9RNFCo8m2uikgmC7klt3sRceHrBiGGLaCHuW6EXtdgRjW//MxmSxiw0bk48qqRFA7cTrlNn4sgQ9rdXSWzSA2a000Ze08LANyqcaBkTDns9xFVNTnjCvL4cXeMlV+z64NT99mQETvtsfNumYwXz/j13t6WRUCvlYKumowP6f9SZKKnwAiaR3gu/j8Xjx320x4zizsifN0QRNUmBpyKlswP3YuEh46rn0cuR0PoxIeqStBfQDbnuTPEPgmYutUv71/0w0IJG/B5oCZ7X7zINWoVj5RMuuWDlQOTaOXNFICkE7gS1lLLZAPamUsycp/1B+dPRJ7VyYXAVk+OPKkbhY+NfN7/V2KPu8fr/WOhDUYYc2BlmEgWyjSenbAo8oUfR9PUTuutwelokdlm0GLYyepubnd/U4a9l6lbnyeCs8vXN2hEKOgXu3G14rAS59GJ+MydEwYe5njg602akbLvJ2CacjOcXP56wW0sDtZ5X0Xt8qjGq5DDdaHgqft0l2dy9vRFmpq+uTDJUA61px3pLVRmI7zr/TtgxA57W8bX/VqXCyOhi7aOr2RhYWrYvOSsWBIMEcz91FmP7heyNoUcFeHfYTXHCrAhamrvNq7fbIXlFMtKkgwop7L8+h/sVgqNnd+Aj/XIsvle8x3QxEY8XX7t9k1iA1F853c28ZcC0553FPuNs+LZrNd/3hx98K+y+sI1WhP7sG69IPZu+tEvGU3aAhLX9jLtCctLAi5gum1xcDK6k0x9/b4/CK7kdy559TUA2Oe2w6JAE6by3jpa6pmHeUKDY6ub8tlbfPn9gk8+Al93+e3IDbt2yvfqydhXO7jp24hNrGX59XPXVfSQdr542E6brysco3JjMqM+Ch5J/D5j/iMFm02X6LwrF0OJUDl/1CqBC3TDo/MtCJDILvR24bgtb3Vn3bTfcnHf1029M6QqReui964PGMniwdoB6VSERDJ717RYQ2eSxL2e3LUeUouNGxKhPWRZ+czL9z9TED61UrFcPDhEw5hQ3U3l8Eg4y9Ty/P+aPvRHS62SHCODaQxq350gFGYZRZScHZ3xoLGP2IogG1mvc+0f2eYOXSmCKr0MQDrZF8h/ipoBEkKzyJdYA0D/rcvc/Qh6aLmSxihZSUKzNJvnPMAltTzInz2E4CjyZO1y6WR93mvqwoHgEkC9xTNRu8cYFF79lhr2pEKXuWFFrngR+HVoFFPFUNKSs3/1Ffw18LnLdo0YmYEv/QluHRRL26eZ+CthOBmHV952P3nsC298Z2tj9OPimSu7M5SfinSOPi7ZExuCTvH8+sp8tUXmUkf2xMA1X5XeL3VQqwOiof4enuVPx6MhP8TopEqipHNB2/0qDc5Hw9LpmODq/a6rYoLsD1BVqUWpZHFATjputJRORSmBZfMJfDj/1B7hLV5PgmNGjEBf9OhwXF9FcflGGDjF9mbbHinFlw6FFcpqMhhVXpMcbspGBYqMUciQd2I0uZc1cj8Ifr1Uuu2zqOcr98tAl50GdFlPvaHIB4iJ96r222yCgN/ntc2cOfrnXPMiaQ8XvIYfl1+8Wg0f7s77vKbEQeCA0mOddLnRaZnA+SirCsjP0c6fz05E1zj3z+XcvHD54IUDpUxJWDevdG+uMQ6qK60+BKW883v/d9kNzGNRbxzkLaiZDbNJj95lz9higMyMcGUaF8H0vrmsaesA+Xu2c8R1+yDY38anblgTixj1+ezd8gFcv99Sxa9k452Im7c9Dxu+KQpK2Dan4n/lE9dvMUDzdz5dwcWsU5i6Y/Z4ihIJU6cXGOwc8saatUtvhUjIUKV8MzHGOhyRZhRJ9hhQUrWkei3U3Ap+jA62nh2Pxj2L2Q7X5OPzscHk8eCQVnBw/+/5TcYchw6Uozrho2Fv8QujcpxR05e+sSTSJwqxDViUfNszxTWqYwU9KOhicq8ijWVMg/8Qhy8hT0bBAIJTu2BWHJ/4V5Mk2ZaASp4+0xX0fcM9RadLjqsCt7xlZ42tDcSXdv1WIPRbUz1ocfL65V2vqJkFtgRH4T0b/d6pqMaDo7wwrcSrcf01rYU/IBl3LmSMqUpsc6rea0redCP1v+TeyBZNRvVfhsOfTAIiRto2Lk8/A7gd+g/NLJNwtWtN2+DUFQrY9tfuXY4p/XB/ftntChOLb5Vbl1DSINpy9/UwxB/HnMzb2fyGY3cigdsGbhGm4f0dMRxb4lzvldT1NBvbP457ZBY7w2TL6uLJ0Edzsc4vs0C0EXc23P9k0SUARvT8iIZCG9m3Ov00FinGv1mR2T2IkBA/+6/ip3IT/pH+q+bUl4roPlffMChmWNekZfLmrMN8nouZhPQHNU9eVHgs2gP8Jy6qOykooEv1y5HpCKQwWfk1YU00Hu1Kp25Jb8kE4lKk7hDkLg4cd73QHxsAXl8ux1t1FeNNe/+2XL1Sc8zAlhDsWQtazpJOlLTYo4qNJL/MmH9R2S/ULJ9PAitXthZJYGQpQzPSZ4hLQh5GiW3mfirpnoy6Fr5fA8tvtjac5s0B1NMicockXwjYmu/5x5+Ogql3UimQeHujI6VAmJuPhgS3suYwE8K1efS5kRYXd0TMyZw6F4vPGQ3NJR+pB8Kkq4YBzNIxHhh/LjiPg8eaqMcfxYrjFZxo39DIOHKOGhJ0+VOIW/cMMW6yKUTzp4JZUXhoGbVnpm99FxCAKm7i5TAYK/pFwlvIjQ3tiT3tHcxgKcaUcPsRIhQpa0QrxayYkPwp++rgwF++/KTupUWcJtrWNlkwBGXhaZuPM2MscNIwSPuNK3azbn1ATmBIFSQs152JEsoBa/bOHOFWAYp8pZofGSHh7nPUId6AH3up5Vfg4OhwqchvX9Z+EQ/Btci3XEw9Qt63n12l1w5YF3W/rNRHonWD3MNfLCtqGD3g1aJORjqj0LOqxA0rV85695OMFk+bTHySexSNfPqVNUcIFE7I1ozkcCcDCEqfUvalrzk7tw6ddo+CEL3uud48XLCQ0CpSPBoFbb4XGv/d+mKs9o/ou8hZoqCwSObQicIi7jvkIczDuPFlk9motFHhPp5NN8lTQrnLPQy3uQIh5XWTfRgyDCEFtzRPy0aj6ZMZmrNceSQp6judFQzHXRFESh6LgO7OEQbCRNyhMaWt0FV6DT+nSosBdgmNHQtWPSBfjx4iwLB+ZNPx17FTIy73p0GXNaP5PuBR+XLEoL0mIRt9jZI9Dpi1AsLzG6RSasslLMdMSfyh4++IHL7H+GuAU5gk0VyeCSyFR0XOiES+Hf/xscLkGVSz+iCw/LMdm/HNlLShzUz/Y5z7+peLnqYllSUoOyKxs0f5SEIe7pxcVsu6XwNkityaXGBpIK3v/4TxTjHoN4mzcs3Zw7AYMX3EtQM3s4gYRwyKsMOJm4XergGbLS+fSZZLhVe5ICp0xDQRO5I0vSZTjV48G/pjgHGwu6GV/yxeAAutKI6nK8fCsjb0vCOKBq+tE+debAWD3LKw4Yrc/lhw5ZC2/MxEVlT8I+eg6AlevTsFurlxUE33gLbo5HwFd1iyLYUFgfTeX/GOUiDx/tld07vHGZBIT/XxoOkgGRnScPE6E0QXVVBaXZDjZUP/f5GwwDH2Rkdj7LxJ8bP0k43aGo3Dhsm97iCOMVR5cGpZIwOdBoom7M6OwNvWFzxnfWLixrSp0L1ETywQelrp5RsLcqLsR41gsTIZplbBGpuDrrwMZj0bc8f5k+fH4+9Forsl59HpPMjBGKklfVw6FKdu0I+znLSHc3A+eZlKQWGv+rXmKjK2U7EsveSLR76TnmvPLWLC7HbMc4pkOq+eaE19NeSFf3vKOsr9lQGzjQS6REJC2SfLreRaFIXvpb3k35cGsyBXhy2HhUJ9x5FOnbxGqjaglfxrIw/jxHamtgVm4tHdLCjyMw37ZLp7xKQISBi48+NmaAKazL+9v7wrAC5fLf6pzp4OhDOnEAWMSbKn5Vll2g4IMOdFziyFm8F2ybMjkPBHp184Ym94k461/lO+u27LBIkXxrS0GwXlJn1x3SSL8/XWk4tCxTLzM0B170jgZZbk16lDZHuX0duxuYomH/V3vQ77KxYHS9UJvTh8/aFPqjQgb8kc+DjUdY7MEbFPQUhNZtYc6vyZm04Yc/MM2WMnW7o5BboMWflkBABxPL1/bfI8+f+5F53wvjBVbkB01TocHz2iktHepEEfznJu9lgx+UXJbbooFQ8SozU1zmUjgOCmzbW5vGLKvW0Q5djvBJNO6yoeZeLwgVT58+X4ULj8j0Wo2+2g+61rAc0MLpWYTKWS7SNh5vuzCBE8sTDk4aWQcT0HrKX2lkN9uKCehVbj0PAq//Pua1D2WBMGRr2T68kOB+3lf8dxJC3ihu8HBbU1GF/VZSwO1TU7Kb511/xeKidvZuHk4Y0C10/6SyjQZjOIUfzeuuyPjdv34Hx4lsDuhmeClEwC1ohykEHI4tsqtOvmJZYOAu93tn5Gh8FL2lDxrKA2PlFbV/UfORomi7o7lf+l4SUBXKfVDNO4Vo78SSklCjYmy7zUrMfCgR5Cfm8Ufn+6RPWfVRwZjD2+BvxWpUMn1ksmJQEZie9vrrm2moBrEh8zETT8oED20ewcRLbStxIsMMsDF69Kvh4t+sGH64e/JoRR4/fo0l4kqBWdFQxk7diei3J6jOe7+1vjAQztl1ooGUlLVbnFaBeD7i8+m/Q8BDI60q1k+IOFptefru44WIr3jZLjJhXB4SOKkZevcQQNnqeMPeuNwvXxFutSZCEmaOz8RtMvxkuiQ4nG1ZOQX2lvZmVEHheWy6hNC5cASfbPzSlgxvDWYd8jnToOOl4+6vF9lw0Hv2nUdqXRcDwiFsF9RwOYvTDsxScOpK7eFDKXz0WLYy/Tl1wL4ML0QMTJnjXtdn+2LtsmF4qvrlJ+dVPjhdbgvn64EW4ksI0/LY7HIbvzGGdY8FBlmVDK4VwQv+xP6g09lACc93zvbdS/oDB79cUCdBI8Jr3gvXCCCo8uDgGrOcLCyMplrjI/Ed9cuWuUfJ+OpBoWTM5v8yHTUkinYsBgJr/vW95wKQA87yybWtAgQLrqfNVKehQkZqcsaYyHYaDdrqm1dAPZjpJUsu838M9iYzR9FAUv2Q19GZKLBx3CNjc4pCQojg64NJcfiud+iLIND3jBgLDxE6SPhtNfFV++0CHhvo2fcp40IAlOjv3hSrqKjTKml/mAyrJk8kXpSlgpKKkTDhL3paPUxd7KZ1x95qUyBFg9TMDCCPCMzlgaTNOH2LOU4OO+sEzxvYAMEpW0SxYkU+HOofMstzjTI2qZXXJ0QCcOps1Y9qrH4oqTE9t7tdJzcoFR9VPKGa/KRynqjZXgiRjPvnE0IGmp7VayYREN0vfK58Dd56OdPE3UIC8e8fd+PE/WKwKnnr4tGRx5EsgbL5d/MgotvtxQKd8TBDPu38X3fCTAj+/j0a4FEdCxRfdwqFgC+YzdF3fnTsfpu8gKzEAn3jJj80dxDgeVbDYOE3yb483oTcXk9FVYUHs/aO5Nhzdf1luvXLOTgFCeV/grCrOxf9svqRFxrolYOqmYCg9wc2jxJgsYd9w3OUezhfqHdpYTnWfhzqGZwVCUTGX3EVN+PxSLLtjCJ9M5EGJE64FVPlwOvuT4/5arxRw7U5h8pqoa0htPLYcPh4DZmfGh0JR4pX9M00nxoUIMxN6O5o2Fg4UPidtkyPKvNy/rHiIa33Xx3CF7Px3sTSgpi/cm4HBR4bf91Mn6r/s9z4CMBBrpiCt9u8u+dX5xdAiHZcP3x0Wi9NgoYfQN6U7EsvFywT4Yp1wJOHb5z+rh7GrLd2i/t7J2BAgqL6vt3UUFXSHfcjyEcbrdUOGd/TYMPGbt3mSrnYc/Nzoq7Jam4X/mmuAmrK3buit67S60ApI63l74MokJ1tzk/5yYXfW/341wRIuL8p0SnOjYa+j0XCpGOCQO/Yrqf7Lsa8bTgJf+vMbHor3xwlWczn7TwlnZ8+leKSesaLtVJiWjA8ePSBGst1GuEmPlWlgLXJK+ljHgR2E597miaI8GXi2OVL32zwOvKq85EWQq6ZstyDUhHgnvyANzuKcBDMf9OZO/KxaTem9z6ZVTYU7P0+T8bK+Sbimks0c4GiW/UHX5380FATikzu6oI2feIfM8IicHlUw4BFqQcHGLcYumRXwhRtr+VdG9SgEOg3+HWbi+YFj/NHhxHhW/UvzHkrnxQ3l/Zv3UiBTJudhqyQCqyffjd/O56AX7ZcjE+YTEUTh6iLUlCA/IZXG7YQY3BPvWBT0UqqWCyl+DPzF6KH66oTWTcTsDt3a/2sN2rBsl7fEfc6ktgdNs2fKNWCLsGbKml+0jwrkDo4IegTDjl8m5bvGcafsjxud4kFAEnr9q9PM1YgC8+tta/bc3GCweW/xZ25sO9HYXHus7dwrH1rPM392cBsygXLSggD6Qjt180GixEln36auwV0fj4SXn5YEw2vtwfHkScpoHQ+V29j66kAfGFROWeG54QGa35Q+pBLPwYfR9fnhMF9lWClxYDPOD+WX9Xk3uBuHUAJ4d3x6FTWOjUHzlrCLu/wTMvnY1bVV10mqVccZqHp4T5the8Ksg41X+MgKUPHsufeu2Bv8/7EK1CKPCPnUX2Go0Ae80qg3acTILnHBf2jUUGwKJuU8m3uDD4PqD/mfglAA/vL7/8V9sVVgNiRtv44zCi2nJBoTwKEzpjk3SvxUH67ouhtwZ0sYfDfW7yXCRseZNWyhIbBfsEYq0ZfJMw4cy3A28SnZFHlmUgbzgcMy1k58ikeLg39cZk1nLznOfT8hIHjKEk2/2H84McdKmLW3ObykZK4NE4hpOJ+IiqajBWmwQK/KIGtVp5MO560q+tIwhHAw4cFOmuhQs8Bw1VmiPhYYSo1Y3wZIxlfl96+mgR0NT7j56ai4HhZbXxD8PliH/WjYu7C7GjO//g7zYqPuBwLx+pJqC03c0jX69T8DkrrYNrngh9xaONk7ah2Fmiuz6dmwsdd+flJOgzQPqYN12iUzbO7+aMv+FkAb6P29kkyyioPnZPjLTpB3ua2ij7FAqAk71amLIYAU3BJrMtohlQv/DpwJNQKt4/nfZkhzkRNz4e9xX/44ZME7wOnWQv6GsKKek56wupUix1om8cwEyjpi10yBLLG49fzxH3xT/VO8uE95uA3x7ZC6bMsbjGfLj79StLNDOIWWm57wR+ko9ivjwJxQCKXlbwwk00oLdu+fo3HEyCv6x87wyG2O5o54NkX5h5k16W0GgPDD/dQULUA1joevlGrN1wKanRzipUD0y/1XaNdXijRvzOIz55rijuvj+fR8Qd1nqzR/8WSuHVCXM2rWEXYGDyD+f46wXFdFzKL3n88YrCTnWGJEsUsGbQr5j1xNhTdA87jAKgbDmCw0fYBrLPzuc/eqcDnQ67a99PlwF7y22Gha1lEFh9x0v2RAYYs5rLS3Zk4u6VKYX/DlfgxyM7r7Hl//+7w913Ik5tOGY9+7l9PBWjLc9IjJ7Kgts88ivH7epR5GOsQDWVjLv2Dr1T1GuCqeCzksf21kOs8KPPKT+qYDj6CU9DTw7MSw+eY1AuBI1j+xPslKnYWgeNOvGJcK2c49SW/HKkTT4Wq+wrwhumeS2vu0vBSpsz4Gq2I/KYp2Y9TS0E+tSpaMPfJfAvlcuN1lONzwTfKPDwpaJtGknY83ERBnIuPDvuVQVFvYI3zo3ngww7rcN2JhhUvEk086FSyCO9VSfuLIWt/81zy11MB5bh9bH3uRmo4JKvuGN3Oero1K3PpMfCTbUXA2PqrZj9XPCV9Obzp2U+v/M9kQkx5NXSIw112Okibh7STULGiz0tfy3uws47urnRZnUgEdHJoNpWCWeTmE9bpGdDSpawdbwfDV6a2Po/UchHx/vOLYqQAFssvqBDbBmWaz+Ne/K2EPtefmWY3MyHy669+q90HZCN41phDNKgIeMfkxxzCczEHknLi6zCvTbdVH53AnJWLFJYvxciw6CbWaVmJehVpPSzeeTBDOekTmZtEKxe05nl68+GkCEdaa1PmZu+p6mmqhgH0ZrhuoXbk/F8AcfPreM5eDvrhwEaBABdaE71/oIavGFy7Zy8XgSqWRq9OOyeAJ/abRSK6AtxaUhwp/VgNB5yvmqTzFYOhp3dnSmrNMizv+VleY4K9Q4bdN9aUyCi80vY2CwZZra8gX7NVHxTPXw3ui8UfH14DXj8c1Cm7nnucF46XhFZ9nQ/u5l/eEoXP7tY4vnRtecVshT4cc6qYkkiE7Tbp2vUsqn4g/DR/od7OOrNxDjnhlOwLPJsVtvhfNChO0q31Y4Ifvk3vx01cQU1nT87fbPSsVVqIdvsDQWV807rrUnFbOZkFttrFrFgZnH8JftcBjTelyhVcfXFG0EZeIenApLNxYyTt4WB5kNGvsN74vBOnPM1WRIVEhrqmZyoEbAkmkQiyRZjl1JsDd9ZKlb8OAauAdloNgQHH1sn4JVLYmebTIm4LfV++TOWFFCULR0q/uyPzmc29U03A9hmvLuVm0lgvGVuIiWKgvE1c8ftN4xBqDzyUEoOET8b9X/7MJ+Gr+NurzCr54Bo355nCaah4F7telxvnATybxrmxg9kY0REhdAxiWQ8/trucC3BCZVsrR7JiSehJO+XndlfY3FwJVqV65MXBrC8O2GlHQYPQMT+mkkSKLZfvi9lb4f+wgqdpO1UYHavZvC76w4Ls93P//D5ot9bw6F9o0T4lfGK/pC6D1jO1+jHZWWhX7XIH8VYEpbomJ3UUU7FbGGua/r7QrH07NLvK3qRyJ5VSOhaDQFzn/ipJ00emDhcOPc5IgnqlF3k5h/FQdDjRROlzfyxMbZr/+8lQzgRHhA5cTAWqy4xbZ3hjsPameE7766nQijVu2881w0aF5XXyb1R4D3yrs9nNRk74t6PKkxGYkuqs8+lbjN8t6RtN3k1EoWdlBsC3MLR3NLIidHEDV1CqPcwzxtE9BSy9EcioVJrTv6Jyi3UPPzH2lKfAh/HY/S2RjgAxbZ7m8E/d/ynSy87qpYAb2d4vXdEusLtvUPfeCyJyKXzkXM4LgHNL57Lip+PwbBHvDyvl7xx4UfUcOeDIBxo35acpuwLp2qKsTfJDv+KQ07y40goN2HhbQoOg9J7OfXa2pH4+4Dcg2+jGmAsFaMydC0UBdJvy3ixheMOtzsdLedjYdxI8GjGAXugOImdOPgvBLjYxvTaDaPx31uG0OXcAGyVTmGQemiEJM9D7Cf5yCDlskTjmCDCAf0VgtXtcKjSE1UpyovCiU8X3zm8I6PQ+U8G1fMe4K/utNQvVoJbx7n2ZrMFotxoACMvQySQ/yQ7X8zIxiUTi6Xz0aHI2bkgsluABttvpFnqemaD9Qtja+OEdHBr4quf/hsNxr0cOxd0kqFbar5CSjIOd/ZFcYhJ+4JMUVd0QwkZbZjpDLvZUrHfJSz2ZwUJVj8rRuycvoZ+CjfmFxgIsIu8V81YmQiPn4QcubI7A4vuRCs/fOKP0nfmGAqvEvAA2SL2BYkCQVket8yS46FBo2ossd8G+JuSCfdPFEHi9bxF/shC+F5n1cBTS4I3O7qGEz6TkcmAw1RZpRh5mlNZg55HwtPTXf9d127ClLs7/0oxJGHG+cefarTT4PbnMHLn5SpsuxtjyNZNQOe+mEAJkQZoOFvmNdhVCXuu7FcdiC2FC2p0K+3W6VB14HvKsHY+kGrzbByds1A483Hd1NEYcJcedFp7WoTToRqC7HNUnM/aVb6uWwhyMaeTWdVt8IZvvxJtMh8a/07GKtbTwDCu2lZNpgzbjCUMfV8l4GnCRJ3AEhUf8z3QrRAsBaa6bceY3mXCWupJru0CfvBr7ql454kgCPqQcF7+QDAcy410VWBzBcZgdf0rJx0wbz470kY4BM86DAQL+lvABPLQdX9LwVtn6+ia5a1R/Ynr9QJ7Nzineb32r0kUEnms7ldV2aLTbp8ron1xEPuRzyRELRKMPurr5E2GgkrXDroLym5gs8eUpXHIB7RO0MwtJz3RYL2EM2LaDM4dzwmbjw7Gy/8s5b+4+aBnzYUN0av+YD1E23j59RTSaty2n5/xghUdV42WTwEQOs1s7RYZhlets2R2utxGH96sWsYhP/xx9T174fUwoGolSPqDG0Qe1goUm9CH8B9bJ/a6U/DVqaLp+WYy/uAV9t1Y+/9/IrnX91fGgqmJn73RpXRY0Xj/VLzZC71G/v4MeVYGYVS6uc8rwbDE+DZysiIKuxm2/JoJyYOQA+/HL1qEw27Jy1EB+kX4Kpr/bx8pD2dvVQZoXMnC+pX2lTpSHJZyR1y0ekBAne/XfdviEsDplH2mVGoALlUeyi/9RAHus+3mkvIkyJEyOHtZnoKBS+mHW5XM4EZI2hdOPiLaMbdmup4lYyIjv0noaBYYJ90zGIwLAslPr88l7yRCSE1v+QR9JpaQM9wKBZJRz47/6H+s9qj+nGVr+Z5wcDD+fU7NMhRSc1zk57e6QPIvvQlmS0+8OyZ7c7ElHMulr8zaM1pCvWQciW0PGfsO3yyai7HFY7uE4gOfuMKZpc7I96qx6NenMD3u54Qaj+T6aZ6bexb6x4VMiAVuZmGxBPkoSG0RGTOO8AQHXut99FR/CGgJOFRQ6IW3fygJOjyyBuX73k8aLMIxxTHgoeLFELx3/Xv3HuFwsHgxb9o0ro5r9xT0g4qCwGP0j9aaZCiI2lIvcWREoTwz/nZytMGee2HR3ysC0VCz92z6twi4WHStVq7TFz7v7ztuFGEA/wNZjS30\", \"shape\": [60, 30], \"dtype\": \"float64\", \"byteorder\": \"<\"}, {\"py/object\": \"numpy.ndarray\", \"values\": \"eJwB0AIv/cDqLrMnyKK/v/A0ZdvSq7/d0fFahE23PwJFxur5LJi/9Ne5Y5Qto78jtzQNFUSvPzE3hvu2NoI/EjcsAy0VXj9sWSV7VPmFvwNHwXFIG6e/kjcrGBh2qb8O0SzbsEi4P3961fbOt6a/JCtX8Yrlqb9GfSoVqk64P1KAculuLay/3y0D+3U6s78I1vIAl6jAP8RoumuBjKC/fwn8vA3koL9k3ECqSLiwP99djikMNaG/ylAU2reJo780azfWXl+yPzGYHpkSE6K/Ww8ugkcSqr+G0u58rRK2P/tTl9JgP5Q/3CJ80PG4oT9/xS29p9irv/AAWmDappm/mrTaQdZ6k7/F1Xlz4ZCmPyzgbLsEro4/IPf0dKkjiD9f5gw03Wibv3WTsNzqr42/5xIP5iFUmb+ppzU9BhakP2Q2ZRDPFKy/fdlUy5Eps7++gRYn/ZnAPzJA6x1OuaI/isqkATJRpT+aYV3gPgW0v3qhQhbCPZ8/BxRkzcUjoj8sMWnFUOGwv2uo7AdyEZS/VQZmQHGikL9+XqWT7lmiPyJS1ATXhZM/qgYcLan3kz/V7PKsvr6jv21exdaCY7A/Mx9RIzNgtT9jdsoa2uHCv44a7hle+5M/AU0XvQjZoD9aM+pWudaqv03O/Ufgfaa/pbvzu+s3rr9UiFSN5lq6PzteO1ri7rS/NQvzskPuur/5H79/k+7HP5s2l8ll7LE/DEKVI89Itj8vDzLFmhrEv9raK2khwn8/8AtzmWTEVL9oEt+W95B6vwn1mA83MKA/9+y3bwCipz+kdck7Gumzv5CG81Sk3qm/FweW7i2Jrr/u4LsI5jO8P96X458zkJu/ktP3ulbLm781t9E+vq2rP6CagJFuAJA/dc4en466iD8CiNYGuV2cvzvkYyOzi4e/8S5mtXwVkL+tqjbcU9ubP7CPWmBAxZO/cc+HDGYbm7+0wEyiSHCnP8LDcSw=\", \"shape\": [30, 3], \"dtype\": \"float64\", \"byteorder\": \"<\"}, {\"py/object\": \"numpy.ndarray\", \"values\": \"eJwB4AEf/nbQsQlyIpq/dkRDE1A0ZT9W2jPM/xZwv5DVJuAOL1i/6L6sDy9Yi79P3Ti1kvSyP7V1qOcU/6e/Wr7d+W3VrD/PvymZZwKQPwjy1puWmZc/5GEYtB3kiz/gqU87xsVZv4PfWX6Uf2y/rkRn7b1Fm7/n6q996a1zv2KvHmqJ1qS/p7WIcogTfL8mOYdiJTmgv5YuH/iy2Z6/Y6QP5Jxnsj+XWBh/DuWWv318PhB9WpU/Xg/105QDk7/iQsujtFN0P3XlCnwRJp2/TsAmKFLBtb82YWRKlTClv3Sc/Yp9epQ/35FPjysCir8exj9iYe+WvxOQBeoJ94W/ovkdPEqonb8LqKx6FjWHP3LVqYgitoM/StCvqcAVpD9U/0OWfmhnv7ncregUzZe/VB7wgK7glz+9ash8jjN/PwuGvBooDqG/j3osMGMxpb/7G6feHcmiv7dYEfSJBZ8/jsNGAfuRqz/pinaBHpOhP9ss4pfmGYM/98QDA9qgpD+5zxZ/uJSoP6CbJF8Uf6G/Qi3/IF88hD9LrG989KKUvyieWpXkLHy/jTnDS279kz/KJNgRonSPv4evkdcV5La/SILvPnKrdz/Z/qk9YrOhv3qcNYq2RrU/tusi2guuaD9bArLVk2G9vw639ZY=\", \"shape\": [60], \"dtype\": \"float64\", \"byteorder\": \"<\"}, {\"py/object\": \"numpy.ndarray\", \"values\": \"eJwB8AAP/3xtKYnzXK6/KQWqk5sIrr+3vS5befmevzYptNK3bp4/xhaV3icXsD8OAeQItymQv9I6jQ26wMA/MzHzHA5Jlj9wL79/dL+gv+Q3A5u/m7U/SaLmYwhkmT8w5+5IDii7v6R4PlBA9rS/oqfwPdOgsb95Lv0/Fr2hv2JTPkdhAKi/TbSNIh6HpD+mEtap9cKQv3fZYCH1aa8/Mbf4YC0RqT8YAtuudnysvxfH2IliNHA/GEzVcs6dp7/dmqlHnHmsv3HefaHCM7I/2zB2mIt2lT8+A+p0gPepP47aODIzpLG/dt+kzbT0or9Y5bi5nY+Dv7a+ers=\", \"shape\": [30], \"dtype\": \"float64\", \"byteorder\": \"<\"}, {\"py/object\": \"numpy.ndarray\", \"dtype\": \"float64\", \"values\": [0.09586701505968212, 0.12876895125562407, -0.22463596631530636]}], \"params\": [{\"py/object\": \"numpy.ndarray\", \"values\": \"eJwB4AEf/t6Io7Eb4cc/xuiul2uwo78DFU6aEwi5vzz+c2t2B9M/c9ap+3vxyT+qpmFGNHC3v+Gc2nQZBcW/e1dDqQRytj/EJEyxgjO/P7w0yGA8d8m/5uitiMMYwL8caHOzHS7Qvxp4HDoLJc8/5Nl+y5kezL8LnVzxcRLFvwkrmunoM6C/RkUBcLxBsT80DH5TL5XMv3dkSOWUodI/H+FPD/B2qj8EwcUrxsnRP/ZvPilNFs+/VLnTbr7+vz9jAjB0k47Av19eBmYYGsG/qMxQStANnj95zEJBFtHRv36ljggjbdA/jNFl+2CExj9JSyAPkr3IPyuNZb/stck/of9XGa9zwb/BM9DcciPKv3N2Ulbeebo/3KVDeSe/qj+pe7yGzlDQPxbG9ngzOoa/BN9XJ+aGyT9VNWz2Ll2RvxSgdczVHsg/mrMK0vxw07/Zptamlni9v1lmX3ESpb2/sKsLMVFqxz+QXMQYUkPDv4ObkI9mAMG/imoyUtmwv7+CNAfMgZy5P277vcNFdag/ccl48z5u1L/enakEWSfSv8TxbowA78a/YbL+LvgltD8FMc/26CTHPzoXflUmma4/zyUvY9hsuL9mINyqC4PIv5vD2IwY/K0/kAJ7AbfVyD9Wb6Zuzki6v+I/9dk=\", \"shape\": [1, 60], \"dtype\": \"float64\", \"byteorder\": \"<\"}, {\"py/object\": \"numpy.ndarray\", \"values\": 