{
  "data": [
    {
      "algorithm": "python-sgd-neural-network",
      "algorithmSpec": {
        "code": "sgdNeuralNetwork",
        "parameters": [
          {
            "code": "hidden_layer_sizes",
            "value": "60,30"
          },
          {
            "code": "activation",
            "value": "tanh"
          }
        ]
      },
      "data": {
        "action": [
          {
            "let": {
              "x": {
                "a.flatten": [
                  {
                    "new": [
                      {
                        "u.arr": [
                          {
                            "/": [
                              {
                                "-": [
                                  {
                                    "cast.double": [
                                      {
                                        "attr": "input",
                                        "path": [
                                          {
                                            "string": "lefthippocampus"
                                          }
                                        ]
                                      }
                                    ]
                                  },
                                  2.91276
                                ]
                              },
                              0.25938
                            ]
                          }
                        ]
                      }
                    ],
                    "type": {
                      "items": {
                        "items": "double",
                        "type": "array"
                      },
                      "type": "array"
                    }
                  }
                ]
              }
            }
          },
          {
            "let": {
              "activations": {
                "model.neural.simpleLayers": [
                  "x",
                  {
                    "cell": "neuralnet"
                  },
                  {
                    "do": [
                      {
                        "m.link.relu": [
                          "x"
                        ]
                      }
                    ],
                    "params": [
                      {
                        "x": "double"
                      }
                    ],
                    "ret": "double"
                  }
                ]
              }
            }
          },
          {
            "cell": "classes",
            "path": [
              {
                "a.argmax": [
                  "activations"
                ]
              }
            ]
          }
        ],
        "cells": {
          "classes": {
            "init": [
              "AD",
              "CN",
              "Other"
            ],
            "rollback": false,
            "shared": false,
            "type": {
              "items": "string",
              "type": "array"
            }
          },
          "neuralnet": {
            "init": [
              {
                "bias": [
                  0.04689,
                  0.02422,
                  0.27912,
                  0.11148,
                  0.22169,
                  0.30196,
                  -0.03701,
                  0.03745,
                  0.03495,
                  -0.05884,
                  0.03542,
                  0.05054,
                  -0.28516,
                  -0.1755,
                  -0.29016,
                  0.09563,
                  -0.00629,
                  -0.27744,
                  -0.04829,
                  0.08307,
                  -0.26459,
                  0.19485,
                  -0.20689,
                  -0.08589,
                  0.11431,
                  -0.23745,
                  -0.24284,
                  0.02399,
                  -0.23408,
                  -0.15486,
                  -0.15378,
                  -0.19538,
                  0.22456,
                  0.20035,
                  0.19611,
                  -0.09083,
                  0.0994,
                  -0.1336,
                  0.29276,
                  0.18114,
                  -0.00218,
                  -0.01741,
                  0.31778,
                  -0.0607,
                  -0.11483,
                  0.1076,
                  0.06828,
                  0.08162,
                  0.05673,
                  0.05497,
                  -0.04743,
                  0.26595,
                  0.23869,
                  0.11624,
                  -0.26857,
                  -0.17824,
                  -0.14235,
                  0.18876,
                  0.00113,
                  -0.01414
                ],
                "weights": [
                  [
                    0.31048
                  ],
                  [
                    0.31531
                  ],
                  [
                    -0.15563
                  ],
                  [
                    0.29527
                  ],
                  [
                    -0.0938
                  ],
                  [
                    -0.16872
                  ],
                  [
                    0.06113
                  ],
                  [
                    0.13473
                  ],
                  [
                    -0.13473
                  ],
                  [
                    0.30264
                  ],
                  [
                    0.28547
                  ],
                  [
                    0.31536
                  ],
                  [
                    -0.15012
                  ],
                  [
                    0.26862
                  ],
                  [
                    -0.23716
                  ],
                  [
                    0.07348
                  ],
                  [
                    0.14613
                  ],
                  [
                    -0.23491
                  ],
                  [
                    -0.23245
                  ],
                  [
                    -0.04219
                  ],
                  [
                    0.2909
                  ],
                  [
                    -0.0266
                  ],
                  [
                    0.28999
                  ],
                  [
                    -0.11504
                  ],
                  [
                    0.27899
                  ],
                  [
                    -0.19584
                  ],
                  [
                    -0.02001
                  ],
                  [
                    0.13706
                  ],
                  [
                    0.16205
                  ],
                  [
                    0.19787
                  ],
                  [
                    -0.24967
                  ],
                  [
                    -0.12764
                  ],
                  [
                    0.19205
                  ],
                  [
                    0.2242
                  ],
                  [
                    -0.04171
                  ],
                  [
                    0.02163
                  ],
                  [
                    -0.26228
                  ],
                  [
                    -0.08014
                  ],
                  [
                    -0.07594
                  ],
                  [
                    -0.24985
                  ],
                  [
                    0.17929
                  ],
                  [
                    0.12987
                  ],
                  [
                    -0.1283
                  ],
                  [
                    -0.28186
                  ],
                  [
                    -0.13706
                  ],
                  [
                    -0.14851
                  ],
                  [
                    -0.06774
                  ],
                  [
                    -0.17945
                  ],
                  [
                    -0.04965
                  ],
                  [
                    -0.29777
                  ],
                  [
                    -0.22945
                  ],
                  [
                    -0.0623
                  ],
                  [
                    -0.24908
                  ],
                  [
                    0.12167
                  ],
                  [
                    0.2127
                  ],
                  [
                    0.03895
                  ],
                  [
                    -0.29043
                  ],
                  [
                    -0.08417
                  ],
                  [
                    -0.03586
                  ],
                  [
                    -0.05916
                  ]
                ]
              },
              {
                "bias": [
                  0.11202,
                  0.08299,
                  0.00087,
                  0.16143,
                  0.08331,
                  0.19815,
                  0.04419,
                  -0.04962,
                  -0.19789,
                  -0.11982,
                  0.15636,
                  0.02366,
                  0.23813,
                  0.13574,
                  0.23895,
                  -0.06186,
                  -0.25721,
                  -0.11701,
                  -0.10912,
                  -0.17828,
                  0.00764,
                  0.08749,
                  0.05757,
                  -0.07045,
                  0.11363,
                  -0.15738,
                  -0.23703,
                  0.08469,
                  -0.19196,
                  -0.21021
                ],
                "weights": [
                  [
                    0.07594,
                    0.00965,
                    0.22932,
                    -0.19681,
                    -0.01068,
                    0.21274,
                    -0.26479,
                    0.11166,
                    -0.15779,
                    0.07983,
                    0.08902,
                    0.00283,
                    -0.21858,
                    -0.08935,
                    -0.17816,
                    -0.07148,
                    -0.07163,
                    0.12635,
                    -0.06006,
                    0.10543,
                    0.05186,
                    -0.22232,
                    0.04166,
                    -0.16036,
                    -0.16582,
                    0.21862,
                    0.19691,
                    -0.17659,
                    0.23141,
                    0.00325,
                    0.06914,
                    -0.01562,
                    -0.16406,
                    -0.09136,
                    0.06192,
                    0.17215,
                    0.07,
                    0.21347,
                    -0.05063,
                    -0.13998,
                    -0.19966,
                    0.15814,
                    0.03386,
                    0.24828,
                    0.13108,
                    0.25268,
                    0.02903,
                    0.07806,
                    -0.01277,
                    0.03887,
                    0.1968,
                    -0.24603,
                    0.1209,
                    -0.17198,
                    -0.16232,
                    0.22239,
                    -0.158,
                    -0.11538,
                    -0.03987,
                    0.10747
                  ],
                  [
                    0.02562,
                    0.02034,
                    0.12473,
                    -0.06712,
                    0.01535,
                    -0.05171,
                    0.22852,
                    0.05021,
                    0.01658,
                    -0.0425,
                    0.06723,
                    0.00351,
                    0.14729,
                    -0.25497,
                    -0.00663,
                    0.17919,
                    0.22252,
                    -0.1318,
                    -0.00159,
                    -0.01735,
                    0.24799,
                    0.20353,
                    -0.07124,
                    0.19144,
                    -0.20593,
                    0.21332,
                    0.2472,
                    0.09388,
                    0.11726,
                    0.2213,
                    -0.016,
                    -0.13419,
                    0.21969,
                    -0.13995,
                    -0.10434,
                    -0.17967,
                    -0.12594,
                    -0.19356,
                    0.16474,
                    -0.23846,
                    -0.22155,
                    0.0843,
                    -0.12789,
                    0.03421,
                    0.12962,
                    0.03198,
                    0.06844,
                    0.25329,
                    -0.12921,
                    0.26352,
                    -0.0112,
                    -0.11255,
                    0.03244,
                    -0.06609,
                    0.20514,
                    0.15098,
                    -0.10262,
                    -0.23697,
                    -0.16348,
                    -0.13343
                  ],
                  [
                    -0.21815,
                    -0.22699,
                    -0.22876,
                    -0.1499,
                    -0.02534,
                    0.09262,
                    -0.16218,
                    0.0331,
                    -0.0163,
                    0.02634,
                    -0.19859,
                    0.23837,
                    -0.07244,
                    -0.13024,
                    -0.06638,
                    -0.24681,
                    0.15135,
                    0.08769,
                    -0.16534,
                    0.13773,
                    0.0637,
                    -0.17528,
                    0.1806,
                    0.16714,
                    -0.24769,
                    0.09187,
                    0.09167,
                    0.10904,
                    -0.22332,
                    0.18938,
                    -0.15753,
                    0.10817,
                    0.25064,
                    -0.21368,
                    0.10096,
                    -0.2393,
                    0.10604,
                    -0.24723,
                    0.20184,
                    0.22042,
                    0.11281,
                    -0.20036,
                    0.07672,
                    0.12008,
                    -0.18571,
                    -0.04324,
                    0.15267,
                    0.05528,
                    -0.22733,
                    0.1038,
                    0.03793,
                    -0.16662,
                    0.19432,
                    -0.12578,
                    0.25753,
                    0.21817,
                    -0.14592,
                    0.17808,
                    -0.22773,
                    0.00341
                  ],
                  [
                    -0.14674,
                    0.25322,
                    0.20813,
                    -0.04876,
                    0.02119,
                    -0.23501,
                    0.17548,
                    -0.21962,
                    0.0433,
                    -0.04032,
                    0.12355,
                    -0.01687,
                    0.24228,
                    0.0339,
                    -0.16996,
                    -0.14716,
                    -0.03557,
                    -0.03095,
                    -0.01636,
                    -0.0175,
                    0.04724,
                    -0.23901,
                    -0.00874,
                    0.22661,
                    0.05916,
                    -0.12541,
                    -0.11712,
                    0.10982,
                    0.16934,
                    -0.10245,
                    -0.07897,
                    -0.10642,
                    0.05339,
                    0.12301,
                    0.02773,
                    0.1179,
                    -0.15019,
                    0.20445,
                    -0.01932,
                    0.17154,
                    0.16253,
                    0.14152,
                    -0.13295,
                    0.17876,
                    -0.0793,
                    -0.07537,
                    -0.15037,
                    0.00887,
                    -0.04608,
                    -0.04363,
                    -0.08246,
                    -0.19923,
                    0.01771,
                    0.11887,
                    0.1352,
                    0.16784,
                    -0.15024,
                    0.19246,
                    -0.17136,
                    -0.09808
                  ],
                  [
                    0.12335,
                    -0.02384,
                    -0.24254,
                    0.16324,
                    -0.22146,
                    -0.06623,
                    0.01807,
                    -0.2539,
                    0.02023,
                    -0.0269,
                    0.1858,
                    0.24233,
                    -0.00138,
                    0.05548,
                    -0.11148,
                    0.19553,
                    -0.09269,
                    -0.15146,
                    -0.18615,
                    0.15051,
                    -0.24962,
                    0.23891,
                    0.00643,
                    -0.2254,
                    -0.0613,
                    0.15336,
                    -0.03645,
                    -0.04533,
                    0.0126,
                    0.02858,
                    0.18695,
                    -0.09524,
                    0.0703,
                    -0.12864,
                    -0.23424,
                    0.14972,
                    0.22617,
                    0.17281,
                    0.04547,
                    0.0858,
                    0.10042,
                    -0.14521,
                    -0.13787,
                    0.17216,
                    0.1941,
                    -0.05818,
                    -0.18557,
                    -0.02902,
                    -0.03551,
                    0.25565,
                    -0.0911,
                    0.06416,
                    0.07267,
                    -0.2457,
                    0.19819,
                    -0.12482,
                    -0.08146,
                    -0.04729,
                    -0.04728,
                    -0.17367
                  ],
                  [
                    -0.18862,
                    0.15363,
                    0.08035,
                    0.26192,
                    0.13814,
                    0.13062,
                    0.06982,
                    -0.04963,
                    -0.21698,
                    0.16672,
                    -0.07796,
                    -0.2109,
                    -0.011,
                    0.24118,
                    0.22399,
                    0.22934,
                    -0.05735,
                    0.09183,
                    -0.1899,
                    0.11596,
                    -0.02257,
                    -0.01078,
                    0.02196,
                    0.08628,
                    -0.24474,
                    0.11374,
                    0.22942,
                    -0.24868,
                    -0.05976,
                    -0.01898,
                    -0.23605,
                    0.15294,
                    -0.23366,
                    0.00766,
                    0.22575,
                    0.1195,
                    -0.1433,
                    -0.1782,
                    -0.0243,
                    -0.04871,
                    0.00567,
                    0.22433,
                    0.1064,
                    0.15502,
                    -0.25066,
                    -0.12813,
                    0.01901,
                    -0.15253,
                    -0.12916,
                    0.05542,
                    0.00726,
                    0.23943,
                    -0.17931,
                    0.09069,
                    -0.13184,
                    0.18873,
                    0.03225,
                    0.00761,
                    0.04321,
                    0.0098
                  ],
                  [
                    0.13686,
                    -0.07636,
                    -0.24665,
                    -0.01957,
                    0.04454,
                    -0.1997,
                    -0.25609,
                    0.15395,
                    -0.13756,
                    0.17211,
                    -0.12437,
                    0.20824,
                    -0.07616,
                    -0.24027,
                    -0.11887,
                    0.18807,
                    0.08856,
                    0.20586,
                    0.15307,
                    -0.02801,
                    -0.26033,
                    -0.07486,
                    0.07125,
                    -0.01312,
                    0.11056,
                    0.05973,
                    0.03003,
                    -0.24782,
                    0.1665,
                    0.22175,
                    0.05802,
                    -0.17098,
                    0.16365,
                    0.22285,
                    -0.01817,
                    0.21553,
                    -0.18373,
                    -0.1066,
                    -0.01761,
                    0.0669,
                    -0.05347,
                    -0.13587,
                    -0.03148,
                    0.26271,
                    0.09112,
                    -0.04046,
                    -0.10766,
                    0.22948,
                    0.02587,
                    0.00385,
                    -0.07859,
                    -0.20171,
                    -0.08929,
                    -0.18141,
                    0.16998,
                    0.18246,
                    -0.10306,
                    0.13406,
                    0.23286,
                    0.07427
                  ],
                  [
                    0.13644,
                    0.22672,
                    0.08815,
                    0.23483,
                    -0.1194,
                    0.08777,
                    -0.10712,
                    -0.12012,
                    0.04569,
                    -0.12998,
                    0.18578,
                    -0.18155,
                    -0.22093,
                    -0.14639,
                    -0.1997,
                    0.21295,
                    0.03544,
                    -0.10301,
                    0.06071,
                    0.24742,
                    0.22991,
                    0.03192,
                    -0.04508,
                    -0.18186,
                    0.00232,
                    -0.21813,
                    0.0414,
                    -0.1163,
                    0.24271,
                    -0.04444,
                    -0.17654,
                    -0.00703,
                    -0.25801,
                    -0.17492,
                    -0.12821,
                    -0.00094,
                    -0.20821,
                    -0.19205,
                    -0.24572,
                    0.1234,
                    0.09688,
                    0.18354,
                    0.2486,
                    -0.20068,
                    0.00209,
                    0.00816,
                    0.24247,
                    0.07228,
                    -0.15227,
                    -0.0089,
                    0.12528,
                    0.26124,
                    -0.06055,
                    0.09208,
                    0.24075,
                    -0.15998,
                    0.10133,
                    -0.02237,
                    -0.24,
                    0.10098
                  ],
                  [
                    0.20111,
                    0.2542,
                    0.1277,
                    -0.14092,
                    0.19827,
                    -0.0491,
                    0.15081,
                    0.08891,
                    -0.19156,
                    0.09697,
                    -0.21711,
                    0.2452,
                    -0.13707,
                    0.17682,
                    -0.19328,
                    -0.15315,
                    0.26342,
                    0.09755,
                    0.10463,
                    -0.10358,
                    0.17962,
                    -0.09483,
                    0.13677,
                    0.04885,
                    -0.16049,
                    0.24842,
                    -0.05848,
                    0.01579,
                    0.13235,
                    0.16115,
                    0.17597,
                    -0.19042,
                    0.10812,
                    -0.03493,
                    0.03713,
                    0.02717,
                    0.01153,
                    0.1049,
                    0.02117,
                    -0.1535,
                    -0.14302,
                    -0.02529,
                    -0.14588,
                    0.1539,
                    0.23782,
                    -0.07485,
                    -0.04453,
                    -0.16792,
                    0.11737,
                    0.17981,
                    -0.10801,
                    0.16587,
                    -0.1224,
                    0.14171,
                    0.13296,
                    -0.02682,
                    -0.14552,
                    0.16446,
                    -0.00041,
                    -0.26211
                  ],
                  [
                    -0.20573,
                    -0.1388,
                    -0.17029,
                    -0.23761,
                    -0.18392,
                    0.04264,
                    0.01488,
                    0.08875,
                    -0.08707,
                    0.01042,
                    -0.16343,
                    0.00418,
                    -0.01204,
                    -0.05845,
                    -0.05362,
                    0.05286,
                    0.2065,
                    -0.04427,
                    0.08605,
                    -0.08823,
                    -0.21528,
                    -0.23498,
                    -0.04646,
                    -0.02385,
                    0.01586,
                    -0.21531,
                    0.17347,
                    -0.25158,
                    0.08083,
                    0.2497,
                    0.13227,
                    0.03735,
                    0.05721,
                    -0.00753,
                    -0.05695,
                    0.04805,
                    -0.08296,
                    -0.1489,
                    0.1275,
                    0.25919,
                    0.19207,
                    -0.01025,
                    0.22795,
                    0.23686,
                    -0.11764,
                    -0.07733,
                    0.22247,
                    -0.22451,
                    0.10985,
                    -0.04054,
                    0.14003,
                    0.21217,
                    0.23684,
                    -0.08907,
                    0.19403,
                    0.12036,
                    0.01023,
                    -0.18147,
                    0.04919,
                    -0.04193
                  ],
                  [
                    -0.18994,
                    -0.22948,
                    -0.24741,
                    0.21986,
                    0.24289,
                    0.11771,
                    0.13967,
                    -0.01545,
                    0.24434,
                    -0.17955,
                    0.07714,
                    -0.14104,
                    -0.16621,
                    0.12444,
                    -0.08432,
                    -0.01138,
                    0.04178,
                    -0.2419,
                    -0.18743,
                    0.17279,
                    0.10995,
                    0.09108,
                    -0.04573,
                    0.17014,
                    0.12889,
                    -0.13987,
                    0.08617,
                    -0.26623,
                    0.24381,
                    -0.01359,
                    0.22485,
                    0.15534,
                    0.20673,
                    -0.19498,
                    0.12952,
                    -0.1651,
                    0.20461,
                    -0.2491,
                    0.0239,
                    0.23304,
                    0.08969,
                    -0.01174,
                    -0.20292,
                    -0.02326,
                    -0.15088,
                    0.09843,
                    0.16556,
                    0.14857,
                    -0.1403,
                    0.02289,
                    0.1471,
                    0.08074,
                    0.25899,
                    -0.26167,
                    -0.09983,
                    -0.21094,
                    0.01352,
                    0.1066,
                    -0.09841,
                    0.18569
                  ],
                  [
                    0.09907,
                    -0.0077,
                    -0.05967,
                    -0.06364,
                    -0.03856,
                    -0.1544,
                    0.14493,
                    -0.02079,
                    -0.22242,
                    -0.17911,
                    0.13891,
                    -0.12305,
                    -0.25216,
                    -0.03694,
                    0.20528,
                    -0.05583,
                    0.07763,
                    0.17267,
                    -0.09344,
                    -0.095,
                    -0.06292,
                    -0.0672,
                    -0.16214,
                    -0.0889,
                    -0.0203,
                    -0.15829,
                    0.12163,
                    -0.16816,
                    -0.15479,
                    -0.11419,
                    0.1985,
                    -0.13114,
                    0.1776,
                    -0.18919,
                    -0.20941,
                    0.1478,
                    0.17189,
                    -0.01241,
                    0.13055,
                    0.08809,
                    -0.0438,
                    0.02552,
                    -0.15892,
                    -0.13857,
                    -0.0049,
                    0.19241,
                    0.24849,
                    -0.10171,
                    0.05706,
                    -0.22952,
                    0.11369,
                    0.24752,
                    0.02264,
                    0.18356,
                    0.0669,
                    0.20602,
                    0.20592,
                    0.23684,
                    0.15902,
                    0.21376
                  ],
                  [
                    -0.11045,
                    0.0963,
                    -0.01317,
                    -0.03582,
                    -0.17403,
                    0.26052,
                    0.21277,
                    -0.13292,
                    0.13751,
                    -0.04142,
                    0.14146,
                    -0.2271,
                    -0.19749,
                    0.19484,
                    0.25548,
                    -0.06423,
                    -0.04052,
                    -0.08252,
                    -0.15213,
                    -0.03094,
                    0.0616,
                    -0.08463,
                    0.17373,
                    -0.11125,
                    0.00971,
                    0.20596,
                    0.05099,
                    0.14531,
                    0.19422,
                    0.10106,
                    -0.19129,
                    -0.21961,
                    0.12717,
                    0.1718,
                    -0.10798,
                    0.22018,
                    0.21073,
                    -0.22005,
                    0.17592,
                    0.25752,
                    0.16335,
                    0.1249,
                    0.04591,
                    -0.14648,
                    0.2444,
                    -0.03757,
                    0.15278,
                    -0.06227,
                    0.25482,
                    0.028,
                    -0.08252,
                    -0.13602,
                    0.07458,
                    0.0374,
                    -0.25026,
                    -0.06928,
                    -0.16978,
                    -0.22381,
                    0.25544,
                    -0.17463
                  ],
                  [
                    0.03776,
                    -0.0073,
                    -0.09622,
                    0.13836,
                    0.06762,
                    0.1348,
                    -0.12333,
                    0.14336,
                    0.13409,
                    -0.05719,
                    -0.1186,
                    0.21913,
                    -0.22003,
                    -0.05514,
                    -0.14335,
                    0.19474,
                    0.17728,
                    0.08169,
                    -0.23855,
                    -0.20533,
                    -0.05908,
                    -0.12366,
                    -0.06014,
                    -0.13543,
                    0.10365,
                    -0.1456,
                    -0.04197,
                    0.26136,
                    -0.04263,
                    0.18824,
                    -0.18442,
                    0.20434,
                    0.00959,
                    -0.17969,
                    0.05834,
                    0.20302,
                    -0.24519,
                    -0.15377,
                    -0.1889,
                    0.03918,
                    -0.06339,
                    -0.24336,
                    0.05164,
                    0.13665,
                    0.15264,
                    0.12009,
                    -0.01631,
                    0.01289,
                    0.07371,
                    -0.06183,
                    -0.13407,
                    0.01561,
                    -0.19771,
                    -0.22606,
                    0.2491,
                    0.22832,
                    -0.01809,
                    -0.23099,
                    -0.20664,
                    -0.02596
                  ],
                  [
                    0.03663,
                    0.10451,
                    0.23351,
                    -0.01808,
                    -0.17202,
                    -0.18149,
                    0.20659,
                    0.193,
                    -0.05391,
                    0.16795,
                    -0.05746,
                    -0.22807,
                    0.01496,
                    -0.03009,
                    -0.09717,
                    0.06305,
                    0.00421,
                    -0.06752,
                    0.15632,
                    -0.14222,
                    -0.07445,
                    0.02528,
                    -0.06339,
                    0.09562,
                    0.04629,
                    0.01548,
                    0.14287,
                    -0.1679,
                    -0.04959,
                    0.21468,
                    0.14344,
                    -0.19989,
                    -0.18497,
                    0.24616,
                    -0.09304,
                    0.08292,
                    -0.21077,
                    -0.0134,
                    -0.18197,
                    0.24562,
                    0.14023,
                    0.10075,
                    -0.01259,
                    0.0325,
                    -0.07311,
                    0.05554,
                    0.11642,
                    -0.04683,
                    -0.18013,
                    -0.11315,
                    -0.02202,
                    0.20454,
                    0.1109,
                    0.19343,
                    -0.00571,
                    0.19492,
                    0.19287,
                    -0.15178,
                    0.02403,
                    0.08607
                  ],
                  [
                    -0.20806,
                    -0.17626,
                    0.18381,
                    0.14272,
                    0.19909,
                    -0.20733,
                    0.01423,
                    -0.14961,
                    -0.15166,
                    0.012,
                    -0.08803,
                    0.18456,
                    0.16087,
                    0.03958,
                    0.00813,
                    -0.13933,
                    -0.13683,
                    -0.22888,
                    -0.17154,
                    0.07636,
                    -0.1164,
                    -0.03135,
                    -0.12321,
                    -0.2194,
                    -0.02711,
                    -0.19085,
                    0.00408,
                    -0.266,
                    -0.01187,
                    -0.05028,
                    -0.15919,
                    0.04376,
                    -0.08012,
                    -0.21009,
                    -0.20578,
                    0.10592,
                    0.12679,
                    -0.0729,
                    -0.18838,
                    -0.15315,
                    0.10731,
                    0.02284,
                    -0.22057,
                    0.14739,
                    -0.20889,
                    -0.13848,
                    0.205,
                    0.05516,
                    0.23646,
                    0.07553,
                    -0.00896,
                    -0.22065,
                    0.12237,
                    0.18018,
                    0.15404,
                    -0.12233,
                    -0.08194,
                    0.14103,
                    -0.08934,
                    -0.17095
                  ],
                  [
                    0.18005,
                    0.19663,
                    -0.02019,
                    0.11347,
                    -0.02215,
                    0.09148,
                    -0.24213,
                    0.09418,
                    0.09231,
                    -0.09347,
                    0.13672,
                    0.05924,
                    -0.09657,
                    0.17472,
                    0.22221,
                    0.11675,
                    -0.07195,
                    0.15316,
                    0.21335,
                    -0.20942,
                    0.12584,
                    -0.09394,
                    0.0232,
                    -0.04519,
                    -0.17306,
                    0.23169,
                    0.22429,
                    0.01182,
                    0.07999,
                    -0.01146,
                    0.10243,
                    0.16854,
                    0.01958,
                    -0.1331,
                    0.10738,
                    -0.23273,
                    -0.15864,
                    -0.2289,
                    0.16206,
                    -0.21505,
                    -0.19998,
                    -0.12462,
                    -0.08061,
                    -0.03264,
                    0.05946,
                    -0.17173,
                    -0.24641,
                    -0.16187,
                    0.22982,
                    0.11101,
                    0.19687,
                    0.18534,
                    0.18404,
                    0.24635,
                    0.03997,
                    0.08915,
                    -0.03584,
                    0.15043,
                    -0.10139,
                    0.17172
                  ],
                  [
                    0.22108,
                    -0.09302,
                    -0.19656,
                    0.11244,
                    -0.01661,
                    -0.17052,
                    0.15347,
                    0.02803,
                    0.1078,
                    0.23409,
                    -0.17853,
                    -0.08938,
                    -0.06797,
                    0.22184,
                    -0.14243,
                    0.06346,
                    -0.13629,
                    -0.13883,
                    -0.23235,
                    -0.18167,
                    -0.15632,
                    -0.0302,
                    -0.12934,
                    -0.23456,
                    0.03977,
                    0.18144,
                    -0.25312,
                    0.01877,
                    0.19064,
                    0.08696,
                    0.06769,
                    -0.17974,
                    -0.06308,
                    0.04588,
                    -0.22792,
                    -0.26441,
                    -0.18745,
                    -0.09646,
                    0.00029,
                    0.04673,
                    0.12952,
                    0.11023,
                    0.04915,
                    -0.24495,
                    -0.01441,
                    0.20146,
                    0.21605,
                    -0.19187,
                    -0.20466,
                    -0.18178,
                    -0.08649,
                    0.05555,
                    0.00916,
                    0.1601,
                    0.09422,
                    -0.0483,
                    0.01983,
                    -0.16392,
                    -0.15733,
                    0.16637
                  ],
                  [
                    0.03122,
                    0.01633,
                    0.24085,
                    0.09965,
                    -0.17625,
                    -0.09958,
                    0.06672,
                    -0.15675,
                    -0.06072,
                    -0.0122,
                    -0.20051,
                    0.26225,
                    0.00782,
                    0.08289,
                    0.25101,
                    0.25237,
                    0.08558,
                    -0.02432,
                    0.13102,
                    0.20688,
                    -0.16222,
                    -0.02524,
                    0.08924,
                    -0.1919,
                    0.12501,
                    0.21775,
                    0.20119,
                    -0.08495,
                    0.07842,
                    0.09787,
                    0.10258,
                    0.21035,
                    0.04803,
                    -0.19322,
                    -0.21089,
                    0.13435,
                    0.1941,
                    0.01617,
                    -0.16416,
                    0.15291,
                    0.17352,
                    0.00165,
                    -0.01211,
                    -0.20756,
                    0.15017,
                    -0.21537,
                    0.2155,
                    0.00553,
                    -0.25501,
                    0.09725,
                    -0.23822,
                    0.07723,
                    -0.09385,
                    -0.09754,
                    0.16431,
                    -0.11239,
                    -0.11295,
                    -0.2348,
                    -0.20101,
                    0.03331
                  ],
                  [
                    -0.10708,
                    -0.07864,
                    0.20457,
                    0.17193,
                    0.05965,
                    -0.23454,
                    -0.17712,
                    0.01357,
                    0.19269,
                    0.12367,
                    0.14835,
                    -0.25921,
                    0.03812,
                    0.23813,
                    0.26052,
                    -0.06158,
                    0.13682,
                    -0.07232,
                    -0.18015,
                    -0.22894,
                    0.15204,
                    -0.24046,
                    -0.16184,
                    0.23899,
                    0.22802,
                    0.16826,
                    -0.08328,
                    -0.22442,
                    0.12527,
                    0.16252,
                    -0.08661,
                    0.07183,
                    -0.1477,
                    0.05406,
                    0.16086,
                    -0.15488,
                    -0.21483,
                    0.19261,
                    -0.21601,
                    0.20307,
                    0.09585,
                    0.19548,
                    0.14578,
                    0.16812,
                    -0.14751,
                    -0.00241,
                    -0.09957,
                    0.00016,
                    -0.05913,
                    -0.15725,
                    -0.18201,
                    -0.0915,
                    0.2396,
                    -0.20533,
                    -0.10831,
                    0.08953,
                    0.2345,
                    0.2161,
                    -0.04883,
                    -0.06279
                  ],
                  [
                    -0.06057,
                    -0.25539,
                    -0.05444,
                    0.09738,
                    0.21574,
                    -0.00909,
                    -0.1391,
                    -0.08803,
                    0.23836,
                    -0.1004,
                    -0.02374,
                    0.15918,
                    0.03697,
                    0.07,
                    -0.14017,
                    -0.00699,
                    0.11743,
                    0.13522,
                    -0.15858,
                    0.06221,
                    0.02251,
                    -0.05756,
                    0.09089,
                    -0.1008,
                    0.1043,
                    0.1397,
                    -0.20119,
                    -0.04965,
                    -0.23507,
                    0.00926,
                    -0.1311,
                    -0.10792,
                    0.08823,
                    -0.17812,
                    0.17741,
                    -0.17949,
                    -0.13526,
                    -0.03226,
                    0.13938,
                    -0.01682,
                    -0.25126,
                    -0.23911,
                    0.16082,
                    -0.03703,
                    -0.07796,
                    -0.03588,
                    0.07391,
                    0.00916,
                    -0.07513,
                    -0.0001,
                    0.2464,
                    -0.09283,
                    0.06923,
                    0.04667,
                    -0.18746,
                    0.08426,
                    -0.20907,
                    -0.2522,
                    -0.18227,
                    0.09008
                  ],
                  [
                    0.1882,
                    -0.11119,
                    -0.08792,
                    0.10943,
                    0.07858,
                    0.06159,
                    -0.04605,
                    -0.09898,
                    -0.23368,
                    -0.01244,
                    -0.01846,
                    -0.1609,
                    0.0446,
                    -0.11432,
                    -0.24046,
                    0.21099,
                    -0.20113,
                    -0.06598,
                    -0.18215,
                    -0.16903,
                    0.04592,
                    0.0333,
                    -0.05584,
                    0.23457,
                    -0.05768,
                    -0.09032,
                    -0.16528,
                    -0.0579,
                    0.22469,
                    0.22563,
                    -0.21155,
                    -0.14041,
                    -0.11793,
                    -0.10472,
                    -0.05722,
                    -0.0708,
                    -0.15483,
                    -0.21742,
                    -0.2296,
                    0.23441,
                    -0.13778,
                    -0.10792,
                    -0.08971,
                    0.14515,
                    0.14998,
                    -0.19377,
                    0.14381,
                    0.01756,
                    -0.18292,
                    -0.08907,
                    0.2223,
                    0.09834,
                    0.10093,
                    0.03878,
                    0.13403,
                    -0.00403,
                    -0.10646,
                    0.06577,
                    0.0577,
                    0.01045
                  ],
                  [
                    0.12263,
                    -0.1205,
                    0.08976,
                    0.23211,
                    -0.24031,
                    0.23974,
                    -0.13063,
                    -0.13828,
                    -0.00574,
                    -0.07646,
                    -0.26307,
                    0.05448,
                    -0.07499,
                    -0.23039,
                    -0.1109,
                    0.08922,
                    0.10245,
                    0.20839,
                    0.1481,
                    -0.22171,
                    -0.20156,
                    0.11451,
                    -0.04983,
                    -0.09786,
                    0.00201,
                    -0.09104,
                    -0.08142,
                    -0.18085,
                    -0.12744,
                    0.13187,
                    0.00942,
                    0.07553,
                    -0.04233,
                    0.10623,
                    0.04212,
                    -0.02576,
                    0.17074,
                    -0.1523,
                    0.11657,
                    0.00886,
                    -0.23944,
                    0.22211,
                    -0.00641,
                    0.10959,
                    0.00443,
                    -0.02791,
                    0.16274,
                    0.22678,
                    0.05922,
                    0.00098,
                    0.01811,
                    -0.21746,
                    -0.18168,
                    0.02557,
                    -0.23638,
                    -0.19992,
                    -0.09765,
                    -0.03494,
                    -0.12164,
                    0.16986
                  ],
                  [
                    0.24838,
                    -0.16982,
                    -0.24409,
                    -0.16727,
                    -0.21974,
                    0.12751,
                    -0.07825,
                    0.10556,
                    -0.13279,
                    -0.16336,
                    0.17818,
                    -0.12281,
                    -0.09114,
                    -0.26596,
                    0.20903,
                    0.05285,
                    0.14318,
                    0.11464,
                    0.09289,
                    0.14912,
                    0.20852,
                    -0.18284,
                    -0.13742,
                    0.12129,
                    0.09927,
                    -0.17304,
                    -0.20992,
                    0.0327,
                    -0.05951,
                    -0.05793,
                    -0.05513,
                    0.05947,
                    0.01485,
                    0.17112,
                    0.1712,
                    0.13188,
                    0.16675,
                    -0.00015,
                    -0.21546,
                    -0.07367,
                    0.06036,
                    0.06537,
                    0.21208,
                    0.00312,
                    -0.07451,
                    0.00881,
                    -0.03082,
                    0.04763,
                    -0.12448,
                    0.09203,
                    -0.15631,
                    -0.02092,
                    -0.00401,
                    0.12329,
                    -0.0801,
                    -0.17074,
                    0.20265,
                    -0.12385,
                    0.21272,
                    0.07061
                  ],
                  [
                    0.04674,
                    -0.05844,
                    0.03579,
                    -0.23884,
                    0.03676,
                    -0.13529,
                    -0.01261,
                    -0.01867,
                    -0.14422,
                    0.22247,
                    -0.13068,
                    0.20088,
                    -0.00838,
                    -0.09081,
                    0.10214,
                    -0.07125,
                    0.05096,
                    -0.00997,
                    -0.08517,
                    0.03702,
                    -0.24725,
                    -0.18484,
                    0.03914,
                    -0.08056,
                    0.00925,
                    -0.15928,
                    -0.09311,
                    -0.00486,
                    0.26211,
                    0.19247,
                    0.12327,
                    0.01154,
                    -0.21279,
                    0.08116,
                    0.18059,
                    -0.16542,
                    -0.2459,
                    -0.06053,
                    -0.18477,
                    0.09087,
                    -0.1577,
                    -0.24831,
                    -0.19427,
                    -0.08245,
                    0.10636,
                    -0.02012,
                    -0.26323,
                    -0.21634,
                    0.11985,
                    0.04719,
                    0.01508,
                    0.06549,
                    0.01829,
                    0.21124,
                    0.15435,
                    0.14532,
                    -0.14211,
                    0.04956,
                    0.23191,
                    -0.07613
                  ],
                  [
                    0.08129,
                    -0.23703,
                    -0.21907,
                    -0.25231,
                    -0.20607,
                    -0.01695,
                    -0.26369,
                    -0.25885,
                    -0.17381,
                    -0.12449,
                    0.24636,
                    0.21291,
                    0.16903,
                    -0.0268,
                    0.22903,
                    -0.07768,
                    0.14521,
                    0.14773,
                    -0.23677,
                    0.08441,
                    -0.00919,
                    -0.23841,
                    -0.25729,
                    -0.04082,
                    -0.08509,
                    0.19141,
                    -0.06345,
                    0.03704,
                    0.02817,
                    -0.24792,
                    -0.11324,
                    0.01796,
                    0.01361,
                    0.01553,
                    0.12009,
                    -0.17912,
                    0.17804,
                    0.02205,
                    0.16143,
                    0.04521,
                    0.11096,
                    0.23288,
                    -0.10991,
                    0.20985,
                    0.03838,
                    -0.11391,
                    0.01418,
                    -0.02544,
                    0.21312,
                    0.09077,
                    -0.00762,
                    0.00495,
                    -0.05703,
                    0.09332,
                    -0.02969,
                    0.17462,
                    -0.24922,
                    0.09023,
                    0.06516,
                    0.09422
                  ],
                  [
                    0.2602,
                    -0.01132,
                    0.02115,
                    0.12417,
                    -0.26213,
                    0.08617,
                    0.26168,
                    -0.06992,
                    -0.17084,
                    -0.14654,
                    0.24969,
                    0.01837,
                    0.14729,
                    0.09086,
                    0.18697,
                    0.17805,
                    -0.08052,
                    -0.23845,
                    -0.03731,
                    -0.221,
                    -0.23084,
                    0.05399,
                    0.08778,
                    0.16607,
                    0.25102,
                    -0.22861,
                    0.01504,
                    0.03195,
                    0.02188,
                    -0.08996,
                    0.07919,
                    -0.11758,
                    0.04419,
                    0.25784,
                    -0.00817,
                    -0.01514,
                    0.05325,
                    0.06353,
                    -0.20342,
                    0.20873,
                    -0.20903,
                    0.13835,
                    0.10317,
                    -0.0482,
                    0.19152,
                    0.20305,
                    0.00823,
                    0.23622,
                    0.13656,
                    0.24237,
                    -0.18137,
                    0.1584,
                    -0.16653,
                    -0.00915,
                    0.1919,
                    0.18374,
                    0.22584,
                    0.20923,
                    0.24836,
                    -0.22247
                  ],
                  [
                    -0.19345,
                    -0.09122,
                    0.08949,
                    -0.12357,
                    -0.1652,
                    -0.13249,
                    0.04463,
                    -0.0624,
                    -0.06403,
                    -0.25288,
                    0.05817,
                    0.01,
                    -0.11375,
                    0.22737,
                    -0.14014,
                    -0.04205,
                    0.18206,
                    -0.20799,
                    -0.17829,
                    -0.18846,
                    -0.152,
                    -0.08325,
                    0.22898,
                    0.17234,
                    0.14811,
                    0.07618,
                    -0.16127,
                    -0.26123,
                    -0.12411,
                    -0.18942,
                    -0.19397,
                    -0.16058,
                    0.12052,
                    0.10302,
                    0.03054,
                    -0.20517,
                    0.1991,
                    0.04713,
                    0.03319,
                    0.22921,
                    0.13896,
                    -0.24048,
                    -0.12626,
                    -0.02917,
                    0.24463,
                    -0.1812,
                    0.05865,
                    -0.16036,
                    -0.15218,
                    0.17407,
                    0.16315,
                    -0.1207,
                    0.24896,
                    -0.04805,
                    -0.13707,
                    -0.00739,
                    -0.12287,
                    -0.0303,
                    0.25975,
                    5e-05
                  ],
                  [
                    -0.05658,
                    -0.09999,
                    -0.21444,
                    -0.03769,
                    0.03557,
                    0.17724,
                    0.24135,
                    0.01554,
                    -0.07818,
                    -0.08351,
                    0.22249,
                    -0.23359,
                    -0.08017,
                    -0.07736,
                    0.05339,
                    0.09283,
                    -0.05516,
                    0.01432,
                    0.19149,
                    -0.17559,
                    0.20368,
                    0.00967,
                    -0.2402,
                    -0.2198,
                    -0.02991,
                    0.23298,
                    -0.2512,
                    0.0371,
                    0.1705,
                    0.00697,
                    0.21023,
                    -0.13446,
                    -0.21722,
                    0.04964,
                    -0.01167,
                    -0.01112,
                    0.07782,
                    -0.04,
                    0.07102,
                    -0.21083,
                    0.18079,
                    -0.23892,
                    0.02888,
                    0.22754,
                    -0.21714,
                    0.20375,
                    -0.03444,
                    -0.18794,
                    -0.14021,
                    -0.24794,
                    0.23974,
                    0.09208,
                    0.17606,
                    -0.16547,
                    0.01308,
                    0.20572,
                    -0.15212,
                    -0.0637,
                    -0.10585,
                    -0.02632
                  ],
                  [
                    -0.10004,
                    -0.14742,
                    -0.23054,
                    -0.01446,
                    0.19254,
                    0.05513,
                    -0.24843,
                    -0.19289,
                    0.2617,
                    0.10611,
                    0.23057,
                    -0.20686,
                    0.15811,
                    0.10996,
                    0.23037,
                    -0.0795,
                    -0.06304,
                    0.03977,
                    -0.11478,
                    0.0628,
                    0.0244,
                    -0.23229,
                    0.06588,
                    0.15478,
                    0.24934,
                    0.15828,
                    -0.05455,
                    -0.05571,
                    -0.25625,
                    -0.01377,
                    -0.00447,
                    0.24057,
                    -0.10459,
                    0.0962,
                    0.23921,
                    0.08166,
                    -0.09958,
                    -0.09907,
                    0.07702,
                    -0.19605,
                    0.09656,
                    -0.01098,
                    -0.24558,
                    -0.04862,
                    0.22528,
                    -0.1732,
                    -0.16742,
                    0.1181,
                    -0.0898,
                    -0.20091,
                    -0.22448,
                    0.08636,
                    0.21076,
                    0.22898,
                    0.07444,
                    -0.032,
                    0.10412,
                    0.13906,
                    -0.19342,
                    0.20023
                  ]
                ]
              },
              {
                "bias": [
                  -0.00376,
                  -0.23417,
                  0.42639
                ],
                "weights": [
                  [
                    0.0642,
                    -0.09765,
                    0.20873,
                    -0.25482,
                    0.34446,
                    0.30233,
                    -0.10698,
                    0.21776,
                    -0.04225,
                    -0.16689,
                    -0.13853,
                    0.2569,
                    0.38973,
                    -0.2254,
                    0.2489,
                    -0.14044,
                    0.41796,
                    0.32102,
                    0.2525,
                    0.17845,
                    0.16213,
                    0.28414,
                    0.21427,
                    -0.03426,
                    -0.15668,
                    0.112,
                    -0.09836,
                    -0.03736,
                    0.14094,
                    0.16678
                  ],
                  [
                    -0.3946,
                    -0.00207,
                    -0.19665,
                    0.42384,
                    -0.24823,
                    0.40953,
                    -0.14404,
                    -0.40239,
                    -0.08261,
                    -0.18674,
                    -0.30929,
                    0.21389,
                    0.1809,
                    0.19996,
                    0.19192,
                    -0.19631,
                    0.17186,
                    0.37354,
                    0.15054,
                    -0.12076,
                    -0.15626,
                    0.21626,
                    0.14692,
                    -0.01219,
                    0.40428,
                    -0.14086,
                    0.21239,
                    0.16892,
                    0.07992,
                    -0.40104
                  ],
                  [
                    -0.13146,
                    0.11191,
                    -0.31686,
                    0.0068,
                    0.11452,
                    -0.27337,
                    0.30775,
                    0.15639,
                    -0.39214,
                    0.34071,
                    0.407,
                    0.1957,
                    0.38884,
                    -0.01687,
                    -0.03976,
                    0.07599,
                    -0.2232,
                    0.41429,
                    -0.34753,
                    -0.09711,
                    -0.06199,
                    -0.11708,
                    0.28042,
                    0.14457,
                    -0.37443,
                    -0.03663,
                    -0.34085,
                    0.26036,
                    -0.22048,
                    -0.34133
                  ]
                ]
              }
            ],
            "rollback": false,
            "shared": false,
            "type": {
              "items": {
                "fields": [
                  {
                    "name": "weights",
                    "type": {
                      "items": {
                        "items": "double",
                        "type": "array"
                      },
                      "type": "array"
                    }
                  },
                  {
                    "name": "bias",
                    "type": {
                      "items": "double",
                      "type": "array"
                    }
                  }
                ],
                "name": "Layer",
                "type": "record"
              },
              "type": "array"
            }
          },
          "validations": {
            "init": [
              {
                "code": "kfold",
                "data": {
                  "average": {
                    "Accuracy": 0.41036,
                    "Confusion matrix": {
                      "labels": [
                        "AD",
                        "CN",
                        "Other"
                      ],
                      "values": [
                        [
                          107.0,
                          0.0,
                          167.0
                        ],
                        [
                          67.0,
                          0.0,
                          231.0
                        ],
                        [
                          548.0,
                          0.0,
                          598.0
                        ]
                      ]
                    },
                    "Weighted F1-score": 0.40672,
                    "Weighted false positive rate": 0.53207,
                    "Weighted precision": 0.42414,
                    "Weighted recall": 0.41036,
                    "type": "PolynomialClassificationScore"
                  },
                  "folds": {
                    "1": {
                      "Accuracy": 0.14203,
                      "Confusion matrix": {
                        "labels": [
                          "AD",
                          "CN",
                          "Other"
                        ],
                        "values": [
                          [
                            107.0,
                            0.0,
                            31.0
                          ],
                          [
                            67.0,
                            0.0,
                            91.0
                          ],
                          [
                            548.0,
                            0.0,
                            15.0
                          ]
                        ]
                      },
                      "Weighted F1-score": 0.06807,
                      "Weighted false positive rate": 0.40717,
                      "Weighted precision": 0.09557,
                      "Weighted recall": 0.14203,
                      "type": "PolynomialClassificationScore"
                    },
                    "2": {
                      "Accuracy": 0.6787,
                      "Confusion matrix": {
                        "labels": [
                          "AD",
                          "CN",
                          "Other"
                        ],
                        "values": [
                          [
                            0.0,
                            0.0,
                            136.0
                          ],
                          [
                            0.0,
                            0.0,
                            140.0
                          ],
                          [
                            0.0,
                            0.0,
                            583.0
                          ]
                        ]
                      },
                      "Weighted F1-score": 0.54879,
                      "Weighted false positive rate": 0.6787,
                      "Weighted precision": 0.46063,
                      "Weighted recall": 0.6787,
                      "type": "PolynomialClassificationScore"
                    }
                  },
                  "type": "KFoldCrossValidationScore"
                },
                "node": "local",
                "validationSpec": {
                  "code": "kfold",
                  "parameters": [
                    {
                      "code": "k",
                      "value": "2"
                    }
                  ]
                }
              }
            ],
            "type": {
              "items": "Record",
              "type": "array"
            }
          }
        },
        "fcns": {
          "C": {
            "do": [
              {
                "a.map": [
                  "categories",
                  {
                    "do": [
                      {
                        "else": [
                          0.0
                        ],
                        "if": {
                          "==": [
                            "cat",
                            "x"
                          ]
                        },
                        "then": [
                          1.0
                        ]
                      }
                    ],
                    "params": [
                      {
                        "cat": "string"
                      }
                    ],
                    "ret": "double"
                  }
                ]
              }
            ],
            "params": [
              {
                "x": "string"
              },
              {
                "categories": {
                  "items": "string",
                  "type": "array"
                }
              }
            ],
            "ret": {
              "items": "double",
              "type": "array"
            }
          },
          "arr": {
            "do": [
              {
                "new": [
                  "x"
                ],
                "type": {
                  "items": "double",
                  "type": "array"
                }
              }
            ],
            "params": [
              {
                "x": "double"
              }
            ],
            "ret": {
              "items": "double",
              "type": "array"
            }
          },
          "standardize": {
            "do": [
              {
                "/": [
                  {
                    "-": [
                      "x",
                      "mu"
                    ]
                  },
                  "sigma"
                ]
              }
            ],
            "params": [
              {
                "x": "double"
              },
              {
                "mu": "double"
              },
              {
                "sigma": "double"
              }
            ],
            "ret": "double"
          }
        },
        "input": {
          "fields": [
            {
              "name": "lefthippocampus",
              "type": "double"
            }
          ],
          "name": "Input",
          "type": "record"
        },
        "metadata": {
          "X": "{\"lefthippocampus\":{\"count\":1718.0,\"mean\":3.639566982e-16,\"std\":1.0002911632,\"min\":-6.1997481189,\"25%\":-0.1756647944,\"50%\":-0.1756647944,\"75%\":-0.1049179598,\"max\":5.934008706}}",
          "score": "0.6781140861",
          "y": "{\"count\":1718,\"unique\":3,\"top\":\"Other\",\"freq\":1146}"
        },
        "method": "map",
        "name": "neural_network",
        "output": "string"
      },
      "dataProvenance": [],
      "feedback": [],
      "jobId": "*",
      "node": "local",
      "timestamp": 0.0,
      "type": "application/pfa+json"
    }
  ],
  "dataProvenance": [
    {
      "code": "desd-synthdata"
    },
    {
      "code": "qqni-synthdata"
    }
  ],
  "feedback": [],
  "jobId": "*",
  "node": "local",
  "query": {
    "algorithms": [
      {
        "code": "sgdNeuralNetwork",
        "parameters": [
          {
            "code": "hidden_layer_sizes",
            "value": "60,30"
          },
          {
            "code": "activation",
            "value": "tanh"
          }
        ]
      }
    ],
    "covariables": [
      {
        "code": "lefthippocampus"
      }
    ],
    "covariablesMustExist": true,
    "filters": {
      "condition": "AND",
      "rules": [
        {
          "field": "alzheimerbroadcategory",
          "id": "alzheimerbroadcategory",
          "input": "text",
          "operator": "is_not_null",
          "type": "string",
          "value": []
        },
        {
          "field": "lefthippocampus",
          "id": "lefthippocampus",
          "input": "text",
          "operator": "is_not_null",
          "type": "string",
          "value": []
        }
      ]
    },
    "grouping": [],
    "targetTable": "cde_features_mixed",
    "testingDatasets": [],
    "trainingDatasets": [],
    "user": {
      "code": "test1"
    },
    "validationDatasets": [],
    "validations": [
      {
        "code": "kfold",
        "parameters": [
          {
            "code": "k",
            "value": "2"
          }
        ]
      }
    ],
    "variables": [
      {
        "code": "alzheimerbroadcategory"
      }
    ]
  },
  "timestamp": 0.0,
  "type": "application/vnd.hbp.mip.experiment.pfa+json"
}
