{
  "data": [
    {
      "algorithm": "python-sgd-neural-network",
      "algorithmSpec": {
        "code": "sgdNeuralNetwork",
        "parameters": [
          {
            "code": "hidden_layer_sizes",
            "value": "60,30"
          },
          {
            "code": "activation",
            "value": "tanh"
          }
        ]
      },
      "data": {
        "action": [
          {
            "let": {
              "x": {
                "a.flatten": [
                  {
                    "new": [
                      {
                        "u.arr": [
                          {
                            "/": [
                              {
                                "-": [
                                  {
                                    "cast.double": [
                                      {
                                        "attr": "input",
                                        "path": [
                                          {
                                            "string": "lefthippocampus"
                                          }
                                        ]
                                      }
                                    ]
                                  },
                                  2.91276
                                ]
                              },
                              0.25938
                            ]
                          }
                        ]
                      }
                    ],
                    "type": {
                      "items": {
                        "items": "double",
                        "type": "array"
                      },
                      "type": "array"
                    }
                  }
                ]
              }
            }
          },
          {
            "let": {
              "activations": {
                "model.neural.simpleLayers": [
                  "x",
                  {
                    "cell": "neuralnet"
                  },
                  {
                    "do": [
                      {
                        "m.link.relu": [
                          "x"
                        ]
                      }
                    ],
                    "params": [
                      {
                        "x": "double"
                      }
                    ],
                    "ret": "double"
                  }
                ]
              }
            }
          },
          {
            "cell": "classes",
            "path": [
              {
                "a.argmax": [
                  "activations"
                ]
              }
            ]
          }
        ],
        "cells": {
          "classes": {
            "init": [
              "AD",
              "CN",
              "Other"
            ],
            "rollback": false,
            "shared": false,
            "type": {
              "items": "string",
              "type": "array"
            }
          },
          "neuralnet": {
            "init": [
              {
                "bias": [
                  0.08222,
                  -0.13966,
                  -0.12259,
                  -0.03735,
                  0.16868,
                  -0.22449,
                  0.2397,
                  -0.23596,
                  -0.10378,
                  0.21772,
                  0.08119,
                  0.14408,
                  -0.25129,
                  0.28282,
                  -0.2327,
                  0.23015,
                  -0.04349,
                  -0.07054,
                  0.2087,
                  -0.30358,
                  -0.27663,
                  0.01911,
                  0.0751,
                  -0.05808,
                  0.19594,
                  -0.18144,
                  0.1195,
                  0.14472,
                  -0.26656,
                  -0.25799,
                  -0.14538,
                  0.26583,
                  -0.01727,
                  -0.14108,
                  0.29713,
                  -0.19856,
                  -0.03213,
                  -0.01684,
                  -0.09569,
                  0.20534,
                  0.24548,
                  0.04145,
                  -0.23328,
                  -0.30497,
                  -0.20026,
                  -0.31747,
                  -0.27915,
                  -0.00123,
                  -0.07539,
                  -0.0186,
                  -0.25896,
                  0.31937,
                  0.13867,
                  -0.10165,
                  0.2115,
                  0.27931,
                  -0.17505,
                  0.06545,
                  -0.02699,
                  0.25941
                ],
                "weights": [
                  [
                    -0.18725
                  ],
                  [
                    -0.0761
                  ],
                  [
                    -0.0955
                  ],
                  [
                    -0.232
                  ],
                  [
                    0.11747
                  ],
                  [
                    -0.16262
                  ],
                  [
                    -0.04095
                  ],
                  [
                    -0.12857
                  ],
                  [
                    -0.27393
                  ],
                  [
                    0.0175
                  ],
                  [
                    -0.04155
                  ],
                  [
                    -0.25264
                  ],
                  [
                    0.00989
                  ],
                  [
                    -0.31404
                  ],
                  [
                    0.15194
                  ],
                  [
                    0.07223
                  ],
                  [
                    -0.04224
                  ],
                  [
                    0.31428
                  ],
                  [
                    -0.00103
                  ],
                  [
                    0.18583
                  ],
                  [
                    0.11447
                  ],
                  [
                    -0.29628
                  ],
                  [
                    -0.11216
                  ],
                  [
                    -0.21112
                  ],
                  [
                    -0.10276
                  ],
                  [
                    0.03446
                  ],
                  [
                    0.30937
                  ],
                  [
                    -0.29701
                  ],
                  [
                    0.01451
                  ],
                  [
                    0.0089
                  ],
                  [
                    0.25591
                  ],
                  [
                    -0.03175
                  ],
                  [
                    -0.30988
                  ],
                  [
                    -0.26576
                  ],
                  [
                    0.22607
                  ],
                  [
                    0.31895
                  ],
                  [
                    0.04638
                  ],
                  [
                    -0.27621
                  ],
                  [
                    -0.05231
                  ],
                  [
                    0.28605
                  ],
                  [
                    -0.13089
                  ],
                  [
                    0.16512
                  ],
                  [
                    0.13156
                  ],
                  [
                    -0.24295
                  ],
                  [
                    -0.23454
                  ],
                  [
                    -0.10172
                  ],
                  [
                    -0.25474
                  ],
                  [
                    0.29759
                  ],
                  [
                    0.2529
                  ],
                  [
                    0.2454
                  ],
                  [
                    0.24003
                  ],
                  [
                    -0.24675
                  ],
                  [
                    -0.13931
                  ],
                  [
                    -0.292
                  ],
                  [
                    0.24842
                  ],
                  [
                    0.16613
                  ],
                  [
                    -0.31421
                  ],
                  [
                    -0.03345
                  ],
                  [
                    0.19812
                  ],
                  [
                    0.28086
                  ]
                ]
              },
              {
                "bias": [
                  0.09975,
                  0.13048,
                  0.14675,
                  0.22217,
                  -0.03105,
                  -0.14197,
                  0.16853,
                  -0.24034,
                  -0.09983,
                  -0.01772,
                  0.13634,
                  -0.10484,
                  -0.1556,
                  0.23071,
                  0.02216,
                  0.05425,
                  -0.20739,
                  0.12887,
                  0.11093,
                  -0.18781,
                  0.23091,
                  0.12096,
                  -0.12454,
                  0.15086,
                  0.03638,
                  -0.25202,
                  -0.00558,
                  0.206,
                  0.09015,
                  -0.19988
                ],
                "weights": [
                  [
                    -0.21809,
                    0.05453,
                    -0.08823,
                    0.04551,
                    0.0319,
                    -0.11642,
                    -0.08259,
                    -0.14036,
                    -0.16066,
                    -0.2639,
                    0.18415,
                    0.0815,
                    0.1089,
                    0.18152,
                    0.24063,
                    -0.1848,
                    0.11505,
                    0.20536,
                    0.23413,
                    0.1629,
                    -0.13833,
                    0.23435,
                    -0.06357,
                    -0.21207,
                    0.17566,
                    0.19332,
                    -0.18491,
                    0.21085,
                    0.08367,
                    0.20956,
                    0.21457,
                    -0.10115,
                    -0.00782,
                    -0.02198,
                    0.16636,
                    0.23071,
                    0.2146,
                    -0.0473,
                    0.12516,
                    -0.17999,
                    0.02048,
                    -0.24277,
                    -0.02377,
                    -0.03588,
                    0.13547,
                    0.15477,
                    -0.18925,
                    0.11033,
                    0.00277,
                    -0.21699,
                    -0.21583,
                    -0.17045,
                    0.01194,
                    0.01766,
                    0.10563,
                    -0.12983,
                    -0.12054,
                    -0.18355,
                    -0.04487,
                    0.04855
                  ],
                  [
                    0.05221,
                    -0.20149,
                    0.09026,
                    -0.11606,
                    -0.0019,
                    -0.02865,
                    0.18882,
                    -0.13571,
                    -0.13224,
                    -0.23084,
                    0.12073,
                    -0.06628,
                    -0.15509,
                    -0.04092,
                    0.19681,
                    -0.10392,
                    -0.1793,
                    -0.19423,
                    0.12441,
                    0.03444,
                    0.00214,
                    -0.02166,
                    -0.22127,
                    -0.18373,
                    -0.04787,
                    0.06673,
                    0.22817,
                    0.23343,
                    -0.08741,
                    0.22893,
                    0.06304,
                    0.15654,
                    -0.07841,
                    -0.24564,
                    0.10605,
                    -0.08062,
                    -0.0082,
                    0.08061,
                    0.16666,
                    -0.13623,
                    -0.05428,
                    0.20875,
                    -0.23098,
                    -0.23987,
                    0.10843,
                    -0.00785,
                    -0.14321,
                    0.25639,
                    -0.13083,
                    0.0825,
                    0.25156,
                    -0.194,
                    0.07239,
                    -0.12305,
                    -0.11189,
                    0.06486,
                    -0.26451,
                    0.19304,
                    -0.10024,
                    0.10823
                  ],
                  [
                    0.13307,
                    -0.18294,
                    0.13363,
                    -0.07382,
                    -0.11956,
                    0.07277,
                    0.17803,
                    -0.20664,
                    -0.07218,
                    0.04548,
                    0.08355,
                    0.09616,
                    0.07528,
                    -0.2631,
                    0.04644,
                    -0.13366,
                    0.06416,
                    -0.16423,
                    0.23034,
                    0.0442,
                    0.25752,
                    0.20134,
                    0.23419,
                    -0.24884,
                    0.22589,
                    -0.05043,
                    0.04689,
                    0.02621,
                    -0.2339,
                    -0.0936,
                    -0.22071,
                    0.20563,
                    0.0258,
                    0.01959,
                    0.11016,
                    -0.14263,
                    0.08074,
                    -0.1492,
                    -0.01516,
                    -0.05139,
                    -0.11836,
                    -0.03037,
                    -0.21917,
                    0.07858,
                    -0.17456,
                    -0.16112,
                    0.11042,
                    -0.03029,
                    0.25659,
                    0.03138,
                    -0.12782,
                    -0.10724,
                    -0.06711,
                    -0.24111,
                    -0.06105,
                    0.15707,
                    -0.23909,
                    0.18595,
                    0.24794,
                    -0.18759
                  ],
                  [
                    -0.20014,
                    -0.20284,
                    0.23153,
                    -0.09574,
                    -0.25297,
                    0.10227,
                    -0.14793,
                    0.05441,
                    -0.24012,
                    -0.08266,
                    -0.05972,
                    0.09145,
                    -0.22862,
                    0.22977,
                    -0.02767,
                    -0.14764,
                    -0.11418,
                    0.15788,
                    0.16277,
                    0.22036,
                    0.1889,
                    0.08908,
                    -0.2179,
                    0.03516,
                    0.05447,
                    -0.07127,
                    0.07906,
                    -0.137,
                    0.19776,
                    -0.21896,
                    -0.18268,
                    -0.13803,
                    0.1029,
                    -0.17202,
                    -0.05363,
                    -0.20951,
                    0.05974,
                    -0.11734,
                    -0.03557,
                    -0.11556,
                    -0.08338,
                    -0.10418,
                    -0.21573,
                    0.1283,
                    -0.04108,
                    0.01655,
                    0.19169,
                    -0.09387,
                    -0.11689,
                    -0.19698,
                    -0.0719,
                    -0.00889,
                    -0.253,
                    0.16017,
                    0.18547,
                    0.11297,
                    -0.18351,
                    0.11603,
                    0.1848,
                    -0.03478
                  ],
                  [
                    0.09345,
                    -0.07272,
                    0.05374,
                    -0.01809,
                    0.12644,
                    0.01393,
                    -0.20408,
                    0.22482,
                    -0.07581,
                    -0.19677,
                    0.08548,
                    -0.06657,
                    0.04779,
                    -0.10468,
                    -0.03152,
                    -0.03486,
                    0.10522,
                    0.10342,
                    -0.14976,
                    -0.08827,
                    0.15516,
                    -0.14587,
                    0.2436,
                    0.02738,
                    -0.07083,
                    -0.22931,
                    0.14213,
                    0.20271,
                    0.04248,
                    0.15766,
                    0.19202,
                    0.16895,
                    0.18329,
                    0.24457,
                    -0.13949,
                    0.04686,
                    0.2543,
                    -0.03489,
                    0.06404,
                    -0.04453,
                    0.19586,
                    -0.00751,
                    -0.07657,
                    -0.19532,
                    0.1788,
                    0.06134,
                    0.19888,
                    0.00707,
                    0.16584,
                    -0.22931,
                    0.07689,
                    0.02889,
                    0.03173,
                    0.26286,
                    -0.20192,
                    -0.26534,
                    0.05161,
                    -0.10496,
                    0.07852,
                    0.08732
                  ],
                  [
                    -0.0948,
                    -0.07663,
                    -0.24908,
                    -0.15259,
                    -0.10451,
                    0.064,
                    -0.14163,
                    -0.16717,
                    0.23994,
                    -0.24068,
                    -0.15229,
                    0.06104,
                    0.25894,
                    -0.15744,
                    -0.20225,
                    -0.01972,
                    -0.05434,
                    0.03324,
                    0.11366,
                    0.23337,
                    -0.02856,
                    -0.13071,
                    -0.04226,
                    -0.06203,
                    -0.08179,
                    0.19247,
                    0.20809,
                    -0.15523,
                    0.19784,
                    0.07185,
                    -0.17855,
                    0.24724,
                    -0.24145,
                    -0.07529,
                    0.03288,
                    0.04331,
                    -0.1561,
                    0.16607,
                    0.15021,
                    0.05217,
                    0.09926,
                    -0.14973,
                    0.06139,
                    -0.10772,
                    -0.19662,
                    -0.21581,
                    -0.01703,
                    0.02409,
                    -0.10494,
                    0.08185,
                    -0.20376,
                    -0.19122,
                    -0.23475,
                    0.1763,
                    -0.01822,
                    -0.06418,
                    0.16923,
                    0.07081,
                    0.06981,
                    0.20793
                  ],
                  [
                    0.15622,
                    0.26514,
                    0.11069,
                    0.1715,
                    0.05167,
                    -0.15711,
                    0.24708,
                    0.11947,
                    -0.1894,
                    -0.26469,
                    0.16904,
                    -0.20953,
                    0.12985,
                    0.12187,
                    0.07639,
                    -0.0849,
                    0.21447,
                    0.05744,
                    -0.06466,
                    0.05869,
                    0.13908,
                    0.21038,
                    -0.2144,
                    0.1176,
                    -0.07181,
                    -0.22888,
                    -0.00563,
                    0.09967,
                    0.2475,
                    -0.01616,
                    -0.15245,
                    -0.04437,
                    -0.00962,
                    -0.04305,
                    0.20869,
                    0.21432,
                    -0.14583,
                    -0.09699,
                    0.0586,
                    -0.19465,
                    0.15964,
                    -0.09623,
                    -0.12492,
                    0.11956,
                    -0.19692,
                    -0.12375,
                    -0.24032,
                    0.1684,
                    -0.08075,
                    0.15826,
                    0.07196,
                    -0.10419,
                    0.06937,
                    0.11151,
                    -0.23279,
                    -0.02258,
                    0.07402,
                    0.1631,
                    -0.00422,
                    0.14366
                  ],
                  [
                    -0.09332,
                    -0.15992,
                    -0.21308,
                    0.04128,
                    0.20915,
                    0.10871,
                    0.14158,
                    0.22974,
                    -0.11337,
                    -0.22304,
                    -0.1108,
                    0.11326,
                    0.23977,
                    -0.09763,
                    0.11082,
                    0.18195,
                    0.15861,
                    0.05553,
                    0.00317,
                    0.228,
                    0.09932,
                    -0.16302,
                    0.0552,
                    -0.02,
                    0.0808,
                    -0.06264,
                    -0.16926,
                    -0.26024,
                    -0.12309,
                    0.12082,
                    -0.20718,
                    -0.11986,
                    -0.0542,
                    -0.2028,
                    0.08132,
                    -0.18629,
                    0.22222,
                    -0.19248,
                    0.16896,
                    -0.05821,
                    -0.03127,
                    0.14794,
                    0.03535,
                    0.11529,
                    0.00642,
                    0.13241,
                    -0.03413,
                    -0.23406,
                    0.22853,
                    -0.06287,
                    -0.14283,
                    0.1289,
                    -0.05178,
                    0.1446,
                    -0.18907,
                    -0.12733,
                    -0.03795,
                    0.08208,
                    0.1133,
                    0.12696
                  ],
                  [
                    0.16595,
                    0.13652,
                    -0.14881,
                    -0.01496,
                    -0.21423,
                    0.0452,
                    0.25411,
                    -0.09571,
                    0.0513,
                    -0.21824,
                    0.12266,
                    0.19367,
                    -0.02856,
                    -0.0993,
                    0.04875,
                    -0.02028,
                    0.21329,
                    -0.11972,
                    -0.0717,
                    0.20707,
                    -0.25389,
                    0.19169,
                    -0.00276,
                    -0.14901,
                    0.0996,
                    0.09859,
                    -0.11846,
                    -0.06522,
                    -0.09181,
                    0.10584,
                    0.22262,
                    -3e-05,
                    0.1837,
                    -0.2127,
                    -0.13982,
                    -0.10783,
                    -0.21545,
                    -0.14021,
                    0.16114,
                    -0.13942,
                    0.17655,
                    0.08466,
                    0.06221,
                    0.14335,
                    0.02403,
                    0.01982,
                    0.08988,
                    0.22175,
                    0.08986,
                    -0.02727,
                    -0.19222,
                    -0.09049,
                    0.13256,
                    0.12381,
                    -0.00457,
                    -0.13373,
                    -0.03613,
                    0.14948,
                    0.13555,
                    0.081
                  ],
                  [
                    -0.04379,
                    -0.14581,
                    -0.07523,
                    0.16322,
                    -0.18201,
                    -0.2278,
                    -0.1663,
                    -0.16305,
                    -0.17819,
                    0.13414,
                    0.23684,
                    -0.00087,
                    -0.26183,
                    0.06685,
                    -0.19089,
                    0.02849,
                    -0.1739,
                    -0.05214,
                    0.07052,
                    0.1335,
                    -0.03542,
                    0.02285,
                    0.24578,
                    -0.22246,
                    -0.22612,
                    0.21179,
                    -0.17157,
                    0.13177,
                    0.11326,
                    0.21309,
                    -0.03742,
                    -0.17611,
                    -0.07992,
                    0.19035,
                    0.01594,
                    -0.25362,
                    0.1993,
                    0.11934,
                    0.03664,
                    0.25354,
                    -0.2469,
                    -0.05695,
                    0.026,
                    -0.06814,
                    -0.12601,
                    -0.03658,
                    0.08474,
                    0.07407,
                    0.055,
                    -0.23005,
                    -0.22139,
                    0.21874,
                    -0.101,
                    -0.18646,
                    0.15116,
                    -0.01203,
                    0.11358,
                    -0.08642,
                    -0.25479,
                    0.17003
                  ],
                  [
                    -0.25034,
                    -0.15413,
                    0.1376,
                    -0.23132,
                    0.04905,
                    0.26157,
                    0.14156,
                    -0.12411,
                    0.20486,
                    -0.08544,
                    -0.07542,
                    0.14302,
                    0.01056,
                    0.13859,
                    0.02705,
                    0.06165,
                    -0.09794,
                    -0.0869,
                    -0.05945,
                    0.18542,
                    -0.09864,
                    0.01489,
                    -0.18489,
                    -0.09759,
                    0.11695,
                    -0.03832,
                    0.06284,
                    0.1681,
                    0.10063,
                    -0.24488,
                    -0.21357,
                    -0.06889,
                    -0.03414,
                    0.1493,
                    -0.00827,
                    0.10924,
                    -0.10553,
                    0.00561,
                    -0.09817,
                    0.03776,
                    -0.06724,
                    -0.12339,
                    -0.06052,
                    0.25919,
                    0.04194,
                    -0.11744,
                    -0.00483,
                    0.2177,
                    0.07978,
                    -0.16171,
                    0.20119,
                    -0.08252,
                    -0.18137,
                    0.08773,
                    0.11915,
                    -0.1274,
                    -0.23778,
                    0.03817,
                    0.01194,
                    0.13724
                  ],
                  [
                    0.21332,
                    0.05626,
                    0.22262,
                    -0.22779,
                    0.10052,
                    0.25249,
                    -0.22038,
                    -0.22319,
                    0.0255,
                    0.03839,
                    -0.03556,
                    0.01054,
                    0.05417,
                    0.19685,
                    0.1833,
                    0.12842,
                    -0.02751,
                    -0.23641,
                    0.23832,
                    -0.08161,
                    0.17246,
                    0.01621,
                    -0.06018,
                    -0.04473,
                    0.09152,
                    -0.1668,
                    -0.02299,
                    -0.14912,
                    -0.00264,
                    0.07511,
                    0.24779,
                    0.12879,
                    0.14373,
                    0.06495,
                    -0.03395,
                    -0.17608,
                    -0.11154,
                    0.14651,
                    0.20311,
                    0.03687,
                    -0.14261,
                    -0.01793,
                    -0.14799,
                    0.12721,
                    0.03481,
                    0.05127,
                    0.15059,
                    0.10662,
                    0.07086,
                    -0.01473,
                    -0.24306,
                    0.04987,
                    0.00986,
                    -0.15663,
                    0.14268,
                    -0.19187,
                    0.01492,
                    -0.25103,
                    -0.0327,
                    -0.10926
                  ],
                  [
                    0.04037,
                    -0.03997,
                    -0.02723,
                    0.04573,
                    0.13925,
                    0.02152,
                    -0.15258,
                    -0.26088,
                    0.23132,
                    -0.13929,
                    -0.01505,
                    -0.11851,
                    -0.16409,
                    0.20302,
                    -0.08188,
                    0.0304,
                    -0.24395,
                    0.19735,
                    -0.22827,
                    0.13026,
                    0.14742,
                    0.19325,
                    0.1158,
                    -0.19576,
                    -0.24135,
                    -0.00501,
                    -0.18755,
                    -0.12955,
                    -0.00941,
                    -0.03519,
                    0.18949,
                    -0.0428,
                    0.15191,
                    -0.12163,
                    -0.02423,
                    -0.05437,
                    0.01049,
                    0.20134,
                    -0.08917,
                    -0.0982,
                    -0.00839,
                    0.25235,
                    -0.05368,
                    -0.04725,
                    -0.0421,
                    -0.22588,
                    0.19134,
                    0.01278,
                    -0.11429,
                    0.02321,
                    -0.21906,
                    -0.16648,
                    0.08506,
                    0.21209,
                    0.07432,
                    -0.15776,
                    0.10894,
                    -0.18659,
                    0.22733,
                    -0.02666
                  ],
                  [
                    0.13413,
                    0.10079,
                    0.02931,
                    -0.18249,
                    -0.13816,
                    0.0479,
                    -0.04856,
                    0.21474,
                    0.2436,
                    -0.09794,
                    0.00564,
                    -0.26289,
                    0.10842,
                    -0.09878,
                    0.06282,
                    -0.04449,
                    0.03756,
                    0.16623,
                    0.08949,
                    0.1617,
                    -0.20259,
                    -0.20429,
                    -0.08527,
                    0.03978,
                    -0.23833,
                    0.19626,
                    -0.01274,
                    -0.13537,
                    0.07947,
                    0.07264,
                    -0.08765,
                    -0.1225,
                    -0.11484,
                    -0.00408,
                    -0.10728,
                    0.23998,
                    0.25999,
                    0.09366,
                    -0.20726,
                    -0.2115,
                    0.24646,
                    0.22408,
                    -0.00689,
                    0.12548,
                    0.15599,
                    0.04877,
                    0.05152,
                    -0.04733,
                    0.15566,
                    0.18487,
                    -0.03369,
                    -0.13794,
                    0.05031,
                    0.09936,
                    -0.23016,
                    -0.08021,
                    -0.0928,
                    0.24409,
                    0.10777,
                    -0.1966
                  ],
                  [
                    -0.01291,
                    -0.10695,
                    0.22874,
                    -0.22145,
                    -0.22487,
                    0.22175,
                    0.01489,
                    -0.02863,
                    0.18364,
                    -0.2366,
                    -0.00082,
                    -0.24758,
                    -0.02919,
                    -0.09908,
                    0.08414,
                    0.01746,
                    -0.18452,
                    0.07689,
                    0.24602,
                    0.23904,
                    0.05011,
                    -0.12114,
                    -0.20443,
                    0.03547,
                    0.04563,
                    -0.00704,
                    -0.25678,
                    0.14498,
                    0.24295,
                    0.24318,
                    -0.15616,
                    0.03896,
                    0.16847,
                    0.08174,
                    0.24836,
                    0.03809,
                    0.08875,
                    0.03738,
                    0.1494,
                    0.24773,
                    0.01932,
                    -0.14867,
                    0.21214,
                    -0.00646,
                    -0.19719,
                    0.22869,
                    0.00082,
                    0.23673,
                    0.26234,
                    0.10616,
                    -0.16693,
                    -0.11544,
                    -0.21495,
                    0.00797,
                    -0.19486,
                    0.15652,
                    0.10028,
                    0.096,
                    0.23116,
                    0.01445
                  ],
                  [
                    0.08616,
                    0.14062,
                    -0.17804,
                    0.12631,
                    -0.16895,
                    0.14139,
                    0.09147,
                    0.21039,
                    -0.02128,
                    -0.1044,
                    0.20534,
                    0.13922,
                    -0.26431,
                    0.19016,
                    0.01221,
                    0.25923,
                    0.03423,
                    0.15928,
                    0.05775,
                    0.16539,
                    0.22376,
                    0.08808,
                    0.00686,
                    0.23067,
                    0.13356,
                    0.16234,
                    -0.21147,
                    0.09705,
                    0.20002,
                    0.01578,
                    -0.04784,
                    -0.14109,
                    -0.20957,
                    -0.0993,
                    0.07533,
                    0.14084,
                    0.05835,
                    0.13287,
                    0.1765,
                    0.01355,
                    0.11125,
                    0.22415,
                    0.22989,
                    0.24508,
                    -0.23535,
                    -0.214,
                    -0.01418,
                    0.02301,
                    -0.01563,
                    0.11469,
                    0.19816,
                    0.21178,
                    0.24973,
                    0.1084,
                    0.24397,
                    0.01945,
                    -0.0444,
                    -0.00656,
                    0.12779,
                    -0.12638
                  ],
                  [
                    -0.04275,
                    0.23949,
                    0.20719,
                    0.23962,
                    0.23004,
                    -0.21681,
                    -0.15355,
                    -0.11013,
                    -0.22164,
                    0.23841,
                    -0.15781,
                    -0.06904,
                    -0.16126,
                    -0.04095,
                    -0.10546,
                    -0.215,
                    -0.19543,
                    0.0347,
                    0.14975,
                    -0.02535,
                    0.12933,
                    0.02089,
                    -0.04444,
                    0.09115,
                    -0.03394,
                    0.11273,
                    -0.14525,
                    0.10598,
                    0.20169,
                    0.17228,
                    -0.15005,
                    0.17416,
                    -0.1316,
                    0.02199,
                    -0.10918,
                    0.23555,
                    0.21414,
                    0.12815,
                    -0.21281,
                    -0.10101,
                    -0.19238,
                    -0.1047,
                    -0.04527,
                    -0.21018,
                    -0.08673,
                    0.10638,
                    0.08504,
                    -0.15519,
                    -0.09997,
                    -0.05267,
                    -0.08871,
                    -0.12191,
                    -0.18992,
                    -0.03894,
                    -0.00704,
                    -0.01311,
                    0.2477,
                    0.0853,
                    -0.03502,
                    -0.19258
                  ],
                  [
                    0.11327,
                    -0.11874,
                    -0.12275,
                    0.03771,
                    0.04494,
                    -0.14225,
                    0.06708,
                    -0.22286,
                    -0.06916,
                    -0.02228,
                    -0.13975,
                    -0.05297,
                    -0.13281,
                    0.20441,
                    0.19704,
                    0.18214,
                    0.13909,
                    -0.13366,
                    0.17901,
                    0.17977,
                    0.06184,
                    -0.04212,
                    0.18572,
                    -0.03103,
                    -0.15231,
                    0.1826,
                    -0.07938,
                    0.21612,
                    0.06742,
                    0.25603,
                    -0.09645,
                    -0.17346,
                    -0.09471,
                    0.08663,
                    -0.17673,
                    -0.07472,
                    0.074,
                    0.08385,
                    0.08699,
                    0.02217,
                    0.16993,
                    -0.04168,
                    -0.11432,
                    0.12344,
                    -0.20026,
                    -0.11687,
                    -0.03398,
                    -0.20066,
                    0.06806,
                    -0.12781,
                    0.1646,
                    -0.01445,
                    -0.10021,
                    -0.17716,
                    0.11158,
                    0.0043,
                    0.04649,
                    -0.20867,
                    0.15498,
                    0.20758
                  ],
                  [
                    0.09544,
                    0.13028,
                    -0.23696,
                    0.10214,
                    -0.09814,
                    0.04945,
                    0.16541,
                    -0.02569,
                    0.1531,
                    0.15106,
                    -0.08546,
                    0.01114,
                    0.08445,
                    0.11233,
                    -0.08287,
                    -0.04266,
                    -0.02188,
                    0.03649,
                    0.03354,
                    0.00401,
                    -0.06829,
                    -0.01269,
                    -0.14116,
                    -0.00304,
                    -0.24153,
                    0.1104,
                    -0.23432,
                    -0.23074,
                    -0.02424,
                    -0.03462,
                    -0.09629,
                    0.08286,
                    -0.09687,
                    0.15795,
                    -0.01671,
                    0.16668,
                    -0.04073,
                    -0.20625,
                    -0.23889,
                    0.22536,
                    -0.08023,
                    -0.04727,
                    -0.20798,
                    0.23885,
                    -0.10712,
                    -0.25081,
                    0.17437,
                    -0.04669,
                    -0.011,
                    0.22302,
                    0.13086,
                    0.09398,
                    0.1323,
                    -0.08354,
                    0.05438,
                    -0.14845,
                    -0.12892,
                    0.01644,
                    -0.11896,
                    0.22754
                  ],
                  [
                    0.02959,
                    0.14729,
                    0.06333,
                    0.2412,
                    -0.11836,
                    -0.08636,
                    -0.21366,
                    -0.03718,
                    -0.18134,
                    -0.22988,
                    0.05261,
                    0.14383,
                    -0.05703,
                    -0.10207,
                    -0.24424,
                    -0.0918,
                    0.17843,
                    -0.10045,
                    -0.09053,
                    -0.0871,
                    -0.0059,
                    0.05685,
                    0.14543,
                    -0.21553,
                    -0.23188,
                    0.12981,
                    -0.21813,
                    0.17872,
                    0.12575,
                    -0.20278,
                    0.21639,
                    -0.18978,
                    -0.06364,
                    0.2116,
                    -0.1205,
                    -0.24431,
                    0.05324,
                    0.02834,
                    0.21659,
                    0.20776,
                    0.23995,
                    -0.15122,
                    -0.15206,
                    0.08598,
                    0.05712,
                    0.11479,
                    -0.17948,
                    -0.24346,
                    0.06188,
                    -0.12172,
                    -0.01395,
                    0.22381,
                    -0.22825,
                    0.12301,
                    0.21166,
                    0.15676,
                    -0.07578,
                    -0.24304,
                    -0.12036,
                    0.01297
                  ],
                  [
                    -0.12852,
                    -0.14515,
                    -0.2204,
                    -0.17089,
                    0.19307,
                    -0.01469,
                    0.22781,
                    -0.0286,
                    0.01952,
                    -0.00606,
                    -0.22723,
                    0.05279,
                    -0.12128,
                    -0.20025,
                    0.20362,
                    -0.03417,
                    -0.11988,
                    -0.02439,
                    -0.23203,
                    -0.17641,
                    0.16723,
                    -0.15187,
                    -0.10408,
                    -0.24255,
                    -0.04547,
                    0.06612,
                    -0.05554,
                    0.12532,
                    -0.15779,
                    -0.2197,
                    0.00835,
                    -0.20222,
                    -0.22486,
                    -0.16961,
                    -0.16498,
                    -0.01153,
                    -0.1755,
                    0.20494,
                    -0.08493,
                    -0.21076,
                    0.13426,
                    -0.1616,
                    0.02665,
                    0.01078,
                    -0.25558,
                    0.05628,
                    0.02209,
                    -0.10099,
                    0.08672,
                    0.0506,
                    -0.03491,
                    -0.05448,
                    -0.07407,
                    0.20974,
                    0.05048,
                    0.22271,
                    0.12079,
                    -0.10875,
                    -0.18449,
                    0.17687
                  ],
                  [
                    0.02834,
                    0.18856,
                    0.25667,
                    0.08076,
                    -0.08214,
                    0.19157,
                    0.2472,
                    0.04583,
                    0.02615,
                    -0.2227,
                    0.18648,
                    -0.16841,
                    -0.21467,
                    -0.18198,
                    0.21332,
                    -0.10346,
                    0.01646,
                    0.03483,
                    0.1306,
                    0.23105,
                    0.17232,
                    -0.19777,
                    0.11563,
                    -0.13926,
                    0.22868,
                    -0.15695,
                    0.15277,
                    -0.22484,
                    -0.02644,
                    -0.18484,
                    -0.10112,
                    -0.1128,
                    -0.0137,
                    0.11777,
                    0.20377,
                    -0.14656,
                    0.13377,
                    0.05362,
                    -0.15108,
                    -0.20274,
                    0.17563,
                    0.07236,
                    0.24985,
                    -0.24852,
                    -0.13773,
                    0.25886,
                    0.08824,
                    0.2608,
                    0.07643,
                    -0.04096,
                    0.24764,
                    0.044,
                    0.19776,
                    -0.23786,
                    0.08671,
                    -0.16361,
                    0.14753,
                    -0.08474,
                    0.09679,
                    -0.12973
                  ],
                  [
                    -0.19798,
                    0.14948,
                    0.02024,
                    0.22561,
                    -0.21928,
                    -0.04774,
                    0.17296,
                    -0.19837,
                    -0.03747,
                    -0.1649,
                    -0.13947,
                    0.02727,
                    -0.14112,
                    -0.02741,
                    0.20529,
                    -0.00738,
                    0.16084,
                    -0.16222,
                    -0.07496,
                    0.15231,
                    0.06916,
                    -0.02626,
                    -0.23916,
                    0.16136,
                    0.02502,
                    -0.16164,
                    -0.15587,
                    -0.15773,
                    -0.17461,
                    -0.1765,
                    0.17048,
                    0.25165,
                    0.2291,
                    -0.11294,
                    -0.03428,
                    -0.17091,
                    -0.15186,
                    -0.09014,
                    0.00482,
                    0.17912,
                    -0.08541,
                    -0.09687,
                    -0.19317,
                    -0.11238,
                    0.14174,
                    0.22539,
                    0.12349,
                    0.10953,
                    -0.21454,
                    0.17412,
                    0.12272,
                    0.10225,
                    0.2012,
                    0.06065,
                    -0.08287,
                    0.01586,
                    -0.09261,
                    0.11238,
                    -0.16395,
                    -0.21165
                  ],
                  [
                    0.19155,
                    0.2584,
                    0.11144,
                    0.02405,
                    -0.19113,
                    -0.02526,
                    0.16426,
                    -0.03222,
                    -0.08676,
                    0.05055,
                    -0.04262,
                    -0.09451,
                    0.24747,
                    -0.08192,
                    -0.2217,
                    -0.20051,
                    -0.00642,
                    -0.12927,
                    0.18323,
                    0.13146,
                    -0.06339,
                    0.15395,
                    -0.02121,
                    0.02997,
                    0.01152,
                    -0.18495,
                    -0.09902,
                    0.11777,
                    0.03548,
                    0.14325,
                    0.22584,
                    -0.16379,
                    -0.01533,
                    -0.0594,
                    -0.02968,
                    0.10209,
                    -0.04689,
                    0.16886,
                    0.01718,
                    0.10233,
                    0.09435,
                    0.21598,
                    -0.04341,
                    0.06875,
                    -0.10223,
                    0.00681,
                    0.18958,
                    0.0813,
                    -0.11016,
                    0.23221,
                    0.19197,
                    -0.16091,
                    0.12675,
                    -0.06848,
                    -0.10952,
                    0.20745,
                    -0.23248,
                    -0.05973,
                    -0.24451,
                    0.21745
                  ],
                  [
                    -0.0503,
                    -0.21734,
                    0.18031,
                    0.13645,
                    -0.18035,
                    0.15752,
                    -0.03086,
                    -0.13372,
                    0.12332,
                    -0.22131,
                    -0.14513,
                    -0.01652,
                    0.23903,
                    0.19812,
                    -0.18263,
                    0.17214,
                    0.08444,
                    -0.1728,
                    -0.10223,
                    -0.19715,
                    -0.11017,
                    0.22749,
                    -0.08222,
                    0.24417,
                    0.16289,
                    -0.06119,
                    0.00151,
                    0.14233,
                    -0.19989,
                    0.18894,
                    0.0311,
                    -0.01283,
                    -0.1109,
                    0.20511,
                    0.16842,
                    0.05158,
                    -0.10572,
                    0.25493,
                    -0.02945,
                    -0.03833,
                    -0.20969,
                    0.05432,
                    0.11761,
                    0.13067,
                    0.08102,
                    -0.22148,
                    -0.09695,
                    0.14108,
                    0.19284,
                    -0.01822,
                    0.00255,
                    -0.16318,
                    -0.10601,
                    -0.17726,
                    -0.03451,
                    -0.05876,
                    -0.24805,
                    -0.12012,
                    0.02825,
                    -0.00471
                  ],
                  [
                    -0.00089,
                    0.20149,
                    0.01414,
                    -0.03834,
                    0.21544,
                    -0.10257,
                    -0.18784,
                    0.21581,
                    0.23852,
                    -0.25036,
                    0.21872,
                    0.19747,
                    -0.0773,
                    0.07484,
                    0.00402,
                    0.11692,
                    -0.08161,
                    0.22723,
                    0.02055,
                    0.22351,
                    -0.20332,
                    -0.13271,
                    0.16589,
                    0.21036,
                    -0.2265,
                    0.04466,
                    0.18709,
                    -0.1258,
                    -0.23944,
                    -0.13341,
                    0.15671,
                    0.00191,
                    0.1057,
                    0.22167,
                    -0.08324,
                    -0.09681,
                    0.24045,
                    0.05881,
                    0.04686,
                    -0.00983,
                    0.06304,
                    -0.0871,
                    -0.22592,
                    0.04974,
                    0.11851,
                    -0.14233,
                    -0.18761,
                    -0.1607,
                    -0.13284,
                    -0.19937,
                    0.03678,
                    0.19825,
                    0.20962,
                    -0.14512,
                    -0.0485,
                    0.23015,
                    -0.16433,
                    0.22802,
                    0.10937,
                    0.11006
                  ],
                  [
                    -0.19835,
                    0.1862,
                    0.15136,
                    0.05311,
                    -0.15794,
                    -0.23968,
                    0.12176,
                    0.22854,
                    -0.26296,
                    0.09451,
                    -0.06958,
                    0.25839,
                    0.18582,
                    0.09277,
                    0.02266,
                    -0.11833,
                    0.04029,
                    -0.22946,
                    0.23067,
                    0.21087,
                    -0.20238,
                    0.02941,
                    -0.12431,
                    -0.13959,
                    0.19604,
                    -0.03866,
                    -0.22519,
                    -0.0747,
                    0.03345,
                    -0.00413,
                    0.1065,
                    -0.17932,
                    -0.1749,
                    -0.2383,
                    -0.11311,
                    -0.12932,
                    -0.01916,
                    0.14708,
                    -0.15415,
                    -0.16907,
                    0.19084,
                    -0.20404,
                    -0.07362,
                    -0.11495,
                    -0.0579,
                    -0.05641,
                    -0.17503,
                    -0.0809,
                    -0.11169,
                    0.21678,
                    0.17324,
                    -0.19687,
                    -0.15364,
                    -0.05337,
                    0.00301,
                    0.23124,
                    -0.15549,
                    -0.1534,
                    -0.08919,
                    -0.11353
                  ],
                  [
                    -0.09754,
                    0.14049,
                    0.23095,
                    0.00439,
                    -0.10637,
                    -0.05396,
                    0.15038,
                    -0.02094,
                    -0.00704,
                    -0.20149,
                    -0.16678,
                    -0.19288,
                    0.11886,
                    -0.23075,
                    0.21424,
                    0.22036,
                    -0.20779,
                    -0.18874,
                    -0.26261,
                    0.05856,
                    0.05416,
                    -0.11223,
                    0.10596,
                    0.12037,
                    0.10514,
                    -0.04377,
                    0.23457,
                    0.04717,
                    0.06387,
                    -0.00891,
                    -0.17754,
                    0.22957,
                    0.18637,
                    -0.03083,
                    0.02745,
                    -0.14837,
                    0.11368,
                    0.14084,
                    -0.08319,
                    0.09801,
                    -0.20135,
                    0.04858,
                    -0.11855,
                    -0.17759,
                    0.23232,
                    0.11425,
                    -0.16358,
                    0.23152,
                    -0.13829,
                    0.19393,
                    0.26339,
                    0.12801,
                    -0.16501,
                    -0.14985,
                    0.23599,
                    -0.11649,
                    -0.17282,
                    0.08527,
                    -0.0123,
                    -0.16793
                  ],
                  [
                    -0.02578,
                    -0.07729,
                    0.20858,
                    -0.214,
                    -0.18814,
                    0.14514,
                    0.05869,
                    -0.25865,
                    0.05234,
                    0.07391,
                    -0.08691,
                    -0.10734,
                    -0.22191,
                    0.13383,
                    -0.24766,
                    0.23348,
                    -0.03186,
                    0.2207,
                    0.05537,
                    0.17339,
                    0.13449,
                    0.16195,
                    -0.08101,
                    0.14317,
                    -0.11468,
                    -0.2588,
                    -0.20617,
                    -0.09677,
                    -0.08189,
                    -0.16179,
                    -0.08479,
                    0.05312,
                    0.12546,
                    -0.12935,
                    0.17753,
                    -0.23415,
                    0.00452,
                    0.00273,
                    0.20831,
                    -0.15327,
                    0.0525,
                    -0.05306,
                    -0.18257,
                    -0.04394,
                    0.06711,
                    -0.26515,
                    -0.07732,
                    0.24426,
                    -0.2321,
                    -0.12205,
                    0.03007,
                    0.09355,
                    0.19974,
                    0.18594,
                    0.2648,
                    0.21163,
                    -0.18539,
                    -0.0329,
                    0.07182,
                    0.10851
                  ],
                  [
                    0.08178,
                    0.12535,
                    0.03218,
                    0.08623,
                    0.26369,
                    0.19289,
                    0.04646,
                    -0.02299,
                    -0.18792,
                    0.2429,
                    -0.16151,
                    -0.02949,
                    0.2117,
                    0.08784,
                    0.01002,
                    -0.17761,
                    -0.00345,
                    -0.06925,
                    0.26097,
                    -0.1168,
                    -0.17204,
                    0.14643,
                    -0.00882,
                    -0.08861,
                    0.17611,
                    -0.14466,
                    -0.18025,
                    -0.24846,
                    0.05318,
                    0.23098,
                    0.0795,
                    -0.00808,
                    0.06862,
                    0.07973,
                    -0.21535,
                    -0.12969,
                    0.03,
                    0.01764,
                    -0.16156,
                    -0.03876,
                    0.03519,
                    0.17085,
                    0.17972,
                    0.18798,
                    -0.1908,
                    0.13847,
                    -0.10195,
                    -0.09637,
                    -0.07596,
                    -0.068,
                    0.10352,
                    -0.06514,
                    0.02317,
                    -0.25384,
                    0.02487,
                    -0.05558,
                    0.00979,
                    -0.02282,
                    0.23157,
                    0.08628
                  ]
                ]
              },
              {
                "bias": [
                  0.06055,
                  -0.10822,
                  0.07694
                ],
                "weights": [
                  [
                    -0.37681,
                    -0.40788,
                    0.34475,
                    0.01203,
                    0.32536,
                    0.19115,
                    0.16238,
                    0.17629,
                    0.27286,
                    -0.29037,
                    0.37081,
                    -0.00672,
                    0.20944,
                    0.25086,
                    -0.29212,
                    -0.30745,
                    0.23785,
                    0.34986,
                    -0.25338,
                    -0.40694,
                    0.07289,
                    0.29918,
                    0.23909,
                    -0.03089,
                    -0.17576,
                    -0.38304,
                    0.09085,
                    0.05282,
                    -0.06729,
                    0.05827
                  ],
                  [
                    -0.03075,
                    0.26732,
                    0.14911,
                    0.35984,
                    -0.04016,
                    0.28347,
                    -0.03887,
                    -0.18972,
                    -0.18934,
                    -0.16706,
                    -0.04658,
                    -0.19415,
                    0.09316,
                    0.32005,
                    0.4326,
                    -0.08762,
                    0.17178,
                    0.34179,
                    -0.11968,
                    -0.27613,
                    0.34086,
                    0.26157,
                    -0.31391,
                    0.40724,
                    -0.21043,
                    0.05779,
                    -0.35469,
                    0.17254,
                    -0.23103,
                    0.13446
                  ],
                  [
                    -0.28387,
                    0.08311,
                    0.04062,
                    -0.18792,
                    -0.19842,
                    -0.18976,
                    -0.08234,
                    -0.1841,
                    -0.03312,
                    0.26379,
                    -0.34319,
                    -0.15299,
                    0.28098,
                    -0.1318,
                    -0.38066,
                    0.15239,
                    0.00543,
                    -0.23775,
                    0.24701,
                    0.04952,
                    0.23295,
                    0.08535,
                    0.05328,
                    0.14438,
                    -0.12355,
                    -0.15412,
                    0.06764,
                    -0.30527,
                    0.28473,
                    0.3682
                  ]
                ]
              }
            ],
            "rollback": false,
            "shared": false,
            "type": {
              "items": {
                "fields": [
                  {
                    "name": "weights",
                    "type": {
                      "items": {
                        "items": "double",
                        "type": "array"
                      },
                      "type": "array"
                    }
                  },
                  {
                    "name": "bias",
                    "type": {
                      "items": "double",
                      "type": "array"
                    }
                  }
                ],
                "name": "Layer",
                "type": "record"
              },
              "type": "array"
            }
          },
          "validations": {
            "init": [
              {
                "code": "kfold",
                "data": {
                  "average": {
                    "Accuracy": 0.10361,
                    "Confusion matrix": {
                      "labels": [
                        "AD",
                        "CN",
                        "Other"
                      ],
                      "values": [
                        [
                          70.0,
                          0.0,
                          68.0
                        ],
                        [
                          120.0,
                          0.0,
                          38.0
                        ],
                        [
                          544.0,
                          0.0,
                          19.0
                        ]
                      ]
                    },
                    "Weighted F1-score": 0.06199,
                    "Weighted false positive rate": 0.38266,
                    "Weighted precision": 0.11494,
                    "Weighted recall": 0.10361,
                    "type": "PolynomialClassificationScore"
                  },
                  "folds": {
                    "1": {
                      "Accuracy": 0.10361,
                      "Confusion matrix": {
                        "labels": [
                          "AD",
                          "CN",
                          "Other"
                        ],
                        "values": [
                          [
                            70.0,
                            0.0,
                            68.0
                          ],
                          [
                            120.0,
                            0.0,
                            38.0
                          ],
                          [
                            544.0,
                            0.0,
                            19.0
                          ]
                        ]
                      },
                      "Weighted F1-score": 0.06199,
                      "Weighted false positive rate": 0.38266,
                      "Weighted precision": 0.11494,
                      "Weighted recall": 0.10361,
                      "type": "PolynomialClassificationScore"
                    }
                  },
                  "type": "KFoldCrossValidationScore"
                },
                "node": "local",
                "validationSpec": {
                  "code": "kfold",
                  "parameters": [
                    {
                      "code": "k",
                      "value": "2"
                    }
                  ]
                }
              }
            ],
            "type": {
              "items": "Record",
              "type": "array"
            }
          }
        },
        "fcns": {
          "C": {
            "do": [
              {
                "a.map": [
                  "categories",
                  {
                    "do": [
                      {
                        "else": [
                          0.0
                        ],
                        "if": {
                          "==": [
                            "cat",
                            "x"
                          ]
                        },
                        "then": [
                          1.0
                        ]
                      }
                    ],
                    "params": [
                      {
                        "cat": "string"
                      }
                    ],
                    "ret": "double"
                  }
                ]
              }
            ],
            "params": [
              {
                "x": "string"
              },
              {
                "categories": {
                  "items": "string",
                  "type": "array"
                }
              }
            ],
            "ret": {
              "items": "double",
              "type": "array"
            }
          },
          "arr": {
            "do": [
              {
                "new": [
                  "x"
                ],
                "type": {
                  "items": "double",
                  "type": "array"
                }
              }
            ],
            "params": [
              {
                "x": "double"
              }
            ],
            "ret": {
              "items": "double",
              "type": "array"
            }
          },
          "standardize": {
            "do": [
              {
                "/": [
                  {
                    "-": [
                      "x",
                      "mu"
                    ]
                  },
                  "sigma"
                ]
              }
            ],
            "params": [
              {
                "x": "double"
              },
              {
                "mu": "double"
              },
              {
                "sigma": "double"
              }
            ],
            "ret": "double"
          }
        },
        "input": {
          "fields": [
            {
              "name": "lefthippocampus",
              "type": "double"
            }
          ],
          "name": "Input",
          "type": "record"
        },
        "metadata": {
          "X": "{\"lefthippocampus\":{\"count\":1718.0,\"mean\":3.639566982e-16,\"std\":1.0002911632,\"min\":-6.1997481189,\"25%\":-0.1756647944,\"50%\":-0.1756647944,\"75%\":-0.1049179598,\"max\":5.934008706}}",
          "score": "0.7293364377",
          "y": "{\"count\":1718,\"unique\":3,\"top\":\"Other\",\"freq\":1146}"
        },
        "method": "map",
        "name": "neural_network",
        "output": "string"
      },
      "jobId": "*",
      "node": "local",
      "timestamp": 0.0,
      "type": "application/pfa+json"
    }
  ],
  "jobId": "*",
  "node": "local",
  "query": {
    "algorithms": [
      {
        "code": "sgdNeuralNetwork",
        "parameters": [
          {
            "code": "hidden_layer_sizes",
            "value": "60,30"
          },
          {
            "code": "activation",
            "value": "tanh"
          }
        ]
      }
    ],
    "covariables": [
      {
        "code": "lefthippocampus"
      }
    ],
    "covariablesMustExist": true,
    "filters": {
      "condition": "AND",
      "rules": [
        {
          "field": "alzheimerbroadcategory",
          "id": "alzheimerbroadcategory",
          "input": "text",
          "operator": "is_not_null",
          "type": "string",
          "value": []
        },
        {
          "field": "lefthippocampus",
          "id": "lefthippocampus",
          "input": "text",
          "operator": "is_not_null",
          "type": "string",
          "value": []
        }
      ]
    },
    "grouping": [],
    "targetTable": "cde_features_mixed",
    "testingDatasets": [],
    "trainingDatasets": [],
    "user": {
      "code": "test1"
    },
    "validationDatasets": [],
    "validations": [
      {
        "code": "kfold",
        "parameters": [
          {
            "code": "k",
            "value": "2"
          }
        ]
      }
    ],
    "variables": [
      {
        "code": "alzheimerbroadcategory"
      }
    ]
  },
  "timestamp": 0.0,
  "type": "application/vnd.hbp.mip.experiment.pfa+json"
}
