{
  "data": [
    {
      "algorithm": "python-sgd-neural-network",
      "data": {
        "action": [
          {
            "let": {
              "x": {
                "a.flatten": [
                  {
                    "new": [
                      {
                        "u.arr": [
                          {
                            "/": [
                              {
                                "-": [
                                  {
                                    "cast.double": [
                                      {
                                        "attr": "input",
                                        "path": [
                                          {
                                            "string": "lefthippocampus"
                                          }
                                        ]
                                      }
                                    ]
                                  },
                                  0.0
                                ]
                              },
                              1.0
                            ]
                          }
                        ]
                      }
                    ],
                    "type": {
                      "items": {
                        "items": "double",
                        "type": "array"
                      },
                      "type": "array"
                    }
                  }
                ]
              }
            }
          },
          {
            "let": {
              "activations": {
                "model.neural.simpleLayers": [
                  "x",
                  {
                    "cell": "neuralnet"
                  },
                  {
                    "do": [
                      {
                        "m.link.relu": [
                          "x"
                        ]
                      }
                    ],
                    "params": [
                      {
                        "x": "double"
                      }
                    ],
                    "ret": "double"
                  }
                ]
              }
            }
          },
          {
            "cell": "classes",
            "path": [
              {
                "a.argmax": [
                  "activations"
                ]
              }
            ]
          }
        ],
        "cells": {
          "classes": {
            "init": [
              "AD",
              "CN",
              "Other"
            ],
            "rollback": false,
            "shared": false,
            "type": {
              "items": "string",
              "type": "array"
            }
          },
          "neuralnet": {
            "init": [
              {
                "bias": [
                  0.30435,
                  0.11911,
                  0.0276,
                  0.2133,
                  -0.30376,
                  -0.2693,
                  0.06692,
                  -0.2212,
                  -0.26427,
                  -0.03969,
                  0.28507,
                  0.12983,
                  0.22823,
                  0.16623,
                  -0.01778,
                  0.30807,
                  0.14273,
                  -0.24546,
                  0.10145,
                  -0.08295,
                  0.22926,
                  -0.25114,
                  0.07248,
                  0.12089,
                  0.03152,
                  0.15031,
                  -0.26791,
                  0.20893,
                  0.19535,
                  -0.26234,
                  0.16924,
                  0.20068,
                  -0.10299,
                  -0.28358,
                  -0.20016,
                  0.08413,
                  -0.29891,
                  0.13409,
                  -0.04611,
                  0.01849,
                  -0.26835,
                  0.04591,
                  -0.28209,
                  0.20382,
                  -0.23906,
                  0.0834,
                  0.09056,
                  0.15995,
                  -0.2046,
                  -0.17731,
                  0.02547,
                  0.25065,
                  0.09261,
                  -0.2423,
                  0.18512,
                  -0.26755,
                  -0.21688,
                  -0.217,
                  0.03006,
                  0.30212
                ],
                "weights": [
                  [
                    0.30359
                  ],
                  [
                    -0.12325
                  ],
                  [
                    -0.21501
                  ],
                  [
                    0.29405
                  ],
                  [
                    0.04955
                  ],
                  [
                    0.17373
                  ],
                  [
                    -0.00943
                  ],
                  [
                    0.18936
                  ],
                  [
                    -0.22951
                  ],
                  [
                    0.03244
                  ],
                  [
                    0.07857
                  ],
                  [
                    0.07278
                  ],
                  [
                    -0.19769
                  ],
                  [
                    0.27837
                  ],
                  [
                    -0.16345
                  ],
                  [
                    0.19502
                  ],
                  [
                    0.24214
                  ],
                  [
                    0.02784
                  ],
                  [
                    0.02348
                  ],
                  [
                    0.12106
                  ],
                  [
                    -0.00275
                  ],
                  [
                    -0.11813
                  ],
                  [
                    -0.22351
                  ],
                  [
                    0.02539
                  ],
                  [
                    0.30088
                  ],
                  [
                    0.27388
                  ],
                  [
                    0.01745
                  ],
                  [
                    -0.103
                  ],
                  [
                    -0.04147
                  ],
                  [
                    0.23363
                  ],
                  [
                    0.08127
                  ],
                  [
                    0.26891
                  ],
                  [
                    -0.05413
                  ],
                  [
                    -0.05963
                  ],
                  [
                    0.10908
                  ],
                  [
                    -0.00156
                  ],
                  [
                    0.23826
                  ],
                  [
                    -0.3082
                  ],
                  [
                    -0.07429
                  ],
                  [
                    0.12532
                  ],
                  [
                    0.21595
                  ],
                  [
                    0.23204
                  ],
                  [
                    -0.11438
                  ],
                  [
                    0.21301
                  ],
                  [
                    -0.04028
                  ],
                  [
                    0.30259
                  ],
                  [
                    -0.14078
                  ],
                  [
                    -0.01873
                  ],
                  [
                    -0.04357
                  ],
                  [
                    0.02742
                  ],
                  [
                    -0.23183
                  ],
                  [
                    0.20303
                  ],
                  [
                    0.12325
                  ],
                  [
                    0.26244
                  ],
                  [
                    -0.30303
                  ],
                  [
                    -0.27097
                  ],
                  [
                    0.09818
                  ],
                  [
                    0.09667
                  ],
                  [
                    -0.28131
                  ],
                  [
                    -0.26557
                  ]
                ]
              },
              {
                "bias": [
                  0.25971,
                  -0.23426,
                  -0.03343,
                  0.06705,
                  0.08526,
                  0.14321,
                  -0.062,
                  0.03726,
                  -0.13664,
                  0.11866,
                  0.15051,
                  -0.13796,
                  -0.05237,
                  0.047,
                  0.06261,
                  -0.24679,
                  0.10838,
                  -0.18308,
                  0.22336,
                  0.09615,
                  -0.09405,
                  -0.01568,
                  -0.04465,
                  0.20913,
                  0.1151,
                  -0.06386,
                  0.21847,
                  0.12282,
                  -0.11294,
                  -0.07522
                ],
                "weights": [
                  [
                    0.14277,
                    -0.1574,
                    -0.26438,
                    0.03055,
                    -0.13521,
                    -0.21537,
                    0.00267,
                    0.17188,
                    -0.15737,
                    -0.13262,
                    -0.18931,
                    0.14359,
                    -0.22044,
                    -0.17176,
                    -0.02454,
                    -0.02503,
                    -0.04648,
                    -0.12273,
                    -0.15315,
                    0.12942,
                    -0.13408,
                    0.16301,
                    0.0694,
                    -0.00847,
                    -0.02902,
                    0.1502,
                    -0.22645,
                    0.15639,
                    0.11242,
                    0.07364,
                    0.1349,
                    0.01961,
                    0.23505,
                    0.19195,
                    0.23644,
                    -0.15034,
                    0.15657,
                    -0.03564,
                    0.17344,
                    0.194,
                    -0.18925,
                    0.20638,
                    0.06184,
                    0.01917,
                    -0.03783,
                    -0.09187,
                    -0.10856,
                    0.02999,
                    0.10643,
                    -0.2616,
                    -0.10154,
                    -0.05882,
                    -0.10011,
                    0.03268,
                    0.10895,
                    -0.16176,
                    0.13242,
                    0.25534,
                    -0.17252,
                    -0.00046
                  ],
                  [
                    0.06982,
                    0.16304,
                    -0.13107,
                    0.1937,
                    0.00876,
                    -0.09173,
                    0.15597,
                    0.01172,
                    0.05074,
                    0.18685,
                    -0.20662,
                    -0.03757,
                    0.23923,
                    -0.0371,
                    0.07043,
                    -0.13603,
                    -0.09221,
                    -0.1805,
                    -0.13034,
                    0.18965,
                    -0.22035,
                    0.09147,
                    0.05791,
                    0.06463,
                    -0.08398,
                    0.01837,
                    -0.07946,
                    -0.09553,
                    0.22509,
                    0.03328,
                    -0.00242,
                    -0.25727,
                    0.10884,
                    -0.15496,
                    -0.06514,
                    -0.21606,
                    0.19916,
                    0.09249,
                    0.16057,
                    -0.21767,
                    0.22371,
                    -0.21545,
                    -0.1537,
                    0.20142,
                    -0.23082,
                    -0.26257,
                    0.196,
                    -0.02018,
                    -0.24915,
                    0.01451,
                    -0.06131,
                    -0.03806,
                    -0.13093,
                    0.01166,
                    0.18987,
                    0.01878,
                    0.10128,
                    0.08554,
                    -0.17056,
                    -0.09982
                  ],
                  [
                    0.01358,
                    -0.15956,
                    0.03466,
                    -0.22218,
                    0.16998,
                    0.08046,
                    -0.19884,
                    0.05991,
                    -0.22673,
                    -0.24138,
                    -0.06069,
                    0.16396,
                    0.03609,
                    -0.11477,
                    -0.24207,
                    0.05784,
                    0.08339,
                    -0.13311,
                    0.06029,
                    0.08219,
                    -0.1675,
                    -0.1095,
                    -0.22448,
                    -0.23364,
                    -0.14661,
                    0.07247,
                    -0.25249,
                    0.05924,
                    0.16079,
                    -0.19641,
                    0.01947,
                    -0.23423,
                    0.21931,
                    -0.16489,
                    -0.06993,
                    -0.1161,
                    -0.13098,
                    0.23116,
                    -0.02943,
                    0.03067,
                    0.20593,
                    0.00863,
                    -0.12291,
                    0.1768,
                    -0.16755,
                    -0.23231,
                    -0.25791,
                    -0.15179,
                    -0.06119,
                    0.09084,
                    0.03349,
                    -0.08562,
                    -0.06241,
                    0.22278,
                    0.14208,
                    -0.02203,
                    -0.07374,
                    0.2433,
                    0.00486,
                    0.13218
                  ],
                  [
                    0.22321,
                    0.25085,
                    0.18701,
                    -0.25352,
                    -0.14632,
                    0.13956,
                    0.10837,
                    -0.24418,
                    0.24059,
                    -0.02577,
                    -0.01335,
                    -0.25543,
                    -0.03177,
                    0.2234,
                    -0.24608,
                    0.09315,
                    -0.11559,
                    0.17255,
                    0.17468,
                    0.24162,
                    -0.12083,
                    0.06534,
                    -0.23464,
                    -0.24708,
                    0.12354,
                    0.10675,
                    0.20271,
                    0.26355,
                    0.03499,
                    -0.1906,
                    -0.05597,
                    -0.01769,
                    -0.2367,
                    0.11465,
                    -0.12502,
                    0.12532,
                    0.2167,
                    -0.11387,
                    -0.13169,
                    -0.14383,
                    0.22437,
                    0.23441,
                    -0.20849,
                    -0.10734,
                    0.07834,
                    -0.18322,
                    -0.20955,
                    -0.25784,
                    0.1212,
                    -0.03266,
                    -0.23512,
                    -0.19451,
                    0.0562,
                    -0.03792,
                    -0.1033,
                    0.12866,
                    -0.25567,
                    -0.2461,
                    -0.05583,
                    0.08635
                  ],
                  [
                    -0.00144,
                    0.09505,
                    -0.14416,
                    0.19682,
                    0.14048,
                    0.0614,
                    0.05944,
                    0.09767,
                    -0.10192,
                    -0.01622,
                    0.22756,
                    -0.09335,
                    -0.1196,
                    0.1776,
                    0.16888,
                    0.12738,
                    0.24418,
                    -0.14473,
                    -0.02904,
                    0.10583,
                    0.01781,
                    0.08563,
                    -0.24731,
                    0.0883,
                    -0.11042,
                    -0.11491,
                    0.18911,
                    0.19554,
                    -0.15978,
                    -0.01147,
                    0.22435,
                    -0.1104,
                    -0.11828,
                    0.13439,
                    0.1966,
                    0.04906,
                    0.05413,
                    -0.03424,
                    -0.04137,
                    0.1418,
                    0.22392,
                    0.11429,
                    -0.11941,
                    0.22995,
                    -0.22801,
                    0.11857,
                    -0.09565,
                    -0.04101,
                    -0.01629,
                    -0.00309,
                    -0.13758,
                    0.20271,
                    0.03812,
                    0.0229,
                    0.01207,
                    0.07933,
                    0.17576,
                    -0.19036,
                    0.05908,
                    0.24411
                  ],
                  [
                    0.22769,
                    0.08677,
                    0.09357,
                    0.16749,
                    0.25622,
                    0.07959,
                    0.05464,
                    -0.1362,
                    0.21964,
                    0.08137,
                    0.05591,
                    0.08878,
                    0.10505,
                    0.23122,
                    0.20732,
                    0.15784,
                    -0.08279,
                    -0.22245,
                    -0.1031,
                    -0.20223,
                    -0.23965,
                    -0.19523,
                    -0.14313,
                    -0.01065,
                    -0.20343,
                    -0.23374,
                    0.01605,
                    -0.24231,
                    -0.16511,
                    -0.02128,
                    -0.10296,
                    0.19199,
                    0.05267,
                    0.21912,
                    -0.05724,
                    0.02851,
                    0.00401,
                    0.12347,
                    -0.21499,
                    -0.00311,
                    0.2101,
                    -0.0149,
                    -0.22296,
                    -0.18375,
                    0.13186,
                    -0.17587,
                    -0.24945,
                    -0.24145,
                    -0.18044,
                    0.10111,
                    -0.12704,
                    0.06715,
                    -0.25495,
                    -0.22467,
                    0.14935,
                    -0.14444,
                    0.15157,
                    -0.04329,
                    0.16631,
                    -0.05989
                  ],
                  [
                    -0.07892,
                    0.14817,
                    0.08728,
                    -0.22426,
                    -0.20903,
                    -0.18439,
                    0.10705,
                    -0.03282,
                    0.12187,
                    -0.20641,
                    0.25131,
                    -0.21925,
                    0.1205,
                    0.15877,
                    0.10371,
                    0.22118,
                    -0.14597,
                    0.01395,
                    0.14308,
                    0.21244,
                    -0.20764,
                    -0.18226,
                    -0.15095,
                    -0.21976,
                    0.15274,
                    0.07741,
                    -0.23452,
                    -0.04031,
                    -0.05405,
                    0.11211,
                    -0.12755,
                    -0.12373,
                    0.09324,
                    -0.25232,
                    -0.20421,
                    0.03428,
                    0.20021,
                    0.00447,
                    0.04431,
                    -0.19121,
                    0.2286,
                    0.157,
                    0.19555,
                    -0.21934,
                    0.09751,
                    0.03685,
                    -0.26464,
                    -0.24384,
                    -0.15059,
                    0.03377,
                    0.14196,
                    -0.00638,
                    -0.24503,
                    -0.22116,
                    0.14733,
                    -0.10767,
                    -0.21045,
                    -0.06839,
                    0.2007,
                    0.2471
                  ],
                  [
                    0.02904,
                    -0.00939,
                    0.20538,
                    -0.13969,
                    0.26656,
                    0.02993,
                    0.11022,
                    0.16687,
                    -0.05842,
                    0.22899,
                    -0.14681,
                    0.0783,
                    -0.0496,
                    -0.05885,
                    -0.08537,
                    -0.08524,
                    -0.21025,
                    0.04899,
                    -0.26123,
                    0.13781,
                    0.08039,
                    0.19033,
                    0.09723,
                    0.05073,
                    -0.05903,
                    0.18175,
                    -0.2405,
                    -0.23498,
                    -0.12287,
                    -0.11385,
                    -0.07494,
                    -0.13743,
                    0.16883,
                    -0.09214,
                    -0.07432,
                    0.08661,
                    -0.13529,
                    0.12732,
                    -0.14786,
                    0.01167,
                    -0.23294,
                    -0.20654,
                    -0.17662,
                    0.23939,
                    -0.00228,
                    0.18631,
                    -0.01748,
                    -0.10553,
                    -0.14176,
                    0.2034,
                    0.01814,
                    -0.03832,
                    -0.10924,
                    0.20042,
                    0.07389,
                    -0.19136,
                    0.07263,
                    -0.24586,
                    -0.12666,
                    -0.13284
                  ],
                  [
                    0.15547,
                    -0.18386,
                    -0.08038,
                    0.05315,
                    -0.06914,
                    0.0673,
                    0.20157,
                    0.20044,
                    -0.24506,
                    0.06064,
                    -0.17829,
                    -0.25054,
                    0.12182,
                    0.02927,
                    -0.02751,
                    -0.11639,
                    0.22952,
                    -0.14136,
                    -0.09834,
                    -0.13484,
                    -0.16991,
                    -0.02831,
                    0.09764,
                    0.24171,
                    0.05384,
                    -0.01192,
                    -0.06524,
                    0.13003,
                    -0.0469,
                    0.20305,
                    0.17448,
                    -0.13134,
                    -0.18929,
                    0.12896,
                    -0.15959,
                    -0.10588,
                    0.11735,
                    -0.15689,
                    -0.04038,
                    -0.23508,
                    0.03082,
                    -0.17099,
                    0.23089,
                    0.10439,
                    0.21229,
                    -0.06457,
                    -0.00686,
                    -0.23336,
                    -0.11021,
                    -0.15296,
                    0.16949,
                    0.0255,
                    0.15599,
                    -0.1018,
                    -0.20219,
                    -0.06762,
                    0.00411,
                    -0.04244,
                    -0.21898,
                    0.24592
                  ],
                  [
                    -0.14568,
                    0.02194,
                    -0.23592,
                    0.23792,
                    0.15059,
                    -0.17859,
                    0.19528,
                    -0.01042,
                    -0.07505,
                    0.10213,
                    -0.131,
                    0.09305,
                    0.22142,
                    0.03897,
                    -0.19022,
                    0.24783,
                    0.16809,
                    0.0587,
                    -0.04564,
                    0.03231,
                    0.05726,
                    0.15971,
                    0.10643,
                    -0.1101,
                    -0.20686,
                    -0.23731,
                    -0.08375,
                    0.17415,
                    -0.2078,
                    -0.12253,
                    0.03097,
                    -0.16842,
                    -0.07354,
                    0.17677,
                    0.25417,
                    0.10843,
                    -0.08755,
                    0.08242,
                    -0.01024,
                    0.2029,
                    -0.18678,
                    0.04377,
                    -0.10682,
                    -0.0208,
                    0.14291,
                    -0.21805,
                    -0.15559,
                    -0.03416,
                    -0.11046,
                    -0.07598,
                    0.09725,
                    -0.24181,
                    0.07717,
                    0.12358,
                    0.03376,
                    0.05543,
                    0.19848,
                    -0.14687,
                    -0.09895,
                    0.08306
                  ],
                  [
                    -0.15877,
                    0.06014,
                    0.25318,
                    0.13681,
                    -0.21888,
                    0.01273,
                    0.22887,
                    -0.0411,
                    0.15128,
                    0.0916,
                    -0.22312,
                    0.17642,
                    -0.01182,
                    -0.06478,
                    0.19374,
                    0.06162,
                    0.19029,
                    0.13837,
                    -0.17537,
                    -0.12054,
                    0.17766,
                    -0.05564,
                    -0.23708,
                    -0.009,
                    -0.07792,
                    -0.08817,
                    0.24736,
                    0.16367,
                    0.15386,
                    0.12946,
                    -0.10826,
                    -0.19777,
                    -0.07565,
                    0.24619,
                    -0.04334,
                    -0.12329,
                    0.01618,
                    0.0142,
                    -0.09701,
                    -0.18729,
                    -0.14816,
                    0.20469,
                    -0.05788,
                    -0.07854,
                    0.00425,
                    -0.19784,
                    0.19787,
                    0.07377,
                    0.25955,
                    -0.19892,
                    0.11449,
                    0.23066,
                    -0.03248,
                    -0.20817,
                    0.15315,
                    0.25374,
                    0.13203,
                    0.04331,
                    0.09217,
                    0.09497
                  ],
                  [
                    0.03832,
                    0.1488,
                    0.21085,
                    0.24015,
                    0.06506,
                    -0.08404,
                    0.03375,
                    -0.06235,
                    -0.23033,
                    0.19991,
                    0.14091,
                    0.08005,
                    0.11964,
                    0.2266,
                    -0.09981,
                    -0.05178,
                    0.10969,
                    0.07193,
                    0.0671,
                    -0.17534,
                    0.09273,
                    -0.08197,
                    -0.17813,
                    -0.09382,
                    0.1477,
                    -0.16338,
                    0.21011,
                    -0.23223,
                    0.13946,
                    0.1071,
                    -0.21398,
                    -0.14015,
                    -0.11706,
                    0.08654,
                    -0.17302,
                    -0.10506,
                    -0.00512,
                    -0.03823,
                    0.25782,
                    0.03921,
                    0.24958,
                    -0.21234,
                    -0.06436,
                    0.15499,
                    -0.23691,
                    0.1471,
                    -0.20151,
                    -0.06771,
                    0.21722,
                    -0.17033,
                    -0.20668,
                    0.23443,
                    -0.1729,
                    -0.25179,
                    -0.0124,
                    -0.2182,
                    -0.1557,
                    0.0746,
                    -0.12475,
                    -0.09006
                  ],
                  [
                    -0.23683,
                    -0.1269,
                    0.04318,
                    -0.1495,
                    -0.22967,
                    -0.22518,
                    0.1594,
                    0.0932,
                    0.08602,
                    -0.06825,
                    -0.03759,
                    -0.14166,
                    -0.2437,
                    -0.0344,
                    0.13061,
                    0.11935,
                    -0.19341,
                    0.23188,
                    -0.10635,
                    0.06815,
                    -0.24968,
                    0.18677,
                    -0.01187,
                    0.16528,
                    0.23257,
                    -0.03133,
                    0.16295,
                    -0.02945,
                    0.03776,
                    0.01657,
                    0.25137,
                    0.11835,
                    -0.01633,
                    0.00067,
                    -0.0517,
                    0.02247,
                    0.11658,
                    -0.07753,
                    0.2477,
                    -0.07059,
                    0.1565,
                    -0.13228,
                    0.08668,
                    0.08449,
                    0.18743,
                    0.11701,
                    0.07288,
                    0.23607,
                    -0.04107,
                    -0.12112,
                    -0.16932,
                    -0.11927,
                    -0.23498,
                    0.12006,
                    0.13404,
                    0.17761,
                    0.06303,
                    -0.05915,
                    0.21134,
                    0.06086
                  ],
                  [
                    -0.03921,
                    -0.14148,
                    -0.14348,
                    0.05858,
                    -0.02934,
                    0.13048,
                    -0.03729,
                    -0.2097,
                    0.04139,
                    0.06557,
                    0.14266,
                    0.07154,
                    -0.03491,
                    -0.08477,
                    0.20415,
                    0.20688,
                    -0.19716,
                    0.00348,
                    -0.10941,
                    0.21087,
                    -0.09302,
                    0.10925,
                    0.22553,
                    0.20594,
                    0.03863,
                    0.01955,
                    -0.10828,
                    -0.24012,
                    0.04237,
                    -0.1987,
                    0.21388,
                    0.20014,
                    0.20462,
                    -0.02107,
                    0.0703,
                    -0.03272,
                    -0.22666,
                    -0.19794,
                    0.19067,
                    0.2261,
                    -0.1141,
                    0.01778,
                    0.10632,
                    -0.25926,
                    -0.14141,
                    -0.25607,
                    -0.2067,
                    -0.22015,
                    0.25122,
                    0.0585,
                    -0.1496,
                    -0.21966,
                    -0.13766,
                    0.23807,
                    -0.02427,
                    -0.09121,
                    -0.2237,
                    -0.09959,
                    -0.16921,
                    -0.16404
                  ],
                  [
                    0.05085,
                    0.24317,
                    -0.15674,
                    0.01814,
                    0.0008,
                    -0.20006,
                    0.09407,
                    -0.14829,
                    -0.06758,
                    -0.08317,
                    -0.25914,
                    -0.06394,
                    -0.16639,
                    -0.13857,
                    -0.1966,
                    0.22309,
                    -0.11502,
                    0.23888,
                    0.17584,
                    0.11541,
                    0.00059,
                    0.17902,
                    -0.22019,
                    0.08329,
                    0.1996,
                    -0.18462,
                    0.17155,
                    0.15184,
                    0.17071,
                    -0.10654,
                    0.01733,
                    0.11196,
                    -0.04511,
                    -0.11947,
                    0.15442,
                    -0.03747,
                    -0.11064,
                    0.21994,
                    0.06497,
                    0.22233,
                    -0.05147,
                    0.24829,
                    0.26041,
                    0.15873,
                    -0.21188,
                    0.08975,
                    0.15126,
                    0.22979,
                    0.19149,
                    -0.20165,
                    -0.10884,
                    -0.01942,
                    0.0972,
                    -0.05093,
                    -0.07587,
                    -0.0894,
                    0.04168,
                    0.2182,
                    -0.22419,
                    -0.0837
                  ],
                  [
                    0.15374,
                    -0.21101,
                    -0.24972,
                    -0.0631,
                    0.14439,
                    -0.23084,
                    -0.01114,
                    -0.13203,
                    0.14617,
                    -0.19,
                    0.17223,
                    -0.15692,
                    -0.1303,
                    0.11047,
                    -0.10122,
                    -0.07302,
                    -0.18818,
                    0.17852,
                    0.06933,
                    -0.02295,
                    -0.04635,
                    -0.05675,
                    0.07437,
                    -0.24009,
                    -0.09388,
                    0.05576,
                    -0.04788,
                    0.00232,
                    0.09674,
                    0.20625,
                    0.0311,
                    0.23451,
                    0.19963,
                    0.11343,
                    0.05475,
                    0.0623,
                    -0.02204,
                    0.09647,
                    0.07988,
                    0.19349,
                    -0.04896,
                    -0.03129,
                    0.10286,
                    -0.11502,
                    0.09532,
                    -0.11462,
                    -0.16219,
                    0.14612,
                    0.02736,
                    0.13695,
                    -0.22446,
                    0.23934,
                    0.18853,
                    0.11377,
                    -0.0831,
                    0.22066,
                    -0.24288,
                    0.14909,
                    0.21783,
                    0.23901
                  ],
                  [
                    0.22582,
                    -0.13415,
                    -0.08202,
                    0.16859,
                    0.25173,
                    -0.21181,
                    -0.05112,
                    0.07626,
                    -0.18669,
                    -0.00072,
                    -0.09353,
                    0.19797,
                    -0.02779,
                    -0.25753,
                    -0.23381,
                    0.01758,
                    -0.25048,
                    0.04874,
                    -0.19944,
                    -0.00635,
                    -0.17821,
                    -0.14974,
                    -0.20523,
                    0.01092,
                    0.24576,
                    -0.22654,
                    -0.1881,
                    0.18477,
                    0.1394,
                    -0.22613,
                    -0.17851,
                    -0.026,
                    0.2117,
                    -0.02028,
                    -0.06486,
                    -0.25371,
                    0.04693,
                    -0.0997,
                    0.23397,
                    0.15341,
                    -0.13034,
                    -0.04506,
                    0.08309,
                    -0.16558,
                    0.14185,
                    -0.07908,
                    -0.21174,
                    0.22368,
                    0.15672,
                    0.11581,
                    -0.0788,
                    0.04282,
                    0.24088,
                    -0.02447,
                    -0.12379,
                    0.10592,
                    -0.06664,
                    0.04376,
                    -0.01686,
                    0.25871
                  ],
                  [
                    -0.25231,
                    -0.11461,
                    0.05317,
                    -0.17657,
                    -0.17391,
                    0.02258,
                    -0.01342,
                    -0.12504,
                    -0.08414,
                    0.05361,
                    -0.09072,
                    0.1576,
                    0.1712,
                    -0.23309,
                    -0.14963,
                    -0.08538,
                    0.03441,
                    -0.20367,
                    -0.2295,
                    -0.04893,
                    0.09298,
                    0.20467,
                    -0.17721,
                    0.21426,
                    -0.14532,
                    0.2044,
                    0.2251,
                    0.09526,
                    -0.19795,
                    0.1496,
                    0.14458,
                    0.03735,
                    -0.07758,
                    0.18939,
                    0.02202,
                    0.22992,
                    -0.12703,
                    0.01509,
                    -0.01927,
                    -0.00597,
                    0.09538,
                    0.21541,
                    -0.04341,
                    -0.03124,
                    0.09791,
                    0.11768,
                    0.01453,
                    -0.19412,
                    0.21711,
                    0.08547,
                    0.14786,
                    0.14701,
                    0.05647,
                    0.11437,
                    -0.19721,
                    0.15446,
                    0.16845,
                    0.16925,
                    0.05074,
                    0.25765
                  ],
                  [
                    -0.21327,
                    -0.04444,
                    0.24009,
                    -0.19459,
                    0.1891,
                    -0.14994,
                    -0.09182,
                    0.19225,
                    0.01806,
                    0.14032,
                    0.1635,
                    0.20183,
                    -0.0481,
                    -0.19284,
                    -0.076,
                    -0.21268,
                    -0.06157,
                    0.03949,
                    -0.05246,
                    -0.1425,
                    -0.24406,
                    -0.12334,
                    -0.08007,
                    -0.15022,
                    0.1694,
                    0.0989,
                    -0.20364,
                    -0.06658,
                    0.08335,
                    -0.26613,
                    -0.0898,
                    0.00408,
                    -0.07297,
                    0.23518,
                    0.04714,
                    -0.10004,
                    0.02631,
                    -0.21269,
                    0.09804,
                    0.23708,
                    -0.03106,
                    -0.05862,
                    0.23789,
                    -0.24321,
                    0.00766,
                    0.2148,
                    -0.23613,
                    -0.19933,
                    0.23902,
                    -0.07856,
                    -0.051,
                    0.03022,
                    0.11668,
                    0.21876,
                    0.20835,
                    0.12643,
                    0.09388,
                    0.03808,
                    0.03994,
                    -0.15844
                  ],
                  [
                    0.05762,
                    0.05292,
                    -0.22421,
                    0.14164,
                    -0.23514,
                    -0.18704,
                    0.24211,
                    0.20884,
                    -0.07789,
                    0.12383,
                    0.11029,
                    0.1771,
                    0.11774,
                    -0.20673,
                    -0.12454,
                    -0.26528,
                    0.11367,
                    0.09769,
                    0.02228,
                    -0.03972,
                    0.20453,
                    0.16688,
                    0.00194,
                    0.08066,
                    -0.18878,
                    0.20065,
                    0.03462,
                    0.18454,
                    0.13666,
                    -0.14875,
                    0.0459,
                    -0.0824,
                    0.17662,
                    0.02707,
                    0.19506,
                    0.21677,
                    -0.10399,
                    -0.1235,
                    -0.21861,
                    -0.16489,
                    0.121,
                    0.20156,
                    0.15856,
                    0.1354,
                    0.03877,
                    -0.02743,
                    -0.21014,
                    0.19512,
                    -0.23258,
                    -0.0325,
                    -0.24369,
                    -0.11041,
                    -0.23862,
                    0.01925,
                    -0.06899,
                    0.23241,
                    -0.13986,
                    0.14167,
                    0.10322,
                    -0.14458
                  ],
                  [
                    0.05233,
                    -0.23607,
                    -0.11833,
                    0.19972,
                    -0.04469,
                    -0.18433,
                    -0.20177,
                    -0.06911,
                    0.00266,
                    -0.05543,
                    0.18499,
                    -0.18045,
                    -0.14773,
                    -0.00807,
                    0.14868,
                    -0.01963,
                    0.02003,
                    0.16774,
                    0.23779,
                    0.08859,
                    -0.16691,
                    0.05051,
                    -0.03098,
                    0.24393,
                    -0.11501,
                    0.24768,
                    0.07352,
                    0.05284,
                    -0.23665,
                    0.04098,
                    0.03175,
                    -0.07795,
                    -0.14472,
                    -0.01259,
                    0.04187,
                    -0.03219,
                    -0.0237,
                    0.20217,
                    0.11556,
                    -0.10097,
                    0.22738,
                    -0.03399,
                    0.06315,
                    -0.1109,
                    0.10072,
                    0.12956,
                    0.08194,
                    -0.11206,
                    0.24661,
                    0.10548,
                    -0.01311,
                    -0.06206,
                    0.12528,
                    -0.20647,
                    0.26575,
                    0.16977,
                    -0.014,
                    -0.07545,
                    -0.12754,
                    0.00519
                  ],
                  [
                    -0.18868,
                    0.08183,
                    0.02409,
                    -0.19196,
                    0.24034,
                    0.25653,
                    0.03438,
                    -0.16565,
                    -0.15483,
                    0.15743,
                    -0.18852,
                    -0.23611,
                    0.20544,
                    0.25659,
                    0.06227,
                    -0.23341,
                    -0.17001,
                    -0.1214,
                    0.01878,
                    -0.16566,
                    0.05067,
                    -0.12261,
                    0.08036,
                    0.26082,
                    0.07201,
                    0.19759,
                    0.11439,
                    -0.16999,
                    0.09924,
                    -0.23534,
                    -0.24387,
                    -0.23683,
                    -0.20124,
                    -0.15949,
                    -0.24421,
                    0.06903,
                    -0.24623,
                    -0.10567,
                    0.14464,
                    -0.03971,
                    0.01008,
                    0.12818,
                    0.04778,
                    0.01289,
                    -0.06682,
                    -0.23957,
                    0.15261,
                    0.06409,
                    0.19749,
                    -0.20996,
                    0.08797,
                    0.13495,
                    -0.19967,
                    0.16834,
                    0.03629,
                    -0.11947,
                    0.06302,
                    0.08428,
                    -0.09501,
                    -0.17384
                  ],
                  [
                    -0.07456,
                    -0.11209,
                    -0.15026,
                    -0.17616,
                    -0.14268,
                    0.0519,
                    0.16287,
                    -0.00425,
                    0.1045,
                    -0.04519,
                    -0.2004,
                    -0.0522,
                    0.23845,
                    -0.00892,
                    -0.15678,
                    -0.10917,
                    0.05003,
                    -0.20951,
                    0.24953,
                    -0.23773,
                    -0.10547,
                    -0.24885,
                    -0.18376,
                    0.19862,
                    0.05908,
                    -0.01932,
                    -0.23407,
                    0.0614,
                    0.21944,
                    0.06924,
                    0.20842,
                    0.03627,
                    -0.1616,
                    -0.01263,
                    0.22492,
                    0.2167,
                    0.22001,
                    -0.06957,
                    0.16862,
                    0.08691,
                    -0.08901,
                    -0.25548,
                    0.2081,
                    -0.15771,
                    0.13092,
                    0.24919,
                    -0.05085,
                    0.0644,
                    0.13046,
                    -0.1302,
                    0.06428,
                    -0.09212,
                    0.00834,
                    -0.02235,
                    0.08163,
                    0.02987,
                    -0.13463,
                    0.06339,
                    -0.02714,
                    -0.16472
                  ],
                  [
                    -0.11867,
                    0.08958,
                    -0.00992,
                    0.07155,
                    0.05345,
                    0.20617,
                    -0.25557,
                    -0.1104,
                    -0.19676,
                    -0.19891,
                    -0.00337,
                    -0.2498,
                    -0.15715,
                    -0.05508,
                    0.02469,
                    0.17563,
                    0.16478,
                    -0.2391,
                    0.05927,
                    0.01642,
                    0.17018,
                    -0.08431,
                    -0.04284,
                    0.22793,
                    -0.09397,
                    0.23655,
                    0.02206,
                    0.13253,
                    -0.00289,
                    0.15989,
                    0.08278,
                    -0.14023,
                    -0.24443,
                    -0.05231,
                    -0.24733,
                    0.13023,
                    0.16689,
                    0.18953,
                    0.17512,
                    -0.00426,
                    0.23061,
                    -0.03364,
                    0.17191,
                    0.14587,
                    -0.15688,
                    0.15688,
                    0.12322,
                    0.17186,
                    -0.18716,
                    0.03043,
                    0.02009,
                    -0.06794,
                    0.02917,
                    -0.00737,
                    0.24425,
                    -0.22963,
                    0.03622,
                    -0.14881,
                    -0.22038,
                    0.18967
                  ],
                  [
                    -0.0787,
                    0.10461,
                    -0.21574,
                    -0.13065,
                    -0.22231,
                    0.10283,
                    -0.13921,
                    0.09306,
                    0.11749,
                    -0.01067,
                    -0.16709,
                    -0.20682,
                    -0.00047,
                    -0.23916,
                    0.00156,
                    -0.2396,
                    -0.01232,
                    -0.0516,
                    -0.15357,
                    -0.16748,
                    0.18616,
                    0.00791,
                    -0.18236,
                    -0.11346,
                    0.24054,
                    0.16349,
                    0.08377,
                    0.23838,
                    -0.14726,
                    0.06435,
                    -0.10031,
                    -0.01033,
                    -0.06033,
                    0.08996,
                    -0.15738,
                    -0.1951,
                    0.14953,
                    -0.01882,
                    0.22513,
                    0.09405,
                    -0.04792,
                    -0.07271,
                    -0.20156,
                    -0.13499,
                    0.19768,
                    0.23131,
                    -0.13543,
                    -0.22263,
                    -0.02229,
                    0.15231,
                    0.11371,
                    0.12331,
                    -0.24183,
                    0.18533,
                    0.13728,
                    0.24245,
                    0.02664,
                    0.02125,
                    -0.00072,
                    0.01755
                  ],
                  [
                    0.22596,
                    -0.20351,
                    -0.23466,
                    0.18332,
                    0.11855,
                    -0.03827,
                    0.05783,
                    0.07143,
                    -0.11947,
                    -0.00053,
                    0.10188,
                    -0.02876,
                    -0.05355,
                    -0.01124,
                    -0.09069,
                    0.03304,
                    -0.14466,
                    -0.12465,
                    -0.00926,
                    -0.04317,
                    0.15307,
                    -0.10608,
                    -0.23477,
                    0.18741,
                    0.1656,
                    0.08052,
                    -0.16857,
                    -0.18323,
                    -0.00713,
                    0.14935,
                    -0.147,
                    0.02065,
                    0.12529,
                    0.14277,
                    0.2284,
                    -0.24838,
                    -0.18388,
                    0.08576,
                    -0.00182,
                    -0.14579,
                    0.21762,
                    -0.13503,
                    0.1257,
                    -0.06561,
                    -0.0012,
                    -0.02751,
                    -0.20795,
                    -0.04407,
                    -0.0777,
                    0.23775,
                    0.22305,
                    0.11629,
                    0.09131,
                    0.03564,
                    -0.26064,
                    0.16222,
                    -0.00588,
                    0.12797,
                    -0.1639,
                    -0.25919
                  ],
                  [
                    -0.12252,
                    -0.00514,
                    -0.15337,
                    -0.10353,
                    -0.16581,
                    0.0344,
                    0.21107,
                    -0.04848,
                    -0.13889,
                    0.23795,
                    -0.23218,
                    -0.2546,
                    0.25846,
                    -0.07717,
                    -0.22593,
                    -0.16195,
                    0.13037,
                    0.00753,
                    0.17759,
                    0.18129,
                    -0.07966,
                    -0.10558,
                    -0.14837,
                    0.20187,
                    0.24452,
                    -0.1283,
                    0.21121,
                    0.01342,
                    -0.14161,
                    0.00972,
                    0.08201,
                    0.0565,
                    -0.15664,
                    -0.11603,
                    -0.24507,
                    0.07687,
                    0.22805,
                    0.16343,
                    0.20666,
                    0.08059,
                    -0.24644,
                    -0.17087,
                    -0.05559,
                    -0.19039,
                    -0.1735,
                    0.11306,
                    0.18385,
                    0.19748,
                    -0.02305,
                    -0.06644,
                    0.07368,
                    0.1872,
                    -0.25607,
                    0.14178,
                    0.0773,
                    0.12801,
                    0.15991,
                    -0.04259,
                    0.053,
                    -0.06052
                  ],
                  [
                    -0.25985,
                    0.11978,
                    0.00265,
                    0.21754,
                    -0.03661,
                    -0.08843,
                    -0.11347,
                    0.13012,
                    -0.03449,
                    -0.23641,
                    0.0093,
                    0.02816,
                    0.11023,
                    -0.10527,
                    0.09829,
                    0.15216,
                    0.24147,
                    -0.19532,
                    -0.01196,
                    -0.23625,
                    -0.06233,
                    0.15273,
                    0.1562,
                    -0.07591,
                    -0.05447,
                    -0.12227,
                    0.17043,
                    0.1184,
                    0.11213,
                    -0.11896,
                    0.24565,
                    -0.03459,
                    0.10951,
                    -0.04441,
                    0.22917,
                    0.09662,
                    0.18725,
                    0.10039,
                    -0.20064,
                    -0.11375,
                    -0.18281,
                    -0.04955,
                    0.11231,
                    -0.1219,
                    -0.10618,
                    -0.09283,
                    0.2492,
                    0.11541,
                    -0.12059,
                    0.23197,
                    0.20666,
                    0.07996,
                    -0.06759,
                    0.12579,
                    0.03792,
                    0.14695,
                    -0.1218,
                    -0.25572,
                    -0.07179,
                    0.22171
                  ],
                  [
                    0.06347,
                    0.069,
                    -0.24351,
                    0.04817,
                    -0.1542,
                    -0.0268,
                    -0.23449,
                    -0.00902,
                    -0.23872,
                    -0.23325,
                    -0.06751,
                    -0.17195,
                    -0.08223,
                    0.04735,
                    0.21109,
                    0.20626,
                    -0.13262,
                    -0.21536,
                    -0.02082,
                    -0.0613,
                    -0.12239,
                    -0.01455,
                    -0.1437,
                    -0.09573,
                    -0.23006,
                    0.09687,
                    -0.09939,
                    -0.26478,
                    -0.23756,
                    0.22239,
                    -0.21413,
                    0.11021,
                    0.10124,
                    -0.22042,
                    0.24234,
                    -0.04811,
                    -0.13118,
                    -0.21053,
                    -0.06115,
                    -0.13812,
                    0.1824,
                    -0.09701,
                    0.18025,
                    -0.10853,
                    0.04253,
                    0.03108,
                    0.00084,
                    0.20054,
                    0.17855,
                    0.14202,
                    -0.03013,
                    0.09526,
                    0.14644,
                    -0.1085,
                    -0.23907,
                    0.08252,
                    -0.13367,
                    -0.23572,
                    0.05797,
                    0.08591
                  ],
                  [
                    0.01445,
                    0.25992,
                    -0.01452,
                    -0.17882,
                    0.05094,
                    -0.0977,
                    0.09414,
                    0.00506,
                    -0.00651,
                    -0.01899,
                    0.04899,
                    -0.23711,
                    -0.0366,
                    0.08088,
                    -0.16772,
                    0.09668,
                    0.10563,
                    0.16482,
                    0.07594,
                    0.1934,
                    0.13914,
                    -0.14412,
                    -0.08927,
                    -0.23551,
                    0.15194,
                    -0.09564,
                    -0.19217,
                    -0.16196,
                    0.14174,
                    0.14264,
                    0.17315,
                    0.21979,
                    -0.19391,
                    0.13181,
                    0.21532,
                    0.23526,
                    -0.08469,
                    -0.14361,
                    -0.01916,
                    -0.16415,
                    -0.07309,
                    -0.23213,
                    0.18515,
                    0.13876,
                    -0.02521,
                    0.23211,
                    0.14792,
                    -0.16655,
                    -0.1837,
                    -0.21209,
                    -0.04985,
                    -0.14585,
                    -0.20606,
                    0.09464,
                    0.02447,
                    0.11939,
                    0.05961,
                    0.2249,
                    0.11806,
                    0.07289
                  ]
                ]
              },
              {
                "bias": [
                  -0.13069,
                  -0.01135,
                  0.2953
                ],
                "weights": [
                  [
                    0.17992,
                    -0.17577,
                    -0.31726,
                    -0.15743,
                    0.14546,
                    0.25503,
                    0.26851,
                    0.1824,
                    -0.21055,
                    0.05305,
                    0.19677,
                    0.20507,
                    -0.20541,
                    0.04284,
                    -0.00109,
                    0.3533,
                    -0.25504,
                    0.32382,
                    0.40131,
                    0.26225,
                    0.14977,
                    0.21491,
                    0.24741,
                    0.35415,
                    0.3024,
                    -0.31992,
                    -0.28867,
                    0.2354,
                    -0.33705,
                    0.02322
                  ],
                  [
                    -0.06351,
                    0.10985,
                    0.13874,
                    0.34589,
                    -0.06885,
                    -0.1904,
                    -0.3245,
                    0.18119,
                    0.40018,
                    -0.1543,
                    0.23077,
                    0.06175,
                    -0.05707,
                    -0.25103,
                    0.32004,
                    0.12635,
                    0.38994,
                    0.17293,
                    0.2555,
                    -0.03017,
                    0.21894,
                    -0.10445,
                    -0.26627,
                    0.19811,
                    0.06907,
                    -0.22787,
                    0.23187,
                    0.41937,
                    -0.11069,
                    -0.17842
                  ],
                  [
                    0.05628,
                    0.02052,
                    0.08934,
                    0.11798,
                    0.27998,
                    -0.23144,
                    -0.12753,
                    -0.1934,
                    -0.37298,
                    0.06508,
                    -0.3012,
                    -0.35179,
                    0.22388,
                    -0.2453,
                    0.11436,
                    -0.14038,
                    0.22557,
                    -0.17757,
                    -0.36441,
                    -0.23292,
                    -0.05891,
                    0.0021,
                    -0.21287,
                    -0.11305,
                    0.22762,
                    0.21525,
                    0.04466,
                    -0.07421,
                    0.41304,
                    -0.27234
                  ]
                ]
              }
            ],
            "rollback": false,
            "shared": false,
            "type": {
              "items": {
                "fields": [
                  {
                    "name": "weights",
                    "type": {
                      "items": {
                        "items": "double",
                        "type": "array"
                      },
                      "type": "array"
                    }
                  },
                  {
                    "name": "bias",
                    "type": {
                      "items": "double",
                      "type": "array"
                    }
                  }
                ],
                "name": "Layer",
                "type": "record"
              },
              "type": "array"
            }
          },
          "validations": [
            {
              "code": "kfold",
              "data": {
                "average": {
                  "Accuracy": 0.16997,
                  "Confusion matrix": {
                    "labels": [
                      "AD",
                      "CN",
                      "Other"
                    ],
                    "values": [
                      [
                        256.0,
                        18.0,
                        0.0
                      ],
                      [
                        262.0,
                        36.0,
                        0.0
                      ],
                      [
                        275.0,
                        871.0,
                        0.0
                      ]
                    ]
                  },
                  "Weighted F1-score": 0.08674,
                  "Weighted false positive rate": 0.16791,
                  "Weighted precision": 0.05824,
                  "Weighted recall": 0.16997,
                  "type": "PolynomialClassificationScore"
                },
                "folds": {
                  "0": {
                    "Accuracy": 0.33993,
                    "Confusion matrix": {
                      "labels": [
                        "AD",
                        "CN",
                        "Other"
                      ],
                      "values": [
                        [
                          256.0,
                          18.0,
                          0.0
                        ],
                        [
                          262.0,
                          36.0,
                          0.0
                        ],
                        [
                          275.0,
                          12.0,
                          0.0
                        ]
                      ]
                    },
                    "Weighted F1-score": 0.22168,
                    "Weighted false positive rate": 0.31135,
                    "Weighted precision": 0.2922,
                    "Weighted recall": 0.33993,
                    "type": "PolynomialClassificationScore"
                  },
                  "1": {
                    "Accuracy": 0.0,
                    "Confusion matrix": {
                      "labels": [
                        "AD",
                        "CN",
                        "Other"
                      ],
                      "values": [
                        [
                          0.0,
                          0.0,
                          0.0
                        ],
                        [
                          0.0,
                          0.0,
                          0.0
                        ],
                        [
                          0.0,
                          0.0,
                          0.0
                        ]
                      ]
                    },
                    "Weighted F1-score": 0.0,
                    "Weighted false positive rate": null,
                    "Weighted precision": 0.0,
                    "Weighted recall": 0.0,
                    "type": "PolynomialClassificationScore"
                  }
                },
                "type": "KFoldCrossValidationScore"
              },
              "node": "local"
            }
          ]
        },
        "fcns": {
          "C": {
            "do": [
              {
                "a.map": [
                  "categories",
                  {
                    "do": [
                      {
                        "else": [
                          0.0
                        ],
                        "if": {
                          "==": [
                            "cat",
                            "x"
                          ]
                        },
                        "then": [
                          1.0
                        ]
                      }
                    ],
                    "params": [
                      {
                        "cat": "string"
                      }
                    ],
                    "ret": "double"
                  }
                ]
              }
            ],
            "params": [
              {
                "x": "string"
              },
              {
                "categories": {
                  "items": "string",
                  "type": "array"
                }
              }
            ],
            "ret": {
              "items": "double",
              "type": "array"
            }
          },
          "arr": {
            "do": [
              {
                "new": [
                  "x"
                ],
                "type": {
                  "items": "double",
                  "type": "array"
                }
              }
            ],
            "params": [
              {
                "x": "double"
              }
            ],
            "ret": {
              "items": "double",
              "type": "array"
            }
          },
          "standardize": {
            "do": [
              {
                "/": [
                  {
                    "-": [
                      "x",
                      "mu"
                    ]
                  },
                  "sigma"
                ]
              }
            ],
            "params": [
              {
                "x": "double"
              },
              {
                "mu": "double"
              },
              {
                "sigma": "double"
              }
            ],
            "ret": "double"
          }
        },
        "input": {
          "fields": [
            {
              "name": "lefthippocampus",
              "type": "double"
            }
          ],
          "name": "Input",
          "type": "record"
        },
        "metadata": {
          "X": "{\"lefthippocampus\":{\"count\":1718.0,\"mean\":2.9127631548,\"std\":0.259451083,\"min\":1.3047,\"25%\":2.8672,\"50%\":2.8672,\"75%\":2.88555,\"max\":4.4519}}",
          "score": "0.6670547148",
          "y": "{\"count\":1718,\"unique\":3,\"top\":\"Other\",\"freq\":1146}"
        },
        "method": "map",
        "name": "neural_network",
        "output": "string"
      },
      "jobId": "*",
      "node": "local",
      "timestamp": 0.0,
      "type": "application/pfa+json"
    }
  ],
  "jobId": "*",
  "node": "local",
  "timestamp": 0.0,
  "type": "application/vnd.hbp.mip.experiment.pfa+json"
}
