{
  "data": [
    {
      "algorithm": "python-sgd-neural-network",
      "data": {
        "action": [
          {
            "let": {
              "x": {
                "a.flatten": [
                  {
                    "new": [
                      {
                        "u.arr": [
                          {
                            "/": [
                              {
                                "-": [
                                  {
                                    "cast.double": [
                                      {
                                        "attr": "input",
                                        "path": [
                                          {
                                            "string": "lefthippocampus"
                                          }
                                        ]
                                      }
                                    ]
                                  },
                                  0.0
                                ]
                              },
                              1.0
                            ]
                          }
                        ]
                      }
                    ],
                    "type": {
                      "items": {
                        "items": "double",
                        "type": "array"
                      },
                      "type": "array"
                    }
                  }
                ]
              }
            }
          },
          {
            "let": {
              "activations": {
                "model.neural.simpleLayers": [
                  "x",
                  {
                    "cell": "neuralnet"
                  },
                  {
                    "do": [
                      {
                        "m.link.relu": [
                          "x"
                        ]
                      }
                    ],
                    "params": [
                      {
                        "x": "double"
                      }
                    ],
                    "ret": "double"
                  }
                ]
              }
            }
          },
          {
            "cell": "classes",
            "path": [
              {
                "a.argmax": [
                  "activations"
                ]
              }
            ]
          }
        ],
        "cells": {
          "classes": {
            "init": [
              "AD",
              "CN",
              "Other"
            ],
            "rollback": false,
            "shared": false,
            "type": {
              "items": "string",
              "type": "array"
            }
          },
          "neuralnet": {
            "init": [
              {
                "bias": [
                  -0.20459,
                  -0.009,
                  0.14747,
                  -0.27215,
                  0.06558,
                  0.30316,
                  -0.23639,
                  -0.22132,
                  -0.29494,
                  0.10075,
                  0.097,
                  0.02785,
                  -0.19614,
                  -0.06424,
                  0.08658,
                  -0.14604,
                  -0.18214,
                  -0.25916,
                  0.10622,
                  -0.08264,
                  0.27002,
                  0.25245,
                  0.21182,
                  -0.2378,
                  -0.21507,
                  0.08083,
                  -0.24813,
                  0.03222,
                  -0.10204,
                  0.19925,
                  -0.26198,
                  0.23241,
                  -0.17449,
                  -0.14101,
                  -0.2888,
                  0.07104,
                  -0.04459,
                  0.05937,
                  0.15048,
                  -0.17205,
                  0.09202,
                  0.2045,
                  0.10454,
                  -0.1296,
                  0.24331,
                  -0.20977,
                  0.23446,
                  -0.21898,
                  0.11633,
                  -0.04609,
                  0.24472,
                  0.06948,
                  0.15208,
                  0.29843,
                  0.04224,
                  -0.16079,
                  -0.14696,
                  -0.02246,
                  -0.2279,
                  0.1357
                ],
                "weights": [
                  [
                    0.02019
                  ],
                  [
                    0.20984
                  ],
                  [
                    0.21516
                  ],
                  [
                    0.31295
                  ],
                  [
                    0.26822
                  ],
                  [
                    0.19788
                  ],
                  [
                    0.03413
                  ],
                  [
                    0.19159
                  ],
                  [
                    -0.27856
                  ],
                  [
                    0.2696
                  ],
                  [
                    0.15071
                  ],
                  [
                    -0.23719
                  ],
                  [
                    -0.28542
                  ],
                  [
                    0.09143
                  ],
                  [
                    -0.11194
                  ],
                  [
                    0.18332
                  ],
                  [
                    0.23273
                  ],
                  [
                    0.04735
                  ],
                  [
                    0.19944
                  ],
                  [
                    0.12234
                  ],
                  [
                    0.18803
                  ],
                  [
                    0.24121
                  ],
                  [
                    0.26124
                  ],
                  [
                    0.15462
                  ],
                  [
                    -0.15335
                  ],
                  [
                    -0.31029
                  ],
                  [
                    -0.1258
                  ],
                  [
                    0.0078
                  ],
                  [
                    -0.04043
                  ],
                  [
                    0.19654
                  ],
                  [
                    -0.07586
                  ],
                  [
                    -0.12902
                  ],
                  [
                    -0.3157
                  ],
                  [
                    0.15208
                  ],
                  [
                    -0.19362
                  ],
                  [
                    0.01672
                  ],
                  [
                    0.13296
                  ],
                  [
                    -0.02439
                  ],
                  [
                    0.21146
                  ],
                  [
                    0.12295
                  ],
                  [
                    -0.19342
                  ],
                  [
                    -0.19962
                  ],
                  [
                    -0.01731
                  ],
                  [
                    -0.13605
                  ],
                  [
                    0.03539
                  ],
                  [
                    -0.01882
                  ],
                  [
                    0.0448
                  ],
                  [
                    0.07169
                  ],
                  [
                    -0.18775
                  ],
                  [
                    -0.10023
                  ],
                  [
                    -0.25596
                  ],
                  [
                    -0.21142
                  ],
                  [
                    -0.09937
                  ],
                  [
                    -0.10047
                  ],
                  [
                    0.02371
                  ],
                  [
                    -0.21555
                  ],
                  [
                    -0.26238
                  ],
                  [
                    0.08084
                  ],
                  [
                    -0.04122
                  ],
                  [
                    0.1088
                  ]
                ]
              },
              {
                "bias": [
                  0.14331,
                  0.12772,
                  0.09746,
                  0.06325,
                  -0.19387,
                  0.04312,
                  -0.1338,
                  0.24909,
                  -0.02585,
                  0.08663,
                  -0.18514,
                  -0.16079,
                  -0.07959,
                  -0.0291,
                  0.1319,
                  -0.03074,
                  0.01748,
                  -0.01591,
                  -0.21292,
                  0.08777,
                  -0.07438,
                  -0.09131,
                  0.02858,
                  -0.23316,
                  0.18236,
                  -0.0509,
                  -0.17696,
                  0.14521,
                  -0.10999,
                  0.22913
                ],
                "weights": [
                  [
                    -0.11153,
                    0.00556,
                    -0.1642,
                    0.05964,
                    -0.02517,
                    0.14471,
                    0.00583,
                    -0.00469,
                    0.00846,
                    -0.13744,
                    -0.12739,
                    -0.21047,
                    0.01861,
                    0.22635,
                    -0.16292,
                    0.06188,
                    -0.0604,
                    0.0506,
                    0.03572,
                    0.19185,
                    0.0653,
                    0.09894,
                    0.01416,
                    -0.15808,
                    -0.14259,
                    0.14346,
                    0.2509,
                    0.06607,
                    -0.18632,
                    0.06704,
                    -0.02555,
                    0.13112,
                    0.03818,
                    -0.11106,
                    0.10695,
                    -0.23176,
                    -0.12412,
                    -0.17593,
                    0.06537,
                    0.11166,
                    -0.12278,
                    -0.23071,
                    0.00513,
                    0.15656,
                    -0.17103,
                    -0.09952,
                    0.086,
                    0.095,
                    0.00164,
                    -0.20125,
                    0.10418,
                    -0.01706,
                    -0.18096,
                    0.05061,
                    -0.00774,
                    -0.14909,
                    -0.07178,
                    0.21042,
                    -0.23633,
                    -0.02454
                  ],
                  [
                    0.11644,
                    -0.16245,
                    -0.06713,
                    -0.05291,
                    0.13116,
                    0.20351,
                    0.05578,
                    -0.2487,
                    -0.039,
                    -0.09388,
                    -0.14054,
                    0.04103,
                    -0.06208,
                    0.14338,
                    0.07586,
                    0.23596,
                    -0.18309,
                    0.18945,
                    0.23269,
                    0.09695,
                    0.23495,
                    0.248,
                    0.19791,
                    0.19033,
                    0.0749,
                    -0.09554,
                    -0.18023,
                    -0.22929,
                    0.11142,
                    -0.11891,
                    -0.11764,
                    -0.00199,
                    0.01042,
                    -0.15296,
                    -0.11869,
                    0.24843,
                    0.22365,
                    -0.18184,
                    -0.13825,
                    -0.23058,
                    0.14722,
                    0.05417,
                    -0.01078,
                    -0.06335,
                    0.17461,
                    -0.06401,
                    -0.18085,
                    -0.00202,
                    -0.22311,
                    -0.13429,
                    0.16648,
                    -0.16434,
                    0.23736,
                    -0.19874,
                    -0.18419,
                    -0.2495,
                    -0.04052,
                    -0.21332,
                    0.16986,
                    -0.01722
                  ],
                  [
                    -0.06909,
                    8e-05,
                    0.25478,
                    0.01983,
                    -0.16414,
                    0.21433,
                    -0.08377,
                    0.15825,
                    0.07622,
                    0.01479,
                    0.21923,
                    -0.26058,
                    -0.26058,
                    -0.00682,
                    0.17714,
                    0.14418,
                    0.00669,
                    -0.19585,
                    0.10316,
                    -0.24732,
                    -0.18232,
                    -0.08243,
                    0.13061,
                    -0.04995,
                    -0.14223,
                    0.22497,
                    -0.1909,
                    0.15327,
                    -0.03162,
                    -0.14912,
                    0.02979,
                    -0.17495,
                    -0.1387,
                    0.02568,
                    -0.0904,
                    0.2026,
                    -0.07969,
                    -0.06005,
                    0.25296,
                    -0.05119,
                    -0.02884,
                    -0.01547,
                    0.19826,
                    -0.21025,
                    -0.04398,
                    0.24122,
                    0.22508,
                    -0.10898,
                    0.01275,
                    -0.17771,
                    0.01532,
                    -0.05934,
                    0.20258,
                    -0.12799,
                    0.1268,
                    -0.25244,
                    -0.00161,
                    0.21868,
                    0.19894,
                    0.01487
                  ],
                  [
                    0.16585,
                    -0.18587,
                    0.06916,
                    0.21802,
                    0.16607,
                    -0.06634,
                    -0.08914,
                    -0.16264,
                    0.07896,
                    0.2154,
                    0.05259,
                    0.1118,
                    0.02647,
                    -0.09001,
                    0.15421,
                    0.19107,
                    -0.07931,
                    -0.1515,
                    0.0102,
                    0.26624,
                    0.00879,
                    0.12848,
                    -0.14686,
                    -0.18603,
                    0.08652,
                    0.1961,
                    0.23155,
                    -0.03003,
                    -0.03351,
                    0.23466,
                    0.11248,
                    -0.14544,
                    0.10712,
                    -0.09529,
                    -0.19944,
                    0.20993,
                    -0.16562,
                    -0.13017,
                    0.2614,
                    0.17351,
                    0.1423,
                    -0.233,
                    -0.10988,
                    0.03634,
                    -0.13584,
                    -0.05957,
                    -0.19153,
                    -0.08944,
                    -0.04192,
                    0.13321,
                    0.08723,
                    -0.17374,
                    -0.02448,
                    0.03089,
                    0.18125,
                    -0.01941,
                    -0.11086,
                    0.19642,
                    -0.08872,
                    -0.10769
                  ],
                  [
                    -0.11713,
                    -0.15923,
                    0.17331,
                    -0.1407,
                    0.16662,
                    -0.16825,
                    0.12028,
                    -0.08811,
                    -0.11904,
                    -0.02777,
                    -0.03527,
                    -0.18127,
                    0.06854,
                    -0.00437,
                    -0.06223,
                    0.18104,
                    -0.15054,
                    0.027,
                    -0.08327,
                    -0.17161,
                    -0.06001,
                    -0.22246,
                    -0.19458,
                    -0.08512,
                    -0.11804,
                    0.13672,
                    -0.11688,
                    -0.15766,
                    -0.09991,
                    -0.07332,
                    -0.18016,
                    -0.03804,
                    0.07139,
                    -0.20279,
                    -0.0759,
                    0.17862,
                    0.02932,
                    0.12759,
                    -0.15308,
                    0.12053,
                    -0.23214,
                    -0.23744,
                    0.00513,
                    -0.01607,
                    -0.06644,
                    0.11981,
                    0.10678,
                    0.12257,
                    0.19984,
                    -0.08624,
                    -0.12117,
                    -0.13174,
                    -0.05637,
                    0.2475,
                    0.00203,
                    0.19462,
                    -0.04185,
                    -0.2202,
                    -0.07541,
                    0.12105
                  ],
                  [
                    0.21157,
                    0.13685,
                    -0.21414,
                    -0.08866,
                    -0.02654,
                    0.03756,
                    -0.17762,
                    0.06471,
                    0.17073,
                    0.09055,
                    0.24165,
                    -0.01558,
                    0.04445,
                    0.24299,
                    -0.07521,
                    0.07894,
                    0.23258,
                    0.18104,
                    0.01858,
                    0.16845,
                    -0.04846,
                    -0.01713,
                    0.10569,
                    0.25613,
                    -0.10825,
                    -0.07437,
                    -0.18301,
                    -0.06654,
                    0.1006,
                    -0.24184,
                    -0.12722,
                    -0.18519,
                    -0.18213,
                    0.04633,
                    -0.09546,
                    -0.16314,
                    -0.09661,
                    -0.14684,
                    -0.09913,
                    0.22942,
                    0.01624,
                    0.03595,
                    -0.16626,
                    0.20967,
                    0.04375,
                    0.21151,
                    -0.18552,
                    0.19461,
                    0.16307,
                    0.13282,
                    0.0443,
                    0.20055,
                    0.16063,
                    -0.09088,
                    0.09026,
                    0.22932,
                    -0.12859,
                    0.15829,
                    -0.00867,
                    -0.16018
                  ],
                  [
                    0.17126,
                    0.24593,
                    0.1014,
                    0.20536,
                    0.14416,
                    -0.15775,
                    0.24649,
                    0.20787,
                    0.06321,
                    -0.01583,
                    0.02388,
                    -0.19859,
                    -0.05939,
                    0.2598,
                    -0.11214,
                    0.04291,
                    -0.08011,
                    -0.07796,
                    0.05548,
                    0.14828,
                    -0.06444,
                    -0.07214,
                    -0.18706,
                    0.10598,
                    0.16535,
                    0.11555,
                    0.00794,
                    -0.14365,
                    -0.13827,
                    -0.12038,
                    -0.14532,
                    -0.12448,
                    -0.15221,
                    0.17711,
                    -0.18636,
                    -0.059,
                    0.06753,
                    -0.10412,
                    0.05176,
                    -0.03964,
                    0.23406,
                    -0.10923,
                    -0.20049,
                    -0.15947,
                    -0.20689,
                    0.11308,
                    0.21871,
                    0.1659,
                    -0.07541,
                    0.04194,
                    0.18999,
                    0.05692,
                    -0.0626,
                    0.17653,
                    -0.01349,
                    0.13706,
                    -0.17685,
                    -0.0088,
                    -0.12609,
                    0.01532
                  ],
                  [
                    0.04492,
                    0.11062,
                    0.19592,
                    -0.24252,
                    0.10147,
                    -0.19235,
                    0.04115,
                    -0.0731,
                    -0.17412,
                    0.18477,
                    0.00237,
                    -0.01629,
                    0.01264,
                    -0.00912,
                    0.18182,
                    0.13663,
                    -0.17895,
                    0.15423,
                    -0.08851,
                    -0.15901,
                    -0.08519,
                    0.14407,
                    0.0922,
                    0.24156,
                    0.08355,
                    0.1375,
                    0.18916,
                    0.23623,
                    -0.06048,
                    0.06575,
                    -0.12376,
                    -0.07786,
                    -0.01365,
                    0.04462,
                    0.26409,
                    -0.25763,
                    0.03837,
                    0.10408,
                    -0.13942,
                    0.19758,
                    -0.1611,
                    -0.07958,
                    0.04884,
                    0.13811,
                    -0.01528,
                    0.24351,
                    0.0716,
                    0.11794,
                    -0.04985,
                    0.06016,
                    0.10867,
                    -0.21358,
                    0.0537,
                    -0.22898,
                    -0.02736,
                    0.07478,
                    0.03476,
                    0.13324,
                    -0.2399,
                    -0.11902
                  ],
                  [
                    0.23185,
                    0.10199,
                    0.11026,
                    0.16474,
                    -0.16925,
                    0.16844,
                    0.15037,
                    -0.16464,
                    0.06461,
                    -0.18726,
                    -0.09943,
                    0.25982,
                    -0.05422,
                    -0.13659,
                    0.16821,
                    -0.01772,
                    0.13914,
                    -0.0746,
                    0.0806,
                    0.14564,
                    -0.12708,
                    -0.23087,
                    -0.10483,
                    0.01796,
                    0.22211,
                    0.06113,
                    0.19952,
                    -0.15234,
                    -0.13687,
                    -0.05692,
                    0.24483,
                    -0.01115,
                    -0.02304,
                    -0.07907,
                    0.17633,
                    -0.07292,
                    -0.01616,
                    0.11964,
                    -0.21655,
                    -0.1066,
                    -0.05778,
                    -0.01011,
                    -0.01028,
                    0.1355,
                    -0.23798,
                    -0.04081,
                    -0.03409,
                    0.21963,
                    -0.19207,
                    -0.23422,
                    0.00898,
                    -0.09171,
                    -0.03589,
                    -0.25137,
                    0.05978,
                    0.05978,
                    -0.06082,
                    -0.1401,
                    0.10117,
                    0.00044
                  ],
                  [
                    0.11698,
                    -0.07544,
                    0.13638,
                    -0.16052,
                    -0.05034,
                    0.05835,
                    0.22314,
                    -0.03975,
                    -0.07949,
                    -0.20531,
                    -0.12982,
                    -0.23806,
                    0.14874,
                    -0.07109,
                    0.08689,
                    0.22922,
                    0.10909,
                    -0.09463,
                    0.16212,
                    0.117,
                    0.00449,
                    0.24381,
                    -0.07625,
                    -0.01686,
                    -0.19604,
                    -0.2277,
                    -0.20924,
                    0.17516,
                    0.22409,
                    0.2133,
                    0.09526,
                    -0.09993,
                    0.04947,
                    -0.02424,
                    -0.07802,
                    0.22381,
                    0.05101,
                    0.0568,
                    -0.1545,
                    0.10234,
                    -0.02578,
                    -0.00338,
                    0.16275,
                    -0.22533,
                    0.05586,
                    0.09106,
                    -0.16528,
                    0.09338,
                    0.19389,
                    0.04864,
                    0.21838,
                    -0.00031,
                    0.06939,
                    0.16101,
                    0.2521,
                    -0.11454,
                    -0.19536,
                    0.18214,
                    -0.20968,
                    -0.00653
                  ],
                  [
                    0.0224,
                    0.08252,
                    -0.20385,
                    0.07195,
                    0.01132,
                    -0.22543,
                    -0.14256,
                    0.02763,
                    0.23073,
                    -0.14687,
                    -0.0406,
                    -0.11683,
                    0.14625,
                    -0.21606,
                    -0.07472,
                    -0.12094,
                    0.19272,
                    -0.13694,
                    -0.07925,
                    -0.11301,
                    0.06708,
                    -0.18049,
                    -0.08143,
                    0.19421,
                    -0.11589,
                    0.21221,
                    0.13447,
                    0.18917,
                    -0.23088,
                    -0.03872,
                    -0.10651,
                    -0.21478,
                    0.06395,
                    -0.05442,
                    -0.22917,
                    -0.05172,
                    0.09315,
                    -0.09111,
                    0.23056,
                    -0.22959,
                    -0.24157,
                    0.00069,
                    -0.23563,
                    0.05747,
                    0.1625,
                    0.074,
                    0.12058,
                    0.24827,
                    0.09937,
                    -0.13418,
                    -0.07602,
                    0.00727,
                    -0.06375,
                    -0.13429,
                    -0.09689,
                    -0.01017,
                    -0.23233,
                    -0.0546,
                    0.05104,
                    -0.23997
                  ],
                  [
                    -0.17529,
                    -0.06684,
                    0.19737,
                    -0.25991,
                    -0.00842,
                    -0.02307,
                    -0.08254,
                    -0.0954,
                    0.17745,
                    -0.1664,
                    -0.07407,
                    -0.04465,
                    0.16776,
                    0.07293,
                    0.16829,
                    -0.03766,
                    -0.11342,
                    0.16145,
                    -0.07267,
                    0.13889,
                    0.14472,
                    -0.11807,
                    0.13861,
                    -0.2269,
                    -0.01847,
                    0.08274,
                    0.09937,
                    0.12796,
                    0.09239,
                    -0.24887,
                    0.15608,
                    0.1177,
                    0.22988,
                    -0.19752,
                    -0.09701,
                    -0.09323,
                    0.13109,
                    -0.02867,
                    -0.235,
                    0.23089,
                    -0.11049,
                    -0.24927,
                    0.16569,
                    -0.04567,
                    -0.207,
                    0.03795,
                    0.22857,
                    0.04988,
                    0.05148,
                    0.20552,
                    0.01871,
                    0.21756,
                    -0.04027,
                    -0.25641,
                    -0.19942,
                    0.09289,
                    -0.14492,
                    0.15172,
                    -0.10817,
                    0.14461
                  ],
                  [
                    -0.22302,
                    -0.09717,
                    0.06581,
                    0.18968,
                    0.05554,
                    0.18862,
                    -0.14777,
                    0.00119,
                    0.07311,
                    0.22108,
                    0.15278,
                    0.01823,
                    -0.21371,
                    0.22589,
                    0.08948,
                    0.01937,
                    0.16518,
                    0.11581,
                    0.11275,
                    -0.23531,
                    0.24813,
                    -0.05517,
                    -0.19201,
                    0.16513,
                    -0.19553,
                    -0.08304,
                    0.08325,
                    -0.21892,
                    0.18219,
                    -0.13548,
                    -0.0538,
                    0.19053,
                    0.23727,
                    0.09809,
                    -0.20402,
                    -0.22799,
                    -0.0447,
                    -0.25933,
                    0.19247,
                    0.07053,
                    0.1802,
                    -0.15892,
                    -0.19073,
                    -0.00726,
                    0.18353,
                    0.0326,
                    0.15566,
                    -0.23354,
                    0.24504,
                    0.18455,
                    -0.21422,
                    -0.05794,
                    0.23692,
                    0.20561,
                    0.09035,
                    -0.21014,
                    -0.23697,
                    -0.12507,
                    -0.14542,
                    -0.24826
                  ],
                  [
                    0.06023,
                    0.05046,
                    0.11111,
                    -0.00583,
                    -0.04826,
                    -0.00934,
                    0.25665,
                    0.04491,
                    0.2354,
                    -0.15909,
                    0.03963,
                    0.03186,
                    0.17141,
                    0.10782,
                    0.12478,
                    -0.08869,
                    -0.21247,
                    0.00368,
                    0.04463,
                    0.07894,
                    0.00766,
                    -0.21788,
                    0.14772,
                    -0.17637,
                    -0.1686,
                    0.15854,
                    -0.20187,
                    -0.10223,
                    0.18595,
                    0.13827,
                    -0.06684,
                    0.24524,
                    0.06593,
                    0.21892,
                    0.10593,
                    0.13193,
                    -0.09573,
                    0.16442,
                    0.11662,
                    0.02357,
                    0.11353,
                    -0.02541,
                    -0.004,
                    0.2132,
                    -0.0927,
                    -0.04847,
                    0.18076,
                    -0.10236,
                    0.04063,
                    0.2383,
                    0.0779,
                    -0.09133,
                    0.09202,
                    -0.07866,
                    0.13705,
                    -0.21096,
                    0.16765,
                    0.13413,
                    -0.22862,
                    -0.14462
                  ],
                  [
                    0.02588,
                    -0.14213,
                    -0.02898,
                    -0.11843,
                    0.03766,
                    0.14568,
                    -0.04994,
                    0.13212,
                    -0.08325,
                    -0.05363,
                    0.12606,
                    -0.17192,
                    0.18137,
                    0.20738,
                    0.1377,
                    0.13009,
                    0.23183,
                    0.23397,
                    -0.17464,
                    0.24214,
                    0.18867,
                    0.15216,
                    0.04123,
                    0.05182,
                    0.03905,
                    -0.23746,
                    0.11304,
                    -0.07255,
                    -0.12872,
                    -0.18759,
                    0.00469,
                    -0.19517,
                    -0.03437,
                    0.12344,
                    0.03915,
                    0.17992,
                    0.15302,
                    0.24878,
                    0.13546,
                    0.12689,
                    0.17269,
                    -0.193,
                    -0.14132,
                    0.17061,
                    0.23701,
                    -0.13959,
                    0.26503,
                    -0.21758,
                    -0.2185,
                    -0.10999,
                    0.0964,
                    -0.21,
                    -0.16036,
                    -0.25473,
                    0.23143,
                    0.09079,
                    -0.12338,
                    -0.0328,
                    -0.16477,
                    -0.13627
                  ],
                  [
                    -0.06043,
                    -0.2528,
                    0.06875,
                    -0.23337,
                    -0.11032,
                    0.21862,
                    0.23469,
                    0.19941,
                    0.02497,
                    0.13625,
                    0.15008,
                    -0.03689,
                    -0.05064,
                    -0.14583,
                    0.05187,
                    -0.06097,
                    0.20664,
                    0.18779,
                    0.22753,
                    -0.12509,
                    0.08875,
                    0.10144,
                    0.00793,
                    -0.13479,
                    -0.01394,
                    0.02925,
                    0.20144,
                    -0.06954,
                    -0.02605,
                    0.1844,
                    0.04725,
                    -0.19107,
                    -0.12889,
                    -0.02872,
                    0.22718,
                    0.14584,
                    0.07748,
                    0.21489,
                    0.0385,
                    -0.09312,
                    -0.22721,
                    0.17369,
                    -0.13944,
                    -0.08417,
                    -0.21087,
                    -0.023,
                    0.21983,
                    0.20517,
                    -0.22419,
                    0.21962,
                    0.13973,
                    -0.0531,
                    0.23521,
                    -0.11247,
                    -0.15227,
                    0.09293,
                    -0.14841,
                    -0.20959,
                    -0.24922,
                    -0.13681
                  ],
                  [
                    -0.237,
                    -0.10177,
                    0.08369,
                    -0.2165,
                    0.02388,
                    -0.02725,
                    0.13701,
                    0.1832,
                    -0.02255,
                    -0.09857,
                    -0.07983,
                    -0.24583,
                    0.12166,
                    -0.12737,
                    -0.12663,
                    0.0557,
                    -0.14355,
                    -0.20908,
                    -0.05387,
                    7e-05,
                    -0.02254,
                    0.02329,
                    -0.09788,
                    -0.22919,
                    -0.26124,
                    0.17493,
                    0.17373,
                    -0.24435,
                    0.248,
                    -0.02565,
                    -0.14939,
                    -0.11378,
                    0.07505,
                    0.06945,
                    -0.16642,
                    0.08376,
                    -0.00187,
                    0.04393,
                    0.18146,
                    0.15085,
                    0.11876,
                    0.01727,
                    -0.02939,
                    0.16065,
                    0.03238,
                    -0.25546,
                    0.17378,
                    -0.05225,
                    0.1471,
                    -0.10449,
                    -0.13293,
                    -0.21719,
                    -0.05405,
                    0.04833,
                    0.17303,
                    -0.04775,
                    -0.07193,
                    0.00848,
                    0.20967,
                    -0.09102
                  ],
                  [
                    0.24926,
                    -0.08678,
                    0.23142,
                    0.17391,
                    -0.20674,
                    0.15244,
                    -0.1383,
                    -0.02913,
                    0.19354,
                    -0.22224,
                    -0.14922,
                    -0.19018,
                    -0.1435,
                    0.19229,
                    -0.02877,
                    0.07688,
                    -0.02987,
                    0.06108,
                    0.21344,
                    0.14825,
                    -0.14622,
                    -0.02061,
                    0.22869,
                    -0.09289,
                    0.03507,
                    -0.23782,
                    -0.09291,
                    0.20655,
                    0.01778,
                    0.26135,
                    -0.20373,
                    -0.23295,
                    0.07664,
                    0.06518,
                    0.01217,
                    -0.00308,
                    -0.21622,
                    0.02829,
                    -0.21742,
                    0.24324,
                    0.16913,
                    -0.12996,
                    0.13112,
                    -0.06638,
                    0.20734,
                    -0.1901,
                    0.20284,
                    0.08868,
                    -0.11482,
                    -0.19391,
                    0.17752,
                    -0.02598,
                    0.00327,
                    -0.24663,
                    0.0345,
                    0.0465,
                    0.06265,
                    0.00272,
                    0.11038,
                    0.16762
                  ],
                  [
                    -0.13719,
                    -0.08819,
                    0.02985,
                    0.14873,
                    0.18616,
                    -0.06019,
                    0.0954,
                    -0.15638,
                    0.00559,
                    0.19528,
                    -0.00336,
                    0.16408,
                    0.00033,
                    0.11455,
                    0.19807,
                    -0.22962,
                    -0.12528,
                    -0.00755,
                    0.10947,
                    -0.19532,
                    0.12679,
                    -0.26487,
                    0.12649,
                    0.23216,
                    -0.24869,
                    0.09433,
                    0.09385,
                    -0.07399,
                    -0.22565,
                    -0.14963,
                    -0.19746,
                    0.03579,
                    -0.17383,
                    -0.14957,
                    -0.11454,
                    0.15108,
                    -0.01957,
                    0.0797,
                    0.11567,
                    -0.25334,
                    -0.0446,
                    -0.00315,
                    -0.03317,
                    -0.20068,
                    0.11866,
                    0.17277,
                    -0.04142,
                    0.1322,
                    0.03455,
                    0.02932,
                    0.09136,
                    -0.1693,
                    0.23678,
                    -0.09012,
                    -0.16808,
                    -0.19266,
                    0.21751,
                    0.04104,
                    -0.09475,
                    0.16715
                  ],
                  [
                    -0.17681,
                    0.14264,
                    -0.22093,
                    0.11054,
                    0.01456,
                    0.14723,
                    0.21937,
                    -0.18175,
                    0.14991,
                    -0.16131,
                    0.07538,
                    -0.20002,
                    -0.26633,
                    -0.21999,
                    0.19273,
                    0.05144,
                    0.18683,
                    0.17486,
                    0.13239,
                    0.06637,
                    0.22323,
                    -0.08371,
                    0.04902,
                    0.20953,
                    -0.00137,
                    0.24824,
                    -0.01176,
                    0.05236,
                    -0.18573,
                    0.23373,
                    0.13615,
                    0.05779,
                    0.16358,
                    0.25394,
                    0.16075,
                    0.07366,
                    -0.21504,
                    0.15073,
                    0.16079,
                    -0.06389,
                    0.19972,
                    0.17799,
                    -0.01361,
                    -0.07552,
                    -0.08561,
                    0.16084,
                    -0.12721,
                    -0.16226,
                    0.19864,
                    -0.11553,
                    -0.10748,
                    0.09024,
                    0.11997,
                    0.15721,
                    -0.15849,
                    0.11525,
                    -0.18204,
                    0.1109,
                    0.08674,
                    0.17811
                  ],
                  [
                    -0.05739,
                    -0.00208,
                    -0.16884,
                    -0.25096,
                    -0.12184,
                    -0.19512,
                    0.18717,
                    -0.05258,
                    0.12003,
                    0.23454,
                    -0.03181,
                    -0.23006,
                    0.11807,
                    0.19997,
                    -0.07985,
                    0.13409,
                    0.07542,
                    0.12761,
                    -0.08074,
                    -0.11687,
                    -0.10287,
                    -0.22946,
                    0.17689,
                    -0.22003,
                    0.03288,
                    -0.0117,
                    -0.19634,
                    0.07334,
                    -0.00775,
                    0.01701,
                    -0.10299,
                    -0.07245,
                    0.10349,
                    -0.06598,
                    -0.18639,
                    -0.09363,
                    -0.04979,
                    -0.24234,
                    0.16681,
                    -0.22848,
                    0.10963,
                    -0.0581,
                    -0.25646,
                    -0.10268,
                    -0.01632,
                    -0.08181,
                    -0.17612,
                    -0.11551,
                    0.09281,
                    0.14409,
                    0.05713,
                    0.02458,
                    -0.05066,
                    0.24931,
                    0.1453,
                    -0.22876,
                    -0.1881,
                    -0.1581,
                    0.13913,
                    -0.03046
                  ],
                  [
                    -0.03507,
                    0.01026,
                    0.09506,
                    0.22419,
                    -0.22202,
                    0.23717,
                    0.24779,
                    -0.09625,
                    0.13532,
                    0.11315,
                    0.09902,
                    -0.05358,
                    -0.13933,
                    -0.09218,
                    -0.24257,
                    0.03508,
                    -0.1308,
                    -0.06024,
                    0.19228,
                    -0.10773,
                    -0.15888,
                    0.2108,
                    -0.24206,
                    -0.07794,
                    0.22198,
                    -0.04298,
                    0.06147,
                    -0.2151,
                    -0.06041,
                    -0.23436,
                    -0.04203,
                    0.00782,
                    0.1338,
                    0.02219,
                    0.04101,
                    0.25842,
                    0.02539,
                    -0.07033,
                    0.13314,
                    0.26229,
                    0.05698,
                    0.18756,
                    -0.06399,
                    -0.21841,
                    0.12931,
                    -0.11241,
                    0.02092,
                    -0.25172,
                    0.1113,
                    -0.18034,
                    -0.06763,
                    -0.00297,
                    0.03049,
                    0.04046,
                    0.21424,
                    -0.24625,
                    -0.22972,
                    -0.0738,
                    0.14794,
                    -0.10757
                  ],
                  [
                    0.17902,
                    0.16289,
                    -0.24107,
                    -0.08662,
                    0.18277,
                    0.09834,
                    0.15215,
                    0.16112,
                    -0.16409,
                    0.11213,
                    0.02962,
                    -0.08337,
                    -0.20187,
                    -0.00512,
                    -0.02579,
                    -0.14572,
                    0.01495,
                    0.21028,
                    -0.11602,
                    -0.06384,
                    -0.17729,
                    0.23773,
                    -0.07696,
                    0.10951,
                    0.01138,
                    0.11618,
                    -0.17244,
                    -0.01049,
                    -0.19294,
                    0.0491,
                    -0.01209,
                    -0.23574,
                    0.00144,
                    0.00837,
                    -0.09747,
                    -0.1806,
                    -0.15478,
                    -0.05627,
                    -0.25658,
                    -0.15162,
                    -0.05747,
                    -0.04139,
                    -0.05249,
                    -0.0548,
                    -0.00912,
                    -0.01943,
                    0.19923,
                    0.14415,
                    -0.05255,
                    -0.24098,
                    0.09588,
                    -0.23448,
                    0.06848,
                    -0.13072,
                    0.04708,
                    -0.05753,
                    -0.12427,
                    -0.14862,
                    -0.02377,
                    0.04914
                  ],
                  [
                    -0.15808,
                    0.02574,
                    -0.16651,
                    0.2316,
                    0.03039,
                    0.16616,
                    -0.20959,
                    0.16232,
                    0.20274,
                    0.11166,
                    -0.15327,
                    -0.11657,
                    0.24652,
                    -0.14435,
                    -0.12302,
                    0.00926,
                    0.04142,
                    0.1355,
                    0.20922,
                    0.00012,
                    0.15155,
                    0.21429,
                    0.17388,
                    -0.13314,
                    0.08574,
                    0.11848,
                    -0.11982,
                    -0.26407,
                    0.18947,
                    -0.00424,
                    0.00243,
                    0.03103,
                    -0.00561,
                    -0.19407,
                    -0.1127,
                    -0.17352,
                    0.05512,
                    0.00093,
                    -0.25411,
                    0.05364,
                    -0.09662,
                    0.23769,
                    0.14855,
                    0.15323,
                    0.07063,
                    0.1223,
                    0.07362,
                    -0.00836,
                    -0.03374,
                    0.13786,
                    0.24503,
                    0.1588,
                    0.20395,
                    -0.22324,
                    0.03532,
                    -0.20298,
                    -0.03958,
                    0.06155,
                    0.2329,
                    0.13519
                  ],
                  [
                    -0.19605,
                    -0.05703,
                    0.11684,
                    0.23278,
                    0.06887,
                    -0.16358,
                    -0.14489,
                    0.10358,
                    -0.23571,
                    0.04251,
                    0.19125,
                    -0.20647,
                    0.21586,
                    -0.22848,
                    0.04654,
                    -0.01702,
                    -0.12356,
                    0.23908,
                    0.02484,
                    0.16772,
                    -0.0296,
                    -0.05226,
                    -0.023,
                    -0.15541,
                    0.14692,
                    -0.25294,
                    -0.19609,
                    0.17166,
                    -0.10105,
                    0.08372,
                    0.00989,
                    0.06917,
                    -0.01404,
                    -0.13811,
                    0.02862,
                    -0.00818,
                    0.15827,
                    -0.04082,
                    0.20964,
                    -0.18705,
                    -0.11683,
                    0.09203,
                    -0.12179,
                    -0.07493,
                    0.01366,
                    0.17079,
                    -0.13417,
                    0.04063,
                    0.10889,
                    -0.02148,
                    -0.2015,
                    -0.09061,
                    -0.23772,
                    -0.05175,
                    -0.15338,
                    0.15447,
                    -0.24425,
                    0.09117,
                    -0.24806,
                    0.20052
                  ],
                  [
                    0.12814,
                    0.21678,
                    -0.11455,
                    0.2298,
                    -0.11389,
                    -0.24066,
                    0.10226,
                    0.13032,
                    0.13869,
                    0.05283,
                    0.10948,
                    -0.22708,
                    -0.21193,
                    -0.19694,
                    -0.06281,
                    -0.19571,
                    0.11744,
                    0.17927,
                    -0.21568,
                    0.13612,
                    0.17516,
                    -0.1504,
                    -0.23536,
                    -0.0629,
                    0.09131,
                    0.22327,
                    0.07001,
                    -0.13704,
                    0.11877,
                    0.05097,
                    0.19475,
                    0.06102,
                    0.01949,
                    0.14016,
                    -0.15523,
                    -0.04345,
                    -0.24167,
                    0.24564,
                    0.16589,
                    0.01022,
                    -0.04254,
                    0.17262,
                    0.20476,
                    0.06475,
                    0.03503,
                    0.02478,
                    0.14959,
                    -0.19396,
                    -0.15298,
                    -0.2251,
                    0.24934,
                    0.12866,
                    -0.20203,
                    -0.01608,
                    0.18817,
                    -0.06147,
                    -0.2007,
                    0.21219,
                    -0.04087,
                    -0.14972
                  ],
                  [
                    0.10973,
                    -0.15657,
                    -0.14976,
                    -0.19225,
                    0.24572,
                    0.15976,
                    0.14681,
                    -0.05012,
                    0.10465,
                    0.06911,
                    0.23376,
                    0.17375,
                    0.21958,
                    -0.09141,
                    -0.08579,
                    0.17917,
                    0.0442,
                    -0.03661,
                    0.20643,
                    -0.04427,
                    0.11739,
                    0.07182,
                    -0.17824,
                    -0.25437,
                    -0.03003,
                    0.13844,
                    0.01316,
                    -0.02903,
                    -0.08933,
                    -0.05336,
                    -0.15137,
                    -0.11441,
                    -0.07197,
                    -0.10169,
                    -0.19911,
                    0.08126,
                    0.11542,
                    -0.23066,
                    -0.10149,
                    -0.09959,
                    0.13111,
                    -0.16609,
                    0.23285,
                    0.08528,
                    0.0675,
                    -0.06409,
                    0.07588,
                    -0.03384,
                    -0.23399,
                    0.21623,
                    -0.05094,
                    -0.2471,
                    -0.00543,
                    0.11956,
                    0.19942,
                    -0.22234,
                    0.18011,
                    0.22906,
                    0.16895,
                    -0.04971
                  ],
                  [
                    0.01678,
                    0.17691,
                    0.21014,
                    -0.17866,
                    0.16077,
                    0.00267,
                    -0.13216,
                    -0.04089,
                    -0.08426,
                    -0.20094,
                    -0.14645,
                    -0.01149,
                    -0.09075,
                    -0.11836,
                    -0.24342,
                    0.20617,
                    -0.22607,
                    0.15007,
                    0.20348,
                    -0.16023,
                    0.02516,
                    0.20585,
                    -0.02815,
                    0.01611,
                    0.02757,
                    0.12597,
                    0.01917,
                    -0.09648,
                    0.02321,
                    0.22317,
                    0.00722,
                    0.07325,
                    0.11401,
                    -0.03511,
                    -0.23638,
                    -0.06556,
                    0.05706,
                    0.25315,
                    -0.03073,
                    0.14783,
                    0.25748,
                    0.24889,
                    0.14543,
                    0.19282,
                    0.00962,
                    0.25805,
                    0.19889,
                    0.00918,
                    0.02629,
                    0.19135,
                    -0.24283,
                    -0.13948,
                    0.13236,
                    -0.00407,
                    -0.16979,
                    -0.22642,
                    0.02035,
                    -0.20314,
                    0.18233,
                    -0.04938
                  ],
                  [
                    -0.13805,
                    -0.16475,
                    0.11853,
                    -0.11691,
                    0.01857,
                    0.00324,
                    -0.19993,
                    -0.22937,
                    0.14281,
                    -0.08561,
                    -0.16296,
                    0.01377,
                    -0.07647,
                    -0.0615,
                    -0.24122,
                    -0.04339,
                    0.1777,
                    0.02098,
                    0.12265,
                    0.0384,
                    -0.12245,
                    0.16058,
                    0.19164,
                    0.15887,
                    -0.23211,
                    0.00094,
                    0.02383,
                    0.20818,
                    -0.04625,
                    0.22063,
                    -0.22332,
                    -0.01087,
                    -0.17042,
                    -0.17925,
                    -0.23654,
                    -0.1908,
                    -0.24479,
                    -0.1517,
                    -0.10395,
                    -0.00442,
                    0.12012,
                    -0.24908,
                    -0.22607,
                    0.19865,
                    0.22919,
                    0.11348,
                    0.193,
                    -0.14581,
                    -0.00728,
                    -0.24768,
                    0.06847,
                    0.01676,
                    0.22894,
                    0.09202,
                    -0.12626,
                    0.23926,
                    -0.0808,
                    0.23452,
                    0.07862,
                    0.25952
                  ],
                  [
                    0.05023,
                    -0.11263,
                    -0.01967,
                    0.05464,
                    0.01837,
                    -0.21069,
                    -0.01397,
                    0.08538,
                    0.1008,
                    0.02762,
                    -0.23288,
                    0.11169,
                    -0.04319,
                    -0.13892,
                    0.20228,
                    0.14611,
                    0.23943,
                    0.1478,
                    0.20912,
                    -0.00911,
                    0.24224,
                    -0.21183,
                    0.16928,
                    -0.03879,
                    -0.1857,
                    0.14582,
                    -0.15357,
                    -0.2383,
                    0.26581,
                    0.04353,
                    0.16042,
                    -0.18673,
                    -0.01858,
                    -0.05784,
                    0.17141,
                    -0.00602,
                    -0.1156,
                    -0.14348,
                    0.0914,
                    -0.08375,
                    -0.1036,
                    -0.24759,
                    0.24283,
                    -0.07141,
                    -0.09391,
                    0.20857,
                    -0.15042,
                    0.14884,
                    0.23615,
                    -0.09193,
                    -0.06636,
                    -0.10431,
                    -0.17119,
                    0.10004,
                    -0.13835,
                    0.17359,
                    0.20874,
                    0.15427,
                    -0.03565,
                    0.09737
                  ]
                ]
              },
              {
                "bias": [
                  0.12118,
                  0.36117,
                  -0.09056
                ],
                "weights": [
                  [
                    -0.0177,
                    0.39585,
                    0.06429,
                    -0.18566,
                    -0.16383,
                    -0.19654,
                    -0.22961,
                    0.08261,
                    -0.20943,
                    -0.36115,
                    -0.17161,
                    -0.15667,
                    -0.42038,
                    0.03571,
                    -0.2563,
                    0.06263,
                    -0.18648,
                    0.11992,
                    -0.10264,
                    -0.26809,
                    0.28421,
                    -0.11499,
                    -0.25692,
                    -0.01181,
                    -0.4333,
                    -0.00191,
                    0.08037,
                    0.36244,
                    -0.13945,
                    0.32199
                  ],
                  [
                    -0.19762,
                    0.09688,
                    -0.31089,
                    -0.22395,
                    -0.06945,
                    0.04327,
                    0.27961,
                    -0.23902,
                    -0.04217,
                    -0.33399,
                    -0.02277,
                    0.26903,
                    -0.12127,
                    0.20502,
                    0.21277,
                    -0.28217,
                    0.15677,
                    0.23658,
                    0.05816,
                    -0.4094,
                    0.24495,
                    -0.10306,
                    -0.15693,
                    -0.01731,
                    -0.23839,
                    -0.40069,
                    0.18935,
                    0.12738,
                    -0.19444,
                    0.39688
                  ],
                  [
                    -0.12006,
                    -0.13878,
                    0.32278,
                    -0.11615,
                    -0.09299,
                    0.32712,
                    0.40941,
                    -0.38878,
                    -0.19771,
                    -0.0195,
                    0.38963,
                    -0.12163,
                    -0.35401,
                    -0.35154,
                    0.3681,
                    -0.05921,
                    0.09682,
                    0.28892,
                    -0.33297,
                    0.06109,
                    -0.38302,
                    0.31474,
                    -0.33139,
                    -0.20331,
                    0.18086,
                    -0.24106,
                    -0.4168,
                    -0.28911,
                    0.36853,
                    -0.06561
                  ]
                ]
              }
            ],
            "rollback": false,
            "shared": false,
            "type": {
              "items": {
                "fields": [
                  {
                    "name": "weights",
                    "type": {
                      "items": {
                        "items": "double",
                        "type": "array"
                      },
                      "type": "array"
                    }
                  },
                  {
                    "name": "bias",
                    "type": {
                      "items": "double",
                      "type": "array"
                    }
                  }
                ],
                "name": "Layer",
                "type": "record"
              },
              "type": "array"
            }
          },
          "validations": [
            {
              "code": "kfold",
              "data": {
                "average": {
                  "Accuracy": 0.17346,
                  "Confusion matrix": {
                    "labels": [
                      "AD",
                      "CN",
                      "Other"
                    ],
                    "values": [
                      [
                        0.0,
                        274.0,
                        0.0
                      ],
                      [
                        0.0,
                        298.0,
                        0.0
                      ],
                      [
                        859.0,
                        287.0,
                        0.0
                      ]
                    ]
                  },
                  "Weighted F1-score": 0.08935,
                  "Weighted false positive rate": 0.1634,
                  "Weighted precision": 0.06018,
                  "Weighted recall": 0.17346,
                  "type": "PolynomialClassificationScore"
                },
                "folds": {
                  "0": {
                    "Accuracy": 0.34692,
                    "Confusion matrix": {
                      "labels": [
                        "AD",
                        "CN",
                        "Other"
                      ],
                      "values": [
                        [
                          0.0,
                          274.0,
                          0.0
                        ],
                        [
                          0.0,
                          298.0,
                          0.0
                        ],
                        [
                          0.0,
                          287.0,
                          0.0
                        ]
                      ]
                    },
                    "Weighted F1-score": 0.1787,
                    "Weighted false positive rate": 0.34692,
                    "Weighted precision": 0.12035,
                    "Weighted recall": 0.34692,
                    "type": "PolynomialClassificationScore"
                  },
                  "1": {
                    "Accuracy": 0.0,
                    "Confusion matrix": {
                      "labels": [
                        "AD",
                        "CN",
                        "Other"
                      ],
                      "values": [
                        [
                          0.0,
                          0.0,
                          0.0
                        ],
                        [
                          0.0,
                          0.0,
                          0.0
                        ],
                        [
                          0.0,
                          0.0,
                          0.0
                        ]
                      ]
                    },
                    "Weighted F1-score": 0.0,
                    "Weighted false positive rate": null,
                    "Weighted precision": 0.0,
                    "Weighted recall": 0.0,
                    "type": "PolynomialClassificationScore"
                  }
                },
                "type": "KFoldCrossValidationScore"
              }
            }
          ]
        },
        "fcns": {
          "C": {
            "do": [
              {
                "a.map": [
                  "categories",
                  {
                    "do": [
                      {
                        "else": [
                          0.0
                        ],
                        "if": {
                          "==": [
                            "cat",
                            "x"
                          ]
                        },
                        "then": [
                          1.0
                        ]
                      }
                    ],
                    "params": [
                      {
                        "cat": "string"
                      }
                    ],
                    "ret": "double"
                  }
                ]
              }
            ],
            "params": [
              {
                "x": "string"
              },
              {
                "categories": {
                  "items": "string",
                  "type": "array"
                }
              }
            ],
            "ret": {
              "items": "double",
              "type": "array"
            }
          },
          "arr": {
            "do": [
              {
                "new": [
                  "x"
                ],
                "type": {
                  "items": "double",
                  "type": "array"
                }
              }
            ],
            "params": [
              {
                "x": "double"
              }
            ],
            "ret": {
              "items": "double",
              "type": "array"
            }
          },
          "standardize": {
            "do": [
              {
                "/": [
                  {
                    "-": [
                      "x",
                      "mu"
                    ]
                  },
                  "sigma"
                ]
              }
            ],
            "params": [
              {
                "x": "double"
              },
              {
                "mu": "double"
              },
              {
                "sigma": "double"
              }
            ],
            "ret": "double"
          }
        },
        "input": {
          "fields": [
            {
              "name": "lefthippocampus",
              "type": "double"
            }
          ],
          "name": "Input",
          "type": "record"
        },
        "metadata": {
          "score": "0.6670547148"
        },
        "method": "map",
        "name": "neural_network",
        "output": "string"
      },
      "jobId": "*",
      "node": "local",
      "timestamp": 0.0,
      "type": "application/pfa+json"
    }
  ],
  "jobId": "*",
  "node": "local",
  "timestamp": 0.0,
  "type": "application/vnd.hbp.mip.experiment.pfa+json"
}
