{
  "data": [
    {
      "algorithm": "python-sgd-neural-network",
      "algorithmSpec": {
        "code": "sgdNeuralNetwork",
        "parameters": [
          {
            "code": "hidden_layer_sizes",
            "value": "60,30"
          },
          {
            "code": "activation",
            "value": "tanh"
          }
        ]
      },
      "data": {
        "action": [
          {
            "let": {
              "x": {
                "a.flatten": [
                  {
                    "new": [
                      {
                        "u.arr": [
                          {
                            "/": [
                              {
                                "-": [
                                  {
                                    "cast.double": [
                                      {
                                        "attr": "input",
                                        "path": [
                                          {
                                            "string": "lefthippocampus"
                                          }
                                        ]
                                      }
                                    ]
                                  },
                                  0.0
                                ]
                              },
                              1.0
                            ]
                          }
                        ]
                      }
                    ],
                    "type": {
                      "items": {
                        "items": "double",
                        "type": "array"
                      },
                      "type": "array"
                    }
                  }
                ]
              }
            }
          },
          {
            "let": {
              "activations": {
                "model.neural.simpleLayers": [
                  "x",
                  {
                    "cell": "neuralnet"
                  },
                  {
                    "do": [
                      {
                        "m.link.relu": [
                          "x"
                        ]
                      }
                    ],
                    "params": [
                      {
                        "x": "double"
                      }
                    ],
                    "ret": "double"
                  }
                ]
              }
            }
          },
          {
            "cell": "classes",
            "path": [
              {
                "a.argmax": [
                  "activations"
                ]
              }
            ]
          }
        ],
        "cells": {
          "classes": {
            "init": [
              "AD",
              "CN",
              "Other"
            ],
            "rollback": false,
            "shared": false,
            "type": {
              "items": "string",
              "type": "array"
            }
          },
          "neuralnet": {
            "init": [
              {
                "bias": [
                  -0.2548,
                  -0.06871,
                  0.18048,
                  0.01783,
                  0.19599,
                  0.20715,
                  0.19431,
                  -0.19327,
                  -0.15763,
                  0.1859,
                  -0.04795,
                  0.11249,
                  0.22205,
                  0.07623,
                  0.22414,
                  0.2094,
                  0.19399,
                  0.19784,
                  -0.02352,
                  -0.12062,
                  -0.0145,
                  -0.2652,
                  0.01444,
                  0.23511,
                  0.13261,
                  0.24697,
                  0.03416,
                  0.00466,
                  0.05715,
                  0.1028,
                  0.04314,
                  0.15878,
                  0.18189,
                  0.25693,
                  -0.2294,
                  -0.26576,
                  -0.02634,
                  -0.03507,
                  -0.08921,
                  0.19412,
                  0.135,
                  0.17111,
                  -0.13991,
                  0.02544,
                  -0.31884,
                  -0.2653,
                  0.16746,
                  -0.22374,
                  -0.191,
                  0.23078,
                  -0.24265,
                  -0.31527,
                  -0.10417,
                  -0.19487,
                  -0.26445,
                  0.09407,
                  -0.03528,
                  -0.31521,
                  0.25494,
                  -0.01525
                ],
                "weights": [
                  [
                    0.02192
                  ],
                  [
                    0.27443
                  ],
                  [
                    0.08872
                  ],
                  [
                    0.2586
                  ],
                  [
                    0.13685
                  ],
                  [
                    0.03981
                  ],
                  [
                    -0.20211
                  ],
                  [
                    -0.30285
                  ],
                  [
                    -0.28137
                  ],
                  [
                    0.15821
                  ],
                  [
                    0.03824
                  ],
                  [
                    -0.14925
                  ],
                  [
                    -0.29577
                  ],
                  [
                    -0.31291
                  ],
                  [
                    0.27866
                  ],
                  [
                    0.1165
                  ],
                  [
                    0.16293
                  ],
                  [
                    0.04292
                  ],
                  [
                    0.09692
                  ],
                  [
                    -0.14875
                  ],
                  [
                    -0.0178
                  ],
                  [
                    0.29453
                  ],
                  [
                    0.12394
                  ],
                  [
                    -0.16685
                  ],
                  [
                    -0.18286
                  ],
                  [
                    -0.06875
                  ],
                  [
                    0.22478
                  ],
                  [
                    -0.02077
                  ],
                  [
                    -0.11946
                  ],
                  [
                    0.16882
                  ],
                  [
                    0.20487
                  ],
                  [
                    0.00051
                  ],
                  [
                    -0.25318
                  ],
                  [
                    -0.10869
                  ],
                  [
                    0.25719
                  ],
                  [
                    0.21898
                  ],
                  [
                    0.1733
                  ],
                  [
                    0.11308
                  ],
                  [
                    -0.21674
                  ],
                  [
                    0.06907
                  ],
                  [
                    -0.25226
                  ],
                  [
                    -0.27016
                  ],
                  [
                    -0.16894
                  ],
                  [
                    -0.13046
                  ],
                  [
                    0.23709
                  ],
                  [
                    0.1297
                  ],
                  [
                    -0.03737
                  ],
                  [
                    -0.16373
                  ],
                  [
                    -0.02173
                  ],
                  [
                    0.1197
                  ],
                  [
                    0.14127
                  ],
                  [
                    -0.13047
                  ],
                  [
                    0.19031
                  ],
                  [
                    0.19709
                  ],
                  [
                    0.16607
                  ],
                  [
                    0.22269
                  ],
                  [
                    -0.27183
                  ],
                  [
                    -0.01632
                  ],
                  [
                    -0.15146
                  ],
                  [
                    -0.15855
                  ]
                ]
              },
              {
                "bias": [
                  0.12857,
                  0.07329,
                  -0.21201,
                  -0.24268,
                  0.01413,
                  0.20664,
                  0.03858,
                  0.20904,
                  -0.014,
                  -0.04463,
                  0.02035,
                  0.0077,
                  0.23897,
                  -0.11637,
                  0.00995,
                  -0.10994,
                  0.03438,
                  -0.21633,
                  -0.06469,
                  -0.11348,
                  -0.21446,
                  0.2654,
                  0.21307,
                  -0.09464,
                  0.12971,
                  0.15324,
                  -0.15092,
                  0.22231,
                  -0.19524,
                  0.14969
                ],
                "weights": [
                  [
                    0.17059,
                    -0.142,
                    -0.1846,
                    -0.20596,
                    -0.19191,
                    0.14482,
                    0.19684,
                    -0.02346,
                    0.16955,
                    0.06267,
                    0.16288,
                    -0.12412,
                    -0.25627,
                    -0.08266,
                    0.12973,
                    -0.19715,
                    0.16138,
                    -0.20607,
                    0.14177,
                    0.12468,
                    -0.06513,
                    0.18585,
                    0.07085,
                    0.15638,
                    0.1355,
                    -0.22742,
                    -0.06802,
                    0.08515,
                    0.09166,
                    0.06616,
                    0.19682,
                    0.07605,
                    0.15055,
                    -0.24961,
                    0.10586,
                    0.2337,
                    -0.00946,
                    -0.0269,
                    0.12761,
                    -0.21088,
                    -0.10533,
                    0.0761,
                    -0.22234,
                    -0.19261,
                    0.23791,
                    -0.20337,
                    -0.12684,
                    -0.17127,
                    0.11757,
                    -0.10432,
                    0.03267,
                    -0.22299,
                    0.06628,
                    -0.24727,
                    -0.20445,
                    0.23662,
                    0.23596,
                    0.03927,
                    -0.1577,
                    0.17392
                  ],
                  [
                    0.17304,
                    -0.08496,
                    0.08022,
                    -0.06949,
                    -0.05151,
                    0.0763,
                    -0.08514,
                    0.11073,
                    -0.10994,
                    0.03678,
                    -0.16915,
                    0.1759,
                    0.2237,
                    -0.08536,
                    -0.23471,
                    -0.03684,
                    -0.11516,
                    -0.09759,
                    -0.06955,
                    0.03341,
                    0.18451,
                    0.01954,
                    -0.18513,
                    -0.00174,
                    0.03483,
                    -0.12496,
                    0.06641,
                    -0.03826,
                    -0.11996,
                    -0.13022,
                    0.24811,
                    -0.24586,
                    0.14706,
                    0.20773,
                    -0.09747,
                    -0.11279,
                    -0.07338,
                    -0.08497,
                    0.11085,
                    0.21381,
                    0.16163,
                    0.21571,
                    -0.00688,
                    0.01789,
                    0.23443,
                    -0.15553,
                    0.05231,
                    -0.02992,
                    -0.14083,
                    0.08593,
                    -0.07992,
                    0.09754,
                    -0.10705,
                    -0.11414,
                    -0.18643,
                    0.07368,
                    -0.24814,
                    -0.141,
                    -0.00019,
                    0.11993
                  ],
                  [
                    0.01149,
                    0.07663,
                    -0.15658,
                    -0.07788,
                    0.04566,
                    -0.14636,
                    0.23736,
                    0.09629,
                    0.015,
                    -0.21316,
                    0.01947,
                    0.18639,
                    -0.16736,
                    -0.18649,
                    0.02157,
                    -0.11867,
                    -0.11512,
                    -0.15268,
                    0.02196,
                    -0.03312,
                    -0.17921,
                    0.22013,
                    -0.06406,
                    -0.12653,
                    -0.08803,
                    0.03432,
                    -0.22269,
                    0.22678,
                    0.062,
                    0.20456,
                    -0.13909,
                    0.1722,
                    0.2045,
                    0.24733,
                    -0.12209,
                    -0.19289,
                    0.00435,
                    -0.09736,
                    -0.05278,
                    0.02196,
                    0.00365,
                    -0.20601,
                    -0.21224,
                    -0.08833,
                    0.08435,
                    0.09321,
                    0.1688,
                    -0.21545,
                    0.26148,
                    0.12204,
                    0.05785,
                    -0.16191,
                    -0.17596,
                    0.19138,
                    0.06809,
                    -0.1975,
                    0.05644,
                    -0.04631,
                    0.08296,
                    0.23449
                  ],
                  [
                    -0.2049,
                    0.05628,
                    -0.17554,
                    -0.18365,
                    -0.10495,
                    -0.14205,
                    0.16561,
                    -0.05787,
                    -0.1152,
                    0.09632,
                    -0.02322,
                    0.00751,
                    0.2247,
                    -0.06987,
                    -0.19537,
                    0.22731,
                    0.0017,
                    0.02536,
                    -0.13487,
                    -0.01184,
                    0.21178,
                    0.22457,
                    0.04746,
                    0.00454,
                    -0.10343,
                    -0.18175,
                    0.11572,
                    0.07928,
                    -0.25745,
                    0.14117,
                    -0.08541,
                    -0.17579,
                    0.08258,
                    -0.17475,
                    -0.12285,
                    0.05375,
                    -0.19367,
                    0.23584,
                    0.07212,
                    -0.17908,
                    -0.21585,
                    0.15753,
                    -0.00307,
                    -0.06054,
                    -0.2114,
                    -0.12174,
                    -0.07778,
                    -0.1279,
                    0.18777,
                    0.25089,
                    -0.17369,
                    -0.08679,
                    0.24607,
                    -0.15384,
                    0.19207,
                    -0.23748,
                    0.08115,
                    -0.15833,
                    -0.05911,
                    -0.0026
                  ],
                  [
                    0.22826,
                    0.1143,
                    -0.21377,
                    0.24461,
                    -0.17907,
                    0.15372,
                    -0.15584,
                    0.06177,
                    -0.18123,
                    -0.03268,
                    0.03457,
                    -0.08026,
                    -0.1711,
                    -0.23844,
                    -0.01039,
                    -0.23998,
                    -0.0817,
                    -0.17156,
                    -0.10766,
                    0.16814,
                    0.16567,
                    -0.0814,
                    0.0091,
                    0.12149,
                    -0.09995,
                    0.15522,
                    0.07686,
                    0.0408,
                    -0.21482,
                    -0.09489,
                    0.10004,
                    -0.22207,
                    0.1573,
                    -0.12551,
                    0.11395,
                    0.21428,
                    -0.11408,
                    -0.09983,
                    0.0811,
                    0.02028,
                    0.25809,
                    -0.08632,
                    0.13484,
                    0.07062,
                    0.00499,
                    -0.06508,
                    -0.22241,
                    -0.20641,
                    0.18689,
                    0.02306,
                    -0.13529,
                    0.22421,
                    0.01278,
                    0.2373,
                    0.12404,
                    0.03851,
                    -0.21844,
                    0.22725,
                    -0.22989,
                    0.01086
                  ],
                  [
                    0.07713,
                    0.18595,
                    -0.14899,
                    0.07843,
                    -0.10536,
                    0.16196,
                    0.25604,
                    -0.13691,
                    0.25748,
                    0.1508,
                    0.00163,
                    0.00882,
                    0.25927,
                    -0.20785,
                    -0.16049,
                    0.08234,
                    0.12546,
                    -0.08799,
                    -0.02203,
                    -0.18757,
                    0.00709,
                    0.10603,
                    0.0178,
                    -0.21631,
                    0.1141,
                    -0.14742,
                    0.00085,
                    0.06726,
                    -0.20852,
                    -0.03987,
                    -0.04299,
                    0.09936,
                    0.13445,
                    -0.09433,
                    0.01722,
                    0.1646,
                    -0.05576,
                    -0.22644,
                    0.19002,
                    -0.12493,
                    -0.01129,
                    0.11654,
                    0.03505,
                    -0.19852,
                    0.15322,
                    0.13615,
                    0.20421,
                    -0.20109,
                    -0.01909,
                    0.24044,
                    0.17526,
                    0.05374,
                    0.03126,
                    -0.25267,
                    -0.22873,
                    -0.20735,
                    -0.20316,
                    0.1575,
                    -0.21096,
                    -0.05468
                  ],
                  [
                    0.23049,
                    -0.02988,
                    -0.00805,
                    0.18713,
                    0.17496,
                    0.15627,
                    0.19031,
                    0.09552,
                    -0.06926,
                    0.09139,
                    0.11227,
                    -0.24932,
                    0.1495,
                    0.15248,
                    -0.09789,
                    0.22251,
                    0.13306,
                    0.02382,
                    0.11073,
                    -0.10486,
                    -0.06168,
                    -0.0019,
                    -0.10374,
                    -0.12951,
                    -0.13126,
                    0.09941,
                    -0.20392,
                    0.07587,
                    0.24755,
                    -0.15482,
                    0.12792,
                    0.15841,
                    0.14844,
                    0.2215,
                    0.05229,
                    -0.03281,
                    -0.14476,
                    -0.0766,
                    0.24891,
                    -0.16626,
                    -0.25354,
                    0.06092,
                    0.22762,
                    0.12794,
                    0.09025,
                    -0.10279,
                    0.0199,
                    -0.06068,
                    -0.0696,
                    -0.23204,
                    -0.15203,
                    0.16341,
                    -0.20493,
                    -0.15557,
                    0.02769,
                    -0.06789,
                    -0.03682,
                    0.04019,
                    -0.2261,
                    0.06382
                  ],
                  [
                    0.19005,
                    0.08448,
                    -0.22333,
                    0.21175,
                    0.17378,
                    -0.22753,
                    -0.03185,
                    0.14076,
                    -0.24612,
                    -0.18305,
                    -0.24284,
                    -0.13746,
                    0.19309,
                    -0.26239,
                    -0.18878,
                    -0.19775,
                    0.22305,
                    0.20812,
                    0.09298,
                    0.06787,
                    -0.23984,
                    0.25106,
                    0.164,
                    -0.06644,
                    0.24164,
                    -0.0835,
                    -0.02969,
                    0.19757,
                    -0.24476,
                    0.08817,
                    -0.22263,
                    -0.24101,
                    0.04077,
                    0.08678,
                    0.12362,
                    -0.20652,
                    0.15899,
                    -0.23839,
                    0.19678,
                    -0.08486,
                    0.10567,
                    -0.08695,
                    0.04077,
                    0.14834,
                    -0.20018,
                    0.11669,
                    -0.18645,
                    -0.07878,
                    0.24093,
                    -0.07262,
                    0.09467,
                    -0.09101,
                    0.21419,
                    -0.04755,
                    -0.19063,
                    0.17625,
                    -0.23776,
                    -0.16251,
                    -0.1002,
                    0.12201
                  ],
                  [
                    -0.05745,
                    -0.24161,
                    0.17354,
                    -0.07455,
                    -0.2614,
                    -0.24029,
                    0.13208,
                    -0.15045,
                    -0.22337,
                    -0.19186,
                    0.2179,
                    -0.22702,
                    -0.14338,
                    0.15774,
                    0.07384,
                    0.06247,
                    -0.2614,
                    -0.22916,
                    0.02357,
                    0.15914,
                    0.00576,
                    -0.10359,
                    0.16574,
                    0.18404,
                    -0.14113,
                    0.10477,
                    0.23658,
                    -0.12649,
                    0.21954,
                    -0.12023,
                    -0.06472,
                    -0.0569,
                    0.18295,
                    0.09319,
                    0.08412,
                    0.05477,
                    0.20158,
                    -0.24821,
                    -0.21596,
                    -0.24076,
                    -0.12561,
                    0.16869,
                    0.0307,
                    0.24312,
                    -0.07532,
                    0.19643,
                    -0.24395,
                    0.01007,
                    -0.20715,
                    0.16933,
                    0.09886,
                    0.08656,
                    -0.12639,
                    0.15009,
                    -0.24983,
                    0.09562,
                    -0.13895,
                    0.13565,
                    -0.18807,
                    -0.0303
                  ],
                  [
                    0.22059,
                    -0.07017,
                    0.18067,
                    0.25075,
                    0.08208,
                    -0.09154,
                    -0.10371,
                    0.12757,
                    0.03712,
                    -0.1259,
                    0.2276,
                    0.02761,
                    0.16329,
                    0.095,
                    -0.20746,
                    0.13832,
                    0.18268,
                    0.13671,
                    0.03367,
                    0.14851,
                    0.0833,
                    0.05584,
                    -0.00427,
                    -0.25457,
                    0.06069,
                    -0.02158,
                    -0.02428,
                    0.20246,
                    0.02813,
                    -0.05906,
                    0.03541,
                    -0.15942,
                    0.1921,
                    -0.11243,
                    -0.20754,
                    0.24084,
                    0.265,
                    -0.1227,
                    -0.24374,
                    0.09585,
                    -0.22983,
                    -0.02906,
                    -0.24061,
                    -0.05361,
                    -0.07192,
                    -0.03322,
                    0.25017,
                    0.17358,
                    0.16411,
                    -0.12756,
                    0.05402,
                    -0.06855,
                    0.10324,
                    0.21679,
                    -0.07281,
                    -0.21652,
                    -0.05031,
                    -0.23786,
                    0.24232,
                    0.09508
                  ],
                  [
                    0.16092,
                    0.05678,
                    -0.04389,
                    -0.17523,
                    -0.03774,
                    0.16225,
                    0.07825,
                    0.12002,
                    -0.19448,
                    0.20075,
                    0.15918,
                    0.0145,
                    -0.08192,
                    -0.22078,
                    0.11361,
                    -0.02934,
                    -0.13508,
                    0.16649,
                    -0.13599,
                    -0.01723,
                    0.12579,
                    -0.08498,
                    -0.23576,
                    0.16683,
                    -0.14929,
                    -0.22343,
                    -0.08797,
                    -0.18206,
                    0.17365,
                    0.1673,
                    0.18325,
                    0.22335,
                    0.17532,
                    0.21787,
                    -0.08514,
                    0.0361,
                    -0.10958,
                    0.10447,
                    0.19674,
                    0.05038,
                    0.05502,
                    0.02917,
                    -0.22915,
                    -0.24083,
                    0.15921,
                    -0.0602,
                    0.081,
                    -0.07835,
                    0.017,
                    -0.15367,
                    0.03584,
                    0.15524,
                    -0.26142,
                    0.21058,
                    -0.08803,
                    0.20347,
                    0.17469,
                    0.15212,
                    0.26624,
                    0.0655
                  ],
                  [
                    -0.15413,
                    -0.01539,
                    -0.0768,
                    -0.05522,
                    0.21877,
                    0.07778,
                    -0.08035,
                    0.12603,
                    -0.04463,
                    -0.14251,
                    -0.01648,
                    0.04135,
                    0.20873,
                    -0.09993,
                    0.11627,
                    0.02493,
                    -0.20162,
                    0.10534,
                    -0.00679,
                    0.01918,
                    -0.0018,
                    -0.09712,
                    0.25823,
                    0.03384,
                    0.14359,
                    -0.23487,
                    0.15054,
                    0.04669,
                    -0.18342,
                    -0.10565,
                    0.15344,
                    0.10394,
                    -0.09951,
                    -0.12356,
                    0.09571,
                    0.06451,
                    -0.00459,
                    0.05786,
                    -0.06854,
                    0.02868,
                    -0.26055,
                    -0.13236,
                    0.00948,
                    0.18029,
                    -0.23455,
                    0.22506,
                    0.19789,
                    -0.1706,
                    0.19701,
                    -0.14689,
                    -0.17611,
                    -0.1205,
                    -0.17933,
                    0.19601,
                    0.14914,
                    0.13702,
                    -0.11296,
                    0.1311,
                    -0.16835,
                    0.0222
                  ],
                  [
                    0.11005,
                    -0.09988,
                    0.17309,
                    -0.07623,
                    -0.17863,
                    0.12271,
                    0.10686,
                    0.11726,
                    0.10995,
                    0.11622,
                    0.15981,
                    0.03794,
                    0.11966,
                    0.10494,
                    -0.16004,
                    -0.18901,
                    0.02372,
                    0.11006,
                    -0.2156,
                    -0.19402,
                    0.042,
                    -0.23694,
                    -0.02438,
                    0.0552,
                    -0.05582,
                    0.00751,
                    -0.14382,
                    -0.20578,
                    -0.12605,
                    -0.26604,
                    -0.12165,
                    0.17645,
                    -0.19363,
                    0.16672,
                    0.14581,
                    0.04745,
                    -0.07964,
                    -0.07303,
                    0.06053,
                    -0.08761,
                    0.12467,
                    0.16686,
                    -0.03434,
                    -0.04071,
                    0.0966,
                    -0.24805,
                    -0.12288,
                    -0.18335,
                    0.15015,
                    -0.23028,
                    -0.07687,
                    -0.08519,
                    0.21416,
                    -0.02528,
                    0.11543,
                    -0.12489,
                    0.22447,
                    -0.2112,
                    -0.20091,
                    0.19846
                  ],
                  [
                    -0.03561,
                    0.17029,
                    -0.07436,
                    0.15876,
                    0.17596,
                    -0.21403,
                    0.0815,
                    -0.1574,
                    0.12172,
                    -0.18899,
                    0.13375,
                    -0.18201,
                    -0.11892,
                    -0.20798,
                    0.11322,
                    0.13786,
                    -0.2,
                    0.20636,
                    0.10993,
                    -0.05387,
                    0.09226,
                    -0.05315,
                    0.19748,
                    0.22769,
                    -0.21813,
                    -0.15185,
                    0.08781,
                    -0.26222,
                    0.14191,
                    -0.21559,
                    0.23074,
                    0.08077,
                    -0.21924,
                    0.06254,
                    0.10455,
                    -0.18287,
                    0.13327,
                    0.26656,
                    0.19427,
                    -0.22764,
                    -0.11087,
                    0.03123,
                    -0.11308,
                    0.13177,
                    -0.0441,
                    -0.11585,
                    0.02387,
                    0.1762,
                    0.05267,
                    0.18333,
                    -0.10685,
                    -0.12919,
                    0.1973,
                    -0.17043,
                    0.04612,
                    0.23219,
                    0.05932,
                    0.12993,
                    0.05674,
                    -0.03914
                  ],
                  [
                    0.06302,
                    -0.22827,
                    0.18604,
                    -0.1639,
                    -0.07168,
                    -0.13667,
                    0.04079,
                    0.22628,
                    0.18704,
                    -0.09522,
                    0.18677,
                    -0.04225,
                    -0.15949,
                    -0.18515,
                    0.12934,
                    -0.007,
                    0.11657,
                    -0.1862,
                    -0.18348,
                    0.24212,
                    -0.14955,
                    -0.04951,
                    -0.24334,
                    0.11104,
                    0.15188,
                    -0.09331,
                    0.06383,
                    -0.0113,
                    -0.17507,
                    -0.07027,
                    0.1122,
                    -0.13539,
                    0.18321,
                    0.23617,
                    -0.26474,
                    0.01348,
                    0.11001,
                    0.19574,
                    0.23317,
                    -0.22296,
                    0.0744,
                    0.13065,
                    -0.2431,
                    0.14794,
                    -0.10885,
                    0.16377,
                    -0.20398,
                    0.05673,
                    -0.20359,
                    0.20549,
                    0.16086,
                    0.14025,
                    -0.01641,
                    -0.0551,
                    0.13775,
                    0.21459,
                    0.10166,
                    0.17446,
                    0.14548,
                    0.10035
                  ],
                  [
                    0.12644,
                    -0.25512,
                    -0.12933,
                    0.2278,
                    0.02869,
                    0.05525,
                    0.17722,
                    0.07805,
                    -0.20082,
                    0.18767,
                    0.03246,
                    0.19789,
                    0.10548,
                    0.16268,
                    0.01806,
                    -0.01344,
                    0.00359,
                    0.01967,
                    -0.08549,
                    0.24375,
                    -0.1187,
                    -0.10836,
                    -0.14381,
                    -0.17716,
                    -0.10806,
                    -0.09841,
                    0.22067,
                    0.25688,
                    -0.10425,
                    0.04529,
                    -0.03585,
                    0.15575,
                    0.02775,
                    0.10056,
                    -0.03657,
                    0.24907,
                    -0.02902,
                    -0.20858,
                    -0.12023,
                    0.17969,
                    0.11115,
                    -0.04892,
                    0.20304,
                    -0.10009,
                    0.092,
                    -0.15074,
                    0.21593,
                    0.19781,
                    0.24018,
                    -0.06214,
                    -0.24257,
                    -0.23953,
                    -0.17507,
                    0.22793,
                    0.24082,
                    0.24936,
                    -0.06919,
                    -0.17734,
                    -0.10868,
                    -0.20527
                  ],
                  [
                    0.22798,
                    0.1962,
                    0.06044,
                    0.20418,
                    0.07407,
                    0.15828,
                    -0.06435,
                    -0.007,
                    -0.102,
                    0.08152,
                    0.09619,
                    -0.21229,
                    -0.16046,
                    0.11857,
                    0.18216,
                    -0.11239,
                    0.10085,
                    -0.10106,
                    0.15619,
                    0.06727,
                    0.01491,
                    -0.04335,
                    0.17555,
                    -0.13357,
                    -0.1808,
                    -3e-05,
                    0.13103,
                    0.14211,
                    0.20519,
                    -0.04711,
                    -0.01599,
                    -0.09714,
                    -0.15793,
                    -0.02431,
                    -0.24949,
                    0.03247,
                    0.22617,
                    -0.1294,
                    -0.08842,
                    0.08529,
                    0.05551,
                    -0.0877,
                    0.0073,
                    0.11183,
                    0.21798,
                    0.13827,
                    0.01268,
                    -0.13003,
                    0.17096,
                    0.1709,
                    -0.02047,
                    0.07081,
                    -0.01024,
                    0.06493,
                    0.00874,
                    -0.09501,
                    0.03827,
                    -0.18485,
                    0.08645,
                    0.0117
                  ],
                  [
                    0.05029,
                    0.17466,
                    -0.26056,
                    -0.06887,
                    0.14405,
                    -0.16299,
                    0.03975,
                    0.03029,
                    -0.00389,
                    0.15969,
                    -0.03975,
                    -0.20694,
                    -0.08172,
                    -0.14549,
                    0.24037,
                    -0.16652,
                    0.21945,
                    -0.23776,
                    -0.02321,
                    0.23283,
                    0.24699,
                    0.23456,
                    0.18016,
                    0.02134,
                    -0.01069,
                    -0.04718,
                    0.0715,
                    0.21962,
                    0.11129,
                    0.05252,
                    0.21236,
                    -0.06598,
                    0.25503,
                    0.00351,
                    -0.11766,
                    0.10372,
                    0.03348,
                    -0.02889,
                    0.12364,
                    0.08,
                    0.0234,
                    0.09482,
                    -0.25028,
                    -0.17991,
                    0.09198,
                    -0.20804,
                    -0.08938,
                    0.24254,
                    -0.11293,
                    -0.08361,
                    0.03762,
                    0.15455,
                    -0.22932,
                    -0.13635,
                    0.1006,
                    -0.23116,
                    -0.1893,
                    0.09727,
                    -0.06363,
                    -0.16677
                  ],
                  [
                    -0.2254,
                    -0.17377,
                    0.00711,
                    0.03826,
                    -0.0097,
                    -0.16369,
                    -0.13238,
                    0.10497,
                    0.2044,
                    0.19897,
                    -0.25049,
                    -0.11173,
                    0.19952,
                    0.24847,
                    -0.21634,
                    -0.03862,
                    0.12306,
                    -0.21155,
                    -0.10577,
                    -0.00733,
                    0.25934,
                    0.00903,
                    0.15555,
                    -0.12783,
                    -0.00731,
                    -0.25295,
                    -0.05461,
                    0.05153,
                    -0.07068,
                    -0.0985,
                    -0.11812,
                    0.14957,
                    0.15727,
                    -0.06674,
                    0.24733,
                    -0.06239,
                    -0.25722,
                    0.13341,
                    -0.1033,
                    -0.10749,
                    -0.14312,
                    0.13623,
                    -0.04412,
                    -0.10176,
                    -0.23853,
                    -0.26023,
                    -0.14682,
                    -0.14297,
                    0.2439,
                    -0.16033,
                    -0.0887,
                    0.01721,
                    0.20756,
                    -0.00761,
                    0.06415,
                    0.13029,
                    -0.21001,
                    -0.04969,
                    0.22979,
                    -0.13403
                  ],
                  [
                    -0.21234,
                    -0.22234,
                    0.13178,
                    0.17974,
                    -0.08118,
                    0.10786,
                    0.10634,
                    0.09265,
                    -0.23315,
                    -0.0655,
                    0.1024,
                    0.08841,
                    -0.01748,
                    -0.08047,
                    -0.19827,
                    -0.00371,
                    -0.21448,
                    0.13062,
                    -0.12647,
                    -0.14129,
                    0.0606,
                    0.18902,
                    0.23631,
                    -0.03151,
                    0.08805,
                    -0.22214,
                    0.15827,
                    -0.21946,
                    -0.22821,
                    -0.15549,
                    -0.13509,
                    0.11503,
                    0.20444,
                    -0.23563,
                    -0.25008,
                    0.07889,
                    -0.00431,
                    -0.00702,
                    0.00415,
                    -0.21269,
                    -0.03622,
                    0.19931,
                    -0.24689,
                    0.21143,
                    0.0056,
                    0.09669,
                    -0.05775,
                    0.17076,
                    -0.09291,
                    -0.21478,
                    -0.06901,
                    0.10793,
                    -0.21968,
                    0.17781,
                    0.02373,
                    0.13218,
                    -0.05485,
                    0.02972,
                    -0.18651,
                    -0.14122
                  ],
                  [
                    0.08971,
                    0.04172,
                    -0.15258,
                    0.1489,
                    0.19747,
                    0.10977,
                    -0.09174,
                    -0.07,
                    -0.09643,
                    0.11198,
                    -0.07272,
                    0.07057,
                    -0.23618,
                    -0.24991,
                    0.0236,
                    0.16486,
                    -0.15488,
                    0.0447,
                    0.17826,
                    -0.24211,
                    -0.03884,
                    -0.13897,
                    -0.11722,
                    -0.25461,
                    0.11853,
                    -0.05735,
                    0.14136,
                    -0.03832,
                    -0.12733,
                    -0.0771,
                    -0.04281,
                    -0.02391,
                    -0.11683,
                    -0.14818,
                    0.24866,
                    -0.15631,
                    0.0792,
                    -0.09993,
                    0.17585,
                    -0.03164,
                    0.04621,
                    0.09262,
                    0.17954,
                    -0.14671,
                    0.03666,
                    0.2469,
                    0.01816,
                    0.12985,
                    0.05133,
                    -0.23638,
                    0.08147,
                    -0.08878,
                    -0.16028,
                    0.01181,
                    0.19168,
                    -0.22797,
                    -0.09906,
                    -0.02782,
                    -0.22069,
                    -0.23294
                  ],
                  [
                    -0.13292,
                    -0.05317,
                    -0.17266,
                    0.04319,
                    0.12177,
                    0.15489,
                    0.23663,
                    0.2002,
                    -0.20191,
                    0.2461,
                    -0.21941,
                    -0.11997,
                    -0.14376,
                    0.07999,
                    -0.19043,
                    -0.07306,
                    -0.14612,
                    -0.05814,
                    -0.01205,
                    -0.03319,
                    -0.18722,
                    0.05757,
                    -0.2373,
                    0.17899,
                    -0.13595,
                    0.00181,
                    0.26435,
                    0.08667,
                    0.06444,
                    0.07463,
                    0.01645,
                    -0.07701,
                    -0.04831,
                    0.06933,
                    0.14624,
                    0.26174,
                    -0.24587,
                    0.22165,
                    -0.05394,
                    0.07568,
                    -0.10966,
                    0.24349,
                    0.1976,
                    -0.083,
                    -0.14691,
                    -0.17336,
                    -0.17678,
                    0.23301,
                    -0.18988,
                    0.18716,
                    0.19626,
                    -0.18625,
                    -0.18923,
                    -0.17944,
                    0.09934,
                    0.00375,
                    0.19721,
                    -0.23359,
                    -0.15997,
                    -0.11078
                  ],
                  [
                    -0.06964,
                    0.23745,
                    0.16428,
                    -0.00213,
                    0.23765,
                    -0.11124,
                    -0.0455,
                    -0.0726,
                    -0.14521,
                    -0.09006,
                    -0.01609,
                    -0.16361,
                    -0.21029,
                    0.10812,
                    -0.17948,
                    0.05253,
                    -0.02182,
                    -0.03596,
                    0.01091,
                    0.16957,
                    0.12871,
                    0.13834,
                    0.17316,
                    -0.10987,
                    0.10978,
                    -0.18195,
                    0.23862,
                    0.04598,
                    0.117,
                    -0.20244,
                    -0.17693,
                    0.21766,
                    0.1123,
                    0.10975,
                    0.10108,
                    0.19753,
                    0.20961,
                    0.20014,
                    -0.20535,
                    0.03413,
                    0.02234,
                    -0.20222,
                    -0.21194,
                    -0.11368,
                    0.04424,
                    0.18601,
                    0.00065,
                    0.06056,
                    0.15592,
                    0.0188,
                    -0.21872,
                    -0.14466,
                    0.24751,
                    0.18536,
                    -0.16529,
                    0.05024,
                    0.07907,
                    0.09929,
                    -0.20267,
                    -0.10945
                  ],
                  [
                    0.01234,
                    0.206,
                    -0.226,
                    0.1629,
                    -0.19841,
                    0.08321,
                    -0.19326,
                    0.08304,
                    -0.20049,
                    -0.16403,
                    0.00592,
                    -0.15042,
                    -0.1855,
                    -0.19318,
                    -0.08222,
                    0.09063,
                    -0.0828,
                    -0.00368,
                    -0.0756,
                    -0.169,
                    -0.05438,
                    0.17786,
                    0.20645,
                    0.10963,
                    -0.07407,
                    0.00789,
                    0.14448,
                    0.20796,
                    -0.02021,
                    0.05699,
                    0.03813,
                    -0.00597,
                    -0.12858,
                    -0.04938,
                    0.19678,
                    -0.19117,
                    -0.20082,
                    0.13558,
                    -0.14462,
                    0.07206,
                    -0.25136,
                    0.20889,
                    -0.21675,
                    -0.24343,
                    0.04111,
                    -0.08805,
                    -0.17708,
                    -0.13736,
                    -0.08685,
                    0.09434,
                    0.22625,
                    0.12067,
                    0.1221,
                    0.25954,
                    0.24523,
                    0.17755,
                    0.23121,
                    -0.06054,
                    -0.20538,
                    -0.02543
                  ],
                  [
                    -0.22508,
                    -0.20845,
                    -0.16036,
                    -0.0326,
                    -0.23838,
                    -0.03912,
                    0.22364,
                    -0.05791,
                    0.00814,
                    0.1471,
                    0.14543,
                    -0.0985,
                    -0.1521,
                    0.23281,
                    0.09951,
                    0.05133,
                    0.0199,
                    -0.07201,
                    -0.05705,
                    -0.10074,
                    -0.03856,
                    -0.14868,
                    -0.04649,
                    -0.094,
                    -0.00051,
                    -0.05373,
                    0.10385,
                    0.00816,
                    0.05124,
                    -0.0407,
                    -0.16991,
                    -0.04559,
                    -0.05526,
                    -0.12712,
                    0.14227,
                    0.05145,
                    -0.14467,
                    -0.02157,
                    0.21138,
                    0.01181,
                    0.26547,
                    0.13887,
                    0.09014,
                    0.10772,
                    0.2353,
                    0.04111,
                    -0.0346,
                    -0.00532,
                    0.22832,
                    0.25014,
                    -0.12894,
                    -0.09068,
                    -0.07361,
                    0.07952,
                    0.13518,
                    0.16551,
                    0.24499,
                    -0.2164,
                    0.10391,
                    0.2483
                  ],
                  [
                    0.11394,
                    0.25025,
                    0.14113,
                    0.08384,
                    0.13607,
                    -0.17867,
                    0.03465,
                    -0.24295,
                    -0.12018,
                    -0.00655,
                    0.16695,
                    0.19818,
                    -0.10257,
                    0.1991,
                    -0.11639,
                    -0.24434,
                    -0.26034,
                    0.19639,
                    0.01667,
                    0.21971,
                    0.01401,
                    -0.18848,
                    0.14987,
                    0.06767,
                    0.1398,
                    0.1946,
                    -0.03947,
                    -0.01258,
                    0.04348,
                    -0.10911,
                    -0.01854,
                    0.05969,
                    -0.19193,
                    0.23507,
                    0.06283,
                    -0.11525,
                    0.24949,
                    0.06433,
                    -0.22767,
                    0.14573,
                    0.01492,
                    0.0529,
                    0.21301,
                    -0.2122,
                    -0.2409,
                    0.06659,
                    0.23931,
                    -0.01387,
                    0.06745,
                    -0.15755,
                    -0.2388,
                    0.14226,
                    -0.15523,
                    0.02286,
                    0.07796,
                    -0.1474,
                    0.06295,
                    -0.09489,
                    -0.00596,
                    -0.24674
                  ],
                  [
                    0.00977,
                    -0.06386,
                    -0.04437,
                    -0.21698,
                    0.17721,
                    -0.01347,
                    -0.16492,
                    -0.23339,
                    0.05774,
                    -0.03437,
                    0.14602,
                    -0.18513,
                    0.24728,
                    0.24506,
                    -0.2064,
                    -0.10974,
                    0.05261,
                    0.24554,
                    -0.21694,
                    -0.02723,
                    0.1984,
                    -0.25894,
                    0.12549,
                    0.10309,
                    0.20994,
                    0.04304,
                    -0.20708,
                    0.09328,
                    0.23476,
                    -0.26545,
                    -0.04515,
                    -0.10469,
                    -0.17446,
                    0.13299,
                    -0.16501,
                    -0.10589,
                    -0.1732,
                    0.19947,
                    -0.0411,
                    0.15899,
                    0.21859,
                    0.18225,
                    0.06725,
                    -0.10463,
                    -0.14689,
                    -0.24612,
                    -0.03764,
                    0.21387,
                    -0.10895,
                    0.20449,
                    -0.01138,
                    0.25118,
                    -0.0565,
                    0.2458,
                    -0.13992,
                    -0.02097,
                    -0.06863,
                    -0.15922,
                    -0.15364,
                    -0.06105
                  ],
                  [
                    0.07001,
                    0.25101,
                    -0.11432,
                    -0.06248,
                    0.16361,
                    0.06234,
                    0.19338,
                    -0.16712,
                    -0.23758,
                    0.21361,
                    -0.19548,
                    -0.09151,
                    0.04214,
                    0.09176,
                    0.13785,
                    -0.20962,
                    0.05442,
                    0.08165,
                    -0.07131,
                    0.06357,
                    -0.02221,
                    0.03301,
                    0.00644,
                    -0.18751,
                    -0.18005,
                    0.16128,
                    0.07895,
                    0.10621,
                    -0.1169,
                    0.1538,
                    -0.21927,
                    0.06936,
                    -0.00068,
                    0.03506,
                    0.06505,
                    -0.19246,
                    -0.0577,
                    -0.2131,
                    0.05471,
                    -0.11816,
                    0.13621,
                    0.23519,
                    0.12093,
                    -0.16885,
                    0.25366,
                    0.05894,
                    0.01013,
                    0.22197,
                    0.20143,
                    -0.22538,
                    -0.17325,
                    0.16871,
                    0.08219,
                    0.14838,
                    0.182,
                    0.23227,
                    -0.17449,
                    0.07311,
                    0.06444,
                    0.21759
                  ],
                  [
                    0.1899,
                    -0.07344,
                    -0.0199,
                    -0.15869,
                    0.25068,
                    -0.15155,
                    -0.16551,
                    0.13545,
                    0.06694,
                    0.20997,
                    0.04517,
                    -0.10293,
                    0.22493,
                    0.11944,
                    0.2512,
                    0.06162,
                    -0.00061,
                    -0.16472,
                    -0.13593,
                    0.1628,
                    0.13564,
                    -0.24942,
                    -0.11508,
                    0.23141,
                    -0.06621,
                    -0.06053,
                    0.18372,
                    -0.00727,
                    0.06471,
                    0.00317,
                    0.23558,
                    0.17527,
                    -0.18343,
                    -0.23357,
                    0.1443,
                    0.09928,
                    0.21957,
                    0.12339,
                    -0.10188,
                    -0.17295,
                    0.07481,
                    -0.22453,
                    0.1262,
                    -0.16084,
                    0.25228,
                    -0.19067,
                    -0.23334,
                    0.11416,
                    -0.20517,
                    -0.2423,
                    0.26293,
                    0.23914,
                    -0.04341,
                    0.03605,
                    -0.20872,
                    0.01558,
                    -0.25454,
                    -0.01843,
                    0.19834,
                    0.11524
                  ],
                  [
                    -0.16908,
                    -0.17516,
                    -0.22015,
                    0.07823,
                    0.11497,
                    -0.15479,
                    -0.04793,
                    -0.02721,
                    0.15684,
                    -0.02463,
                    -0.05399,
                    0.18217,
                    -0.15679,
                    0.21307,
                    0.15811,
                    0.20378,
                    -0.20786,
                    0.07561,
                    0.07962,
                    -0.21738,
                    -0.22499,
                    -0.12773,
                    -0.14764,
                    0.01076,
                    -0.20047,
                    -0.09349,
                    -0.12957,
                    -0.11336,
                    -0.21934,
                    -0.24159,
                    -0.03728,
                    0.19917,
                    0.08723,
                    0.21869,
                    -0.13452,
                    -0.2118,
                    0.11935,
                    0.1084,
                    -0.1127,
                    -0.14109,
                    0.25789,
                    0.24951,
                    -0.24244,
                    0.00086,
                    -0.17907,
                    -0.00712,
                    0.09572,
                    -0.04679,
                    0.11603,
                    0.14248,
                    -0.01493,
                    -0.19228,
                    -0.11957,
                    -0.13402,
                    0.17254,
                    0.20036,
                    -0.2236,
                    -0.04305,
                    0.15665,
                    -0.20359
                  ]
                ]
              },
              {
                "bias": [
                  0.12383,
                  0.09797,
                  0.05129
                ],
                "weights": [
                  [
                    0.38125,
                    0.15545,
                    0.1136,
                    -0.38929,
                    0.20081,
                    0.29136,
                    -0.35176,
                    -0.29519,
                    0.28016,
                    -0.27479,
                    0.39801,
                    0.0303,
                    0.28312,
                    -0.38537,
                    0.17425,
                    0.1151,
                    0.1004,
                    -0.148,
                    -0.25912,
                    -0.11978,
                    -0.1668,
                    -0.29594,
                    -0.28943,
                    -0.33431,
                    0.05062,
                    -0.20712,
                    -0.1265,
                    -0.19605,
                    -0.04816,
                    0.1143
                  ],
                  [
                    -0.33381,
                    -0.38959,
                    0.3498,
                    -0.07563,
                    0.31253,
                    -0.02972,
                    0.39795,
                    -0.12316,
                    0.19063,
                    0.39257,
                    -0.18728,
                    -0.33173,
                    0.27335,
                    0.12658,
                    0.2472,
                    0.35176,
                    0.36673,
                    0.31004,
                    0.14004,
                    -0.39492,
                    -0.38131,
                    -0.41594,
                    0.19557,
                    -0.12247,
                    0.27749,
                    0.06842,
                    0.10698,
                    -0.38039,
                    -0.38283,
                    -0.25576
                  ],
                  [
                    0.35856,
                    0.21453,
                    -0.20869,
                    -0.1465,
                    0.09047,
                    0.11537,
                    0.2839,
                    0.11132,
                    -0.11358,
                    0.13783,
                    -0.09983,
                    0.22338,
                    0.10879,
                    -0.01356,
                    0.14251,
                    -0.34839,
                    0.24127,
                    -0.3962,
                    -0.17107,
                    -0.27413,
                    0.34715,
                    0.32322,
                    -0.28336,
                    0.14775,
                    -0.42507,
                    -0.22852,
                    -0.36194,
                    -0.2185,
                    0.18592,
                    -0.38377
                  ]
                ]
              }
            ],
            "rollback": false,
            "shared": false,
            "type": {
              "items": {
                "fields": [
                  {
                    "name": "weights",
                    "type": {
                      "items": {
                        "items": "double",
                        "type": "array"
                      },
                      "type": "array"
                    }
                  },
                  {
                    "name": "bias",
                    "type": {
                      "items": "double",
                      "type": "array"
                    }
                  }
                ],
                "name": "Layer",
                "type": "record"
              },
              "type": "array"
            }
          },
          "validations": {
            "init": [
              {
                "code": "kfold",
                "data": {
                  "average": {
                    "Accuracy": 0.66705,
                    "Confusion matrix": {
                      "labels": [
                        "AD",
                        "CN",
                        "Other"
                      ],
                      "values": [
                        [
                          0.0,
                          0.0,
                          274.0
                        ],
                        [
                          0.0,
                          0.0,
                          298.0
                        ],
                        [
                          0.0,
                          0.0,
                          1146.0
                        ]
                      ]
                    },
                    "Weighted F1-score": 0.53383,
                    "Weighted false positive rate": 0.66705,
                    "Weighted precision": 0.44496,
                    "Weighted recall": 0.66705,
                    "type": "PolynomialClassificationScore"
                  },
                  "folds": {
                    "0": {
                      "Accuracy": 0.33411,
                      "Confusion matrix": {
                        "labels": [
                          "AD",
                          "CN",
                          "Other"
                        ],
                        "values": [
                          [
                            0.0,
                            0.0,
                            274.0
                          ],
                          [
                            0.0,
                            0.0,
                            298.0
                          ],
                          [
                            0.0,
                            0.0,
                            287.0
                          ]
                        ]
                      },
                      "Weighted F1-score": 0.16735,
                      "Weighted false positive rate": 0.33411,
                      "Weighted precision": 0.11163,
                      "Weighted recall": 0.33411,
                      "type": "PolynomialClassificationScore"
                    },
                    "1": {
                      "Accuracy": 1.0,
                      "Confusion matrix": {
                        "labels": [
                          "AD",
                          "CN",
                          "Other"
                        ],
                        "values": [
                          [
                            0.0,
                            0.0,
                            0.0
                          ],
                          [
                            0.0,
                            0.0,
                            0.0
                          ],
                          [
                            0.0,
                            0.0,
                            859.0
                          ]
                        ]
                      },
                      "Weighted F1-score": 1.0,
                      "Weighted false positive rate": null,
                      "Weighted precision": 1.0,
                      "Weighted recall": 1.0,
                      "type": "PolynomialClassificationScore"
                    }
                  },
                  "type": "KFoldCrossValidationScore"
                },
                "node": "local",
                "validationSpec": {
                  "code": "kfold",
                  "parameters": [
                    {
                      "code": "k",
                      "value": "2"
                    }
                  ]
                }
              }
            ],
            "type": {
              "items": "Record",
              "type": "array"
            }
          }
        },
        "fcns": {
          "C": {
            "do": [
              {
                "a.map": [
                  "categories",
                  {
                    "do": [
                      {
                        "else": [
                          0.0
                        ],
                        "if": {
                          "==": [
                            "cat",
                            "x"
                          ]
                        },
                        "then": [
                          1.0
                        ]
                      }
                    ],
                    "params": [
                      {
                        "cat": "string"
                      }
                    ],
                    "ret": "double"
                  }
                ]
              }
            ],
            "params": [
              {
                "x": "string"
              },
              {
                "categories": {
                  "items": "string",
                  "type": "array"
                }
              }
            ],
            "ret": {
              "items": "double",
              "type": "array"
            }
          },
          "arr": {
            "do": [
              {
                "new": [
                  "x"
                ],
                "type": {
                  "items": "double",
                  "type": "array"
                }
              }
            ],
            "params": [
              {
                "x": "double"
              }
            ],
            "ret": {
              "items": "double",
              "type": "array"
            }
          },
          "standardize": {
            "do": [
              {
                "/": [
                  {
                    "-": [
                      "x",
                      "mu"
                    ]
                  },
                  "sigma"
                ]
              }
            ],
            "params": [
              {
                "x": "double"
              },
              {
                "mu": "double"
              },
              {
                "sigma": "double"
              }
            ],
            "ret": "double"
          }
        },
        "input": {
          "fields": [
            {
              "name": "lefthippocampus",
              "type": "double"
            }
          ],
          "name": "Input",
          "type": "record"
        },
        "metadata": {
          "X": "{\"lefthippocampus\":{\"count\":1718.0,\"mean\":2.9127631548,\"std\":0.259451083,\"min\":1.3047,\"25%\":2.8672,\"50%\":2.8672,\"75%\":2.88555,\"max\":4.4519}}",
          "score": "0.6670547148",
          "y": "{\"count\":1718,\"unique\":3,\"top\":\"Other\",\"freq\":1146}"
        },
        "method": "map",
        "name": "neural_network",
        "output": "string"
      },
      "jobId": "*",
      "node": "local",
      "timestamp": 0.0,
      "type": "application/pfa+json"
    }
  ],
  "jobId": "*",
  "node": "local",
  "timestamp": 0.0,
  "type": "application/vnd.hbp.mip.experiment.pfa+json"
}
