{
  "data": [
    {
      "algorithm": "python-sgd-neural-network",
      "algorithmSpec": {
        "code": "sgdNeuralNetwork",
        "parameters": [
          {
            "code": "hidden_layer_sizes",
            "value": "60,30"
          },
          {
            "code": "activation",
            "value": "tanh"
          }
        ]
      },
      "data": {
        "action": [
          {
            "let": {
              "x": {
                "a.flatten": [
                  {
                    "new": [
                      {
                        "u.arr": [
                          {
                            "/": [
                              {
                                "-": [
                                  {
                                    "cast.double": [
                                      {
                                        "attr": "input",
                                        "path": [
                                          {
                                            "string": "lefthippocampus"
                                          }
                                        ]
                                      }
                                    ]
                                  },
                                  2.91276
                                ]
                              },
                              0.25938
                            ]
                          }
                        ]
                      }
                    ],
                    "type": {
                      "items": {
                        "items": "double",
                        "type": "array"
                      },
                      "type": "array"
                    }
                  }
                ]
              }
            }
          },
          {
            "let": {
              "activations": {
                "model.neural.simpleLayers": [
                  "x",
                  {
                    "cell": "neuralnet"
                  },
                  {
                    "do": [
                      {
                        "m.link.relu": [
                          "x"
                        ]
                      }
                    ],
                    "params": [
                      {
                        "x": "double"
                      }
                    ],
                    "ret": "double"
                  }
                ]
              }
            }
          },
          {
            "cell": "classes",
            "path": [
              {
                "a.argmax": [
                  "activations"
                ]
              }
            ]
          }
        ],
        "cells": {
          "classes": {
            "init": [
              "AD",
              "CN",
              "Other"
            ],
            "rollback": false,
            "shared": false,
            "type": {
              "items": "string",
              "type": "array"
            }
          },
          "neuralnet": {
            "init": [
              {
                "bias": [
                  0.1956,
                  -0.00982,
                  0.20209,
                  0.0987,
                  -0.17802,
                  0.18187,
                  0.13519,
                  -0.28129,
                  0.25078,
                  -0.20887,
                  -0.15476,
                  -0.19665,
                  0.31183,
                  0.01836,
                  0.02825,
                  0.12871,
                  0.24702,
                  -0.08968,
                  -0.1029,
                  -0.07523,
                  -0.26696,
                  0.21791,
                  -0.06899,
                  0.1603,
                  0.09113,
                  0.24907,
                  -0.13711,
                  -0.11071,
                  -0.15473,
                  -0.20853,
                  0.00212,
                  0.04915,
                  -0.01284,
                  -0.15362,
                  0.06477,
                  0.16212,
                  0.18112,
                  -0.24665,
                  -0.18371,
                  0.12788,
                  -0.10925,
                  0.09136,
                  -0.20476,
                  0.09203,
                  0.01505,
                  -0.11309,
                  0.13628,
                  0.25331,
                  0.15926,
                  0.03989,
                  -0.29182,
                  0.16543,
                  -0.10013,
                  0.06636,
                  -0.1794,
                  -0.02982,
                  -0.04479,
                  0.1022,
                  0.05048,
                  -0.30279
                ],
                "weights": [
                  [
                    -0.27721
                  ],
                  [
                    0.19605
                  ],
                  [
                    -0.15019
                  ],
                  [
                    0.05068
                  ],
                  [
                    -0.05964
                  ],
                  [
                    0.31756
                  ],
                  [
                    -0.10283
                  ],
                  [
                    0.25286
                  ],
                  [
                    0.17052
                  ],
                  [
                    -0.23331
                  ],
                  [
                    -0.00994
                  ],
                  [
                    0.10091
                  ],
                  [
                    0.08468
                  ],
                  [
                    0.20939
                  ],
                  [
                    -0.10864
                  ],
                  [
                    -0.03053
                  ],
                  [
                    -0.08983
                  ],
                  [
                    -0.13138
                  ],
                  [
                    -0.00404
                  ],
                  [
                    0.1592
                  ],
                  [
                    -0.09294
                  ],
                  [
                    0.30337
                  ],
                  [
                    0.12838
                  ],
                  [
                    -0.14461
                  ],
                  [
                    -0.12322
                  ],
                  [
                    0.15315
                  ],
                  [
                    0.23733
                  ],
                  [
                    0.04078
                  ],
                  [
                    -0.11609
                  ],
                  [
                    -0.17044
                  ],
                  [
                    0.07058
                  ],
                  [
                    0.19858
                  ],
                  [
                    -0.15035
                  ],
                  [
                    0.27774
                  ],
                  [
                    -0.00602
                  ],
                  [
                    -0.07686
                  ],
                  [
                    -0.13889
                  ],
                  [
                    -0.15569
                  ],
                  [
                    0.29194
                  ],
                  [
                    -0.17886
                  ],
                  [
                    0.25426
                  ],
                  [
                    0.10983
                  ],
                  [
                    0.03181
                  ],
                  [
                    0.28574
                  ],
                  [
                    0.20741
                  ],
                  [
                    0.05573
                  ],
                  [
                    -0.14928
                  ],
                  [
                    -0.11404
                  ],
                  [
                    -0.03791
                  ],
                  [
                    -0.07246
                  ],
                  [
                    -0.15216
                  ],
                  [
                    0.1716
                  ],
                  [
                    0.23446
                  ],
                  [
                    -0.16475
                  ],
                  [
                    0.25875
                  ],
                  [
                    0.10024
                  ],
                  [
                    -0.29883
                  ],
                  [
                    0.29111
                  ],
                  [
                    -0.27462
                  ],
                  [
                    -0.07152
                  ]
                ]
              },
              {
                "bias": [
                  -0.16518,
                  0.19413,
                  0.15309,
                  0.01738,
                  -0.03593,
                  -0.22281,
                  -0.07091,
                  -0.20818,
                  0.14529,
                  -0.08988,
                  0.09547,
                  0.01868,
                  0.23527,
                  0.234,
                  0.22384,
                  0.00197,
                  -0.1838,
                  0.18978,
                  0.04527,
                  0.2283,
                  -0.2174,
                  -0.11565,
                  -0.04763,
                  -0.06504,
                  0.16206,
                  -0.0635,
                  0.16891,
                  -0.00463,
                  0.22483,
                  0.23064
                ],
                "weights": [
                  [
                    -0.16574,
                    -0.02161,
                    0.18675,
                    0.09013,
                    -0.01348,
                    -0.02386,
                    -0.25387,
                    0.113,
                    0.12542,
                    -0.08605,
                    -0.17766,
                    -0.05861,
                    -0.02246,
                    -0.1486,
                    -0.20707,
                    -0.17523,
                    0.15579,
                    -0.15642,
                    0.19086,
                    0.26641,
                    0.04078,
                    -0.16753,
                    0.22894,
                    0.0107,
                    -0.11008,
                    0.2064,
                    0.20804,
                    -0.12088,
                    0.07124,
                    0.26057,
                    0.16159,
                    -0.17397,
                    0.13926,
                    -0.24222,
                    -0.2055,
                    0.13838,
                    0.22461,
                    0.19056,
                    0.23197,
                    -0.06689,
                    -0.05484,
                    -0.05394,
                    0.18953,
                    -0.08114,
                    -0.17756,
                    -0.01478,
                    -0.14394,
                    -0.02609,
                    0.23921,
                    -0.05022,
                    0.01954,
                    0.24779,
                    0.13515,
                    0.2234,
                    -0.05495,
                    0.11613,
                    0.17629,
                    0.12203,
                    0.17209,
                    0.05373
                  ],
                  [
                    0.18365,
                    0.04514,
                    -0.24998,
                    -0.21686,
                    -0.13683,
                    -0.06935,
                    0.00451,
                    -0.12227,
                    -0.1777,
                    -0.20089,
                    0.23393,
                    -0.10407,
                    -0.21643,
                    0.03131,
                    -0.06857,
                    -0.20232,
                    -0.06512,
                    -0.18821,
                    -0.19441,
                    0.14512,
                    0.19872,
                    -0.17497,
                    0.02124,
                    0.10774,
                    0.17131,
                    0.04481,
                    0.07733,
                    -0.05512,
                    0.10588,
                    -0.11286,
                    0.17446,
                    -0.03237,
                    -0.05265,
                    -0.13484,
                    0.15869,
                    -0.05342,
                    -0.26458,
                    -0.13959,
                    0.20699,
                    0.02138,
                    0.10198,
                    0.15675,
                    0.21854,
                    0.11785,
                    -0.15864,
                    0.1445,
                    -0.16616,
                    0.02347,
                    -0.08971,
                    -0.03381,
                    -0.03027,
                    0.2094,
                    -0.03979,
                    -0.2633,
                    -0.09167,
                    0.20341,
                    0.19872,
                    0.12821,
                    0.17385,
                    0.23727
                  ],
                  [
                    -0.24495,
                    0.22228,
                    0.10966,
                    0.10143,
                    0.08764,
                    -0.08327,
                    0.20418,
                    -0.17511,
                    0.03597,
                    -0.03436,
                    0.05924,
                    0.15138,
                    -0.14492,
                    0.23192,
                    -0.08892,
                    -0.02586,
                    -0.13495,
                    0.00634,
                    -0.2231,
                    -0.09345,
                    -0.12182,
                    -0.07084,
                    -0.20596,
                    0.24098,
                    -0.0488,
                    -0.24698,
                    0.20848,
                    -0.06879,
                    0.22106,
                    0.09814,
                    -0.04494,
                    0.02472,
                    0.11089,
                    0.08474,
                    0.15602,
                    -0.12507,
                    -0.21666,
                    -0.22651,
                    0.01108,
                    0.17525,
                    -0.14239,
                    -0.15755,
                    -0.12604,
                    -0.19357,
                    -0.17028,
                    0.23857,
                    -0.05204,
                    -0.20184,
                    0.12954,
                    -0.05259,
                    -0.14754,
                    0.15065,
                    0.16114,
                    0.18288,
                    0.17407,
                    0.11085,
                    0.08839,
                    -0.1715,
                    -0.06763,
                    0.2424
                  ],
                  [
                    0.09499,
                    0.04276,
                    -0.177,
                    -0.26536,
                    0.20599,
                    0.22805,
                    -0.21584,
                    -0.16368,
                    -0.00816,
                    0.14819,
                    -0.10856,
                    0.20424,
                    -0.23391,
                    -0.08461,
                    -0.00997,
                    -0.19416,
                    0.11031,
                    -0.12295,
                    0.01867,
                    -0.14898,
                    0.12137,
                    -0.02074,
                    0.04734,
                    0.03145,
                    -0.18821,
                    -0.19566,
                    0.00361,
                    -0.1588,
                    0.00257,
                    -0.0415,
                    0.25817,
                    0.0136,
                    -0.06592,
                    0.20057,
                    -0.21581,
                    0.15879,
                    0.107,
                    0.14691,
                    0.13968,
                    0.15335,
                    -0.08845,
                    0.04254,
                    -0.12855,
                    -0.13496,
                    -0.1658,
                    -0.14391,
                    -0.25259,
                    -0.13506,
                    0.05447,
                    0.19328,
                    0.24455,
                    -0.22153,
                    -0.0361,
                    0.07096,
                    -0.04238,
                    -0.13094,
                    -0.05929,
                    -0.11551,
                    0.14832,
                    0.19762
                  ],
                  [
                    -0.14512,
                    0.06708,
                    -0.17602,
                    -0.07423,
                    -0.14366,
                    -0.21888,
                    0.12274,
                    -0.03504,
                    -0.03342,
                    -0.26211,
                    0.22101,
                    0.20554,
                    0.02102,
                    0.04196,
                    -0.12908,
                    0.08128,
                    0.09925,
                    0.17327,
                    0.23465,
                    0.15811,
                    0.08334,
                    0.21539,
                    0.2088,
                    0.03687,
                    -0.22834,
                    0.17615,
                    -0.12457,
                    -0.17109,
                    0.10197,
                    0.17442,
                    -0.24554,
                    -0.24903,
                    0.18143,
                    0.02499,
                    -0.04099,
                    -0.04249,
                    -0.21413,
                    0.01771,
                    0.15857,
                    -0.05268,
                    0.19855,
                    -0.21077,
                    -0.21888,
                    -0.14085,
                    0.06249,
                    -0.08974,
                    -0.04794,
                    -0.17582,
                    -0.04902,
                    0.10525,
                    -0.12234,
                    -0.02813,
                    -0.15757,
                    0.11775,
                    -0.14639,
                    -0.00167,
                    0.03898,
                    0.00402,
                    0.0712,
                    -0.23351
                  ],
                  [
                    0.1159,
                    -0.08279,
                    0.00884,
                    -0.26144,
                    -0.18916,
                    0.23095,
                    -0.2227,
                    -0.02499,
                    -0.07969,
                    -0.05197,
                    -0.00761,
                    0.07712,
                    0.0411,
                    -0.02233,
                    0.14233,
                    0.07645,
                    -0.19304,
                    0.18151,
                    -0.06799,
                    -0.21815,
                    -0.05236,
                    -0.20876,
                    0.08074,
                    0.22688,
                    -0.18654,
                    -0.17615,
                    0.21417,
                    -0.15396,
                    0.23243,
                    -0.05151,
                    0.2102,
                    -0.09101,
                    -0.12542,
                    -0.0811,
                    0.23787,
                    -0.1898,
                    -0.12204,
                    -0.08345,
                    0.21025,
                    0.22774,
                    0.06508,
                    0.08781,
                    0.00953,
                    0.2266,
                    -0.02599,
                    0.08495,
                    0.13714,
                    0.24754,
                    0.08297,
                    0.2159,
                    -0.16927,
                    -0.08337,
                    0.03627,
                    0.04686,
                    0.25986,
                    0.20566,
                    -0.20463,
                    -0.19122,
                    -0.11134,
                    0.00838
                  ],
                  [
                    0.18426,
                    0.00795,
                    -0.08732,
                    -0.16159,
                    0.08439,
                    0.12975,
                    -0.06903,
                    0.02661,
                    -0.02553,
                    -0.1231,
                    -0.0512,
                    -0.0575,
                    -0.05939,
                    -0.09943,
                    -0.11674,
                    0.23484,
                    -0.05983,
                    -0.18367,
                    -0.11658,
                    -0.26421,
                    -0.11931,
                    -0.23782,
                    -0.16661,
                    0.01505,
                    -0.05126,
                    0.18153,
                    0.00092,
                    -0.23957,
                    0.03014,
                    0.05757,
                    0.05705,
                    0.15487,
                    0.13254,
                    -0.05747,
                    -0.0913,
                    -0.14464,
                    -0.05603,
                    -0.0042,
                    0.07609,
                    0.13997,
                    -0.13259,
                    -0.0738,
                    -0.17738,
                    0.2041,
                    -0.15737,
                    -0.15836,
                    0.17499,
                    -0.08075,
                    -0.01163,
                    0.09022,
                    0.05434,
                    -0.14463,
                    0.03858,
                    -0.11227,
                    -0.13758,
                    0.14257,
                    -0.21668,
                    0.14461,
                    0.22498,
                    0.23176
                  ],
                  [
                    0.17571,
                    -0.08101,
                    0.1782,
                    0.13057,
                    -0.20911,
                    0.23953,
                    -0.20236,
                    -0.08513,
                    0.25864,
                    -0.257,
                    0.13173,
                    0.06879,
                    -0.20404,
                    0.05953,
                    -0.17148,
                    0.17633,
                    0.17992,
                    0.15394,
                    -0.14212,
                    0.24942,
                    0.15504,
                    -0.11242,
                    0.24586,
                    0.19132,
                    0.04077,
                    -0.23047,
                    -0.24906,
                    0.0191,
                    0.04516,
                    0.13453,
                    0.20889,
                    0.04089,
                    0.10633,
                    0.17401,
                    0.06894,
                    -0.14551,
                    0.1425,
                    -0.02574,
                    -0.21138,
                    -0.20966,
                    0.02737,
                    -0.06347,
                    -0.08835,
                    -0.11338,
                    0.00866,
                    -0.01669,
                    0.13616,
                    -0.06658,
                    0.0176,
                    -0.06385,
                    0.21127,
                    -0.22765,
                    -0.15971,
                    -0.16624,
                    -0.05429,
                    0.09979,
                    0.26447,
                    0.17721,
                    -0.18099,
                    -0.01974
                  ],
                  [
                    -0.15961,
                    0.07022,
                    -0.16351,
                    -0.04513,
                    -0.13952,
                    -0.23432,
                    0.18118,
                    -0.08706,
                    0.22482,
                    -0.1352,
                    -0.06969,
                    0.12637,
                    0.25308,
                    -0.03876,
                    -0.05221,
                    0.07917,
                    -0.01181,
                    -0.11622,
                    -0.25068,
                    -0.07522,
                    -0.10975,
                    0.17693,
                    0.01587,
                    0.08093,
                    0.16595,
                    -0.04368,
                    -0.07914,
                    0.1178,
                    -0.10798,
                    0.10367,
                    -0.26434,
                    0.13671,
                    0.14492,
                    0.19223,
                    -0.14493,
                    0.012,
                    0.0397,
                    -0.13372,
                    -0.106,
                    -0.23535,
                    -0.25985,
                    -0.24845,
                    -0.11395,
                    -0.00829,
                    -0.05337,
                    0.02822,
                    0.1082,
                    -0.1067,
                    0.00798,
                    -0.10824,
                    0.00687,
                    0.11539,
                    -0.01407,
                    0.24845,
                    -0.25397,
                    0.19189,
                    -0.15278,
                    -0.18001,
                    -0.07487,
                    -0.10343
                  ],
                  [
                    0.00162,
                    0.00699,
                    0.22871,
                    0.11715,
                    0.21345,
                    -0.06201,
                    0.09209,
                    0.10586,
                    0.00079,
                    0.17044,
                    -0.201,
                    -0.23998,
                    -0.12576,
                    0.00387,
                    -0.01417,
                    -0.18634,
                    0.07561,
                    -0.20521,
                    0.10876,
                    0.15819,
                    -0.23305,
                    -0.07831,
                    0.21643,
                    -0.06701,
                    0.00153,
                    0.1772,
                    0.05925,
                    0.17242,
                    0.14928,
                    0.21916,
                    -0.1017,
                    0.16963,
                    -0.15584,
                    -0.20405,
                    -0.20136,
                    -0.1113,
                    0.05744,
                    0.17332,
                    -0.08371,
                    0.18415,
                    0.00386,
                    -0.19701,
                    0.23133,
                    -0.03084,
                    0.1057,
                    -0.25013,
                    -0.14901,
                    -0.04747,
                    -0.02176,
                    0.2346,
                    0.21018,
                    0.20515,
                    0.04044,
                    -0.11938,
                    -0.24455,
                    -0.08348,
                    -0.07773,
                    0.21737,
                    0.22934,
                    -0.11402
                  ],
                  [
                    -0.01342,
                    0.07021,
                    0.21221,
                    0.13653,
                    0.13573,
                    -0.19639,
                    0.07776,
                    0.23434,
                    -0.15115,
                    0.09195,
                    -0.0328,
                    0.1084,
                    0.22702,
                    -0.11146,
                    0.1593,
                    -0.02605,
                    -0.11503,
                    -0.24409,
                    0.23416,
                    -0.1544,
                    -0.06183,
                    -0.03463,
                    0.16803,
                    0.07039,
                    -0.1316,
                    0.16547,
                    0.04422,
                    0.05397,
                    -0.08791,
                    -0.16743,
                    0.17669,
                    0.12383,
                    -0.23633,
                    0.16292,
                    0.03637,
                    -0.18401,
                    -0.04438,
                    0.01191,
                    -0.21772,
                    0.2193,
                    -0.15377,
                    -0.18238,
                    0.1321,
                    -0.06099,
                    0.2254,
                    0.1279,
                    -0.17134,
                    0.08589,
                    -0.07448,
                    0.09979,
                    -0.09682,
                    0.18336,
                    -0.0595,
                    -0.23905,
                    0.14352,
                    0.21123,
                    0.18205,
                    -0.16772,
                    -0.11405,
                    0.14562
                  ],
                  [
                    -0.18326,
                    -0.22918,
                    -0.11305,
                    0.12336,
                    0.1906,
                    -0.1334,
                    0.2381,
                    0.05491,
                    0.22407,
                    -0.16173,
                    -0.04481,
                    -0.03599,
                    0.03197,
                    -0.24051,
                    0.17032,
                    0.01729,
                    -0.07581,
                    0.18406,
                    0.23218,
                    -0.16533,
                    0.105,
                    0.21391,
                    0.03281,
                    0.20706,
                    -0.23346,
                    0.03583,
                    0.2045,
                    0.11308,
                    -0.07503,
                    0.13082,
                    -0.1667,
                    -0.06413,
                    -0.17301,
                    0.23388,
                    -0.20149,
                    -0.08511,
                    -0.06431,
                    0.24486,
                    0.14806,
                    -0.18918,
                    -0.07804,
                    -0.17977,
                    -0.09596,
                    0.13891,
                    -0.02114,
                    0.08706,
                    0.25629,
                    -0.10888,
                    0.16671,
                    -0.07782,
                    -0.03602,
                    -0.04374,
                    -0.11212,
                    -0.03249,
                    -0.12,
                    -0.0706,
                    -0.06541,
                    -0.10084,
                    -0.1887,
                    -0.15648
                  ],
                  [
                    0.05847,
                    -0.22028,
                    0.22278,
                    0.14053,
                    0.2135,
                    -0.09361,
                    0.21879,
                    -0.08009,
                    0.20731,
                    -0.09269,
                    0.08117,
                    -0.09994,
                    0.2612,
                    -0.01831,
                    0.09241,
                    0.00387,
                    0.00802,
                    0.1881,
                    0.18107,
                    0.21619,
                    -0.25612,
                    -0.09329,
                    0.03543,
                    -0.13528,
                    -0.12706,
                    0.16986,
                    -0.12084,
                    -0.11416,
                    0.07294,
                    -0.2059,
                    0.14883,
                    -0.23712,
                    0.21335,
                    0.17762,
                    -0.07668,
                    -0.21902,
                    -0.00911,
                    -0.06262,
                    -0.26463,
                    0.19989,
                    -0.00932,
                    0.13713,
                    0.20301,
                    -0.05121,
                    0.01784,
                    -0.06157,
                    0.26544,
                    0.05789,
                    0.06514,
                    -0.20774,
                    -0.16608,
                    0.24487,
                    -0.2482,
                    0.22466,
                    -0.21376,
                    0.19131,
                    0.20805,
                    -0.07316,
                    0.04782,
                    0.14727
                  ],
                  [
                    0.0998,
                    0.24546,
                    0.22403,
                    -0.14993,
                    -0.25361,
                    0.04922,
                    -0.02031,
                    0.13847,
                    -0.19786,
                    -0.10569,
                    -0.25577,
                    0.00892,
                    -0.11088,
                    -0.19665,
                    0.10227,
                    0.0671,
                    0.0265,
                    -0.07539,
                    0.19623,
                    0.15421,
                    -0.01807,
                    0.13009,
                    -0.13803,
                    -0.15913,
                    0.256,
                    -0.00624,
                    -0.12495,
                    0.24972,
                    0.19581,
                    -0.09767,
                    -0.07655,
                    -0.18915,
                    0.13346,
                    0.14927,
                    0.07196,
                    -0.15891,
                    0.20616,
                    0.03109,
                    0.18062,
                    -0.04945,
                    0.24421,
                    -0.25612,
                    0.17022,
                    0.22155,
                    -0.08158,
                    0.24885,
                    0.26256,
                    0.20011,
                    0.01168,
                    -0.24776,
                    0.09896,
                    -0.09701,
                    0.20629,
                    -0.05836,
                    0.09153,
                    0.12662,
                    0.26026,
                    0.17111,
                    0.01137,
                    0.18095
                  ],
                  [
                    -0.08781,
                    -0.05604,
                    0.10895,
                    0.00793,
                    0.03267,
                    -0.15495,
                    0.09719,
                    -0.01841,
                    -0.20969,
                    -0.07433,
                    -0.09831,
                    0.0921,
                    -0.07504,
                    0.14963,
                    -0.14489,
                    0.24,
                    0.15497,
                    0.05977,
                    0.10573,
                    -0.10721,
                    -0.09934,
                    -0.08711,
                    -0.15018,
                    0.12185,
                    0.10828,
                    -0.03161,
                    0.02492,
                    0.11385,
                    0.02553,
                    0.13553,
                    -0.18653,
                    -0.07959,
                    -0.15019,
                    -0.12456,
                    0.10927,
                    0.12784,
                    0.05388,
                    -0.08571,
                    0.20048,
                    0.11784,
                    -0.02475,
                    -0.12143,
                    0.16431,
                    0.05647,
                    -0.00555,
                    0.04101,
                    -0.1794,
                    0.03076,
                    0.2128,
                    -0.2354,
                    0.08574,
                    -0.19277,
                    -0.26041,
                    0.06379,
                    -0.24845,
                    0.09622,
                    0.10797,
                    -0.11006,
                    0.057,
                    0.1311
                  ],
                  [
                    0.05296,
                    -0.15975,
                    0.04348,
                    0.01277,
                    0.1697,
                    0.10609,
                    -0.01324,
                    0.1753,
                    0.25343,
                    0.02476,
                    -0.06663,
                    0.03228,
                    -0.06011,
                    -0.21792,
                    -0.06518,
                    -0.08599,
                    -0.04583,
                    0.18211,
                    -0.16134,
                    0.22123,
                    -0.00226,
                    0.0966,
                    -0.01153,
                    -0.02592,
                    0.09807,
                    0.18874,
                    -0.16388,
                    0.17817,
                    0.0895,
                    -0.06449,
                    -0.16235,
                    -0.20708,
                    -0.14026,
                    0.21918,
                    -0.10907,
                    0.2027,
                    -0.11947,
                    0.11067,
                    0.17548,
                    0.12497,
                    0.07671,
                    0.07374,
                    -0.01608,
                    0.15377,
                    -0.23378,
                    -0.17224,
                    0.09237,
                    -0.23327,
                    0.13861,
                    0.15654,
                    0.02816,
                    0.09825,
                    0.15895,
                    -0.13704,
                    -0.17931,
                    -0.14647,
                    -0.19082,
                    0.01153,
                    -0.24058,
                    0.2619
                  ],
                  [
                    0.25556,
                    -0.09679,
                    0.05848,
                    0.14491,
                    0.21808,
                    -0.03007,
                    -0.20325,
                    -0.09785,
                    0.22059,
                    -0.212,
                    -0.02449,
                    -0.17272,
                    0.10849,
                    -0.16211,
                    -0.12008,
                    -0.15201,
                    0.06171,
                    -0.24923,
                    -0.01009,
                    0.05361,
                    0.24545,
                    -0.03052,
                    -0.13083,
                    0.24322,
                    -0.21485,
                    0.06993,
                    0.16139,
                    -0.2593,
                    0.20279,
                    -0.07029,
                    -0.13842,
                    -0.24552,
                    -0.23524,
                    0.13367,
                    -0.24919,
                    0.15216,
                    0.00017,
                    0.09175,
                    -0.25798,
                    -0.12064,
                    0.20545,
                    0.17027,
                    0.02609,
                    0.03323,
                    -0.03698,
                    0.13761,
                    -0.13566,
                    -0.18842,
                    0.22366,
                    -0.09519,
                    -0.13143,
                    -0.2399,
                    0.06664,
                    0.18775,
                    0.00623,
                    0.02836,
                    -0.00018,
                    -0.17155,
                    -0.05189,
                    0.15767
                  ],
                  [
                    0.02541,
                    -0.08656,
                    -0.05283,
                    0.10458,
                    -0.13059,
                    -0.01966,
                    0.19091,
                    0.0696,
                    -0.03981,
                    -0.07466,
                    -0.06742,
                    -0.00102,
                    0.02215,
                    -0.21651,
                    0.18256,
                    0.15334,
                    0.12847,
                    0.05666,
                    0.11852,
                    -0.02817,
                    0.19275,
                    -0.13135,
                    -0.26101,
                    0.04393,
                    -0.18056,
                    0.00373,
                    0.00385,
                    -0.20786,
                    -0.08193,
                    0.19368,
                    0.20894,
                    0.13494,
                    -0.14917,
                    -0.07175,
                    0.23548,
                    -0.04437,
                    0.04934,
                    0.22779,
                    -0.07477,
                    0.12209,
                    -0.10047,
                    0.08909,
                    -0.09351,
                    -0.02029,
                    -0.0038,
                    0.0037,
                    0.07773,
                    0.18692,
                    -0.00893,
                    0.25199,
                    -0.00431,
                    -0.11995,
                    -0.18053,
                    0.02328,
                    0.17004,
                    -0.00622,
                    0.02412,
                    -0.00433,
                    0.11328,
                    0.20876
                  ],
                  [
                    -0.11292,
                    0.09826,
                    -0.07347,
                    0.23508,
                    -0.09084,
                    -0.12099,
                    0.17638,
                    -0.19581,
                    -0.248,
                    0.03515,
                    0.13174,
                    -0.15862,
                    -0.22584,
                    -0.01148,
                    -0.23983,
                    0.21559,
                    -0.23148,
                    -0.0265,
                    -0.24639,
                    -0.05334,
                    -0.20312,
                    0.04307,
                    0.26373,
                    -0.02379,
                    -0.04088,
                    -0.07675,
                    0.11557,
                    0.231,
                    0.01754,
                    0.11899,
                    0.11536,
                    -0.01058,
                    -0.25287,
                    0.2234,
                    0.02525,
                    -0.06427,
                    -0.19356,
                    0.23503,
                    0.04689,
                    0.03832,
                    -0.22966,
                    -0.25439,
                    -0.22805,
                    -0.09525,
                    -0.03161,
                    0.19263,
                    -0.20593,
                    0.23509,
                    0.18633,
                    0.02839,
                    -0.20774,
                    0.10762,
                    -0.1288,
                    0.07617,
                    -0.24213,
                    -0.07015,
                    0.09711,
                    0.04725,
                    -0.21162,
                    -0.12591
                  ],
                  [
                    -0.26273,
                    0.12113,
                    0.08719,
                    0.08454,
                    0.21092,
                    0.13934,
                    -0.04058,
                    -0.18773,
                    0.05825,
                    0.23586,
                    0.1337,
                    0.10993,
                    -0.16131,
                    0.25766,
                    -0.09477,
                    -0.10635,
                    -0.26484,
                    -0.09737,
                    0.11589,
                    0.14327,
                    0.18414,
                    0.0115,
                    0.01319,
                    0.22951,
                    0.18955,
                    0.14827,
                    -0.09056,
                    -0.03878,
                    -0.1352,
                    0.21178,
                    0.08841,
                    -0.08817,
                    -0.21118,
                    0.08306,
                    -0.02891,
                    0.01259,
                    -0.11205,
                    0.11779,
                    0.24391,
                    -0.21164,
                    -0.1076,
                    0.22311,
                    -0.05671,
                    -0.09603,
                    -0.05847,
                    -0.03577,
                    -0.2545,
                    -0.05924,
                    0.249,
                    -0.1832,
                    -0.01547,
                    -0.09554,
                    0.17375,
                    -0.06876,
                    -0.15141,
                    0.21469,
                    0.18912,
                    -0.13361,
                    0.07689,
                    0.17565
                  ],
                  [
                    0.04751,
                    0.00286,
                    -0.1952,
                    0.0267,
                    0.03591,
                    0.13611,
                    -0.19058,
                    0.03529,
                    -0.12319,
                    -0.1407,
                    0.21159,
                    0.13087,
                    -0.18301,
                    0.24708,
                    0.17354,
                    0.06075,
                    0.25615,
                    0.01633,
                    0.06196,
                    -0.02999,
                    0.14858,
                    0.02546,
                    -0.11266,
                    0.02342,
                    0.15444,
                    0.05952,
                    0.09067,
                    0.007,
                    0.1498,
                    -0.08488,
                    0.18063,
                    0.2282,
                    0.23696,
                    0.09217,
                    -0.17801,
                    0.07417,
                    -0.1746,
                    0.091,
                    -0.18173,
                    0.11098,
                    0.20393,
                    -0.0641,
                    -0.26234,
                    0.23565,
                    -0.08885,
                    0.09237,
                    -0.05037,
                    0.15871,
                    0.04149,
                    0.05355,
                    0.24289,
                    -0.03969,
                    -0.12003,
                    0.20847,
                    0.10804,
                    0.05513,
                    -0.04249,
                    -0.03812,
                    0.18244,
                    -0.02506
                  ],
                  [
                    0.14191,
                    0.05171,
                    0.10463,
                    0.25058,
                    0.24087,
                    0.23445,
                    0.11983,
                    0.00131,
                    -0.20177,
                    0.02092,
                    -0.13208,
                    0.15869,
                    -0.10341,
                    0.22442,
                    0.25708,
                    0.18948,
                    0.02119,
                    -0.02305,
                    -0.18505,
                    0.17983,
                    -0.19326,
                    -0.20613,
                    0.06689,
                    0.06666,
                    -0.19903,
                    -0.06665,
                    0.17588,
                    0.01609,
                    0.19128,
                    -0.24695,
                    0.1463,
                    -0.15655,
                    0.04781,
                    0.03298,
                    -0.18295,
                    -0.0961,
                    0.26399,
                    -0.17688,
                    0.08619,
                    -0.05711,
                    -0.04099,
                    0.18734,
                    0.07105,
                    0.2186,
                    0.17144,
                    0.19776,
                    -0.07195,
                    0.18081,
                    0.25635,
                    -0.08923,
                    0.06812,
                    0.2132,
                    -0.0961,
                    0.00589,
                    0.02302,
                    -0.04838,
                    0.20149,
                    -0.19232,
                    -0.01219,
                    -0.18122
                  ],
                  [
                    0.06354,
                    -0.09878,
                    -0.02377,
                    -0.1197,
                    -0.24437,
                    0.14707,
                    0.10077,
                    0.15523,
                    0.06526,
                    -0.06268,
                    0.00482,
                    -0.126,
                    0.17163,
                    0.15054,
                    0.14906,
                    -0.09488,
                    -0.23557,
                    0.06669,
                    -0.0063,
                    0.16254,
                    0.01211,
                    0.1122,
                    0.11009,
                    -0.18895,
                    0.19773,
                    -0.24631,
                    -0.17899,
                    -0.18845,
                    0.00748,
                    -0.19428,
                    -0.08268,
                    0.21525,
                    -0.0885,
                    -0.15477,
                    -0.19624,
                    0.20271,
                    0.08449,
                    0.04105,
                    0.1462,
                    -0.24937,
                    -0.14213,
                    0.11317,
                    0.22704,
                    0.239,
                    -0.08447,
                    0.07093,
                    0.07689,
                    0.186,
                    0.14305,
                    0.1143,
                    -0.20844,
                    -0.12915,
                    -0.03864,
                    0.15434,
                    0.19574,
                    -0.1462,
                    -0.24329,
                    -0.17328,
                    0.22753,
                    0.07934
                  ],
                  [
                    0.21147,
                    0.05632,
                    -0.22528,
                    0.19704,
                    -0.20893,
                    -0.06818,
                    -0.10551,
                    0.0539,
                    0.07629,
                    -0.07415,
                    -0.06149,
                    -0.17763,
                    0.18404,
                    0.24187,
                    0.1565,
                    -0.17269,
                    -0.00104,
                    0.21213,
                    0.20595,
                    -0.06156,
                    -0.0491,
                    -0.101,
                    -0.20266,
                    -0.15102,
                    0.09801,
                    0.24885,
                    0.0823,
                    -0.21032,
                    -0.04813,
                    -0.12475,
                    -0.06847,
                    0.08108,
                    0.12675,
                    0.1378,
                    -0.22779,
                    0.12386,
                    0.22254,
                    0.21422,
                    0.01745,
                    -0.13371,
                    -0.00791,
                    -0.08031,
                    0.21812,
                    0.1439,
                    -0.08864,
                    -0.09199,
                    0.05258,
                    0.02228,
                    -0.12443,
                    0.06394,
                    -0.21713,
                    0.08694,
                    -0.06518,
                    0.16745,
                    -0.20415,
                    0.20913,
                    0.17058,
                    0.18361,
                    -0.15003,
                    0.09384
                  ],
                  [
                    -0.10198,
                    -0.195,
                    0.16909,
                    -0.06553,
                    -0.18805,
                    0.21831,
                    0.08197,
                    0.00852,
                    -0.12196,
                    -0.0987,
                    -0.18121,
                    -0.08999,
                    0.12539,
                    0.04719,
                    0.06781,
                    -0.1177,
                    -0.1165,
                    -0.01793,
                    -0.2221,
                    -0.22459,
                    -0.24841,
                    0.08431,
                    0.11087,
                    -0.21198,
                    -0.03719,
                    -0.06181,
                    -0.26538,
                    -0.00075,
                    0.20825,
                    0.08693,
                    -0.00724,
                    0.0426,
                    -0.13298,
                    -0.16787,
                    0.22608,
                    -0.00405,
                    0.00221,
                    0.11226,
                    0.16107,
                    0.21561,
                    0.16477,
                    0.24178,
                    -0.0322,
                    -0.07536,
                    -0.08572,
                    0.20355,
                    -0.16314,
                    0.07456,
                    -0.08626,
                    0.18801,
                    -0.18019,
                    -0.05391,
                    -0.03904,
                    0.25058,
                    0.1977,
                    0.17472,
                    0.04614,
                    -0.15665,
                    -0.02138,
                    -0.06904
                  ],
                  [
                    -0.02453,
                    0.12558,
                    0.16417,
                    0.17255,
                    0.05743,
                    0.14004,
                    0.09028,
                    0.01691,
                    0.12361,
                    -0.18296,
                    0.22352,
                    -0.13957,
                    0.13728,
                    -0.1951,
                    -0.04446,
                    0.10196,
                    0.14788,
                    -0.02436,
                    0.107,
                    -0.2073,
                    0.05465,
                    0.13084,
                    0.22675,
                    0.21398,
                    -0.22934,
                    -0.15414,
                    0.09888,
                    -0.2388,
                    0.20173,
                    0.13935,
                    0.05605,
                    0.13578,
                    0.19162,
                    0.02216,
                    -0.17498,
                    -0.12497,
                    -0.03393,
                    -0.1618,
                    0.04869,
                    0.18182,
                    -0.03638,
                    -0.13793,
                    0.25193,
                    0.11056,
                    0.22492,
                    -0.22059,
                    -0.25878,
                    -0.13875,
                    -0.08476,
                    -0.11871,
                    0.06196,
                    0.17247,
                    0.18242,
                    0.09551,
                    -0.14631,
                    -0.16635,
                    0.05476,
                    0.09122,
                    0.1578,
                    0.04651
                  ],
                  [
                    -0.16077,
                    -0.22011,
                    -0.24695,
                    0.04356,
                    0.23386,
                    0.18746,
                    -0.20763,
                    0.06432,
                    -0.20598,
                    0.0546,
                    -0.08907,
                    -0.2426,
                    -0.0791,
                    0.16017,
                    0.09327,
                    0.22156,
                    -0.25935,
                    0.21383,
                    -0.00172,
                    0.05394,
                    0.15162,
                    -0.10361,
                    -0.09766,
                    -0.06424,
                    -0.11626,
                    -0.16004,
                    0.09653,
                    -0.14146,
                    0.17836,
                    0.10241,
                    0.02403,
                    0.0057,
                    0.21052,
                    0.04466,
                    0.19255,
                    0.24816,
                    0.15101,
                    0.20853,
                    0.00131,
                    0.11132,
                    -0.02899,
                    -0.09935,
                    0.23888,
                    -0.04453,
                    0.03111,
                    -0.17102,
                    -0.19989,
                    0.1268,
                    -0.04456,
                    -0.06413,
                    -0.02103,
                    0.13186,
                    0.10225,
                    -0.17311,
                    -0.025,
                    0.18639,
                    0.11856,
                    -0.03479,
                    0.26344,
                    0.18259
                  ],
                  [
                    -0.09291,
                    0.01657,
                    0.22055,
                    -0.06818,
                    0.06379,
                    0.14573,
                    0.10003,
                    -0.03342,
                    0.25749,
                    -0.18372,
                    -0.13409,
                    0.04234,
                    -0.08781,
                    -0.22997,
                    0.13694,
                    -0.03753,
                    -0.07231,
                    -0.16202,
                    -0.05268,
                    0.06638,
                    -0.25446,
                    -0.01361,
                    0.01775,
                    0.10622,
                    -0.07233,
                    0.11693,
                    0.08643,
                    -0.16984,
                    -0.03103,
                    0.1405,
                    -0.07994,
                    0.13508,
                    -0.10909,
                    -0.12347,
                    -0.2098,
                    -0.19373,
                    0.21134,
                    0.03612,
                    0.02792,
                    0.06616,
                    -0.13422,
                    -0.07829,
                    0.18881,
                    -0.07897,
                    -0.19532,
                    0.08252,
                    0.23945,
                    -0.10596,
                    0.00691,
                    0.14242,
                    0.23614,
                    -0.04155,
                    0.16693,
                    -0.11923,
                    -0.10775,
                    -0.05159,
                    0.16007,
                    0.2511,
                    -0.02335,
                    -0.24113
                  ],
                  [
                    -0.00774,
                    0.12565,
                    -0.05152,
                    -0.15774,
                    -0.202,
                    -0.15514,
                    0.13916,
                    -0.04337,
                    -0.16791,
                    -0.26656,
                    -0.13506,
                    0.14421,
                    0.15842,
                    0.21094,
                    -0.02406,
                    -0.13107,
                    0.14597,
                    -0.24342,
                    0.10559,
                    0.01893,
                    -0.22008,
                    -0.23256,
                    0.19724,
                    0.23956,
                    0.19758,
                    0.17673,
                    0.19715,
                    0.05211,
                    0.10162,
                    0.2434,
                    0.13769,
                    0.1949,
                    0.0369,
                    -0.23018,
                    -0.08025,
                    -0.07331,
                    -0.05248,
                    -0.13453,
                    0.11131,
                    0.17363,
                    0.18363,
                    0.18106,
                    0.05446,
                    0.21544,
                    0.16113,
                    0.10012,
                    0.1969,
                    -0.03736,
                    0.21701,
                    0.13145,
                    0.06114,
                    0.15988,
                    0.08174,
                    -0.16875,
                    0.078,
                    -0.20415,
                    -0.1055,
                    0.24529,
                    -0.0752,
                    0.07133
                  ],
                  [
                    -0.1081,
                    -0.00516,
                    -0.214,
                    -0.22023,
                    0.24736,
                    0.1048,
                    0.02515,
                    -0.11834,
                    -0.13502,
                    -0.17289,
                    0.16464,
                    -0.143,
                    0.21009,
                    0.22918,
                    0.20406,
                    0.00976,
                    0.08944,
                    0.05496,
                    -0.15232,
                    -0.10203,
                    -0.18732,
                    -0.1715,
                    -0.09549,
                    -0.00376,
                    0.15632,
                    -0.12759,
                    -0.07004,
                    0.13149,
                    -0.14188,
                    -0.12263,
                    0.23908,
                    -0.21008,
                    -0.00629,
                    0.22012,
                    -0.09614,
                    -0.13008,
                    0.09151,
                    0.20723,
                    -0.06441,
                    -0.16059,
                    0.14735,
                    -0.12754,
                    0.09029,
                    -0.0473,
                    0.1666,
                    -0.19147,
                    -0.0929,
                    0.04025,
                    0.19779,
                    -0.1558,
                    0.08109,
                    0.15513,
                    -0.18865,
                    -0.01223,
                    -0.25186,
                    0.03862,
                    0.11637,
                    -0.17349,
                    0.10767,
                    0.00209
                  ]
                ]
              },
              {
                "bias": [
                  -0.07828,
                  -0.22988,
                  0.03966
                ],
                "weights": [
                  [
                    0.32812,
                    -0.31161,
                    0.34216,
                    -0.00232,
                    -0.40492,
                    0.15422,
                    -0.22265,
                    -0.16272,
                    0.38345,
                    0.03518,
                    -0.23712,
                    0.29509,
                    -0.4259,
                    -0.09676,
                    0.20648,
                    -0.3065,
                    0.00394,
                    0.00345,
                    0.21467,
                    -0.1266,
                    -0.13428,
                    -0.33873,
                    0.08048,
                    0.14669,
                    -0.42485,
                    -0.34932,
                    0.19633,
                    -0.25939,
                    -0.2561,
                    -0.32407
                  ],
                  [
                    0.29688,
                    0.05982,
                    -0.27047,
                    -0.04425,
                    -0.3682,
                    0.38119,
                    -0.01763,
                    -0.27266,
                    -0.07609,
                    -0.34186,
                    0.28076,
                    -0.39836,
                    -0.2116,
                    -0.14885,
                    -0.09671,
                    0.20568,
                    -0.10591,
                    -0.13109,
                    0.33339,
                    0.1106,
                    -0.35292,
                    -0.36138,
                    0.07177,
                    -0.30001,
                    -0.33641,
                    -0.1937,
                    -0.1463,
                    0.3288,
                    0.07292,
                    0.03628
                  ],
                  [
                    -0.17251,
                    -0.31843,
                    -0.41578,
                    -0.42497,
                    -0.17475,
                    0.04748,
                    0.404,
                    0.37584,
                    0.19426,
                    -0.29403,
                    -0.10911,
                    0.03769,
                    0.32412,
                    -0.10476,
                    0.15159,
                    -0.33416,
                    0.13485,
                    0.07549,
                    0.07534,
                    -0.2841,
                    -0.03745,
                    -0.02968,
                    -0.16911,
                    0.12644,
                    0.17821,
                    -0.33187,
                    -0.1512,
                    0.31594,
                    0.10801,
                    0.20129
                  ]
                ]
              }
            ],
            "rollback": false,
            "shared": false,
            "type": {
              "items": {
                "fields": [
                  {
                    "name": "weights",
                    "type": {
                      "items": {
                        "items": "double",
                        "type": "array"
                      },
                      "type": "array"
                    }
                  },
                  {
                    "name": "bias",
                    "type": {
                      "items": "double",
                      "type": "array"
                    }
                  }
                ],
                "name": "Layer",
                "type": "record"
              },
              "type": "array"
            }
          },
          "validations": {
            "init": [
              {
                "code": "kfold",
                "data": {
                  "average": {
                    "Accuracy": 0.16997,
                    "Confusion matrix": {
                      "labels": [
                        "AD",
                        "CN",
                        "Other"
                      ],
                      "values": [
                        [
                          121.0,
                          80.0,
                          73.0
                        ],
                        [
                          138.0,
                          148.0,
                          12.0
                        ],
                        [
                          575.0,
                          548.0,
                          23.0
                        ]
                      ]
                    },
                    "Weighted F1-score": 0.10711,
                    "Weighted false positive rate": 0.25459,
                    "Weighted precision": 0.19828,
                    "Weighted recall": 0.16997,
                    "type": "PolynomialClassificationScore"
                  },
                  "folds": {
                    "1": {
                      "Accuracy": 0.18976,
                      "Confusion matrix": {
                        "labels": [
                          "AD",
                          "CN",
                          "Other"
                        ],
                        "values": [
                          [
                            0.0,
                            80.0,
                            58.0
                          ],
                          [
                            0.0,
                            148.0,
                            10.0
                          ],
                          [
                            0.0,
                            548.0,
                            15.0
                          ]
                        ]
                      },
                      "Weighted F1-score": 0.08873,
                      "Weighted false positive rate": 0.31535,
                      "Weighted precision": 0.15353,
                      "Weighted recall": 0.18976,
                      "type": "PolynomialClassificationScore"
                    },
                    "2": {
                      "Accuracy": 0.15017,
                      "Confusion matrix": {
                        "labels": [
                          "AD",
                          "CN",
                          "Other"
                        ],
                        "values": [
                          [
                            121.0,
                            0.0,
                            15.0
                          ],
                          [
                            138.0,
                            0.0,
                            2.0
                          ],
                          [
                            575.0,
                            0.0,
                            8.0
                          ]
                        ]
                      },
                      "Weighted F1-score": 0.05736,
                      "Weighted false positive rate": 0.19794,
                      "Weighted precision": 0.24015,
                      "Weighted recall": 0.15017,
                      "type": "PolynomialClassificationScore"
                    }
                  },
                  "type": "KFoldCrossValidationScore"
                },
                "node": "local",
                "validationSpec": {
                  "code": "kfold",
                  "parameters": [
                    {
                      "code": "k",
                      "value": "2"
                    }
                  ]
                }
              }
            ],
            "type": {
              "items": "Record",
              "type": "array"
            }
          }
        },
        "fcns": {
          "C": {
            "do": [
              {
                "a.map": [
                  "categories",
                  {
                    "do": [
                      {
                        "else": [
                          0.0
                        ],
                        "if": {
                          "==": [
                            "cat",
                            "x"
                          ]
                        },
                        "then": [
                          1.0
                        ]
                      }
                    ],
                    "params": [
                      {
                        "cat": "string"
                      }
                    ],
                    "ret": "double"
                  }
                ]
              }
            ],
            "params": [
              {
                "x": "string"
              },
              {
                "categories": {
                  "items": "string",
                  "type": "array"
                }
              }
            ],
            "ret": {
              "items": "double",
              "type": "array"
            }
          },
          "arr": {
            "do": [
              {
                "new": [
                  "x"
                ],
                "type": {
                  "items": "double",
                  "type": "array"
                }
              }
            ],
            "params": [
              {
                "x": "double"
              }
            ],
            "ret": {
              "items": "double",
              "type": "array"
            }
          },
          "standardize": {
            "do": [
              {
                "/": [
                  {
                    "-": [
                      "x",
                      "mu"
                    ]
                  },
                  "sigma"
                ]
              }
            ],
            "params": [
              {
                "x": "double"
              },
              {
                "mu": "double"
              },
              {
                "sigma": "double"
              }
            ],
            "ret": "double"
          }
        },
        "input": {
          "fields": [
            {
              "name": "lefthippocampus",
              "type": "double"
            }
          ],
          "name": "Input",
          "type": "record"
        },
        "metadata": {
          "X": "{\"lefthippocampus\":{\"count\":1718.0,\"mean\":3.639566982e-16,\"std\":1.0002911632,\"min\":-6.1997481189,\"25%\":-0.1756647944,\"50%\":-0.1756647944,\"75%\":-0.1049179598,\"max\":5.934008706}}",
          "score": "0.681024447",
          "y": "{\"count\":1718,\"unique\":3,\"top\":\"Other\",\"freq\":1146}"
        },
        "method": "map",
        "name": "neural_network",
        "output": "string"
      },
      "dataProvenance": [],
      "feedback": [],
      "jobId": "*",
      "node": "local",
      "timestamp": 0.0,
      "type": "application/pfa+json"
    }
  ],
  "dataProvenance": [
    {
      "code": "desd-synthdata"
    },
    {
      "code": "qqni-synthdata"
    }
  ],
  "feedback": [],
  "jobId": "*",
  "node": "local",
  "query": {
    "algorithms": [
      {
        "code": "sgdNeuralNetwork",
        "parameters": [
          {
            "code": "hidden_layer_sizes",
            "value": "60,30"
          },
          {
            "code": "activation",
            "value": "tanh"
          }
        ]
      }
    ],
    "covariables": [
      {
        "code": "lefthippocampus"
      }
    ],
    "covariablesMustExist": true,
    "filters": {
      "condition": "AND",
      "rules": [
        {
          "field": "alzheimerbroadcategory",
          "id": "alzheimerbroadcategory",
          "input": "text",
          "operator": "is_not_null",
          "type": "string",
          "value": []
        },
        {
          "field": "lefthippocampus",
          "id": "lefthippocampus",
          "input": "text",
          "operator": "is_not_null",
          "type": "string",
          "value": []
        }
      ]
    },
    "grouping": [],
    "targetTable": "cde_features_mixed",
    "testingDatasets": [],
    "trainingDatasets": [],
    "user": {
      "code": "test1"
    },
    "validationDatasets": [],
    "validations": [
      {
        "code": "kfold",
        "parameters": [
          {
            "code": "k",
            "value": "2"
          }
        ]
      }
    ],
    "variables": [
      {
        "code": "alzheimerbroadcategory"
      }
    ]
  },
  "timestamp": 0.0,
  "type": "application/vnd.hbp.mip.experiment.pfa+json"
}
